{"learner":{"attributes":{"scikit_learn":"{\"_estimator_type\": \"regressor\"}"},"feature_names":["pm25_lag_1","pm25_lag_2","pm25_lag_3","pm25_roll_3","temperature_2m_mean","precipitation_sum","wind_speed_10m_max","wind_direction_10m_dominant"],"feature_types":["float","float","float","float","float","float","float","float"],"gradient_booster":{"model":{"gbtree_model_param":{"num_parallel_tree":"1","num_trees":"100"},"iteration_indptr":[0,1,2,3,4,5,6,7,8,9,10,11,12,13,14,15,16,17,18,19,20,21,22,23,24,25,26,27,28,29,30,31,32,33,34,35,36,37,38,39,40,41,42,43,44,45,46,47,48,49,50,51,52,53,54,55,56,57,58,59,60,61,62,63,64,65,66,67,68,69,70,71,72,73,74,75,76,77,78,79,80,81,82,83,84,85,86,87,88,89,90,91,92,93,94,95,96,97,98,99,100],"tree_info":[0,0,0,0,0,0,0,0,0,0,0,0,0,0,0,0,0,0,0,0,0,0,0,0,0,0,0,0,0,0,0,0,0,0,0,0,0,0,0,0,0,0,0,0,0,0,0,0,0,0,0,0,0,0,0,0,0,0,0,0,0,0,0,0,0,0,0,0,0,0,0,0,0,0,0,0,0,0,0,0,0,0,0,0,0,0,0,0,0,0,0,0,0,0,0,0,0,0,0,0],"trees":[{"base_weights":[5.8868784E-7,-1.3175651E0,9.390326E1,-6.8176646E0,1.1978423E1,6.066969E1,1.6693991E2,-1.1123853E1,-3.2736375E0,7.0434394E0,2.2133774E1,8.8704666E1,4.6422215E1,5.042543E1,2.0432967E2,-1.4116034E1,-9.655588E0,-4.2801985E-1,-5.430301E0,1.3730675E1,1.8737928E0,1.8909632E1,3.2591946E1,6.6350865E0,2.851729E1,1.5154281E1,1.742543E1,3.1835087E1,-3.5107281E0,2.840263E1,7.535614E1,-4.8208303E0,-1.3383733E1,-7.2715044E0,-1.1221324E1,-2.832433E0,4.8509297E0,-8.283587E0,-3.3954313E0,1.0608278E1,2.3302382E1,1.9444655E-1,8.181748E0,2.6561735E1,1.0231393E1,1.1329006E1,1.6656788E1,2.2467816E0,7.085087E0,3.3508617E-1,-1.9149139E0,-3.244095E0,-4.363426E0,-2.5290008E0,-1.3933023E0,-3.8319924E0,-2.8811154E0,-1.6150464E-1,-1.8130575E0,2.9499972E0,3.802922E-1,-2.2171152E0,-3.6405137E0,-4.1953185E-1,-2.3304834E0,5.1919003E0,2.299925E0,7.400769E0,2.408477E0,5.221404E-1,-2.0743558E0,3.0046337E0,-2.2969952E0,1.1016984E1,7.0534635E0,3.8663127E0,6.172485E-1,7.12743E0,2.5847694E-1],"categories":[],"categories_nodes":[],"categories_segments":[],"categories_sizes":[],"default_left":[0,0,0,0,0,0,0,0,0,0,0,0,0,0,0,0,0,0,0,0,0,0,0,0,0,0,0,0,0,0,0,0,0,0,0,0,0,0,0,0,0,0,0,0,0,0,0,0,0,0,0,0,0,0,0,0,0,0,0,0,0,0,0,0,0,0,0,0,0,0,0,0,0,0,0,0,0,0,0],"id":0,"left_children":[1,3,5,7,9,11,13,15,17,19,21,23,25,27,29,31,33,35,37,39,41,43,45,-1,-1,-1,47,-1,49,-1,-1,-1,51,53,55,57,59,61,63,65,67,69,71,73,75,-1,77,-1,-1,-1,-1,-1,-1,-1,-1,-1,-1,-1,-1,-1,-1,-1,-1,-1,-1,-1,-1,-1,-1,-1,-1,-1,-1,-1,-1,-1,-1,-1,-1],"loss_changes":[3.3083722E5,1.9292353E5,7.968075E4,2.8441062E4,3.853403E4,6.666672E3,3.761753E4,3.562875E3,6.2881436E3,1.7985574E4,7.8807812E3,1.2818555E3,1.4928945E3,1.2387696E4,1.7323719E4,1.783125E2,2.0386602E3,5.6366396E3,3.3568105E3,6.537078E3,3.123415E3,1.2677555E4,4.1506055E3,0E0,0E0,0E0,6.9206055E1,0E0,4.7006092E1,0E0,0E0,0E0,4.5740625E2,6.5478125E2,7.3341016E2,2.2435332E3,2.4691511E3,7.428301E2,2.9756653E3,3.2762441E3,9.502051E2,2.5838376E3,1.8773403E3,2.3290312E3,1.9927432E3,0E0,1.7741963E3,0E0,0E0,0E0,0E0,0E0,0E0,0E0,0E0,0E0,0E0,0E0,0E0,0E0,0E0,0E0,0E0,0E0,0E0,0E0,0E0,0E0,0E0,0E0,0E0,0E0,0E0,0E0,0E0,0E0,0E0,0E0,0E0],"parents":[2147483647,0,0,1,1,2,2,3,3,4,4,5,5,6,6,7,7,8,8,9,9,10,10,11,11,12,12,13,13,14,14,15,15,16,16,17,17,18,18,19,19,20,20,21,21,22,22,26,26,28,28,32,32,33,33,34,34,35,35,36,36,37,37,38,38,39,39,40,40,41,41,42,42,43,43,44,44,46,46],"right_children":[2,4,6,8,10,12,14,16,18,20,22,24,26,28,30,32,34,36,38,40,42,44,46,-1,-1,-1,48,-1,50,-1,-1,-1,52,54,56,58,60,62,64,66,68,70,72,74,76,-1,78,-1,-1,-1,-1,-1,-1,-1,-1,-1,-1,-1,-1,-1,-1,-1,-1,-1,-1,-1,-1,-1,-1,-1,-1,-1,-1,-1,-1,-1,-1,-1,-1],"split_conditions":[7.1E1,2.8E1,1.4166667E2,1.8333334E1,4.0666668E1,6E1,1.7911667E0,1.35E1,2.1E1,3E1,5.5E1,2.2E1,7E-1,1.87E2,1.3513193E1,1.0666667E1,1.5E1,2.2666666E1,2.2333334E1,3.4E1,3.7E1,4.6E1,6.6E1,6.6350865E0,2.851729E1,1.5154281E1,7.5E1,3.1835087E1,2.07E2,2.840263E1,7.535614E1,-4.8208303E0,1.1E1,1.6333334E1,1.6333334E1,2.2E1,2.6E1,2.3E1,3.2E1,2.8E1,4.8E1,4.7E1,6.2E1,2.7E1,3.9E0,1.1329006E1,7.1E1,2.2467816E0,7.085087E0,3.3508617E-1,-1.9149139E0,-3.244095E0,-4.363426E0,-2.5290008E0,-1.3933023E0,-3.8319924E0,-2.8811154E0,-1.6150464E-1,-1.8130575E0,2.9499972E0,3.802922E-1,-2.2171152E0,-3.6405137E0,-4.1953185E-1,-2.3304834E0,5.1919003E0,2.299925E0,7.400769E0,2.408477E0,5.221404E-1,-2.0743558E0,3.0046337E0,-2.2969952E0,1.1016984E1,7.0534635E0,3.8663127E0,6.172485E-1,7.12743E0,2.5847694E-1],"split_indices":[3,3,3,3,3,2,4,3,1,1,3,2,5,0,6,3,1,3,3,3,3,1,1,0,0,0,0,0,0,0,0,0,1,3,3,0,0,0,1,0,0,1,1,1,5,0,0,0,0,0,0,0,0,0,0,0,0,0,0,0,0,0,0,0,0,0,0,0,0,0,0,0,0,0,0,0,0,0,0],"split_type":[0,0,0,0,0,0,0,0,0,0,0,0,0,0,0,0,0,0,0,0,0,0,0,0,0,0,0,0,0,0,0,0,0,0,0,0,0,0,0,0,0,0,0,0,0,0,0,0,0,0,0,0,0,0,0,0,0,0,0,0,0,0,0,0,0,0,0,0,0,0,0,0,0,0,0,0,0,0,0],"sum_hessian":[2.672E3,2.636E3,3.6E1,1.865E3,7.71E2,2.6E1,1E1,8.41E2,1.024E3,5.2E2,2.51E2,7E0,1.9E1,3E0,7E0,2.74E2,5.67E2,4.42E2,5.82E2,2.26E2,2.94E2,1.94E2,5.7E1,1E0,6E0,1.6E1,3E0,1E0,2E0,3E0,4E0,6.9E1,2.05E2,2.27E2,3.4E2,3.04E2,1.38E2,2.41E2,3.41E2,1.72E2,5.4E1,2.33E2,6.1E1,1.02E2,9.2E1,4.2E1,1.5E1,2E0,1E0,1E0,1E0,6.7E1,1.38E2,1.56E2,7.1E1,1.7E2,1.7E2,1.78E2,1.26E2,5.7E1,8.1E1,1.98E2,4.3E1,2.35E2,1.06E2,5.1E1,1.21E2,4.9E1,5E0,1.92E2,4.1E1,5.5E1,6E0,2.1E1,8.1E1,6.9E1,2.3E1,1E1,5E0],"tree_param":{"num_deleted":"0","num_feature":"8","num_nodes":"79","size_leaf_vector":"1"}},{"base_weights":[8.2702346E-2,-9.119013E-1,7.096613E1,-4.097571E0,1.0778019E1,4.4677616E1,1.2904103E2,-7.114044E0,-5.656513E-1,8.324592E0,2.0737759E1,2.8043325E1,3.7034496E1,-1.627677E0,1.4303026E2,-8.973179E0,-5.5566716E0,4.5434484E0,-1.8807865E0,1.2477325E1,2.9674692E0,2.614318E1,1.1234969E1,1.1980689E0,1.1473442E1,5.4331768E1,4.0640343E1,-1.077408E1,-8.231135E0,-3.4306467E0,-7.090451E0,2.4272277E0,1.35718775E1,-3.7278798E0,1.22846626E-1,8.203697E0,1.6429796E1,2.206299E-1,7.847675E0,2.3771801E1,9.798253E0,6.464383E0,2.1379786E1,2.8482315E-1,1.6066256E1,-2.2829963E-1,-3.2514994E0,-2.1212E0,-3.1682756E0,1.6999845E-1,-1.3474606E0,-1.6871451E0,-2.5625393E0,3.09764E0,3.869088E-1,4.6408606E0,9.687385E-1,-6.159573E-1,-1.8253299E0,8.893523E-1,-9.51258E-1,3.2441435E0,8.4035814E-2,7.706332E0,4.207994E0,9.313108E-1,-1.191935E0,3.0940084E0,1.2807006E-1,7.442286E0,1.3089705E0,3.412852E0,-2.5014514E-1,6.7990446E0,8.9631474E-1],"categories":[],"categories_nodes":[],"categories_segments":[],"categories_sizes":[],"default_left":[0,0,0,0,0,0,0,0,0,0,0,0,0,0,0,0,0,0,0,0,0,0,0,0,0,0,0,0,0,0,0,0,0,0,0,0,0,0,0,0,0,0,0,0,0,0,0,0,0,0,0,0,0,0,0,0,0,0,0,0,0,0,0,0,0,0,0,0,0,0,0,0,0,0,0],"id":1,"left_children":[1,3,5,7,9,11,13,15,17,19,21,-1,23,-1,25,27,29,31,33,35,37,39,41,-1,-1,-1,43,45,47,49,51,53,55,57,59,61,63,65,67,69,-1,71,73,-1,-1,-1,-1,-1,-1,-1,-1,-1,-1,-1,-1,-1,-1,-1,-1,-1,-1,-1,-1,-1,-1,-1,-1,-1,-1,-1,-1,-1,-1,-1,-1],"loss_changes":[1.8851367E5,9.824663E4,5.0722766E4,2.2081594E4,1.3633414E4,6.608703E3,2.1467922E4,3.1871602E3,6.432059E3,1.0085227E4,5.4079727E3,0E0,8.470117E2,0E0,3.1625406E4,5.901836E2,1.9680566E3,3.7118623E3,2.816841E3,4.1894062E3,2.6792969E3,3.055E2,1.8944551E3,0E0,0E0,0E0,1.9994043E3,8.503711E1,9.094512E2,1.0966453E3,7.054844E2,1.4242031E3,6.762456E2,1.5503188E3,3.4350125E3,2.5821523E3,2.5764648E3,1.5724176E3,1.3130024E3,9.974629E2,0E0,1.0849025E3,2.3921631E2,0E0,0E0,0E0,0E0,0E0,0E0,0E0,0E0,0E0,0E0,0E0,0E0,0E0,0E0,0E0,0E0,0E0,0E0,0E0,0E0,0E0,0E0,0E0,0E0,0E0,0E0,0E0,0E0,0E0,0E0,0E0,0E0],"parents":[2147483647,0,0,1,1,2,2,3,3,4,4,5,5,6,6,7,7,8,8,9,9,10,10,12,12,14,14,15,15,16,16,17,17,18,18,19,19,20,20,21,21,22,22,26,26,27,27,28,28,29,29,30,30,31,31,32,32,33,33,34,34,35,35,36,36,37,37,38,38,39,39,41,41,42,42],"right_children":[2,4,6,8,10,12,14,16,18,20,22,-1,24,-1,26,28,30,32,34,36,38,40,42,-1,-1,-1,44,46,48,50,52,54,56,58,60,62,64,66,68,70,-1,72,74,-1,-1,-1,-1,-1,-1,-1,-1,-1,-1,-1,-1,-1,-1,-1,-1,-1,-1,-1,-1,-1,-1,-1,-1,-1,-1,-1,-1,-1,-1,-1,-1],"split_conditions":[7.1E1,3.1333334E1,1.4166667E2,2.0333334E1,4.8333332E1,3.1E1,6E0,1.5666667E1,1.9E1,3.9E1,5.9E1,2.8043325E1,1.4E1,-1.627677E0,2.07E2,1.2E1,1.7E1,2.6666666E1,2.5333334E1,3.5666668E1,4.2666668E1,5.9333332E1,6.2E1,1.1980689E0,1.1473442E1,5.4331768E1,2.38E2,-9.650833E-1,1.6E1,1.6E1,1.7E1,1.8E1,3.7E1,2.6E1,3E1,4E1,3.5E1,3.7E1,5.6E1,7.1E1,9.798253E0,1.9493261E1,7.8E1,2.8482315E-1,1.6066256E1,-2.2829963E-1,-3.2514994E0,-2.1212E0,-3.1682756E0,1.6999845E-1,-1.3474606E0,-1.6871451E0,-2.5625393E0,3.09764E0,3.869088E-1,4.6408606E0,9.687385E-1,-6.159573E-1,-1.8253299E0,8.893523E-1,-9.51258E-1,3.2441435E0,8.4035814E-2,7.706332E0,4.207994E0,9.313108E-1,-1.191935E0,3.0940084E0,1.2807006E-1,7.442286E0,1.3089705E0,3.412852E0,-2.5014514E-1,6.7990446E0,8.9631474E-1],"split_indices":[3,3,3,3,3,1,2,3,1,1,1,0,0,0,2,3,1,3,3,3,3,3,3,0,0,0,1,4,1,0,0,0,0,1,1,0,0,0,1,0,0,6,0,0,0,0,0,0,0,0,0,0,0,0,0,0,0,0,0,0,0,0,0,0,0,0,0,0,0,0,0,0,0,0,0],"split_type":[0,0,0,0,0,0,0,0,0,0,0,0,0,0,0,0,0,0,0,0,0,0,0,0,0,0,0,0,0,0,0,0,0,0,0,0,0,0,0,0,0,0,0,0,0,0,0,0,0,0,0,0,0,0,0,0,0,0,0,0,0,0,0,0,0,0,0,0,0,0,0,0,0,0,0],"sum_hessian":[2.672E3,2.636E3,3.6E1,2.072E3,5.64E2,2.6E1,1E1,1.117E3,9.55E2,4.54E2,1.1E2,2E0,2.4E1,1E0,9E0,5.07E2,6.1E2,1.95E2,7.6E2,2.55E2,1.99E2,6.9E1,4.1E1,1E0,2.3E1,6E0,3E0,1.44E2,3.63E2,2.57E2,3.53E2,1.59E2,3.6E1,3.95E2,3.65E2,1.24E2,1.31E2,1.28E2,7.1E1,5.4E1,1.5E1,2.9E1,1.2E1,1E0,2E0,1E0,1.43E2,2.45E2,1.18E2,5.4E1,2.03E2,1.78E2,1.75E2,1.9E1,1.4E2,3E1,6E0,2.32E2,1.63E2,1.96E2,1.69E2,9.3E1,3.1E1,2.5E1,1.06E2,7.6E1,5.2E1,5.3E1,1.8E1,5.1E1,3E0,1.7E1,1.2E1,1.1E1,1E0],"tree_param":{"num_deleted":"0","num_feature":"8","num_nodes":"75","size_leaf_vector":"1"}},{"base_weights":[1.1392456E-1,-6.231599E-1,5.264305E1,-2.942131E0,7.427478E0,4.0351055E1,1.4396426E2,-5.3351054E0,-6.891335E-1,5.152363E0,1.3207577E1,2.8975283E1,2.732518E1,5.0809208E1,1.0164754E1,-7.1104083E0,-4.645246E0,1.9985719E0,-1.813798E0,1.3733554E1,3.0296366E0,1.4964684E1,4.743203E0,-2.0511198E-1,3.0509642E1,-6.3009253E0,-8.256928E0,-3.7402375E0,-6.6373496E0,2.493718E-1,7.621008E0,-3.2031868E0,-4.269893E-1,1.0196946E1,1.7950409E1,5.3282957E0,-9.273012E-2,1.2904599E1,2.1066023E1,1.5699927E0,1.4945181E1,2.8010185E0,-1.3835255E0,3.1919233E1,9.06302E0,-2.5922503E0,-1.7098821E0,-2.1983998E0,-2.8666546E0,-7.6949126E-1,-1.4949505E0,-1.7848514E0,-2.7464168E0,7.539777E-1,-6.6406304E-1,3.2723224E0,8.130388E-1,-4.872295E-1,-1.4857467E0,2.4592997E-1,-1.4629961E0,3.3344567E0,2.3987276E-2,5.609962E0,2.127704E0,1.0418802E0,3.1305344E0,3.1628948E-1,-1.9817168E0,4.57296E0,1.443405E0,1.7568467E0,6.5575194E0,1.6971701E0,-1.1324033E0,5.4737835E0,1.3386548E0,1.0183586E0,2.4209978E-1,7.8086853E0,1.2133855E1,-2.2294751E-1,4.3013067E0],"categories":[],"categories_nodes":[],"categories_segments":[],"categories_sizes":[],"default_left":[0,0,0,0,0,0,0,0,0,0,0,0,0,0,0,0,0,0,0,0,0,0,0,0,0,0,0,0,0,0,0,0,0,0,0,0,0,0,0,0,0,0,0,0,0,0,0,0,0,0,0,0,0,0,0,0,0,0,0,0,0,0,0,0,0,0,0,0,0,0,0,0,0,0,0,0,0,0,0,0,0,0,0],"id":2,"left_children":[1,3,5,7,9,11,13,15,17,19,21,-1,23,-1,-1,25,27,29,31,33,35,37,39,41,43,45,47,49,51,53,55,57,59,61,63,65,67,69,71,73,75,77,-1,79,81,-1,-1,-1,-1,-1,-1,-1,-1,-1,-1,-1,-1,-1,-1,-1,-1,-1,-1,-1,-1,-1,-1,-1,-1,-1,-1,-1,-1,-1,-1,-1,-1,-1,-1,-1,-1,-1,-1],"loss_changes":[1.0352709E5,4.9252523E4,3.5724125E4,1.103784E4,7.6906777E3,2.2265363E4,5.445711E3,1.1831055E3,3.1956665E3,7.6999883E3,2.3979023E3,0E0,2.548664E3,0E0,0E0,2.0412598E2,1.2696367E3,3.0665461E3,1.4341104E3,1.0696836E3,2.4551157E3,1.4501426E3,9.4772675E2,6.5905334E1,4.967207E2,1.8431787E2,6.3875977E1,7.117627E2,3.3167188E2,1.3381703E3,1.1648535E3,1.0195332E3,2.078817E3,4.4486182E2,1.684707E2,1.830334E3,1.09767E3,1.9139805E3,2.6970605E2,5.456331E2,1.6079663E2,8.1103134E-1,0E0,1.526543E2,1.658282E2,0E0,0E0,0E0,0E0,0E0,0E0,0E0,0E0,0E0,0E0,0E0,0E0,0E0,0E0,0E0,0E0,0E0,0E0,0E0,0E0,0E0,0E0,0E0,0E0,0E0,0E0,0E0,0E0,0E0,0E0,0E0,0E0,0E0,0E0,0E0,0E0,0E0,0E0],"parents":[2147483647,0,0,1,1,2,2,3,3,4,4,5,5,6,6,7,7,8,8,9,9,10,10,12,12,15,15,16,16,17,17,18,18,19,19,20,20,21,21,22,22,23,23,24,24,25,25,26,26,27,27,28,28,29,29,30,30,31,31,32,32,33,33,34,34,35,35,36,36,37,37,38,38,39,39,40,40,41,41,43,43,44,44],"right_children":[2,4,6,8,10,12,14,16,18,20,22,-1,24,-1,-1,26,28,30,32,34,36,38,40,42,44,46,48,50,52,54,56,58,60,62,64,66,68,70,72,74,76,78,-1,80,82,-1,-1,-1,-1,-1,-1,-1,-1,-1,-1,-1,-1,-1,-1,-1,-1,-1,-1,-1,-1,-1,-1,-1,-1,-1,-1,-1,-1,-1,-1,-1,-1,-1,-1,-1,-1,-1,-1],"split_conditions":[7.1E1,3.1E1,3.2E2,1.9333334E1,4.5E1,3.1E1,3.94E2,1.3666667E1,2E1,2.6E1,6.6E1,2.8975283E1,2.2578332E0,5.0809208E1,1.0164754E1,1.3E1,1.9E1,2.4666666E1,2.4666666E1,3.4666668E1,4.1E1,5.6333332E1,6.2E1,2.07E2,2.8E0,9.666667E0,1.2E1,1.7E1,1.9E1,2.3E1,3.1E1,2.1E1,3.2E1,4.5E1,3.1886926E2,3.8666668E1,6.1E1,6E1,8.089993E0,5.9E1,1.07087364E2,1.4E1,-1.3835255E0,8.6E1,7.5E1,-2.5922503E0,-1.7098821E0,-2.1983998E0,-2.8666546E0,-7.6949126E-1,-1.4949505E0,-1.7848514E0,-2.7464168E0,7.539777E-1,-6.6406304E-1,3.2723224E0,8.130388E-1,-4.872295E-1,-1.4857467E0,2.4592997E-1,-1.4629961E0,3.3344567E0,2.3987276E-2,5.609962E0,2.127704E0,1.0418802E0,3.1305344E0,3.1628948E-1,-1.9817168E0,4.57296E0,1.443405E0,1.7568467E0,6.5575194E0,1.6971701E0,-1.1324033E0,5.4737835E0,1.3386548E0,1.0183586E0,2.4209978E-1,7.8086853E0,1.2133855E1,-2.2294751E-1,4.3013067E0],"split_indices":[3,3,0,3,3,1,1,3,1,1,1,0,4,0,0,1,1,3,3,3,1,3,3,0,5,3,0,0,0,0,0,0,0,0,7,3,1,0,6,0,7,0,0,0,0,0,0,0,0,0,0,0,0,0,0,0,0,0,0,0,0,0,0,0,0,0,0,0,0,0,0,0,0,0,0,0,0,0,0,0,0,0,0],"split_type":[0,0,0,0,0,0,0,0,0,0,0,0,0,0,0,0,0,0,0,0,0,0,0,0,0,0,0,0,0,0,0,0,0,0,0,0,0,0,0,0,0,0,0,0,0,0,0,0,0,0,0,0,0,0,0,0,0,0,0,0,0,0,0,0,0,0,0,0,0,0,0,0,0,0,0,0,0,0,0,0,0,0,0],"sum_hessian":[2.672E3,2.636E3,3.6E1,2.047E3,5.89E2,3.3E1,3E0,9.92E2,1.055E3,4.24E2,1.65E2,5E0,2.8E1,2E0,1E0,2.75E2,7.17E2,3.11E2,7.44E2,8.3E1,3.41E2,1.36E2,2.9E1,3E0,2.5E1,1.65E2,1.1E2,4.95E2,2.22E2,2.38E2,7.3E1,3.71E2,3.73E2,4.7E1,3.6E1,1.96E2,1.45E2,1.04E2,3.2E1,2.3E1,6E0,2E0,1E0,2.3E1,2E0,3.1E1,1.34E2,6.8E1,4.2E1,2.56E2,2.39E2,1.77E2,4.5E1,1.24E2,1.14E2,4.3E1,3E1,1.96E2,1.75E2,2.92E2,8.1E1,4.3E1,4E0,3.3E1,3E0,1.45E2,5.1E1,1.24E2,2.1E1,8E1,2.4E1,2E0,3E1,1.3E1,1E1,4E0,2E0,1E0,1E0,1.6E1,7E0,1E0,1E0],"tree_param":{"num_deleted":"0","num_feature":"8","num_nodes":"83","size_leaf_vector":"1"}},{"base_weights":[1.2987089E-1,-1.8538901E-1,7.643962E1,-1.6350815E0,8.396519E0,1.0804596E2,3.2093346E1,-3.3744423E0,6.289659E-1,6.7854943E0,2.1391663E1,4.0653324E1,1.0623143E1,1.4927111E1,-2.1560261E0,-4.457034E0,-2.1354454E0,1.8166147E0,-2.6997707E0,1.4906994E1,5.575755E0,1.6639605E1,1.8301346E1,2.0578481E-1,-1.1759967E0,-3.696478E0,-5.1579027E0,-1.4128144E0,-5.1570697E0,3.4890983E-1,4.1931515E0,-1.8434623E0,-6.366993E0,1.1067243E1,1.8585424E1,7.120563E0,1.8749212E0,1.9755342E1,8.624594E0,-1.512591E0,-8.22605E-1,-1.2503793E0,-1.744131E0,2.4573373E-2,-9.568275E-1,-1.0961851E0,-2.0273194E0,1.0779186E0,-3.1627133E-1,2.0479076E0,4.242043E-1,-1.0551399E0,6.86839E-1,-9.2002904E-1,-2.1724856E0,4.8657775E0,2.3975255E0,2.083494E0,5.833563E0,1.6350564E0,4.250077E0,-2.2681506E-1,1.8691568E0,6.0947585E0,2.157411E0,-1.8950559E-1,3.0817764E0],"categories":[],"categories_nodes":[],"categories_segments":[],"categories_sizes":[],"default_left":[0,0,0,0,0,0,0,0,0,0,0,0,0,0,0,0,0,0,0,0,0,0,0,0,0,0,0,0,0,0,0,0,0,0,0,0,0,0,0,0,0,0,0,0,0,0,0,0,0,0,0,0,0,0,0,0,0,0,0,0,0,0,0,0,0,0,0],"id":3,"left_children":[1,3,5,7,9,11,13,15,17,19,21,-1,-1,-1,23,25,27,29,31,33,35,-1,37,-1,-1,39,41,43,45,47,49,51,53,55,57,59,61,63,65,-1,-1,-1,-1,-1,-1,-1,-1,-1,-1,-1,-1,-1,-1,-1,-1,-1,-1,-1,-1,-1,-1,-1,-1,-1,-1,-1,-1],"loss_changes":[6.431961E4,3.3144457E4,1.1950305E4,8.976814E3,7.9150137E3,7.1711406E3,3.7370996E3,1.7194541E3,3.9226936E3,3.2966475E3,3.4074453E3,0E0,0E0,0E0,1.7728329E1,3.4713867E2,1.3093762E3,2.548305E3,8.078738E2,4.1577734E2,1.7074902E3,0E0,3.9241797E2,0E0,0E0,4.1381982E2,2.062666E2,1.2961675E3,2.5440186E2,2.065855E3,2.0320815E3,1.4814065E3,1.1922839E2,2.5065942E2,7.512695E1,2.418041E3,1.0360623E3,9.333984E1,1.13269104E2,0E0,0E0,0E0,0E0,0E0,0E0,0E0,0E0,0E0,0E0,0E0,0E0,0E0,0E0,0E0,0E0,0E0,0E0,0E0,0E0,0E0,0E0,0E0,0E0,0E0,0E0,0E0,0E0],"parents":[2147483647,0,0,1,1,2,2,3,3,4,4,5,5,6,6,7,7,8,8,9,9,10,10,14,14,15,15,16,16,17,17,18,18,19,19,20,20,22,22,25,25,26,26,27,27,28,28,29,29,30,30,31,31,32,32,33,33,34,34,35,35,36,36,37,37,38,38],"right_children":[2,4,6,8,10,12,14,16,18,20,22,-1,-1,-1,24,26,28,30,32,34,36,-1,38,-1,-1,40,42,44,46,48,50,52,54,56,58,60,62,64,66,-1,-1,-1,-1,-1,-1,-1,-1,-1,-1,-1,-1,-1,-1,-1,-1,-1,-1,-1,-1,-1,-1,-1,-1,-1,-1,-1,-1],"split_conditions":[1.4166667E2,3.6333332E1,1E-1,2.1666666E1,6.3666668E1,3.94E2,2.1986542E1,1.7E1,3.3E1,2.7E1,3.1E1,4.0653324E1,1.0623143E1,1.4927111E1,2.07E2,1.4E1,2.4E1,2.7333334E1,3.5E1,4.2E1,5.4E1,1.6639605E1,1.07E2,2.0578481E-1,-1.1759967E0,1.2333333E1,1.3E1,2E1,2.7E1,2.2E1,3.2E1,3.2E1,2.6474164E0,3.5E1,1E1,4.9E1,5.3666668E1,3.7999992E0,1.08E2,-1.512591E0,-8.22605E-1,-1.2503793E0,-1.744131E0,2.4573373E-2,-9.568275E-1,-1.0961851E0,-2.0273194E0,1.0779186E0,-3.1627133E-1,2.0479076E0,4.242043E-1,-1.0551399E0,6.86839E-1,-9.2002904E-1,-2.1724856E0,4.8657775E0,2.3975255E0,2.083494E0,5.833563E0,1.6350564E0,4.250077E0,-2.2681506E-1,1.8691568E0,6.0947585E0,2.157411E0,-1.8950559E-1,3.0817764E0],"split_indices":[3,3,5,3,3,1,6,3,1,1,1,0,0,0,0,1,1,3,0,3,1,0,2,0,0,3,0,0,1,0,0,3,4,0,2,3,3,5,2,0,0,0,0,0,0,0,0,0,0,0,0,0,0,0,0,0,0,0,0,0,0,0,0,0,0,0,0],"split_type":[0,0,0,0,0,0,0,0,0,0,0,0,0,0,0,0,0,0,0,0,0,0,0,0,0,0,0,0,0,0,0,0,0,0,0,0,0,0,0,0,0,0,0,0,0,0,0,0,0,0,0,0,0,0,0,0,0,0,0,0,0,0,0,0,0,0,0],"sum_hessian":[2.672E3,2.662E3,1E1,2.278E3,3.84E2,5E0,5E0,1.288E3,9.9E2,3.43E2,4.1E1,3E0,2E0,3E0,2E0,6.86E2,6.02E2,7.3E2,2.6E2,4.3E1,3E2,2E0,3.9E1,1E0,1E0,3.32E2,3.54E2,4.87E2,1.15E2,4.52E2,2.78E2,2.12E2,4.8E1,2.3E1,2E1,2.11E2,8.9E1,3.3E1,6E0,1.36E2,1.96E2,1.44E2,2.1E2,2.65E2,2.22E2,6.1E1,5.4E1,1.36E2,3.16E2,1.42E2,1.36E2,1.51E2,6.1E1,1.1E1,3.7E1,7E0,1.6E1,2E0,1.8E1,1.72E2,3.9E1,5.6E1,3.3E1,3.1E1,2E0,1E0,5E0],"tree_param":{"num_deleted":"0","num_feature":"8","num_nodes":"67","size_leaf_vector":"1"}},{"base_weights":[1.306075E-1,-1.1442156E-1,5.943804E1,-1.403459E0,4.851751E0,8.417825E1,2.479149E1,-2.472014E0,2.5188912E-2,3.8900168E0,1.5041122E1,3.1506327E1,8.498514E0,3.786437E0,1.336032E1,-3.333402E0,-1.751537E0,1.4456937E0,-1.9718741E0,7.4693093E0,2.5963888E0,3.6434425E1,1.2203735E1,3.0965426E0,-1.8326225E0,-2.9117656E0,-4.9563026E0,1.0953335E0,-2.3218656E0,6.3798027E0,9.523544E-1,-1.3941565E0,-5.125284E0,5.9526496E0,1.2944191E1,3.961543E-1,4.435218E0,1.3311683E1,4.905531E0,1.5057444E1,9.317156E0,1.7491694E-1,-9.9959713E-1,-1.19535E0,-7.2043514E-1,-1.7652582E0,-1.1770009E0,-2.1799068E-1,7.334087E-1,-3.7763748E-1,-9.843797E-1,1.4009746E0,3.0596464E0,-5.746043E-2,9.2948604E-1,-1.10967085E-1,-1.0738945E0,-6.6113055E-1,-1.8848683E0,2.1137233E0,-5.534299E-2,3.2207367E0,5.77571E0,7.771899E-1,-1.1010702E0,1.7739362E0,-1.2887275E-1,4.0333846E-1,4.712526E0,3.4877083E0,1.2533544E0],"categories":[],"categories_nodes":[],"categories_segments":[],"categories_sizes":[],"default_left":[0,0,0,0,0,0,0,0,0,0,0,0,0,0,0,0,0,0,0,0,0,0,0,0,0,0,0,0,0,0,0,0,0,0,0,0,0,0,0,0,0,0,0,0,0,0,0,0,0,0,0,0,0,0,0,0,0,0,0,0,0,0,0,0,0,0,0,0,0,0,0],"id":4,"left_children":[1,3,5,7,9,11,13,15,17,19,21,-1,-1,23,-1,25,27,29,31,33,35,37,39,-1,41,43,45,47,49,51,53,55,57,59,61,63,65,-1,-1,67,69,-1,-1,-1,-1,-1,-1,-1,-1,-1,-1,-1,-1,-1,-1,-1,-1,-1,-1,-1,-1,-1,-1,-1,-1,-1,-1,-1,-1,-1,-1],"loss_changes":[3.8850953E4,1.705422E4,7.3418867E3,3.2287979E3,5.3213965E3,4.0093438E3,2.3195786E3,7.450996E2,2.5730256E3,2.3096348E3,2.4083145E3,0E0,0E0,1.6580653E2,0E0,3.6191895E2,1.075777E3,1.284045E3,6.796659E2,1.0273179E3,1.4992551E3,7.15E1,2.1391895E2,0E0,1.280871E1,2.3075415E2,8.426416E1,2.7466943E2,5.5784155E2,2.658169E2,1.1862175E3,7.150039E2,1.8230847E2,7.1239624E2,1.8337842E2,1.5265205E3,1.4548579E3,0E0,0E0,1.5741699E2,2.361726E2,0E0,0E0,0E0,0E0,0E0,0E0,0E0,0E0,0E0,0E0,0E0,0E0,0E0,0E0,0E0,0E0,0E0,0E0,0E0,0E0,0E0,0E0,0E0,0E0,0E0,0E0,0E0,0E0,0E0,0E0],"parents":[2147483647,0,0,1,1,2,2,3,3,4,4,5,5,6,6,7,7,8,8,9,9,10,10,13,13,15,15,16,16,17,17,18,18,19,19,20,20,21,21,22,22,24,24,25,25,26,26,27,27,28,28,29,29,30,30,31,31,32,32,33,33,34,34,35,35,36,36,39,39,40,40],"right_children":[2,4,6,8,10,12,14,16,18,20,22,-1,-1,24,-1,26,28,30,32,34,36,38,40,-1,42,44,46,48,50,52,54,56,58,60,62,64,66,-1,-1,68,70,-1,-1,-1,-1,-1,-1,-1,-1,-1,-1,-1,-1,-1,-1,-1,-1,-1,-1,-1,-1,-1,-1,-1,-1,-1,-1,-1,-1,-1,-1],"split_conditions":[1.4166667E2,3.2333332E1,1E-1,2.1E1,6.2E1,3.94E2,2.3646623E2,1.6E1,2.7E1,3.1E1,3.2E1,3.1506327E1,8.498514E0,2E1,1.336032E1,1.6E1,1.4E1,1.8E1,4E1,4.2E1,4.0333332E1,2E1,1.09697E2,3.0965426E0,2.07E2,1.2E1,1.5E1,1.7666666E1,1.8E1,2.3666666E1,2.6E1,2.9E1,3.7765834E0,4.8E1,4.8999996E0,3.9E1,6E1,1.3311683E1,4.905531E0,1.4E1,1.8692286E1,1.7491694E-1,-9.9959713E-1,-1.19535E0,-7.2043514E-1,-1.7652582E0,-1.1770009E0,-2.1799068E-1,7.334087E-1,-3.7763748E-1,-9.843797E-1,1.4009746E0,3.0596464E0,-5.746043E-2,9.2948604E-1,-1.10967085E-1,-1.0738945E0,-6.6113055E-1,-1.8848683E0,2.1137233E0,-5.534299E-2,3.2207367E0,5.77571E0,7.771899E-1,-1.1010702E0,1.7739362E0,-1.2887275E-1,4.0333846E-1,4.712526E0,3.4877083E0,1.2533544E0],"split_indices":[3,3,5,3,3,1,7,3,1,1,1,0,0,1,0,0,1,0,1,3,3,0,7,0,0,3,3,3,0,3,3,0,4,0,5,0,0,0,0,0,6,0,0,0,0,0,0,0,0,0,0,0,0,0,0,0,0,0,0,0,0,0,0,0,0,0,0,0,0,0,0],"split_type":[0,0,0,0,0,0,0,0,0,0,0,0,0,0,0,0,0,0,0,0,0,0,0,0,0,0,0,0,0,0,0,0,0,0,0,0,0,0,0,0,0,0,0,0,0,0,0,0,0,0,0,0,0,0,0,0,0,0,0,0,0,0,0,0,0,0,0,0,0,0,0],"sum_hessian":[2.672E3,2.662E3,1E1,2.114E3,5.48E2,5E0,5E0,1.209E3,9.05E2,5.02E2,4.6E1,3E0,2E0,3E0,2E0,5.49E2,6.6E2,5.29E2,3.76E2,1.32E2,3.7E2,4E0,4.2E1,1E0,2E0,4.38E2,1.11E2,1.1E2,5.5E2,4.7E1,4.82E2,3.19E2,5.7E1,1.05E2,2.7E1,1.69E2,2.01E2,2E0,2E0,1.9E1,2.3E1,1E0,1E0,1.39E2,2.99E2,5.6E1,5.5E1,4.7E1,6.3E1,2.62E2,2.88E2,3.4E1,1.3E1,3.15E2,1.67E2,2.18E2,1.01E2,1.7E1,4E1,8.9E1,1.6E1,2.2E1,5E0,1.1E2,5.9E1,1.54E2,4.7E1,1E0,1.8E1,1.5E1,8E0],"tree_param":{"num_deleted":"0","num_feature":"8","num_nodes":"71","size_leaf_vector":"1"}},{"base_weights":[1.2583762E-1,-6.644609E-2,4.666454E1,-1.2051009E0,2.9674478E0,2.6584627E1,7.5158226E1,-4.8534018E-1,-2.1307845E0,1.9745076E0,8.075296E0,3.6225033E1,-1.5577291E0,2.6215431E1,5.7717915E0,-1.194178E0,8.072076E-1,-1.9003154E0,-4.7018657E0,3.218753E0,-1.1617557E0,2.3092335E1,6.6235013E0,2.632061E0,1.1988188E1,1.4867936E-1,-8.496575E-1,-1.7649521E0,-4.8596257E-1,1.6621062E0,-1.6965593E0,-2.5830007E0,-1.0902776E0,-5.960674E0,-2.247936E0,1.0084876E1,2.706002E0,-5.359537E-1,-7.7595263E0,1.0649347E1,4.6661205E0,7.2774034E0,-1.4506781E0,-1.8288748E-1,-6.81007E-1,9.0967214E-1,-3.3358184E-1,8.8214505E-1,-1.1533212E-1,-1.3584091E-1,-9.9174136E-1,-7.030322E-1,-1.4826448E0,7.04559E-1,-4.7014734E-1,-1.3758522E0,-2.2800572E0,4.329596E-1,-1.3243198E0,3.743984E0,1.9368687E0,4.7864085E-1,1.6668036E0,2.0009938E-1,-1.0327045E0,-3.1248803E0,-1.2398533E0,1.9109762E0,3.73853E0,1.857348E0,-1.3555536E0],"categories":[],"categories_nodes":[],"categories_segments":[],"categories_sizes":[],"default_left":[0,0,0,0,0,0,0,0,0,0,0,0,0,0,0,0,0,0,0,0,0,0,0,0,0,0,0,0,0,0,0,0,0,0,0,0,0,0,0,0,0,0,0,0,0,0,0,0,0,0,0,0,0,0,0,0,0,0,0,0,0,0,0,0,0,0,0,0,0,0,0],"id":5,"left_children":[1,3,5,7,9,11,13,15,17,19,21,23,25,-1,-1,27,29,31,33,35,37,39,41,-1,-1,-1,-1,43,45,47,49,51,53,55,57,59,61,63,65,-1,-1,67,69,-1,-1,-1,-1,-1,-1,-1,-1,-1,-1,-1,-1,-1,-1,-1,-1,-1,-1,-1,-1,-1,-1,-1,-1,-1,-1,-1,-1],"loss_changes":[2.3922799E4,9.203063E3,4.2956055E3,1.289532E3,3.6712456E3,2.2268599E3,1.0535566E3,1.00054553E3,4.9295898E2,2.3841313E3,2.419644E3,2.6468945E2,9.254292E0,0E0,0E0,2.8412524E2,8.311806E2,4.2797168E2,1.9974377E2,1.5112178E3,7.142694E2,3.8307617E2,5.8604736E2,0E0,0E0,0E0,0E0,2.2618994E2,6.9930286E2,7.572292E2,1.966525E2,2.269148E2,5.907644E2,6.655249E1,2.0628854E2,1.8015283E2,1.2824673E3,5.6169635E2,1.0147864E2,0E0,0E0,3.957959E2,2.389698E2,0E0,0E0,0E0,0E0,0E0,0E0,0E0,0E0,0E0,0E0,0E0,0E0,0E0,0E0,0E0,0E0,0E0,0E0,0E0,0E0,0E0,0E0,0E0,0E0,0E0,0E0,0E0,0E0],"parents":[2147483647,0,0,1,1,2,2,3,3,4,4,5,5,6,6,7,7,8,8,9,9,10,10,11,11,12,12,15,15,16,16,17,17,18,18,19,19,20,20,21,21,22,22,27,27,28,28,29,29,30,30,31,31,32,32,33,33,34,34,35,35,36,36,37,37,38,38,41,41,42,42],"right_children":[2,4,6,8,10,12,14,16,18,20,22,24,26,-1,-1,28,30,32,34,36,38,40,42,-1,-1,-1,-1,44,46,48,50,52,54,56,58,60,62,64,66,-1,-1,68,70,-1,-1,-1,-1,-1,-1,-1,-1,-1,-1,-1,-1,-1,-1,-1,-1,-1,-1,-1,-1,-1,-1,-1,-1,-1,-1,-1,-1],"split_conditions":[1.4166667E2,2.9333334E1,3.2E2,2.8999999E0,5E1,2.1986542E1,3.94E2,2.2E1,3E1,4.3E1,3.2E1,1.2E1,2.07E2,2.6215431E1,5.7717915E0,1.7666666E1,2.8E1,1.8666666E1,2.6666666E1,2.5E1,5.4E1,2E1,1.0299998E1,2.632061E0,1.1988188E1,1.4867936E-1,-8.496575E-1,1.2E1,1.5E1,2.7E1,2.4E1,2.3E1,1.6E1,2.3E1,2.4E1,2.3E1,3.8333332E1,5.6E1,4.6666668E1,1.0649347E1,4.6661205E0,7.8666664E1,6.1E1,-1.8288748E-1,-6.81007E-1,9.0967214E-1,-3.3358184E-1,8.8214505E-1,-1.1533212E-1,-1.3584091E-1,-9.9174136E-1,-7.030322E-1,-1.4826448E0,7.04559E-1,-4.7014734E-1,-1.3758522E0,-2.2800572E0,4.329596E-1,-1.3243198E0,3.743984E0,1.9368687E0,4.7864085E-1,1.6668036E0,2.0009938E-1,-1.0327045E0,-3.1248803E0,-1.2398533E0,1.9109762E0,3.73853E0,1.857348E0,-1.3555536E0],"split_indices":[3,3,0,5,3,6,1,3,0,1,1,2,0,0,0,3,0,3,3,0,0,0,5,0,0,0,0,1,0,1,1,1,1,1,1,0,3,1,3,0,0,3,0,0,0,0,0,0,0,0,0,0,0,0,0,0,0,0,0,0,0,0,0,0,0,0,0,0,0,0,0],"split_type":[0,0,0,0,0,0,0,0,0,0,0,0,0,0,0,0,0,0,0,0,0,0,0,0,0,0,0,0,0,0,0,0,0,0,0,0,0,0,0,0,0,0,0,0,0,0,0,0,0,0,0,0,0,0,0,0,0,0,0,0,0,0,0,0,0,0,0,0,0,0,0],"sum_hessian":[2.672E3,2.662E3,1E1,1.936E3,7.26E2,7E0,3E0,1.09E3,8.46E2,6.09E2,1.17E2,5E0,2E0,2E0,1E0,7.04E2,3.86E2,7.78E2,6.8E1,4.36E2,1.73E2,9E0,1.08E2,1E0,4E0,1E0,1E0,3.89E2,3.15E2,2.88E2,9.8E1,4.21E2,3.57E2,4.4E1,2.4E1,2.9E1,4.07E2,1.59E2,1.4E1,2E0,7E0,1E2,8E0,1.19E2,2.7E2,4.7E1,2.68E2,1.77E2,1.11E2,5.6E1,4.2E1,3.84E2,3.7E1,4.3E1,3.14E2,2.6E1,1.8E1,9E0,1.5E1,1.6E1,1.3E1,2.94E2,1.13E2,1.13E2,4.6E1,7E0,7E0,8.7E1,1.3E1,2E0,6E0],"tree_param":{"num_deleted":"0","num_feature":"8","num_nodes":"71","size_leaf_vector":"1"}},{"base_weights":[1.11601114E-1,-4.0147826E-2,3.6838493E1,-6.5838283E-1,3.0427816E0,2.0349146E1,6.0607567E1,-1.0955231E0,4.758522E-1,8.960992E0,2.1851852E0,2.779423E1,-1.32407E0,2.0972345E1,4.906023E0,-7.406404E-1,-2.4823015E0,1.1673692E0,-3.2053342E0,6.0260468E0,1.7335398E1,8.332551E-1,4.7326584E0,1.0823904E1,4.389477E0,1.263774E-1,-7.222089E-1,-1.4885463E0,1.355018E-1,-2.16104E0,-5.1778107E0,2.060951E0,-2.0772526E0,-1.9530493E0,-5.3077955E0,7.1573853E0,-4.003606E0,2.410254E1,9.247224E0,2.2487562E0,-1.942244E0,1.153388E1,3.9753532E0,-3.841797E-1,-1.2905313E0,1.8769862E-1,-6.802915E-1,-4.646713E-1,-1.0145894E0,-5.3715974E-1,-1.6000684E0,1.6542702E0,4.2130765E-1,1.445074E-1,-9.4165146E-1,-3.658083E-1,-1.593163E0,-1.7786211E0,-8.1663445E-2,2.9923522E0,1.4943241E0,-1.9009014E0,-1.0090142E-1,7.725385E0,2.1315114E0,-2.1794187E-1,3.2327461E0,8.552382E-1,-1.398988E0,-1.1478341E0,1.4234097E-1,3.5832412E0,9.9162143E-1,8.0157655E-1,2.079821E0],"categories":[],"categories_nodes":[],"categories_segments":[],"categories_sizes":[],"default_left":[0,0,0,0,0,0,0,0,0,0,0,0,0,0,0,0,0,0,0,0,0,0,0,0,0,0,0,0,0,0,0,0,0,0,0,0,0,0,0,0,0,0,0,0,0,0,0,0,0,0,0,0,0,0,0,0,0,0,0,0,0,0,0,0,0,0,0,0,0,0,0,0,0,0,0],"id":6,"left_children":[1,3,5,7,9,11,13,15,17,19,21,23,25,-1,-1,27,29,31,33,35,37,39,41,-1,-1,-1,-1,43,45,47,49,51,53,55,57,59,61,63,65,67,69,71,73,-1,-1,-1,-1,-1,-1,-1,-1,-1,-1,-1,-1,-1,-1,-1,-1,-1,-1,-1,-1,-1,-1,-1,-1,-1,-1,-1,-1,-1,-1,-1,-1],"loss_changes":[1.4898821E4,5.077614E3,3.0779893E3,1.1007458E3,2.2389873E3,1.3276724E3,5.0306836E2,7.8657556E2,1.5769248E3,1.2719282E3,1.3392189E3,1.26447266E2,6.6862254E0,0E0,0E0,8.3698376E2,2.7111475E2,1.5148342E3,2.4765576E2,5.165736E2,5.433921E2,1.0101205E3,6.4947974E2,0E0,0E0,0E0,0E0,3.9755786E2,6.952159E2,2.1374158E2,8.387512E0,9.196222E2,3.084807E2,1.4871582E2,1.1095105E2,1.8942188E2,4.0642616E1,1.3207764E1,1.2979437E2,7.2071765E2,3.979066E2,4.404907E0,4.556101E2,0E0,0E0,0E0,0E0,0E0,0E0,0E0,0E0,0E0,0E0,0E0,0E0,0E0,0E0,0E0,0E0,0E0,0E0,0E0,0E0,0E0,0E0,0E0,0E0,0E0,0E0,0E0,0E0,0E0,0E0,0E0,0E0],"parents":[2147483647,0,0,1,1,2,2,3,3,4,4,5,5,6,6,7,7,8,8,9,9,10,10,11,11,12,12,15,15,16,16,17,17,18,18,19,19,20,20,21,21,22,22,27,27,28,28,29,29,30,30,31,31,32,32,33,33,34,34,35,35,36,36,37,37,38,38,39,39,40,40,41,41,42,42],"right_children":[2,4,6,8,10,12,14,16,18,20,22,24,26,-1,-1,28,30,32,34,36,38,40,42,-1,-1,-1,-1,44,46,48,50,52,54,56,58,60,62,64,66,68,70,72,74,-1,-1,-1,-1,-1,-1,-1,-1,-1,-1,-1,-1,-1,-1,-1,-1,-1,-1,-1,-1,-1,-1,-1,-1,-1,-1,-1,-1,-1,-1,-1,-1],"split_conditions":[1.4166667E2,3.4666668E1,3.2E2,2.4666666E1,3.2E1,2.1986542E1,3.94E2,2.3E1,3.9E1,4.2333332E1,4.8E1,1.4433333E2,2.07E2,2.0972345E1,4.906023E0,1.7333334E1,2.5E1,3.5E1,2.8E1,6.2E1,4.2E1,4.7E1,3.2E1,1.0823904E1,4.389477E0,1.263774E-1,-7.222089E-1,2E1,2.6E1,2.9E1,9.422101E0,2.2E1,2.2E1,5.2E1,1.3305749E1,1.4573796E2,1.8E1,5E1,1.4E1,6.1E1,4.4666668E1,1.0993251E1,6.3666668E1,-3.841797E-1,-1.2905313E0,1.8769862E-1,-6.802915E-1,-4.646713E-1,-1.0145894E0,-5.3715974E-1,-1.6000684E0,1.6542702E0,4.2130765E-1,1.445074E-1,-9.4165146E-1,-3.658083E-1,-1.593163E0,-1.7786211E0,-8.1663445E-2,2.9923522E0,1.4943241E0,-1.9009014E0,-1.0090142E-1,7.725385E0,2.1315114E0,-2.1794187E-1,3.2327461E0,8.552382E-1,-1.398988E0,-1.1478341E0,1.4234097E-1,3.5832412E0,9.9162143E-1,8.0157655E-1,2.079821E0],"split_indices":[3,3,0,3,0,6,1,1,1,3,3,3,0,0,0,3,0,0,0,1,2,0,1,0,0,0,0,0,0,1,6,0,1,1,4,7,0,1,0,1,3,4,3,0,0,0,0,0,0,0,0,0,0,0,0,0,0,0,0,0,0,0,0,0,0,0,0,0,0,0,0,0,0,0,0],"split_type":[0,0,0,0,0,0,0,0,0,0,0,0,0,0,0,0,0,0,0,0,0,0,0,0,0,0,0,0,0,0,0,0,0,0,0,0,0,0,0,0,0,0,0,0,0,0,0,0,0,0,0,0,0,0,0,0,0,0,0,0,0,0,0,0,0,0,0,0,0,0,0,0,0,0,0],"sum_hessian":[2.672E3,2.662E3,1E1,2.218E3,4.44E2,7E0,3E0,1.601E3,6.17E2,5.5E1,3.89E2,5E0,2E0,2E0,1E0,1.276E3,3.25E2,5.2E2,9.7E1,4.2E1,1.3E1,2.55E2,1.34E2,2E0,3E0,1E0,1E0,6.88E2,5.88E2,2.92E2,3.3E1,4.08E2,1.12E2,6.2E1,3.5E1,3.8E1,4E0,6E0,7E0,1.69E2,8.6E1,1.2E1,1.22E2,6.42E2,4.6E1,4.89E2,9.9E1,1.96E2,9.6E1,2E0,3.1E1,6.4E1,3.44E2,3.3E1,7.9E1,5.2E1,1E1,3.1E1,4E0,1.5E1,2.3E1,2E0,2E0,5E0,1E0,1E0,6E0,1.56E2,1.3E1,4.8E1,3.8E1,1.1E1,1E0,8.6E1,3.6E1],"tree_param":{"num_deleted":"0","num_feature":"8","num_nodes":"75","size_leaf_vector":"1"}},{"base_weights":[9.811158E-2,2.497105E-2,4.8894886E1,-3.6127076E-1,3.5316608E0,1.6777876E1,4.17012E0,2.270281E-1,-1.1622497E0,8.376639E0,3.1458075E0,-1.6297105E-1,1.8574834E0,-1.022498E0,-4.0960736E0,2.648693E0,9.364235E0,-1.4408485E0,4.5101203E-2,3.7805061E0,4.9474284E-1,1.0170042E-1,-1.3662231E0,-1.3709567E0,-5.3704543E0,3.3910072E0,2.1915915E0,1.5892607E1,5.128632E0,-3.078546E-1,-1.0471984E0,1.0460991E0,-4.5230146E-2,2.3313625E0,9.6548635E-1,1.4965446E0,-4.6619285E-2,-2.0380923E-1,8.1247276E-1,-3.7550017E-1,-1.1904073E0,2.2118494E-1,-1.2560631E0,-4.067004E-1,-1.8839331E0,9.542948E-1,-3.685868E-1,2.0995293E0,6.2440896E0,-3.4585378E-1,2.138508E0],"categories":[],"categories_nodes":[],"categories_segments":[],"categories_sizes":[],"default_left":[0,0,0,0,0,0,0,0,0,0,0,0,0,0,0,0,0,0,0,0,0,0,0,0,0,0,0,0,0,0,0,0,0,0,0,0,0,0,0,0,0,0,0,0,0,0,0,0,0,0,0],"id":7,"left_children":[1,3,5,7,9,-1,-1,11,13,-1,15,17,19,21,23,25,27,29,31,33,35,37,39,41,43,-1,45,47,49,-1,-1,-1,-1,-1,-1,-1,-1,-1,-1,-1,-1,-1,-1,-1,-1,-1,-1,-1,-1,-1,-1],"loss_changes":[9.538774E3,3.6176045E3,2.0683887E2,1.1340071E3,2.4061147E3,0E0,0E0,8.8289886E2,4.1360876E2,0E0,7.851096E2,2.981286E2,7.004454E2,3.765074E2,1.5238782E2,9.4050635E2,4.4387292E2,1.2986615E2,6.5108856E2,2.2403467E2,4.6238193E2,4.6805582E2,2.1737988E2,9.807306E1,1.04659424E2,0E0,7.923639E2,1.6071655E2,1.7151407E2,0E0,0E0,0E0,0E0,0E0,0E0,0E0,0E0,0E0,0E0,0E0,0E0,0E0,0E0,0E0,0E0,0E0,0E0,0E0,0E0,0E0,0E0],"parents":[2147483647,0,0,1,1,2,2,3,3,4,4,7,7,8,8,10,10,11,11,12,12,13,13,14,14,15,15,16,16,17,17,18,18,19,19,20,20,21,21,22,22,23,23,24,24,26,26,27,27,28,28],"right_children":[2,4,6,8,10,-1,-1,12,14,-1,16,18,20,22,24,26,28,30,32,34,36,38,40,42,44,-1,46,48,50,-1,-1,-1,-1,-1,-1,-1,-1,-1,-1,-1,-1,-1,-1,-1,-1,-1,-1,-1,-1,-1,-1],"split_conditions":[3.2E2,4.1333332E1,3.94E2,2.7999997E0,1.7E1,1.6777876E1,4.17012E0,3.0333334E1,4.2E1,8.376639E0,7.9E1,1.4E1,3.2E1,1.3360289E2,2.8E1,3.2E1,8.1E1,1.6E1,1.1E1,2.3E1,2.2E1,2.8E1,4.3E1,1.736852E2,1.4512064E1,3.3910072E0,6.2E1,1.9809813E1,2.2578332E0,-3.078546E-1,-1.0471984E0,1.0460991E0,-4.5230146E-2,2.3313625E0,9.6548635E-1,1.4965446E0,-4.6619285E-2,-2.0380923E-1,8.1247276E-1,-3.7550017E-1,-1.1904073E0,2.2118494E-1,-1.2560631E0,-4.067004E-1,-1.8839331E0,9.542948E-1,-3.685868E-1,2.0995293E0,6.2440896E0,-3.4585378E-1,2.138508E0],"split_indices":[0,3,1,5,1,0,0,3,0,0,3,3,0,7,1,0,1,1,1,1,1,3,1,7,6,0,1,6,4,0,0,0,0,0,0,0,0,0,0,0,0,0,0,0,0,0,0,0,0,0,0],"split_type":[0,0,0,0,0,0,0,0,0,0,0,0,0,0,0,0,0,0,0,0,0,0,0,0,0,0,0,0,0,0,0,0,0,0,0,0,0,0,0,0,0,0,0,0,0,0,0,0,0,0,0],"sum_hessian":[2.672E3,2.669E3,3E0,2.405E3,2.64E2,2E0,1E0,1.387E3,1.018E3,3E0,2.61E2,1.12E3,2.67E2,9.73E2,4.5E1,2.43E2,1.8E1,1.56E2,9.64E2,1.1E2,1.57E2,2.28E2,7.45E2,1.5E1,3E1,1.1E1,2.32E2,6E0,1.2E1,1.31E2,2.5E1,5.1E1,9.13E2,1.2E1,9.8E1,1.9E1,1.38E2,1.76E2,5.2E1,7.15E2,3E1,9E0,6E0,6E0,2.4E1,1.8E2,5.2E1,3E0,3E0,3E0,9E0],"tree_param":{"num_deleted":"0","num_feature":"8","num_nodes":"51","size_leaf_vector":"1"}},{"base_weights":[8.4969796E-2,-1.4643869E-2,2.4192808E1,-1.6724345E-1,3.8981557E0,1.35334E1,3.9463425E1,-5.8646333E-1,6.3427025E-1,1.0372391E1,2.447139E0,1.8491978E1,-8.948905E-1,1.3422303E1,3.5446017E0,-3.9437953E-1,-2.2094064E0,1.5021993E0,-7.314675E-1,1.7550331E1,7.0679555E0,4.6210737E0,8.44387E-1,1.2638993E0,2.0505175E1,1.592989E-1,-5.619996E-1,-7.4769324E-1,4.2932984E-1,-8.890111E-1,-2.840189E0,4.0818725E0,1.0370564E0,-3.0237958E-1,-3.799398E0,5.795799E0,1.5711503E0,1.0608965E0,7.980724E0,2.4835563E0,7.3055263E0,5.3573246E0,-3.5324596E-2,6.864941E0,1.6489987E0,-1.5034129E-1,-7.3156893E-1,2.5836706E-1,-7.408317E-1,-7.857913E-1,3.360651E-1,-7.5713104E-1,-1.516699E0,1.6932136E0,8.5732496E-1,-8.335748E-2,6.254764E-1,-3.903643E-1,5.1848364E-1,-1.2948549E0,6.5673095E-1,-1.3337289E-1,6.1077636E-1,2.5687904E0,2.3695679E-1,1.3404577E0,8.194282E-2,9.655406E-1,2.7081625E0,1.7889237E0,1.6755639E-1,1.1095967E-1,-1.6278256E0],"categories":[],"categories_nodes":[],"categories_segments":[],"categories_sizes":[],"default_left":[0,0,0,0,0,0,0,0,0,0,0,0,0,0,0,0,0,0,0,0,0,0,0,0,0,0,0,0,0,0,0,0,0,0,0,0,0,0,0,0,0,0,0,0,0,0,0,0,0,0,0,0,0,0,0,0,0,0,0,0,0,0,0,0,0,0,0,0,0,0,0,0,0],"id":8,"left_children":[1,3,5,7,9,11,13,15,17,19,21,23,25,-1,-1,27,29,31,33,35,37,39,41,-1,43,-1,-1,45,47,49,51,53,55,57,59,-1,-1,61,63,65,67,69,71,-1,-1,-1,-1,-1,-1,-1,-1,-1,-1,-1,-1,-1,-1,-1,-1,-1,-1,-1,-1,-1,-1,-1,-1,-1,-1,-1,-1,-1,-1],"loss_changes":[6.419484E3,1.5907068E3,1.2564595E3,8.619029E2,9.1403955E2,5.888989E2,5.5030273E1,5.241006E2,1.0454042E3,3.0289795E2,2.852931E2,8.609033E1,5.1801734E0,0E0,0E0,4.3889993E2,1.4572821E2,6.425217E2,4.5038043E2,7.731201E0,6.829608E1,1.8268848E2,1.9472336E2,0E0,5.2667236E1,0E0,0E0,4.3860052E2,5.692646E2,2.0805083E2,7.136273E1,1.4067859E2,6.316361E2,6.1479297E2,1.3942877E2,0E0,0E0,5.3087406E0,4.3450073E1,9.090375E1,7.649548E1,1.9924652E1,9.374682E1,0E0,0E0,0E0,0E0,0E0,0E0,0E0,0E0,0E0,0E0,0E0,0E0,0E0,0E0,0E0,0E0,0E0,0E0,0E0,0E0,0E0,0E0,0E0,0E0,0E0,0E0,0E0,0E0,0E0,0E0],"parents":[2147483647,0,0,1,1,2,2,3,3,4,4,5,5,6,6,7,7,8,8,9,9,10,10,11,11,12,12,15,15,16,16,17,17,18,18,19,19,20,20,21,21,22,22,24,24,27,27,28,28,29,29,30,30,31,31,32,32,33,33,34,34,37,37,38,38,39,39,40,40,41,41,42,42],"right_children":[2,4,6,8,10,12,14,16,18,20,22,24,26,-1,-1,28,30,32,34,36,38,40,42,-1,44,-1,-1,46,48,50,52,54,56,58,60,-1,-1,62,64,66,68,70,72,-1,-1,-1,-1,-1,-1,-1,-1,-1,-1,-1,-1,-1,-1,-1,-1,-1,-1,-1,-1,-1,-1,-1,-1,-1,-1,-1,-1,-1,-1],"split_conditions":[1.4166667E2,5.3333332E1,3.2E2,2.5666666E1,5.3E1,2.1986542E1,3.94E2,2.7E1,3.6E1,5E1,1.1204592E2,1.2E1,2.07E2,1.3422303E1,3.5446017E0,2E1,1.7E1,2.5E1,5.2E1,3.2E1,5.486571E1,1.894024E1,5E1,1.2638993E0,2.2E2,1.592989E-1,-5.619996E-1,2.1E1,2.9E1,2.1666666E1,3.6E1,2.6E1,3.0333334E1,4E1,1.4066166E1,5.795799E0,1.5711503E0,1.4E1,1.8559926E2,5.4E1,6.0666668E1,2.3289398E2,1.19E1,6.864941E0,1.6489987E0,-1.5034129E-1,-7.3156893E-1,2.5836706E-1,-7.408317E-1,-7.857913E-1,3.360651E-1,-7.5713104E-1,-1.516699E0,1.6932136E0,8.5732496E-1,-8.335748E-2,6.254764E-1,-3.903643E-1,5.1848364E-1,-1.2948549E0,6.5673095E-1,-1.3337289E-1,6.1077636E-1,2.5687904E0,2.3695679E-1,1.3404577E0,8.194282E-2,9.655406E-1,2.7081625E0,1.7889237E0,1.6755639E-1,1.1095967E-1,-1.6278256E0],"split_indices":[3,3,0,3,0,6,1,1,1,1,7,2,0,0,0,3,0,0,0,0,7,6,1,0,1,0,0,0,0,3,1,1,3,3,4,0,0,0,7,2,3,7,5,0,0,0,0,0,0,0,0,0,0,0,0,0,0,0,0,0,0,0,0,0,0,0,0,0,0,0,0,0,0],"split_type":[0,0,0,0,0,0,0,0,0,0,0,0,0,0,0,0,0,0,0,0,0,0,0,0,0,0,0,0,0,0,0,0,0,0,0,0,0,0,0,0,0,0,0,0,0,0,0,0,0,0,0,0,0,0,0,0,0,0,0,0,0,0,0,0,0,0,0,0,0,0,0,0,0],"sum_hessian":[2.672E3,2.662E3,1E1,2.563E3,9.9E1,7E0,3E0,1.683E3,8.8E2,1.7E1,8.2E1,5E0,2E0,2E0,1E0,1.506E3,1.77E2,5.38E2,3.42E2,4E0,1.3E1,3.4E1,4.8E1,1E0,4E0,1E0,1E0,1.054E3,4.52E2,5.8E1,1.19E2,8.1E1,4.57E2,3.01E2,4.1E1,3E0,1E0,2E0,1.1E1,2E1,1.4E1,7E0,4.1E1,3E0,1E0,9.21E2,1.33E2,3.94E2,5.8E1,3.1E1,2.7E1,1.06E2,1.3E1,3.4E1,4.7E1,2.03E2,2.54E2,2.02E2,9.9E1,3.8E1,3E0,1E0,1E0,1E1,1E0,1E1,1E1,5E0,9E0,6E0,1E0,3.9E1,2E0],"tree_param":{"num_deleted":"0","num_feature":"8","num_nodes":"73","size_leaf_vector":"1"}},{"base_weights":[7.4825704E-2,-4.7380994E-3,1.9329697E1,-1.627627E-1,2.3580892E0,1.0645272E1,9.559837E0,-6.204858E-2,-2.5269613E0,5.939256E0,1.363543E0,1.4574024E1,-7.6065636E-1,-1.9122462E-1,2.5988383E0,-1.9305835E0,-5.395287E0,3.821863E0,3.8585134E0,9.1250464E-2,2.6344528E0,5.8240633E0,2.1902637E0,1.3540421E-1,-4.7769958E-1,-4.9819046E-1,3.7739822E-1,4.6198764E0,6.723747E-1,-4.9895997E0,-1.3174765E0,-1.3221099E0,-6.5468717E0,5.022059E0,-2.7309184E0,9.910709E-1,-4.579751E0,3.2514071E0,-1.6341918E0,2.8758454E-3,-3.3781293E-1,6.4082706E-1,-9.618532E-2,1.6932123E0,3.096917E-2,3.255316E-1,-2.1768162E0,-1.729583E0,-4.8272625E-1,6.91948E-1,-6.8834317E-1,-7.75808E-1,1.1475296E-1,-2.110057E0,-7.7405757E-1,8.3671826E-1,2.0606236E0,3.7936595E-1,-1.7448252E0,8.739105E-1,-3.3107147E-1,-1.6724917E0,-4.3331137E-1,6.829015E-1,1.8459941E0,2.2860947E-1,-7.283066E-1],"categories":[],"categories_nodes":[],"categories_segments":[],"categories_sizes":[],"default_left":[0,0,0,0,0,0,0,0,0,0,0,0,0,0,0,0,0,0,0,0,0,0,0,0,0,0,0,0,0,0,0,0,0,0,0,0,0,0,0,0,0,0,0,0,0,0,0,0,0,0,0,0,0,0,0,0,0,0,0,0,0,0,0,0,0,0,0],"id":9,"left_children":[1,3,5,7,9,11,-1,13,15,17,19,21,23,25,27,29,31,-1,33,35,37,-1,-1,-1,-1,39,41,43,45,47,49,51,53,55,57,59,61,63,65,-1,-1,-1,-1,-1,-1,-1,-1,-1,-1,-1,-1,-1,-1,-1,-1,-1,-1,-1,-1,-1,-1,-1,-1,-1,-1,-1,-1],"loss_changes":[4.095103E3,9.947077E2,8.5836475E2,5.9439935E2,5.866948E2,3.695744E2,0E0,8.240568E2,1.6406573E2,4.602317E2,2.1319955E2,6.945532E1,3.7426763E0,3.9920425E2,4.2906738E2,1.5471967E2,7.1084625E1,0E0,2.3606091E2,2.8614404E2,1.7912827E2,0E0,0E0,0E0,0E0,4.7344208E2,9.8521606E2,2.4920984E2,1.9766724E2,2.7433777E1,2.6375754E2,1.1761667E1,6.9472656E0,8.393378E1,6.8988205E1,2.3268689E2,2.6272018E1,1.5010742E2,1.8962538E1,0E0,0E0,0E0,0E0,0E0,0E0,0E0,0E0,0E0,0E0,0E0,0E0,0E0,0E0,0E0,0E0,0E0,0E0,0E0,0E0,0E0,0E0,0E0,0E0,0E0,0E0,0E0,0E0],"parents":[2147483647,0,0,1,1,2,2,3,3,4,4,5,5,7,7,8,8,9,9,10,10,11,11,12,12,13,13,14,14,15,15,16,16,18,18,19,19,20,20,25,25,26,26,27,27,28,28,29,29,30,30,31,31,32,32,33,33,34,34,35,35,36,36,37,37,38,38],"right_children":[2,4,6,8,10,12,-1,14,16,18,20,22,24,26,28,30,32,-1,34,36,38,-1,-1,-1,-1,40,42,44,46,48,50,52,54,56,58,60,62,64,66,-1,-1,-1,-1,-1,-1,-1,-1,-1,-1,-1,-1,-1,-1,-1,-1,-1,-1,-1,-1,-1,-1,-1,-1,-1,-1,-1,-1],"split_conditions":[1.4166667E2,4.6666668E1,3.2E2,4.5E1,5E1,2.1986542E1,9.559837E0,3.7333332E1,5.7E1,3.8E1,5.6333332E1,1.4433333E2,2.07E2,2.3333334E1,3.8E1,3.3666668E1,2.8E1,3.821863E0,7.6E1,6.6E1,8.1E1,5.8240633E0,2.1902637E0,1.3540421E-1,-4.7769958E-1,1.8E1,2.4E1,5.6E1,6.9E1,2.9403427E2,2.9E1,2.2E1,1.1618249E1,4.9666668E1,2.9E1,4.9E1,5.4333332E1,7.2333336E1,1.0796667E2,2.8758454E-3,-3.3781293E-1,6.4082706E-1,-9.618532E-2,1.6932123E0,3.096917E-2,3.255316E-1,-2.1768162E0,-1.729583E0,-4.8272625E-1,6.91948E-1,-6.8834317E-1,-7.75808E-1,1.1475296E-1,-2.110057E0,-7.7405757E-1,8.3671826E-1,2.0606236E0,3.7936595E-1,-1.7448252E0,8.739105E-1,-3.3107147E-1,-1.6724917E0,-4.3331137E-1,6.829015E-1,1.8459941E0,2.2860947E-1,-7.283066E-1],"split_indices":[3,3,0,0,0,6,0,3,0,1,3,3,0,3,0,3,1,0,1,0,2,0,0,0,0,1,1,1,1,7,1,1,4,3,0,1,3,3,7,0,0,0,0,0,0,0,0,0,0,0,0,0,0,0,0,0,0,0,0,0,0,0,0,0,0,0,0],"split_type":[0,0,0,0,0,0,0,0,0,0,0,0,0,0,0,0,0,0,0,0,0,0,0,0,0,0,0,0,0,0,0,0,0,0,0,0,0,0,0,0,0,0,0,0,0,0,0,0,0,0,0,0,0,0,0,0,0,0,0,0,0,0,0,0,0,0,0],"sum_hessian":[2.672E3,2.662E3,1E1,2.496E3,1.66E2,7E0,3E0,2.395E3,1.01E2,3.5E1,1.31E2,5E0,2E0,2.285E3,1.1E2,8.5E1,1.6E1,7E0,2.8E1,6.6E1,6.5E1,2E0,3E0,1E0,1E0,1.484E3,8.01E2,5.3E1,5.7E1,1.3E1,7.2E1,4E0,1.2E1,2.4E1,4E0,5.6E1,1E1,5.7E1,8E0,8.21E2,6.63E2,2.27E2,5.74E2,4.3E1,1E1,5.5E1,2E0,1E1,3E0,1.5E1,5.7E1,2E0,2E0,1E1,2E0,1.2E1,1.2E1,2E0,2E0,2.9E1,2.7E1,7E0,3E0,4.4E1,1.3E1,2E0,6E0],"tree_param":{"num_deleted":"0","num_feature":"8","num_nodes":"67","size_leaf_vector":"1"}},{"base_weights":[5.8880094E-2,-3.2609927E-3,1.509732E1,-1.3120982E-1,1.5990385E0,8.410694E0,2.4696241E1,6.497979E-3,-1.5034204E0,5.220798E0,9.931073E-1,1.1537538E1,-6.465581E-1,8.825873E0,1.5789357E0,-2.517436E-1,1.4678043E0,-3.5762944E0,-8.753004E-1,2.9801466E0,2.0505729E0,3.9207447E0,5.987639E-1,4.6592503E0,1.6974547E0,1.1509352E-1,-4.060447E-1,-1.2671474E-1,-1.8288815E0,1.8576992E0,-1.4736079E0,-5.1906238E0,-2.9050918E0,-8.932471E-2,-3.0604215E0,3.4167132E0,-2.184735E0,1.7399076E0,1.5688932E0,-2.106078E-1,1.9001807E0,-3.1807333E-1,4.1478362E-2,2.604659E-1,-6.9364095E-1,1.3565485E0,4.2813888E-1,-6.689393E-1,1.2797039E0,-1.6901101E0,-5.064331E-1,7.822724E-2,-1.0134982E0,1.4825287E-1,-1.0480492E0,-5.3936476E-1,-1.2734375E0,5.8474356E-1,1.3817496E0,-1.8827145E0,1.2208157E-1,9.399287E-1,-3.7857055E-4,2.885631E-1,-5.8913785E-1,1.2668899E0,4.0908776E-2],"categories":[],"categories_nodes":[],"categories_segments":[],"categories_sizes":[],"default_left":[0,0,0,0,0,0,0,0,0,0,0,0,0,0,0,0,0,0,0,0,0,0,0,0,0,0,0,0,0,0,0,0,0,0,0,0,0,0,0,0,0,0,0,0,0,0,0,0,0,0,0,0,0,0,0,0,0,0,0,0,0,0,0,0,0,0,0],"id":10,"left_children":[1,3,5,7,9,11,13,15,17,19,21,23,25,-1,-1,27,29,31,33,-1,35,37,39,-1,-1,-1,-1,41,43,45,47,49,51,53,55,57,59,61,-1,63,65,-1,-1,-1,-1,-1,-1,-1,-1,-1,-1,-1,-1,-1,-1,-1,-1,-1,-1,-1,-1,-1,-1,-1,-1,-1,-1],"loss_changes":[2.4979812E3,5.4615765E2,4.9831592E2,4.661842E2,4.27139E2,2.340246E2,2.1231787E2,8.4681055E2,2.898227E2,3.979876E2,1.9391646E2,5.29917E1,2.7040832E0,0E0,0E0,3.7580533E2,3.8922327E2,4.1264954E1,2.985633E2,0E0,1.1161308E2,4.7990845E1,1.5945302E2,0E0,0E0,0E0,0E0,4.3748425E2,1.8448172E2,3.3538037E2,1.831112E2,1.2216034E1,5.9310364E1,2.5796402E2,6.115277E1,1.5454132E1,5.5566257E1,2.1835941E1,0E0,1.9511368E2,2.370485E2,0E0,0E0,0E0,0E0,0E0,0E0,0E0,0E0,0E0,0E0,0E0,0E0,0E0,0E0,0E0,0E0,0E0,0E0,0E0,0E0,0E0,0E0,0E0,0E0,0E0,0E0],"parents":[2147483647,0,0,1,1,2,2,3,3,4,4,5,5,6,6,7,7,8,8,9,9,10,10,11,11,12,12,15,15,16,16,17,17,18,18,20,20,21,21,22,22,27,27,28,28,29,29,30,30,31,31,32,32,33,33,34,34,35,35,36,36,37,37,39,39,40,40],"right_children":[2,4,6,8,10,12,14,16,18,20,22,24,26,-1,-1,28,30,32,34,-1,36,38,40,-1,-1,-1,-1,42,44,46,48,50,52,54,56,58,60,62,-1,64,66,-1,-1,-1,-1,-1,-1,-1,-1,-1,-1,-1,-1,-1,-1,-1,-1,-1,-1,-1,-1,-1,-1,-1,-1,-1,-1],"split_conditions":[1.4166667E2,4.4666668E1,3.2E2,3.8E1,4.5E1,2.1986542E1,3.94E2,2.9E1,3.3E1,5.1E1,3.2E1,1.4433333E2,2.07E2,8.825873E0,1.5789357E0,2.9E1,5E1,2.9333334E1,4.4E1,2.9801466E0,7.6E1,4.7666668E1,5.7666668E1,4.6592503E0,1.6974547E0,1.1509352E-1,-4.060447E-1,1.4666667E1,1.6E1,2.5E1,4.1333332E1,8.884917E0,1.6E1,5.2E1,1.3700255E2,4.7E1,5E1,5.6E1,1.5688932E0,5.3E1,6.9E1,-3.1807333E-1,4.1478362E-2,2.604659E-1,-6.9364095E-1,1.3565485E0,4.2813888E-1,-6.689393E-1,1.2797039E0,-1.6901101E0,-5.064331E-1,7.822724E-2,-1.0134982E0,1.4825287E-1,-1.0480492E0,-5.3936476E-1,-1.2734375E0,5.8474356E-1,1.3817496E0,-1.8827145E0,1.2208157E-1,9.399287E-1,-3.7857055E-4,2.885631E-1,-5.8913785E-1,1.2668899E0,4.0908776E-2],"split_indices":[3,3,0,0,0,6,1,3,3,1,1,3,0,0,0,0,1,3,1,0,1,3,3,0,0,0,0,3,1,0,3,4,1,0,7,3,3,0,0,1,0,0,0,0,0,0,0,0,0,0,0,0,0,0,0,0,0,0,0,0,0,0,0,0,0,0,0],"split_type":[0,0,0,0,0,0,0,0,0,0,0,0,0,0,0,0,0,0,0,0,0,0,0,0,0,0,0,0,0,0,0,0,0,0,0,0,0,0,0,0,0,0,0,0,0,0,0,0,0,0,0,0,0,0,0,0,0,0,0,0,0,0,0,0,0,0,0],"sum_hessian":[2.672E3,2.662E3,1E1,2.466E3,1.96E2,7E0,3E0,2.242E3,2.24E2,2.7E1,1.69E2,5E0,2E0,2E0,1E0,1.906E3,3.36E2,5.1E1,1.73E2,1E1,1.7E1,1.9E1,1.5E2,2E0,3E0,1E0,1E0,1.767E3,1.39E2,2.97E2,3.9E1,1.3E1,3.8E1,1.28E2,4.5E1,1.3E1,4E0,8E0,1.1E1,9.3E1,5.7E1,3.9E2,1.377E3,2.1E1,1.18E2,4E1,2.57E2,3.5E1,4E0,1.1E1,2E0,5E0,3.3E1,1.1E2,1.8E1,2.3E1,2.2E1,7E0,6E0,1E0,3E0,4E0,4E0,5.6E1,3.7E1,2.4E1,3.3E1],"tree_param":{"num_deleted":"0","num_feature":"8","num_nodes":"67","size_leaf_vector":"1"}},{"base_weights":[4.8328962E-2,-2.6583394E-2,8.317887E0,1.1976128E-1,-8.6234796E-1,1.4632214E1,3.5538113E0,1.6051005E0,3.5563804E-2,-7.458402E-1,-2.7143064E0,7.5954443E-1,1.7340836E1,9.354894E-1,2.5810072E0,8.606293E-1,6.108887E0,-5.787802E-1,2.4070641E-1,-8.5718614E-1,2.9963799E0,-3.3232973E0,1.0092249E0,4.9115756E-1,1.935033E1,3.9762852E0,-1.8205251E-1,-3.261086E0,1.427529E0,6.937127E0,-6.860924E-2,1.642482E-1,-1.2262568E0,2.8206258E0,8.708219E-2,1.0735632E0,-9.0409094E-1,9.69453E-1,1.5704404E0,-4.7059574E0,-1.4700413E0,4.8976555E-1,-1.2911339E-1,6.440389E0,9.9668086E-1,1.5858194E0,2.0350915E-1,-9.768469E-1,1.0556521E0,-3.1062242E-1,-1.071488E0,2.2762395E-1,6.465196E-1,2.170819E0,4.1280356E-1,-1.3420887E-1,1.0333472E-1,-5.10312E-1,1.9525047E-1,-3.1353527E-1,-1.2652988E0,1.7341006E0,6.7375964E-1,5.6607896E-1,-9.232042E-3,-2.544911E-1,-1.4086008E0,1.0676483E0,-5.586854E-1,-1.6373335E0,-2.6455328E-1,2.8292808E-1,-1.2215385E0,1.5222931E-1,-4.125566E-1,6.071995E-1,1.7461205E-2],"categories":[],"categories_nodes":[],"categories_segments":[],"categories_sizes":[],"default_left":[0,0,0,0,0,0,0,0,0,0,0,0,0,0,0,0,0,0,0,0,0,0,0,0,0,0,0,0,0,0,0,0,0,0,0,0,0,0,0,0,0,0,0,0,0,0,0,0,0,0,0,0,0,0,0,0,0,0,0,0,0,0,0,0,0,0,0,0,0,0,0,0,0,0,0,0,0],"id":11,"left_children":[1,3,5,7,9,11,13,15,17,19,21,-1,23,25,-1,27,29,31,33,35,37,39,41,-1,43,45,47,49,51,53,55,57,59,61,63,-1,65,67,-1,69,71,-1,-1,-1,-1,-1,-1,73,75,-1,-1,-1,-1,-1,-1,-1,-1,-1,-1,-1,-1,-1,-1,-1,-1,-1,-1,-1,-1,-1,-1,-1,-1,-1,-1,-1,-1],"loss_changes":[1.6561235E3,3.2422397E2,6.699663E2,2.8208237E2,8.3203705E1,2.8385034E2,1.902717E2,4.004482E2,2.6933542E2,1.5799052E2,5.5508698E1,0E0,2.2077075E2,3.810428E1,0E0,2.499982E2,8.745557E1,2.5758643E2,6.3468805E2,7.876004E1,4.483338E1,4.4330505E1,4.2919874E0,0E0,1.6626831E2,9.372768E0,9.884696E0,5.287033E0,4.361528E1,1.4979309E1,6.234357E-1,2.280132E2,1.5056442E2,1.4011926E2,3.2099902E2,0E0,7.2158264E1,5.795455E1,0E0,2.6812607E1,6.662391E1,0E0,0E0,0E0,0E0,0E0,0E0,4.245313E0,3.7456956E0,0E0,0E0,0E0,0E0,0E0,0E0,0E0,0E0,0E0,0E0,0E0,0E0,0E0,0E0,0E0,0E0,0E0,0E0,0E0,0E0,0E0,0E0,0E0,0E0,0E0,0E0,0E0,0E0],"parents":[2147483647,0,0,1,1,2,2,3,3,4,4,5,5,6,6,7,7,8,8,9,9,10,10,12,12,13,13,15,15,16,16,17,17,18,18,19,19,20,20,21,21,22,22,24,24,25,25,26,26,27,27,28,28,29,29,30,30,31,31,32,32,33,33,34,34,36,36,37,37,39,39,40,40,47,47,48,48],"right_children":[2,4,6,8,10,12,14,16,18,20,22,-1,24,26,-1,28,30,32,34,36,38,40,42,-1,44,46,48,50,52,54,56,58,60,62,64,-1,66,68,-1,70,72,-1,-1,-1,-1,-1,-1,74,76,-1,-1,-1,-1,-1,-1,-1,-1,-1,-1,-1,-1,-1,-1,-1,-1,-1,-1,-1,-1,-1,-1,-1,-1,-1,-1,-1,-1],"split_conditions":[7.9E1,8.700001E0,8.5E1,1E1,5.2E1,1.3513193E1,1.4866667E2,1.8E1,1.8E1,4.1333332E1,6.3333332E1,7.5954443E-1,1.2E1,1.07E2,2.5810072E0,8.333333E0,3.6E1,1.4E1,1.5E1,6E0,3.2E1,1.4907225E2,6.7E1,4.9115756E-1,2.6576681E1,1.02E2,1.87E2,6E0,1.2666667E1,2.226768E1,4.3E1,1.1666667E1,2.2E1,1E1,1.5E1,1.0735632E0,5.3E1,4.4E1,1.5704404E0,1.2022416E1,3.5E1,4.8976555E-1,-1.2911339E-1,6.440389E0,9.9668086E-1,1.5858194E0,2.0350915E-1,1.08E2,2.9E1,-3.1062242E-1,-1.071488E0,2.2762395E-1,6.465196E-1,2.170819E0,4.1280356E-1,-1.3420887E-1,1.0333472E-1,-5.10312E-1,1.9525047E-1,-3.1353527E-1,-1.2652988E0,1.7341006E0,6.7375964E-1,5.6607896E-1,-9.232042E-3,-2.544911E-1,-1.4086008E0,1.0676483E0,-5.586854E-1,-1.6373335E0,-2.6455328E-1,2.8292808E-1,-1.2215385E0,1.5222931E-1,-4.125566E-1,6.071995E-1,1.7461205E-2],"split_indices":[3,5,1,1,1,6,3,3,3,3,3,0,2,1,0,3,0,0,0,0,2,7,0,0,6,0,2,1,3,6,0,3,1,0,1,0,0,0,0,4,0,0,0,0,0,0,0,1,0,0,0,0,0,0,0,0,0,0,0,0,0,0,0,0,0,0,0,0,0,0,0,0,0,0,0,0,0],"split_type":[0,0,0,0,0,0,0,0,0,0,0,0,0,0,0,0,0,0,0,0,0,0,0,0,0,0,0,0,0,0,0,0,0,0,0,0,0,0,0,0,0,0,0,0,0,0,0,0,0,0,0,0,0,0,0,0,0,0,0,0,0,0,0,0,0,0,0,0,0,0,0,0,0,0,0,0,0],"sum_hessian":[2.672E3,2.649E3,2.3E1,2.255E3,3.94E2,9E0,1.4E1,1.2E2,2.135E3,3.72E2,2.2E1,2E0,7E0,1E1,4E0,1.04E2,1.6E1,5.34E2,1.601E3,3.62E2,1E1,1.9E1,3E0,1E0,6E0,2E0,8E0,1.2E1,9.2E1,1.4E1,2E0,2.49E2,2.85E2,8.9E1,1.512E3,3E0,3.59E2,6E0,4E0,1E1,9E0,2E0,1E0,5E0,1E0,1E0,1E0,5E0,3E0,2E0,1E1,4.9E1,4.3E1,1.3E1,1E0,1E0,1E0,5.1E1,1.98E2,2.7E2,1.5E1,1.3E1,7.6E1,9.2E1,1.42E3,3.55E2,4E0,3E0,3E0,8E0,2E0,5E0,4E0,1E0,4E0,1E0,2E0],"tree_param":{"num_deleted":"0","num_feature":"8","num_nodes":"77","size_leaf_vector":"1"}},{"base_weights":[3.964686E-2,1.4241263E-2,1.6987972E1,-6.627323E-2,1.7716751E0,6.1585603E0,9.549431E-1,1.2224025E-2,-1.3516822E0,6.492089E0,1.1703699E0,-1.323558E-1,1.1528122E0,-2.8200674E0,-7.7639735E-1,3.5973887E0,9.269673E0,3.572335E0,1.6195275E-1,-2.9558592E-2,-1.8456813E0,3.1563551E0,3.7004662E-1,-2.8214312E-1,-3.7412348E0,1.9035431E0,-1.339796E0,2.4087639E-1,1.1645687E0,3.1700897E0,4.1748276E-1,4.249095E0,1.0955129E0,-4.7770163E-1,2.3724031E0,-5.1594693E-2,2.9350498E-1,-1.5638028E0,-4.7796324E-1,2.016589E0,8.2641107E-1,1.9690417E-1,-6.1411387E-1,2.4986042E-1,-4.6078968E-1,1.0771868E0,-1.2353617E0,9.8064804E-1,-4.7981274E-1,-2.5322726E-1,-1.551437E0,3.6049578E-1,1.4395504E0,8.053308E-1,-1.1841843E-1,3.3324873E-1,-5.84501E-1,1.1984617E0,1.4590022E-1],"categories":[],"categories_nodes":[],"categories_segments":[],"categories_sizes":[],"default_left":[0,0,0,0,0,0,0,0,0,0,0,0,0,0,0,0,0,0,0,0,0,0,0,0,0,0,0,0,0,0,0,0,0,0,0,0,0,0,0,0,0,0,0,0,0,0,0,0,0,0,0,0,0,0,0,0,0,0,0],"id":12,"left_children":[1,3,5,7,9,-1,-1,11,13,15,17,19,21,23,25,27,29,31,33,35,37,39,41,43,45,47,49,-1,-1,-1,-1,51,53,55,57,-1,-1,-1,-1,-1,-1,-1,-1,-1,-1,-1,-1,-1,-1,-1,-1,-1,-1,-1,-1,-1,-1,-1,-1],"loss_changes":[1.1507046E3,3.779195E2,1.3016211E2,2.5771786E2,3.2449573E2,0E0,0E0,3.972463E2,1.2198724E2,7.117694E1,2.5375069E2,3.7650082E2,4.2384253E2,9.479645E1,1.6410693E2,3.2434998E0,4.6615784E1,4.730771E1,1.0717761E2,2.898523E2,9.455319E1,9.032501E1,1.3697853E2,1.8055569E1,9.762921E1,9.609515E1,1.6467906E2,0E0,0E0,0E0,0E0,3.4416687E1,2.0002647E1,1.3999706E2,5.0078667E1,0E0,0E0,0E0,0E0,0E0,0E0,0E0,0E0,0E0,0E0,0E0,0E0,0E0,0E0,0E0,0E0,0E0,0E0,0E0,0E0,0E0,0E0,0E0,0E0],"parents":[2147483647,0,0,1,1,2,2,3,3,4,4,7,7,8,8,9,9,10,10,11,11,12,12,13,13,14,14,15,15,16,16,17,17,18,18,19,19,20,20,21,21,22,22,23,23,24,24,25,25,26,26,31,31,32,32,33,33,34,34],"right_children":[2,4,6,8,10,-1,-1,12,14,16,18,20,22,24,26,28,30,32,34,36,38,40,42,44,46,48,50,-1,-1,-1,-1,52,54,56,58,-1,-1,-1,-1,-1,-1,-1,-1,-1,-1,-1,-1,-1,-1,-1,-1,-1,-1,-1,-1,-1,-1,-1,-1],"split_conditions":[3.2E2,5.1333332E1,3.94E2,4.6E1,3.5E1,6.1585603E0,9.549431E-1,3.3333332E1,3.5666668E1,7.2666664E1,5.8E1,3.4E1,3.6E1,2.9661667E0,3E1,5.2333332E1,1.87E2,2.7999997E0,7.7666664E1,2.7E1,2.3333334E1,1.9E1,5.7E1,2.1E1,1.1E1,6.157833E0,6.7E1,2.4087639E-1,1.1645687E0,3.1700897E0,4.1748276E-1,-6.546667E-1,1.5827721E1,6.8E1,7.6E1,-5.1594693E-2,2.9350498E-1,-1.5638028E0,-4.7796324E-1,2.016589E0,8.2641107E-1,1.9690417E-1,-6.1411387E-1,2.4986042E-1,-4.6078968E-1,1.0771868E0,-1.2353617E0,9.8064804E-1,-4.7981274E-1,-2.5322726E-1,-1.551437E0,3.6049578E-1,1.4395504E0,8.053308E-1,-1.1841843E-1,3.3324873E-1,-5.84501E-1,1.1984617E0,1.4590022E-1],"split_indices":[0,3,1,1,1,0,0,3,3,3,0,0,0,4,0,3,0,5,3,3,3,1,0,0,0,4,1,0,0,0,0,4,6,0,2,0,0,0,0,0,0,0,0,0,0,0,0,0,0,0,0,0,0,0,0,0,0,0,0],"split_type":[0,0,0,0,0,0,0,0,0,0,0,0,0,0,0,0,0,0,0,0,0,0,0,0,0,0,0,0,0,0,0,0,0,0,0,0,0,0,0,0,0,0,0,0,0,0,0,0,0,0,0,0,0,0,0,0,0,0,0],"sum_hessian":[2.672E3,2.669E3,3E0,2.553E3,1.16E2,2E0,1E0,2.407E3,1.46E2,1.2E1,1.04E2,2.137E3,2.7E2,4E1,1.06E2,7E0,5E0,3E1,7.4E1,2.017E3,1.2E2,7.5E1,1.95E2,1.1E1,2.9E1,1.8E1,8.8E1,1E0,6E0,4E0,1E0,2.3E1,7E0,5.8E1,1.6E1,1.768E3,2.49E2,7E0,1.13E2,6E0,6.9E1,1.75E2,2E1,6E0,5E0,1E0,2.8E1,1.3E1,5E0,7.9E1,9E0,4E0,1.9E1,3E0,4E0,2.8E1,3E1,8E0,8E0],"tree_param":{"num_deleted":"0","num_feature":"8","num_nodes":"59","size_leaf_vector":"1"}},{"base_weights":[3.322919E-2,1.2787198E-2,1.3669952E1,9.614398E-1,-9.170396E-2,4.9268465E0,8.11702E-1,3.2869315E-1,3.8893135E0,-1.0820463E0,2.3120938E-2,-1.1144205E0,7.2951156E-1,3.2519362E0,2.9784408E0,-3.328646E-1,-2.0481174E0,1.9003258E0,-7.289934E-2,-4.497499E-1,-2.022472E0,2.4526453E0,9.9640146E-2,4.062033E0,1.225869E0,-1.1527485E0,4.5788518E-1,-1.8980838E0,-1.1889503E0,3.0993233E0,9.494223E-1,-2.2579291E-1,6.980786E-1,-5.3422785E-1,1.3877279E-1,-1.8181492E-1,-9.378803E-1,-2.8171787E-1,7.8844684E-1,1.3837679E-1,-5.940411E-1,9.366573E-1,1.6461005E0,1.0670052E0,1.6230288E-1,6.4622946E-3,-6.102013E-1,2.8039506E-1,-3.1524646E-1,-9.282476E-1,-4.825187E-1,1.2712634E0,5.921147E-1,-1.1984793E-1,8.1862617E-1,7.009495E-2,-1.8237893E-1,6.0138506E-1,9.0437405E-2],"categories":[],"categories_nodes":[],"categories_segments":[],"categories_sizes":[],"default_left":[0,0,0,0,0,0,0,0,0,0,0,0,0,0,0,0,0,0,0,0,0,0,0,0,0,0,0,0,0,0,0,0,0,0,0,0,0,0,0,0,0,0,0,0,0,0,0,0,0,0,0,0,0,0,0,0,0,0,0],"id":13,"left_children":[1,3,5,7,9,-1,-1,11,13,15,17,19,21,23,-1,25,27,29,31,33,35,37,39,41,43,45,47,49,-1,51,53,55,57,-1,-1,-1,-1,-1,-1,-1,-1,-1,-1,-1,-1,-1,-1,-1,-1,-1,-1,-1,-1,-1,-1,-1,-1,-1,-1],"loss_changes":[7.449555E2,2.6475406E2,7.6298096E1,4.896612E2,2.736256E2,0E0,0E0,1.2748839E2,1.4861774E2,1.8025894E2,3.889372E2,2.8061031E1,1.864363E2,6.723813E1,0E0,9.258968E1,2.3795715E1,1.1677115E2,2.4216028E2,3.6038853E1,2.9374146E1,2.9850891E1,9.6427536E1,2.4385101E1,2.0423727E1,7.248327E1,5.3490932E1,3.07117E1,0E0,5.0571075E1,1.4510017E2,3.01069E2,1.7558366E2,0E0,0E0,0E0,0E0,0E0,0E0,0E0,0E0,0E0,0E0,0E0,0E0,0E0,0E0,0E0,0E0,0E0,0E0,0E0,0E0,0E0,0E0,0E0,0E0,0E0,0E0],"parents":[2147483647,0,0,1,1,2,2,3,3,4,4,7,7,8,8,9,9,10,10,11,11,12,12,13,13,15,15,16,16,17,17,18,18,19,19,20,20,21,21,22,22,23,23,24,24,25,25,26,26,27,27,29,29,30,30,31,31,32,32],"right_children":[2,4,6,8,10,-1,-1,12,14,16,18,20,22,24,-1,26,28,30,32,34,36,38,40,42,44,46,48,50,-1,52,54,56,58,-1,-1,-1,-1,-1,-1,-1,-1,-1,-1,-1,-1,-1,-1,-1,-1,-1,-1,-1,-1,-1,-1,-1,-1,-1,-1],"split_conditions":[3.2E2,1.2E1,3.94E2,1.8E1,1.5E1,4.9268465E0,8.11702E-1,1.0333333E1,3E1,1.3E1,1.3E1,1E1,1.2E1,2.6E1,2.9784408E0,1.2666667E1,2E1,2.1E1,3.8E1,8.666667E0,8E0,4E0,2.1E1,2.1333334E1,1.06540306E2,1.4E1,1.9E1,1.3E1,-1.1889503E0,1.2E1,1.8666666E1,2.2E1,4.2E1,-5.3422785E-1,1.3877279E-1,-1.8181492E-1,-9.378803E-1,-2.8171787E-1,7.8844684E-1,1.3837679E-1,-5.940411E-1,9.366573E-1,1.6461005E0,1.0670052E0,1.6230288E-1,6.4622946E-3,-6.102013E-1,2.8039506E-1,-3.1524646E-1,-9.282476E-1,-4.825187E-1,1.2712634E0,5.921147E-1,-1.1984793E-1,8.1862617E-1,7.009495E-2,-1.8237893E-1,6.0138506E-1,9.0437405E-2],"split_indices":[0,1,1,3,3,0,0,3,3,0,0,0,0,0,0,3,1,1,3,3,1,2,0,3,7,1,1,3,0,0,3,1,0,0,0,0,0,0,0,0,0,0,0,0,0,0,0,0,0,0,0,0,0,0,0,0,0,0,0],"split_type":[0,0,0,0,0,0,0,0,0,0,0,0,0,0,0,0,0,0,0,0,0,0,0,0,0,0,0,0,0,0,0,0,0,0,0,0,0,0,0,0,0,0,0,0,0,0,0,0,0,0,0,0,0,0,0,0,0,0,0],"sum_hessian":[2.672E3,2.669E3,3E0,2.64E2,2.405E3,2E0,1E0,2.18E2,4.6E1,2.49E2,2.156E3,4.7E1,1.71E2,4.3E1,3E0,1.41E2,1.08E2,1.04E2,2.052E3,2.8E1,1.9E1,4.5E1,1.26E2,3E1,1.3E1,6.9E1,7.2E1,1.02E2,6E0,4.5E1,5.9E1,1.713E3,3.39E2,1.1E1,1.7E1,9E0,1E1,2E0,4.3E1,1.08E2,1.8E1,2E1,1E1,2E0,1.1E1,3E1,3.9E1,5.5E1,1.7E1,1.8E1,8.4E1,2.1E1,2.4E1,3.4E1,2.5E1,7.78E2,9.35E2,7.8E1,2.61E2],"tree_param":{"num_deleted":"0","num_feature":"8","num_nodes":"59","size_leaf_vector":"1"}},{"base_weights":[2.736379E-2,1.090974E-2,1.1003601E1,-2.3308839E-1,2.9805106E-1,4.991652E0,1.0736725E0,-4.7925442E-2,-1.4774836E0,7.5678545E-1,-3.9346734E-1,3.4615714E-2,-2.4385126E0,-3.1108193E0,-1.1702873E0,3.281926E0,5.4863805E-1,-8.7593746E-1,4.2070895E-1,-3.6251068E-1,4.1135386E-1,-3.8085861E0,-1.8294998E0,-1.5917921E0,-3.6136968E0,1.7926198E-3,-1.7399129E0,4.110331E0,2.0061224E0,1.0306485E-1,1.2298183E0,3.7165317E-1,-1.5045886E0,1.4666369E0,-1.1427667E-1,1.00601934E-1,-2.2984542E-1,4.2180124E-1,1.8959165E-2,-1.3042448E0,-2.2282125E-1,-3.3956844E-1,-1.0226973E0,-7.106496E-1,-8.485366E-3,-7.7932346E-1,-1.4819703E0,3.0387798E-1,-2.8115445E-1,-4.4628388E-1,-9.5645386E-1,1.6533166E-1,1.2966542E0,7.32873E-1,8.658228E-2,1.75906E-1,-2.667435E-1,1.026008E0,2.856226E-1,-4.1096348E-1,5.66657E-1,-8.079464E-1,-2.6452908E-1,7.4903476E-1,1.1636862E-2,-2.7876577E-1,3.356355E-1],"categories":[],"categories_nodes":[],"categories_segments":[],"categories_sizes":[],"default_left":[0,0,0,0,0,0,0,0,0,0,0,0,0,0,0,0,0,0,0,0,0,0,0,0,0,0,0,0,0,0,0,0,0,0,0,0,0,0,0,0,0,0,0,0,0,0,0,0,0,0,0,0,0,0,0,0,0,0,0,0,0,0,0,0,0,0,0],"id":14,"left_children":[1,3,5,7,9,-1,-1,11,13,15,17,19,21,23,25,27,29,31,33,35,37,39,41,43,45,47,49,51,53,55,57,59,61,63,65,-1,-1,-1,-1,-1,-1,-1,-1,-1,-1,-1,-1,-1,-1,-1,-1,-1,-1,-1,-1,-1,-1,-1,-1,-1,-1,-1,-1,-1,-1,-1,-1],"loss_changes":[4.8263324E2,1.8713487E2,1.0781079E2,3.3264972E2,3.895307E2,0E0,0E0,2.4831528E2,9.018762E1,3.8609323E2,1.928482E2,1.8222774E2,2.8076675E1,1.6400421E1,1.06158966E2,5.0939514E1,2.0717444E2,2.4212335E2,1.0256642E2,1.6729364E2,2.1634491E2,1.6597046E1,3.029908E1,1.08671665E1,1.5461945E1,5.126901E1,3.4354797E1,2.2500732E1,1.7299507E1,1.9904408E2,1.6098892E2,2.7738226E2,1.4938031E2,9.109837E1,1.2363427E2,0E0,0E0,0E0,0E0,0E0,0E0,0E0,0E0,0E0,0E0,0E0,0E0,0E0,0E0,0E0,0E0,0E0,0E0,0E0,0E0,0E0,0E0,0E0,0E0,0E0,0E0,0E0,0E0,0E0,0E0,0E0,0E0],"parents":[2147483647,0,0,1,1,2,2,3,3,4,4,7,7,8,8,9,9,10,10,11,11,12,12,13,13,14,14,15,15,16,16,17,17,18,18,19,19,20,20,21,21,22,22,23,23,24,24,25,25,26,26,27,27,28,28,29,29,30,30,31,31,32,32,33,33,34,34],"right_children":[2,4,6,8,10,-1,-1,12,14,16,18,20,22,24,26,28,30,32,34,36,38,40,42,44,46,48,50,52,54,56,58,60,62,64,66,-1,-1,-1,-1,-1,-1,-1,-1,-1,-1,-1,-1,-1,-1,-1,-1,-1,-1,-1,-1,-1,-1,-1,-1,-1,-1,-1,-1,-1,-1,-1,-1],"split_conditions":[3.2E2,2.3E1,3.94E2,2.3E1,3.5E1,4.991652E0,1.0736725E0,3E1,1.8666666E1,2E1,4.4E1,1.6333334E1,2.0666666E1,1.2E1,1.7E1,2.1192151E2,3E1,2.6E1,5.2E1,1.2E1,1.6E1,7.5000005E0,3.6E1,2.4E1,2.5E1,2.6E1,2.8E1,8.534353E0,8.341167E0,3E1,1.9E1,2.7666666E1,3.4E1,4.4E1,6.1333332E1,1.00601934E-1,-2.2984542E-1,4.2180124E-1,1.8959165E-2,-1.3042448E0,-2.2282125E-1,-3.3956844E-1,-1.0226973E0,-7.106496E-1,-8.485366E-3,-7.7932346E-1,-1.4819703E0,3.0387798E-1,-2.8115445E-1,-4.4628388E-1,-9.5645386E-1,1.6533166E-1,1.2966542E0,7.32873E-1,8.658228E-2,1.75906E-1,-2.667435E-1,1.026008E0,2.856226E-1,-4.1096348E-1,5.66657E-1,-8.079464E-1,-2.6452908E-1,7.4903476E-1,1.1636862E-2,-2.7876577E-1,3.356355E-1],"split_indices":[0,3,0,0,1,0,0,1,3,0,3,3,3,1,1,7,3,0,0,0,0,5,1,2,0,0,0,6,4,0,1,3,3,2,3,0,0,0,0,0,0,0,0,0,0,0,0,0,0,0,0,0,0,0,0,0,0,0,0,0,0,0,0,0,0,0,0],"split_type":[0,0,0,0,0,0,0,0,0,0,0,0,0,0,0,0,0,0,0,0,0,0,0,0,0,0,0,0,0,0,0,0,0,0,0,0,0,0,0,0,0,0,0,0,0,0,0,0,0,0,0,0,0,0,0,0,0,0,0,0,0,0,0,0,0,0,0],"sum_hessian":[2.672E3,2.669E3,3E0,1.443E3,1.226E3,1E0,2E0,1.257E3,1.86E2,7.37E2,4.89E2,1.216E3,4.1E1,2.8E1,1.58E2,5.5E1,6.82E2,3.07E2,1.82E2,5.92E2,6.24E2,1.1E1,3E1,8E0,2E1,5.2E1,1.06E2,3.2E1,2.3E1,4.13E2,2.69E2,1.03E2,2.04E2,6.1E1,1.21E2,2.17E2,3.75E2,1.61E2,4.63E2,9E0,2E0,2.2E1,8E0,5E0,3E0,1.3E1,7E0,2.5E1,2.7E1,9.2E1,1.4E1,2E0,3E1,1.8E1,5E0,2.78E2,1.35E2,2.9E1,2.4E2,4.8E1,5.5E1,6.9E1,1.35E2,3.5E1,2.6E1,7.3E1,4.8E1],"tree_param":{"num_deleted":"0","num_feature":"8","num_nodes":"67","size_leaf_vector":"1"}},{"base_weights":[2.0101301E-2,6.312865E-3,9.218857E0,4.6543926E-1,-1.5204963E-1,4.2429066E0,8.5893863E-1,2.0100084E-1,2.1893451E0,-7.832792E-1,4.910647E-2,-4.6188378E-1,5.302726E-1,2.789654E0,-8.123417E-2,-3.546523E-1,-1.3420862E0,1.3285369E0,-1.017301E-1,2.205105E-1,-1.2666827E0,1.1248101E0,-2.903728E-1,4.03077E0,1.7529378E0,-1.5870899E0,1.2951106E0,-1.2853117E0,-6.351585E-2,-3.1619394E-1,-1.6997614E0,1.6052117E0,-7.94605E-1,-4.111248E-1,2.0507663E-1,-1.9581883E-1,4.2350277E-1,5.7564337E-2,-4.8130536E-1,9.525234E-1,2.7139917E-1,-5.131331E-1,-9.044256E-3,1.0279721E0,1.9824346E0,6.874671E-1,7.8093626E-2,2.4012223E-1,-6.8520457E-1,1.4235039E-1,9.9757046E-1,-4.2563552E-1,5.838189E-1,3.1582224E-1,-1.3775915E-1,6.911819E-2,-3.0954093E-1,-4.40365E-1,-9.0729266E-1,3.6287266E-1,1.224585E0,1.4463792E0,-5.216698E-1,3.0156046E-2,-3.0375263E-1,4.4998932E-1,-5.6758965E-3],"categories":[],"categories_nodes":[],"categories_segments":[],"categories_sizes":[],"default_left":[0,0,0,0,0,0,0,0,0,0,0,0,0,0,0,0,0,0,0,0,0,0,0,0,0,0,0,0,0,0,0,0,0,0,0,0,0,0,0,0,0,0,0,0,0,0,0,0,0,0,0,0,0,0,0,0,0,0,0,0,0,0,0,0,0,0,0],"id":15,"left_children":[1,3,5,7,9,-1,-1,11,13,15,17,19,21,23,25,27,29,31,33,35,37,39,41,43,45,47,49,51,53,55,57,59,61,63,65,-1,-1,-1,-1,-1,-1,-1,-1,-1,-1,-1,-1,-1,-1,-1,-1,-1,-1,-1,-1,-1,-1,-1,-1,-1,-1,-1,-1,-1,-1,-1,-1],"loss_changes":[3.3897565E2,1.942022E2,8.469333E1,3.1182874E2,2.5221214E2,0E0,0E0,1.301151E2,1.2426407E2,1.1449347E2,2.9096338E2,1.0901896E2,1.9451257E2,8.557562E1,4.350699E1,7.3887405E1,7.578531E1,9.467532E1,1.281373E2,1.1326013E2,4.5126358E1,1.0139151E2,6.203087E1,2.7187927E1,3.2365707E1,1.8467215E1,1.6747498E1,3.0795677E1,9.279493E1,2.17506E1,4.2859222E1,1.3322662E2,1.09141304E2,2.0687286E2,1.9668233E2,0E0,0E0,0E0,0E0,0E0,0E0,0E0,0E0,0E0,0E0,0E0,0E0,0E0,0E0,0E0,0E0,0E0,0E0,0E0,0E0,0E0,0E0,0E0,0E0,0E0,0E0,0E0,0E0,0E0,0E0,0E0,0E0],"parents":[2147483647,0,0,1,1,2,2,3,3,4,4,7,7,8,8,9,9,10,10,11,11,12,12,13,13,14,14,15,15,16,16,17,17,18,18,19,19,20,20,21,21,22,22,23,23,24,24,25,25,26,26,27,27,28,28,29,29,30,30,31,31,32,32,33,33,34,34],"right_children":[2,4,6,8,10,-1,-1,12,14,16,18,20,22,24,26,28,30,32,34,36,38,40,42,44,46,48,50,52,54,56,58,60,62,64,66,-1,-1,-1,-1,-1,-1,-1,-1,-1,-1,-1,-1,-1,-1,-1,-1,-1,-1,-1,-1,-1,-1,-1,-1,-1,-1,-1,-1,-1,-1,-1,-1],"split_conditions":[3.2E2,1.6E1,3.94E2,2.1E1,1.9666666E1,4.2429066E0,8.5893863E-1,1.3E1,3.5E1,2E1,1.8E1,1.1E1,1.8E1,1.4E1,2.8333334E1,1.4666667E1,1.3E1,4.2E1,2.9666666E1,1.1E1,8E0,1.1E1,1.5333333E1,3.0666666E1,2.7E1,1E1,1.9917469E1,3.346645E1,1.5E1,2.4E1,2.5E1,2.5666666E1,1E-1,2.5E1,2.9E1,-1.9581883E-1,4.2350277E-1,5.7564337E-2,-4.8130536E-1,9.525234E-1,2.7139917E-1,-5.131331E-1,-9.044256E-3,1.0279721E0,1.9824346E0,6.874671E-1,7.8093626E-2,2.4012223E-1,-6.8520457E-1,1.4235039E-1,9.9757046E-1,-4.2563552E-1,5.838189E-1,3.1582224E-1,-1.3775915E-1,6.911819E-2,-3.0954093E-1,-4.40365E-1,-9.0729266E-1,3.6287266E-1,1.224585E0,1.4463792E0,-5.216698E-1,3.0156046E-2,-3.0375263E-1,4.4998932E-1,-5.6758965E-3],"split_indices":[0,1,0,3,3,0,0,3,0,1,0,0,0,1,3,3,0,1,3,3,1,0,3,3,0,1,6,6,0,1,1,3,5,1,0,0,0,0,0,0,0,0,0,0,0,0,0,0,0,0,0,0,0,0,0,0,0,0,0,0,0,0,0,0,0,0,0],"split_type":[0,0,0,0,0,0,0,0,0,0,0,0,0,0,0,0,0,0,0,0,0,0,0,0,0,0,0,0,0,0,0,0,0,0,0,0,0,0,0,0,0,0,0,0,0,0,0,0,0,0,0,0,0,0,0,0,0,0,0,0,0,0,0,0,0,0,0],"sum_hessian":[2.672E3,2.669E3,3E0,6.84E2,1.985E3,1E0,2E0,5.94E2,9E1,4.79E2,1.506E3,1.97E2,3.97E2,7.1E1,1.9E1,2.72E2,2.07E2,1.58E2,1.348E3,1.07E2,9E1,2.3E2,1.67E2,3.1E1,4E1,9E0,1E1,6.4E1,2.08E2,5.4E1,1.53E2,1.4E2,1.8E1,6.71E2,6.77E2,6.2E1,4.5E1,1.7E1,7.3E1,2.1E1,2.09E2,2.5E1,1.42E2,2.7E1,4E0,2.9E1,1.1E1,2E0,7E0,8E0,2E0,6.2E1,2E0,5.4E1,1.54E2,3.1E1,2.3E1,1.32E2,2.1E1,1.22E2,1.8E1,2E0,1.6E1,3.63E2,3.08E2,9.9E1,5.78E2],"tree_param":{"num_deleted":"0","num_feature":"8","num_nodes":"67","size_leaf_vector":"1"}},{"base_weights":[1.8376887E-2,-3.8663074E-3,4.2432714E0,5.5981565E-1,-8.951501E-2,7.1593704E0,1.1612756E0,-3.2329544E-2,1.4213438E0,-3.1824538E-1,1.516972E-1,4.345412E0,3.6064684E0,-1.125031E0,8.2741976E-1,3.4873894E-1,-9.626062E-1,1.9936024E0,4.119689E-1,-1.6752952E-1,-1.3580728E0,8.064477E-1,-1.1761339E-1,1.4446275E0,2.9930192E-1,-4.5685616E-1,1.0265637E-2,-1.0614786E0,7.2821546E-1,2.9827977E-2,-1.4122747E0,1.718679E0,4.0486145E0,-5.8854365E-1,1.6454443E0,-9.1171056E-2,-1.555848E0,-2.0215921E0,-8.676206E-1,1.0665929E0,-3.733109E-1,1.6866988E0,-2.0507E-1,1.14509486E-1,-4.6753255E-1,3.709974E-1,1.7730772E-2,-2.4213712E-1,4.158438E-1,-2.447959E-1,-6.48598E-1,8.290709E-1,4.0111315E-1,6.0231024E-1,1.5223823E0,-3.522678E-1,4.9404226E-2,6.575503E-1,-1.0770941E-1,-1.1361269E-1,1.2513676E-1,-3.4088743E-1,-8.0202526E-1,-5.3649306E-1,-1.0897129E0,-1.02132E-1,-5.338644E-1,4.9209446E-1,1.8425594E-1,-4.4036534E-1,2.0939884E-1,2.7358562E-1,7.9396707E-1,-1.3421278E-1,1.05120614E-1],"categories":[],"categories_nodes":[],"categories_segments":[],"categories_sizes":[],"default_left":[0,0,0,0,0,0,0,0,0,0,0,0,0,0,0,0,0,0,0,0,0,0,0,0,0,0,0,0,0,0,0,0,0,0,0,0,0,0,0,0,0,0,0,0,0,0,0,0,0,0,0,0,0,0,0,0,0,0,0,0,0,0,0,0,0,0,0,0,0,0,0,0,0,0,0],"id":16,"left_children":[1,3,5,7,9,11,13,15,17,19,21,23,-1,25,-1,27,29,31,33,35,37,39,41,-1,-1,-1,-1,43,45,47,49,51,53,55,57,59,61,63,65,67,69,71,73,-1,-1,-1,-1,-1,-1,-1,-1,-1,-1,-1,-1,-1,-1,-1,-1,-1,-1,-1,-1,-1,-1,-1,-1,-1,-1,-1,-1,-1,-1,-1,-1],"loss_changes":[2.5121199E2,1.2847127E2,1.17509674E2,1.7910854E2,1.2749689E2,4.353534E1,3.230892E1,7.442602E1,8.177887E1,1.856406E2,1.984675E2,4.6366577E0,0E0,1.8968148E0,0E0,8.050951E1,2.7264374E1,4.445407E1,6.637612E1,1.09790375E2,4.7059723E1,1.0106418E2,1.26269516E2,0E0,0E0,0E0,0E0,2.3545437E1,4.0071156E1,2.3822245E1,1.7011879E1,2.9003891E1,1.07513275E1,1.3427877E1,2.7072342E1,1.4397318E2,2.2281937E1,1.717752E1,4.1700203E1,6.881296E1,7.1382034E1,2.5101402E1,1.02717514E2,0E0,0E0,0E0,0E0,0E0,0E0,0E0,0E0,0E0,0E0,0E0,0E0,0E0,0E0,0E0,0E0,0E0,0E0,0E0,0E0,0E0,0E0,0E0,0E0,0E0,0E0,0E0,0E0,0E0,0E0,0E0,0E0],"parents":[2147483647,0,0,1,1,2,2,3,3,4,4,5,5,6,6,7,7,8,8,9,9,10,10,11,11,13,13,15,15,16,16,17,17,18,18,19,19,20,20,21,21,22,22,27,27,28,28,29,29,30,30,31,31,32,32,33,33,34,34,35,35,36,36,37,37,38,38,39,39,40,40,41,41,42,42],"right_children":[2,4,6,8,10,12,14,16,18,20,22,24,-1,26,-1,28,30,32,34,36,38,40,42,-1,-1,-1,-1,44,46,48,50,52,54,56,58,60,62,64,66,68,70,72,74,-1,-1,-1,-1,-1,-1,-1,-1,-1,-1,-1,-1,-1,-1,-1,-1,-1,-1,-1,-1,-1,-1,-1,-1,-1,-1,-1,-1,-1,-1,-1,-1],"split_conditions":[9.9666664E1,1.3E1,1.07E2,1.4666667E1,2.3666666E1,2.2E2,1.4866667E2,1.4E1,2.2E1,2.4E1,2.7E1,1.87E2,3.6064684E0,1.87E2,8.2741976E-1,9.666667E0,9E0,2.1333334E1,2.0666666E1,3E1,2.1333334E1,4.1E1,7.596341E0,1.4446275E0,2.9930192E-1,-4.5685616E-1,1.0265637E-2,7E0,1.0262E1,1.3333333E1,1.7E1,1.5E1,1.2E1,1.7666666E1,3.6E1,1.9E1,1.9E1,2.9E1,2.8E1,2.3E1,3.0666666E1,3.8E1,4.2E1,1.14509486E-1,-4.6753255E-1,3.709974E-1,1.7730772E-2,-2.4213712E-1,4.158438E-1,-2.447959E-1,-6.48598E-1,8.290709E-1,4.0111315E-1,6.0231024E-1,1.5223823E0,-3.522678E-1,4.9404226E-2,6.575503E-1,-1.0770941E-1,-1.1361269E-1,1.2513676E-1,-3.4088743E-1,-8.0202526E-1,-5.3649306E-1,-1.0897129E0,-1.02132E-1,-5.338644E-1,4.9209446E-1,1.8425594E-1,-4.4036534E-1,2.0939884E-1,2.7358562E-1,7.9396707E-1,-1.3421278E-1,1.05120614E-1],"split_indices":[3,1,1,3,3,0,3,0,0,0,0,0,0,1,0,3,1,3,3,1,3,1,6,0,0,0,0,1,4,3,0,0,2,3,0,3,0,0,0,0,3,3,3,0,0,0,0,0,0,0,0,0,0,0,0,0,0,0,0,0,0,0,0,0,0,0,0,0,0,0,0,0,0,0,0],"split_type":[0,0,0,0,0,0,0,0,0,0,0,0,0,0,0,0,0,0,0,0,0,0,0,0,0,0,0,0,0,0,0,0,0,0,0,0,0,0,0,0,0,0,0,0,0,0,0,0,0,0,0,0,0,0,0,0,0,0,0,0,0,0,0,0,0,0,0,0,0,0,0,0,0,0,0],"sum_hessian":[2.672E3,2.659E3,1.3E1,3.5E2,2.309E3,6E0,7E0,2.08E2,1.42E2,1.185E3,1.124E3,5E0,1E0,3E0,4E0,1.48E2,6E1,9E1,5.2E1,1.036E3,1.49E2,3.27E2,7.97E2,4E0,1E0,2E0,1E0,3.1E1,1.17E2,1.9E1,4.1E1,8.1E1,9E0,2.9E1,2.3E1,9.83E2,5.3E1,6.2E1,8.7E1,2.68E2,5.9E1,3.6E1,7.61E2,8E0,2.3E1,6.6E1,5.1E1,1.2E1,7E0,2.4E1,1.7E1,2E1,6.1E1,4E0,5E0,1.6E1,1.3E1,1.8E1,5E0,6.28E2,3.55E2,4E1,1.3E1,5.6E1,6E0,5.6E1,3.1E1,1.17E2,1.51E2,2.9E1,3E1,2.1E1,1.5E1,5.3E2,2.31E2],"tree_param":{"num_deleted":"0","num_feature":"8","num_nodes":"75","size_leaf_vector":"1"}},{"base_weights":[1.538504E-2,5.7943473E-3,6.4133263E0,3.6515296E-2,-1.2660474E0,3.065497E0,5.21666E-1,6.657906E-3,2.5183165E0,-2.295515E0,6.2413615E-1,2.5699168E-1,-1.3006915E-1,4.6839604E0,6.9402015E-1,-1.88222E0,-1.6943817E0,1.2392662E0,-1.8381851E0,-2.3016441E-1,5.599234E-1,-3.769106E-1,1.6038853E-1,3.245087E-2,5.0276237E0,2.876891E0,-6.371562E-1,-3.884903E0,-1.0282296E0,2.2429552E0,-1.2516128E-1,-2.785937E-1,-8.355145E-1,2.4190265E-1,-1.316422E-1,4.8172355E-1,1.12606086E-1,-6.539609E-2,-3.2722133E-1,1.4821027E-1,-1.632071E-1,1.6171634E0,1.0088654E-1,4.1309854E-1,1.0972693E0,-6.477132E-1,1.1810046E-1,-1.3598276E0,-1.9391061E-1,-8.691633E-1,-4.0732957E-2,2.663511E-1,1.107459E0,-3.835495E-1,1.1610187E-1,-1.5405065E-1,2.8683472E-2],"categories":[],"categories_nodes":[],"categories_segments":[],"categories_sizes":[],"default_left":[0,0,0,0,0,0,0,0,0,0,0,0,0,0,0,0,0,0,0,0,0,0,0,0,0,0,0,0,0,0,0,0,0,0,0,0,0,0,0,0,0,0,0,0,0,0,0,0,0,0,0,0,0,0,0,0,0],"id":17,"left_children":[1,3,5,7,9,-1,-1,11,13,15,17,19,21,23,25,27,-1,29,31,33,35,37,39,-1,41,43,45,47,49,51,53,55,-1,-1,-1,-1,-1,-1,-1,-1,-1,-1,-1,-1,-1,-1,-1,-1,-1,-1,-1,-1,-1,-1,-1,-1,-1],"loss_changes":[1.6397997E2,1.0436896E2,5.337642E1,1.9323631E2,1.2402334E2,0E0,0E0,8.8271675E1,1.192233E2,4.6176483E1,3.71149E1,1.3456973E2,1.1965104E2,2.1471619E1,5.4137177E1,6.0995758E1,0E0,2.6300488E1,6.6077003E0,7.604473E1,1.0787851E2,1.02088715E2,1.8053226E2,0E0,2.032074E1,3.1600494E0,1.9675535E1,2.0149292E1,4.631001E1,1.8315414E1,5.811102E0,3.1280863E-1,0E0,0E0,0E0,0E0,0E0,0E0,0E0,0E0,0E0,0E0,0E0,0E0,0E0,0E0,0E0,0E0,0E0,0E0,0E0,0E0,0E0,0E0,0E0,0E0,0E0],"parents":[2147483647,0,0,1,1,2,2,3,3,4,4,7,7,8,8,9,9,10,10,11,11,12,12,13,13,14,14,15,15,17,17,18,18,19,19,20,20,21,21,22,22,24,24,25,25,26,26,27,27,28,28,29,29,30,30,31,31],"right_children":[2,4,6,8,10,-1,-1,12,14,16,18,20,22,24,26,28,-1,30,32,34,36,38,40,-1,42,44,46,48,50,52,54,56,-1,-1,-1,-1,-1,-1,-1,-1,-1,-1,-1,-1,-1,-1,-1,-1,-1,-1,-1,-1,-1,-1,-1,-1,-1],"split_conditions":[3.2E2,6.6E1,3.94E2,5.9333332E1,7.3333336E1,3.065497E0,5.21666E-1,1.8E1,6.7E1,8.6E1,2.8E0,1.4666667E1,2.6666666E1,6E0,3.5E1,4.5666668E1,-1.6943817E0,8.1E1,2.4675106E1,9E0,1.5E1,2.5E1,4.1E1,3.245087E-2,6.1E1,2.5E1,2.4661665E0,9.500001E0,9.820866E1,8.1E1,1.0195057E1,1.4E1,-8.355145E-1,2.4190265E-1,-1.316422E-1,4.8172355E-1,1.12606086E-1,-6.539609E-2,-3.2722133E-1,1.4821027E-1,-1.632071E-1,1.6171634E0,1.0088654E-1,4.1309854E-1,1.0972693E0,-6.477132E-1,1.1810046E-1,-1.3598276E0,-1.9391061E-1,-8.691633E-1,-4.0732957E-2,2.663511E-1,1.107459E0,-3.835495E-1,1.1610187E-1,-1.5405065E-1,2.8683472E-2],"split_indices":[0,1,0,3,3,0,0,1,0,1,5,3,3,0,1,3,0,2,6,0,0,0,0,0,1,2,4,5,7,3,6,0,0,0,0,0,0,0,0,0,0,0,0,0,0,0,0,0,0,0,0,0,0,0,0,0,0],"split_type":[0,0,0,0,0,0,0,0,0,0,0,0,0,0,0,0,0,0,0,0,0,0,0,0,0,0,0,0,0,0,0,0,0,0,0,0,0,0,0,0,0,0,0,0,0,0,0,0,0,0,0,0,0,0,0,0,0],"sum_hessian":[2.672E3,2.669E3,3E0,2.607E3,6.2E1,1E0,2E0,2.577E3,3E1,4E1,2.2E1,9.1E2,1.667E3,1.3E1,1.7E1,3.7E1,3E0,1.8E1,4E0,3.49E2,5.61E2,9.01E2,7.66E2,1E0,1.2E1,6E0,1.1E1,1E1,2.7E1,1E1,8E0,2E0,2E0,5.8E1,2.91E2,8.3E1,4.78E2,7.38E2,1.63E2,5.2E2,2.46E2,1.1E1,1E0,3E0,3E0,4E0,7E0,8E0,2E0,8E0,1.9E1,6E0,4E0,2E0,6E0,1E0,1E0],"tree_param":{"num_deleted":"0","num_feature":"8","num_nodes":"57","size_leaf_vector":"1"}},{"base_weights":[1.1743342E-2,3.6874427E-3,5.38612E0,8.791575E-2,-3.6114112E-1,2.6056733E0,4.1733247E-1,4.2072996E-2,1.8500129E0,-1.031791E0,8.416947E-3,-1.3678361E-1,3.003958E-1,6.554625E-1,2.6265173E0,-4.6689445E-1,-2.0811634E0,1.3102303E0,-1.6913247E-1,8.259731E-2,-6.82105E-1,4.794894E-1,-7.6510686E-1,-7.2677135E-2,2.029809E0,2.8980527E0,9.215991E-1,-1.509015E0,5.348015E-2,-1.8517487E0,-1.4834224E0,2.0398004E0,-3.058176E-1,-5.278022E-1,4.3581787E-1,-2.2443737E-1,5.5782538E-2,-1.6885838E-1,-5.7768714E-1,6.1241645E-1,1.1556755E-1,-4.3725452E-1,-1.1406761E-2,9.766961E-2,-9.069472E-1,1.2084046E-1,6.6140866E-1,8.977115E-1,5.2717213E-2,2.758255E-2,3.2074264E-1,-9.079819E-1,-3.2473814E-1,5.830112E-1,-1.2594843E-1,-6.5457433E-1,-1.5468924E-1,1.1635187E0,3.989406E-1,-5.260376E-1,2.4544209E-1,3.3929495E-3,-4.3775016E-1,6.219566E-1,-7.780075E-2],"categories":[],"categories_nodes":[],"categories_segments":[],"categories_sizes":[],"default_left":[0,0,0,0,0,0,0,0,0,0,0,0,0,0,0,0,0,0,0,0,0,0,0,0,0,0,0,0,0,0,0,0,0,0,0,0,0,0,0,0,0,0,0,0,0,0,0,0,0,0,0,0,0,0,0,0,0,0,0,0,0,0,0,0,0],"id":18,"left_children":[1,3,5,7,9,-1,-1,11,13,15,17,19,21,23,25,27,29,31,33,35,37,39,41,43,45,47,49,51,53,55,-1,57,59,61,63,-1,-1,-1,-1,-1,-1,-1,-1,-1,-1,-1,-1,-1,-1,-1,-1,-1,-1,-1,-1,-1,-1,-1,-1,-1,-1,-1,-1,-1,-1],"loss_changes":[1.1570883E2,8.207788E1,4.0642906E1,1.7521341E2,1.2417856E2,0E0,0E0,9.780609E1,4.9294952E1,1.0454439E2,7.510973E1,1.4971735E2,1.6562103E2,2.316399E1,1.2606369E1,6.3528984E1,3.157428E1,4.660559E1,6.2285553E1,7.680362E1,5.2149307E1,1.0845914E2,6.2874466E1,1.9784338E1,1.388279E0,6.6636353E0,6.3616276E-1,2.1969902E1,7.148144E1,2.4902222E1,0E0,3.0088287E1,2.2586712E1,9.0396324E1,1.2232766E2,0E0,0E0,0E0,0E0,0E0,0E0,0E0,0E0,0E0,0E0,0E0,0E0,0E0,0E0,0E0,0E0,0E0,0E0,0E0,0E0,0E0,0E0,0E0,0E0,0E0,0E0,0E0,0E0,0E0,0E0],"parents":[2147483647,0,0,1,1,2,2,3,3,4,4,7,7,8,8,9,9,10,10,11,11,12,12,13,13,14,14,15,15,16,16,17,17,18,18,19,19,20,20,21,21,22,22,23,23,24,24,25,25,26,26,27,27,28,28,29,29,31,31,32,32,33,33,34,34],"right_children":[2,4,6,8,10,-1,-1,12,14,16,18,20,22,24,26,28,30,32,34,36,38,40,42,44,46,48,50,52,54,56,-1,58,60,62,64,-1,-1,-1,-1,-1,-1,-1,-1,-1,-1,-1,-1,-1,-1,-1,-1,-1,-1,-1,-1,-1,-1,-1,-1,-1,-1,-1,-1,-1,-1],"split_conditions":[3.2E2,3.5E1,3.94E2,4.0666668E1,3.4666668E1,2.6056733E0,4.1733247E-1,2.1333334E1,2.3E1,2.8E1,3.2E1,1.9E1,3.7E1,2.2E0,2.1986542E1,2.5666666E1,5E1,5.8E1,5.0666668E1,1.1333333E1,2.4E1,1.7E1,3.3666668E1,1.8000002E0,1.9E1,1.3305749E1,6E0,7.1564964E1,1.8E1,4.4E1,-1.4834224E0,2.5E1,3.7666668E1,5E1,5.8E1,-2.2443737E-1,5.5782538E-2,-1.6885838E-1,-5.7768714E-1,6.1241645E-1,1.1556755E-1,-4.3725452E-1,-1.1406761E-2,9.766961E-2,-9.069472E-1,1.2084046E-1,6.6140866E-1,8.977115E-1,5.2717213E-2,2.758255E-2,3.2074264E-1,-9.079819E-1,-3.2473814E-1,5.830112E-1,-1.2594843E-1,-6.5457433E-1,-1.5468924E-1,1.1635187E0,3.989406E-1,-5.260376E-1,2.4544209E-1,3.3929495E-3,-4.3775016E-1,6.219566E-1,-7.780075E-2],"split_indices":[0,1,0,3,3,0,0,3,2,0,0,0,0,5,6,3,1,1,3,3,1,0,3,5,0,4,0,7,0,2,0,0,3,1,0,0,0,0,0,0,0,0,0,0,0,0,0,0,0,0,0,0,0,0,0,0,0,0,0,0,0,0,0,0,0],"split_type":[0,0,0,0,0,0,0,0,0,0,0,0,0,0,0,0,0,0,0,0,0,0,0,0,0,0,0,0,0,0,0,0,0,0,0,0,0,0,0,0,0,0,0,0,0,0,0,0,0,0,0,0,0,0,0,0,0,0,0,0,0,0,0,0,0],"sum_hessian":[2.672E3,2.669E3,3E0,2.169E3,5E2,1E0,2E0,2.115E3,5.4E1,1.77E2,3.23E2,1.25E3,8.65E2,2.2E1,3.2E1,1.16E2,6.1E1,3.8E1,2.85E2,8.92E2,3.58E2,7.41E2,1.24E2,1.5E1,7E0,2.7E1,5E0,3.8E1,7.8E1,5.8E1,3E0,2.6E1,1.2E1,1.79E2,1.06E2,9.8E1,7.94E2,3.28E2,3E1,4.1E1,7E2,6.3E1,6.1E1,1.4E1,1E0,1E0,6E0,2.6E1,1E0,1E0,4E0,7E0,3.1E1,1.5E1,6.3E1,4.6E1,1.2E1,6E0,2E1,5E0,7E0,1.14E2,6.5E1,3.1E1,7.5E1],"tree_param":{"num_deleted":"0","num_feature":"8","num_nodes":"65","size_leaf_vector":"1"}},{"base_weights":[8.961899E-3,6.203099E-4,3.716695E0,5.23477E-1,-5.7015985E-2,2.2148209E0,1.5069396E0,2.9450506E-2,1.0600613E0,-3.93175E-1,3.9883092E-2,4.9755594E-1,1.3509293E-1,2.9260322E-1,-8.596102E-1,2.1550183E0,7.568544E-1,-2.7675512E-1,-1.603503E0,2.9092205E-1,-1.6617411E-1,-1.3368307E0,5.102078E-1,-1.4984934E0,6.884636E-2,2.411149E0,8.56703E-1,3.1485033E-1,1.1357311E0,-1.0292981E-1,-1.021415E0,-9.174734E-1,-2.27947E0,9.858669E-2,7.459779E-1,-5.232296E-1,4.2915717E-2,2.7017929E-2,-4.3897298E-1,2.9360524E-1,2.9195522E-4,-2.064643E-1,-5.7414156E-1,-2.9667342E-1,9.826458E-2,4.8084977E-1,8.542374E-1,3.4061602E-1,-8.050733E-2,2.210746E-1,-2.288404E-1,3.004951E-1,9.24367E-1,-1.5135746E-1,7.45433E-2,-2.568904E-1,-5.675892E-1,3.3164138E-1,-3.4243366E-1,-8.49306E-1,-3.838059E-1,2.1345177E-1,-6.313501E-2,3.0902955E-1,6.8828724E-2,-6.631811E-2,-4.5598096E-1,4.519016E-2,-2.9883605E-1],"categories":[],"categories_nodes":[],"categories_segments":[],"categories_sizes":[],"default_left":[0,0,0,0,0,0,0,0,0,0,0,0,0,0,0,0,0,0,0,0,0,0,0,0,0,0,0,0,0,0,0,0,0,0,0,0,0,0,0,0,0,0,0,0,0,0,0,0,0,0,0,0,0,0,0,0,0,0,0,0,0,0,0,0,0,0,0,0,0],"id":19,"left_children":[1,3,5,7,9,-1,11,13,15,17,19,-1,-1,21,23,25,27,29,31,33,35,37,39,41,43,45,47,49,51,53,55,57,59,61,63,65,67,-1,-1,-1,-1,-1,-1,-1,-1,-1,-1,-1,-1,-1,-1,-1,-1,-1,-1,-1,-1,-1,-1,-1,-1,-1,-1,-1,-1,-1,-1,-1,-1],"loss_changes":[8.266928E1,8.043143E1,3.7480995E1,7.02168E1,7.832238E1,0E0,5.3972244E-2,3.2771786E1,4.053279E1,7.536379E1,9.6625244E1,0E0,0E0,3.8975864E1,1.9084776E1,6.912895E0,1.6556389E1,6.3579704E1,1.970411E1,7.362108E1,7.66202E1,2.4766788E0,2.2901224E1,5.0767403E0,4.154936E0,3.19487E0,2.1859064E0,2.239439E1,1.0999779E1,5.6574753E1,1.1747696E1,1.2588919E1,9.065262E0,1.12472565E2,3.645421E1,1.1380901E2,7.267616E1,0E0,0E0,0E0,0E0,0E0,0E0,0E0,0E0,0E0,0E0,0E0,0E0,0E0,0E0,0E0,0E0,0E0,0E0,0E0,0E0,0E0,0E0,0E0,0E0,0E0,0E0,0E0,0E0,0E0,0E0,0E0,0E0],"parents":[2147483647,0,0,1,1,2,2,3,3,4,4,6,6,7,7,8,8,9,9,10,10,13,13,14,14,15,15,16,16,17,17,18,18,19,19,20,20,21,21,22,22,23,23,24,24,25,25,26,26,27,27,28,28,29,29,30,30,31,31,32,32,33,33,34,34,35,35,36,36],"right_children":[2,4,6,8,10,-1,12,14,16,18,20,-1,-1,22,24,26,28,30,32,34,36,38,40,42,44,46,48,50,52,54,56,58,60,62,64,66,68,-1,-1,-1,-1,-1,-1,-1,-1,-1,-1,-1,-1,-1,-1,-1,-1,-1,-1,-1,-1,-1,-1,-1,-1,-1,-1,-1,-1,-1,-1,-1,-1],"split_conditions":[2.0466667E2,1.2E1,8.5E1,1.3666667E1,1.7666666E1,2.2148209E0,4.25E2,1.4E1,9E0,2.2E1,2.5E1,4.9755594E-1,1.3509293E-1,8.333333E0,6.5999994E0,5.999999E0,1.6666666E1,1.8E1,1.3E1,2.4E1,2.8666666E1,4E0,1E1,9E0,1.1E1,1.1000001E0,2.6E1,1.9E1,3.5E1,1.4333333E1,2.2E1,1.1177405E1,1.7E1,1.9E1,3.3E1,2.6E1,6.6E1,2.7017929E-2,-4.3897298E-1,2.9360524E-1,2.9195522E-4,-2.064643E-1,-5.7414156E-1,-2.9667342E-1,9.826458E-2,4.8084977E-1,8.542374E-1,3.4061602E-1,-8.050733E-2,2.210746E-1,-2.288404E-1,3.004951E-1,9.24367E-1,-1.5135746E-1,7.45433E-2,-2.568904E-1,-5.675892E-1,3.3164138E-1,-3.4243366E-1,-8.49306E-1,-3.838059E-1,2.1345177E-1,-6.313501E-2,3.0902955E-1,6.8828724E-2,-6.631811E-2,-4.5598096E-1,4.519016E-2,-2.9883605E-1],"split_indices":[3,1,1,3,3,0,1,0,1,1,1,0,0,3,5,5,3,0,0,3,3,1,1,1,3,5,0,0,2,3,0,6,3,0,0,0,1,0,0,0,0,0,0,0,0,0,0,0,0,0,0,0,0,0,0,0,0,0,0,0,0,0,0,0,0,0,0,0,0],"split_type":[0,0,0,0,0,0,0,0,0,0,0,0,0,0,0,0,0,0,0,0,0,0,0,0,0,0,0,0,0,0,0,0,0,0,0,0,0,0,0,0,0,0,0,0,0,0,0,0,0,0,0,0,0,0,0,0,0,0,0,0,0,0,0,0,0,0,0,0,0],"sum_hessian":[2.672E3,2.667E3,5E0,2.64E2,2.403E3,1E0,4E0,1.38E2,1.26E2,5.37E2,1.866E3,3E0,1E0,1.07E2,3.1E1,2.6E1,1E2,4.91E2,4.6E1,8.41E2,1.025E3,1.2E1,9.5E1,1.8E1,1.3E1,2.1E1,5E0,4.7E1,5.3E1,3.99E2,9.2E1,2.4E1,2.2E1,5.92E2,2.49E2,3.78E2,6.47E2,1E0,1.1E1,4.9E1,4.6E1,7E0,1.1E1,2E0,1.1E1,9E0,1.2E1,4E0,1E0,3.4E1,1.3E1,5.1E1,2E0,1.86E2,2.13E2,7.9E1,1.3E1,2E0,2.2E1,1.3E1,9E0,1.98E2,3.94E2,1.6E2,8.9E1,2.91E2,8.7E1,5.87E2,6E1],"tree_param":{"num_deleted":"0","num_feature":"8","num_nodes":"69","size_leaf_vector":"1"}},{"base_weights":[7.085322E-3,-9.807293E-3,1.7272607E0,4.0519503E-3,-2.2899063E0,3.0493152E0,1.7064343E-1,6.723306E-1,-3.2333136E-2,6.0467404E-1,-2.7466087E0,2.3184428E0,1.882599E0,-4.0984133E-1,3.544162E-1,-3.2170635E-1,1.310953E0,-7.62344E-2,5.9702694E-1,-1.3086091E-1,4.0296423E-1,-3.216171E0,4.7176998E-2,2.9174051E0,3.4002572E-1,-7.389539E-1,1.8628788E-1,1.5064405E-1,-2.1818619E0,-5.8655137E-1,1.3746274E0,-1.5975876E-2,-1.1987317E0,2.1950428E0,2.6363376E-1,-9.4493484E-1,-1.1604772E0,-1.0095864E-1,1.22188285E-1,1.1843079E0,2.7005827E-1,8.0876544E-2,-2.9837403E-1,-5.15934E-2,1.08910754E-1,4.3685856E-1,-6.80024E-2,-8.618844E-1,-4.1296035E-1,5.525468E-1,2.355587E-1,-1.7552888E-2,3.23646E-1,-2.7706477E-1,-8.7374914E-1,1.0235971E0,3.6207026E-1,1.5924387E-1,-3.6743E-1,-3.5244447E-1,-3.8294222E-2],"categories":[],"categories_nodes":[],"categories_segments":[],"categories_sizes":[],"default_left":[0,0,0,0,0,0,0,0,0,0,0,0,0,0,0,0,0,0,0,0,0,0,0,0,0,0,0,0,0,0,0,0,0,0,0,0,0,0,0,0,0,0,0,0,0,0,0,0,0,0,0,0,0,0,0,0,0,0,0,0,0],"id":20,"left_children":[1,3,5,7,9,11,13,15,17,19,21,23,-1,25,-1,27,29,31,33,-1,-1,35,37,39,-1,41,43,45,47,-1,49,51,53,55,57,59,-1,-1,-1,-1,-1,-1,-1,-1,-1,-1,-1,-1,-1,-1,-1,-1,-1,-1,-1,-1,-1,-1,-1,-1,-1],"loss_changes":[7.7689674E1,8.368726E1,5.2985916E1,6.404413E1,2.2812195E1,1.8460281E1,8.111559E0,8.67565E1,6.9064514E1,2.8921018E0,1.8517715E1,5.920555E0,0E0,1.9034009E0,0E0,4.7775524E1,1.994899E1,1.5798798E2,8.626242E1,0E0,0E0,1.4117256E1,5.5160344E-1,1.3072777E1,0E0,1.814986E0,3.1572524E-1,2.2004873E1,2.1673431E0,0E0,2.1134933E1,1.03346E2,5.3430344E1,2.955252E1,5.4733162E1,6.0155034E-1,0E0,0E0,0E0,0E0,0E0,0E0,0E0,0E0,0E0,0E0,0E0,0E0,0E0,0E0,0E0,0E0,0E0,0E0,0E0,0E0,0E0,0E0,0E0,0E0,0E0],"parents":[2147483647,0,0,1,1,2,2,3,3,4,4,5,5,6,6,7,7,8,8,9,9,10,10,11,11,13,13,15,15,16,16,17,17,18,18,21,21,22,22,23,23,25,25,26,26,27,27,28,28,30,30,31,31,32,32,33,33,34,34,35,35],"right_children":[2,4,6,8,10,12,14,16,18,20,22,24,-1,26,-1,28,30,32,34,-1,-1,36,38,40,-1,42,44,46,48,-1,50,52,54,56,58,60,-1,-1,-1,-1,-1,-1,-1,-1,-1,-1,-1,-1,-1,-1,-1,-1,-1,-1,-1,-1,-1,-1,-1,-1,-1],"split_conditions":[7.7666664E1,7.7E1,1.07E2,1E1,1.4693999E1,2.2E2,1.4866667E2,1.1E1,4.5E1,3.7E1,2.5975565E1,1.02E2,1.882599E0,1.87E2,3.544162E-1,1.4E1,3E0,4.3E1,4.7E1,-1.3086091E-1,4.0296423E-1,8E1,1.7E1,7.75575E0,3.4002572E-1,1.08E2,1.82E2,7E0,1E1,-5.8655137E-1,2.1068459E1,3.7333332E1,5.5E1,5E1,7.1E1,7.5E1,-1.1604772E0,-1.0095864E-1,1.22188285E-1,1.1843079E0,2.7005827E-1,8.0876544E-2,-2.9837403E-1,-5.15934E-2,1.08910754E-1,4.3685856E-1,-6.80024E-2,-8.618844E-1,-4.1296035E-1,5.525468E-1,2.355587E-1,-1.7552888E-2,3.23646E-1,-2.7706477E-1,-8.7374914E-1,1.0235971E0,3.6207026E-1,1.5924387E-1,-3.6743E-1,-3.5244447E-1,-3.8294222E-2],"split_indices":[3,1,1,0,6,0,3,3,3,0,6,0,0,2,0,1,0,0,0,0,0,1,0,4,0,1,1,0,3,0,6,3,0,1,0,0,0,0,0,0,0,0,0,0,0,0,0,0,0,0,0,0,0,0,0,0,0,0,0,0,0],"split_type":[0,0,0,0,0,0,0,0,0,0,0,0,0,0,0,0,0,0,0,0,0,0,0,0,0,0,0,0,0,0,0,0,0,0,0,0,0,0,0,0,0,0,0,0,0,0,0,0,0,0,0,0,0,0,0,0,0,0,0,0,0],"sum_hessian":[2.672E3,2.647E3,2.5E1,2.632E3,1.5E1,1.3E1,1.2E1,1.35E2,2.497E3,2E0,1.3E1,1.2E1,1E0,8E0,4E0,5.3E1,8.2E1,2.335E3,1.62E2,1E0,1E0,1.1E1,2E0,7E0,5E0,5E0,3E0,4.3E1,1E1,1E0,8.1E1,2.217E3,1.18E2,2.7E1,1.35E2,3E0,8E0,1E0,1E0,4E0,3E0,1E0,4E0,1E0,2E0,9E0,3.4E1,4E0,6E0,4.4E1,3.7E1,2.135E3,8.2E1,1.03E2,1.5E1,1.1E1,1.6E1,1.15E2,2E1,2E0,1E0],"tree_param":{"num_deleted":"0","num_feature":"8","num_nodes":"61","size_leaf_vector":"1"}},{"base_weights":[5.7985224E-3,-1.6486013E-2,1.1293418E0,2.685439E-2,-8.752519E-1,2.0924222E0,1.6010348E-1,-9.611034E-3,6.5508807E-1,-2.4567084E0,-6.228881E-1,2.467694E0,-1.607226E0,-1.0614195E0,6.407075E-1,2.8463187E-2,-8.44563E-1,1.7215613E0,2.626419E-3,-4.8722637E-1,-1.135987E0,-5.021077E-1,-2.3283563E0,2.9268336E0,1.3759689E-1,-1.8669892E-2,-7.0458186E-1,-1.7596365E0,6.8882114E-1,2.029054E0,4.2655054E-2,-1.7713906E-2,7.7267826E-1,-4.6604973E-1,-1.5360725E0,1.8537228E0,-3.2780647E-1,-1.3942703E0,4.7538182E-1,6.4082795E-1,-1.1671425E0,6.206858E-1,-5.9896046E-1,-8.4954476E-1,1.0386E-1,4.0836334E0,1.989816E0,-5.220181E-1,5.9081656E-1,-7.247329E-1,-2.9823813E-1,3.425194E-1,-3.2549858E-2,7.560322E-1,2.093895E-1,-4.398228E-1,2.5514126E-1,6.5499106E-3,-2.5927448E-1,6.890532E-1,1.1314741E-1,-6.6211927E-1,-6.9023944E-2,-3.0204153E-1,-6.887591E-1,4.160432E-1,8.765837E-1,-2.772137E-1,5.3686526E-2,-3.231578E-1,-1.2079353E0,1.8923005E-1,-6.155794E-1,-1.5461798E-1,-5.593031E-1,4.900805E-3,-3.2226384E-1,1.5314943E-1,1.3563459E0,8.185116E-1,3.5615158E-1,-1.2597543E-1,-8.231736E-3,-1.7183839E-1,1.3225904E-1],"categories":[],"categories_nodes":[],"categories_segments":[],"categories_sizes":[],"default_left":[0,0,0,0,0,0,0,0,0,0,0,0,0,0,0,0,0,0,0,0,0,0,0,0,0,0,0,0,0,0,0,0,0,0,0,0,0,0,0,0,0,0,0,0,0,0,0,0,0,0,0,0,0,0,0,0,0,0,0,0,0,0,0,0,0,0,0,0,0,0,0,0,0,0,0,0,0,0,0,0,0,0,0,0,0],"id":21,"left_children":[1,3,5,7,9,11,13,15,17,19,21,23,25,27,29,31,33,35,37,39,-1,41,43,45,47,-1,-1,49,51,53,55,57,59,61,63,65,67,69,71,-1,73,-1,75,-1,-1,77,79,-1,-1,-1,81,-1,-1,-1,-1,-1,83,-1,-1,-1,-1,-1,-1,-1,-1,-1,-1,-1,-1,-1,-1,-1,-1,-1,-1,-1,-1,-1,-1,-1,-1,-1,-1,-1,-1],"loss_changes":[6.694423E1,9.7612404E1,4.8204636E1,5.7209587E1,4.8756645E1,4.0063858E1,1.6530918E1,7.5080574E1,9.532459E1,4.268219E1,2.148951E1,2.5273438E1,3.2901201E0,1.0988458E1,1.6519531E1,7.764578E1,2.6243896E1,1.4691727E1,5.745639E1,1.6762222E1,0E0,2.7136715E1,1.0406086E1,1.3553162E1,2.0624235E1,0E0,0E0,5.032812E0,1.207221E0,2.1628666E0,5.182824E0,7.1259705E1,7.870838E1,2.7428444E1,1.2165291E1,2.038736E1,1.3739667E0,1.4024067E1,2.6820217E1,0E0,2.2199316E0,0E0,2.9552074E1,0E0,0E0,1.0198486E1,4.4673195E0,0E0,0E0,0E0,8.733025E-2,0E0,0E0,0E0,0E0,0E0,2.4052494E0,0E0,0E0,0E0,0E0,0E0,0E0,0E0,0E0,0E0,0E0,0E0,0E0,0E0,0E0,0E0,0E0,0E0,0E0,0E0,0E0,0E0,0E0,0E0,0E0,0E0,0E0,0E0,0E0],"parents":[2147483647,0,0,1,1,2,2,3,3,4,4,5,5,6,6,7,7,8,8,9,9,10,10,11,11,12,12,13,13,14,14,15,15,16,16,17,17,18,18,19,19,21,21,22,22,23,23,24,24,27,27,28,28,29,29,30,30,31,31,32,32,33,33,34,34,35,35,36,36,37,37,38,38,40,40,42,42,45,45,46,46,50,50,56,56],"right_children":[2,4,6,8,10,12,14,16,18,20,22,24,26,28,30,32,34,36,38,40,-1,42,44,46,48,-1,-1,50,52,54,56,58,60,62,64,66,68,70,72,-1,74,-1,76,-1,-1,78,80,-1,-1,-1,82,-1,-1,-1,-1,-1,84,-1,-1,-1,-1,-1,-1,-1,-1,-1,-1,-1,-1,-1,-1,-1,-1,-1,-1,-1,-1,-1,-1,-1,-1,-1,-1,-1,-1],"split_conditions":[6.3666668E1,5.2E1,6.1E1,4.1E1,3.5666668E1,2.9992416E2,7.3666664E1,4.1E1,4.9E1,1.9E1,8.1E1,8.5E1,6E0,2E-1,8E1,3.3333332E1,3.3E1,5.1E1,4.5E1,1.1E1,-1.135987E0,2.2E1,9E1,3.2474167E0,1.8745003E0,-1.8669892E-2,-7.0458186E-1,6.0515842E0,6.9E1,7.75575E0,7.7E1,3.8E1,2.9E1,2.9333334E1,3.7333332E1,1.4090617E2,4.4E1,6.4E1,7.7E1,6.4082795E-1,5.701584E0,6.206858E-1,4.5E1,-8.4954476E-1,1.0386E-1,6E0,6.8E1,-5.220181E-1,5.9081656E-1,-7.247329E-1,6.4E1,3.425194E-1,-3.2549858E-2,7.560322E-1,2.093895E-1,-4.398228E-1,1.0195057E1,6.5499106E-3,-2.5927448E-1,6.890532E-1,1.1314741E-1,-6.6211927E-1,-6.9023944E-2,-3.0204153E-1,-6.887591E-1,4.160432E-1,8.765837E-1,-2.772137E-1,5.3686526E-2,-3.231578E-1,-1.2079353E0,1.8923005E-1,-6.155794E-1,-1.5461798E-1,-5.593031E-1,4.900805E-3,-3.2226384E-1,1.5314943E-1,1.3563459E0,8.185116E-1,3.5615158E-1,-1.2597543E-1,-8.231736E-3,-1.7183839E-1,1.3225904E-1],"split_indices":[3,1,2,3,3,7,3,0,0,0,1,1,0,5,1,3,1,1,3,0,0,2,2,4,4,0,0,4,0,4,3,1,0,3,3,7,3,0,0,0,4,0,0,0,0,1,0,0,0,0,0,0,0,0,0,0,6,0,0,0,0,0,0,0,0,0,0,0,0,0,0,0,0,0,0,0,0,0,0,0,0,0,0,0,0],"split_type":[0,0,0,0,0,0,0,0,0,0,0,0,0,0,0,0,0,0,0,0,0,0,0,0,0,0,0,0,0,0,0,0,0,0,0,0,0,0,0,0,0,0,0,0,0,0,0,0,0,0,0,0,0,0,0,0,0,0,0,0,0,0,0,0,0,0,0,0,0,0,0,0,0,0,0,0,0,0,0,0,0,0,0,0,0],"sum_hessian":[2.672E3,2.621E3,5.1E1,2.496E3,1.25E2,2.5E1,2.6E1,2.36E3,1.36E2,1.6E1,1.09E2,2.3E1,2E0,7E0,1.9E1,2.258E3,1.02E2,5.1E1,8.5E1,7E0,9E0,1.03E2,6E0,1.9E1,4E0,1E0,1E0,5E0,2E0,5E0,1.4E1,2.127E3,1.31E2,6.7E1,3.5E1,4.8E1,3E0,2.1E1,6.4E1,1E0,6E0,3E0,1E2,5E0,1E0,7E0,1.2E1,2E0,2E0,3E0,2E0,1E0,1E0,3E0,2E0,1E0,1.3E1,2.033E3,9.4E1,2.6E1,1.05E2,7E0,6E1,2.2E1,1.3E1,3.5E1,1.3E1,1E0,2E0,2E1,1E0,6.1E1,3E0,4E0,2E0,4.4E1,5.6E1,1E0,6E0,5E0,7E0,1E0,1E0,2E0,1.1E1],"tree_param":{"num_deleted":"0","num_feature":"8","num_nodes":"85","size_leaf_vector":"1"}},{"base_weights":[3.4059666E-3,-2.4658563E-2,6.575337E-1,2.5590325E-2,-6.9031936E-1,8.010105E-1,-1.2719216E0,-6.992273E-2,2.537542E-1,-6.058228E-1,-1.0579602E0,1.2353203E0,2.3598903E-1,2.164383E-1,-2.2082253E0,-9.625669E-3,-8.209059E-1,2.2341619E0,1.9556163E-1,-4.7413945E-1,-1.6092459E0,1.6137701E0,3.7356728E-1,-4.392136E-3,2.7610893E0,-6.9681805E-4,1.3017654E-1,-8.660975E-1,7.602596E-2,5.8686532E-2,-5.107739E-1,-5.0510216E-1,-1.9484491E0,3.9273944E-1,2.9952903E0,6.4059716E-1,5.1984567E-2,-1.1357776E0,-2.6066956E-1,-2.521367E0,-6.337498E-1,1.9725367E0,-7.479966E-1,-7.917964E-1,8.4632546E-1,-1.5592613E0,1.5120459E-1,1.396756E0,5.7755023E-1,-1.5868379E-2,1.555481E-2,-3.5806E-2,1.2821418E-1,-1.2023791E-1,-6.2437856E-1,-3.512135E-1,6.794933E-2,-6.012897E-1,-7.445355E-2,-1.3071213E-2,2.9670298E-1,9.534641E-1,9.259301E-2,2.0532395E-1,-5.948437E-1,1.1074071E-1,-4.994491E-2,-1.8937016E-2,-6.972326E-1,3.0828597E-2,-2.542663E-1,-5.216718E-2,-8.2886297E-1,-5.2828395E-1,1.7972155E-1,6.786388E-1,1.4730133E-1,-5.230997E-1,-6.0038913E-2,-4.018332E-1,2.9196626E-1,3.8584644E-1,6.6827945E-2,9.28442E-2,-6.856007E-1,1.6851656E-1,-2.2338529E-1,4.1828156E-2,2.1806946E-1],"categories":[],"categories_nodes":[],"categories_segments":[],"categories_sizes":[],"default_left":[0,0,0,0,0,0,0,0,0,0,0,0,0,0,0,0,0,0,0,0,0,0,0,0,0,0,0,0,0,0,0,0,0,0,0,0,0,0,0,0,0,0,0,0,0,0,0,0,0,0,0,0,0,0,0,0,0,0,0,0,0,0,0,0,0,0,0,0,0,0,0,0,0,0,0,0,0,0,0,0,0,0,0,0,0,0,0,0,0],"id":22,"left_children":[1,3,5,7,9,11,13,15,17,19,-1,21,23,25,27,29,31,33,35,37,39,41,43,45,47,49,-1,-1,-1,51,53,55,57,59,61,63,65,67,69,71,73,75,77,79,81,83,85,-1,87,-1,-1,-1,-1,-1,-1,-1,-1,-1,-1,-1,-1,-1,-1,-1,-1,-1,-1,-1,-1,-1,-1,-1,-1,-1,-1,-1,-1,-1,-1,-1,-1,-1,-1,-1,-1,-1,-1,-1,-1],"loss_changes":[4.9086575E1,8.578017E1,3.1470348E1,5.1993164E1,4.100061E1,2.49841E1,1.1626399E1,7.6156555E1,8.069557E1,2.2492592E1,0E0,1.831269E1,2.793351E1,1.8919559E-1,9.086029E0,5.3367382E1,4.352613E1,2.6854805E1,4.3736076E1,2.1878586E1,1.6197498E1,3.5368378E1,1.1137886E1,1.0638866E1,1.3860176E1,1.0970932E-2,0E0,0E0,0E0,9.011215E1,3.146516E1,4.847419E1,2.0664902E0,1.8642037E0,5.899376E0,2.0553238E1,3.6021534E1,4.829069E1,2.5682186E1,5.1889496E0,1.634089E1,1.3905701E1,2.9240057E0,7.103219E0,3.5531712E0,6.1346483E0,1.5128288E1,0E0,9.494901E-2,0E0,0E0,0E0,0E0,0E0,0E0,0E0,0E0,0E0,0E0,0E0,0E0,0E0,0E0,0E0,0E0,0E0,0E0,0E0,0E0,0E0,0E0,0E0,0E0,0E0,0E0,0E0,0E0,0E0,0E0,0E0,0E0,0E0,0E0,0E0,0E0,0E0,0E0,0E0,0E0],"parents":[2147483647,0,0,1,1,2,2,3,3,4,4,5,5,6,6,7,7,8,8,9,9,11,11,12,12,13,13,14,14,15,15,16,16,17,17,18,18,19,19,20,20,21,21,22,22,23,23,24,24,25,25,29,29,30,30,31,31,32,32,33,33,34,34,35,35,36,36,37,37,38,38,39,39,40,40,41,41,42,42,43,43,44,44,45,45,46,46,48,48],"right_children":[2,4,6,8,10,12,14,16,18,20,-1,22,24,26,28,30,32,34,36,38,40,42,44,46,48,50,-1,-1,-1,52,54,56,58,60,62,64,66,68,70,72,74,76,78,80,82,84,86,-1,88,-1,-1,-1,-1,-1,-1,-1,-1,-1,-1,-1,-1,-1,-1,-1,-1,-1,-1,-1,-1,-1,-1,-1,-1,-1,-1,-1,-1,-1,-1,-1,-1,-1,-1,-1,-1,-1,-1,-1,-1],"split_conditions":[5.3333332E1,4.4E1,2.8839767E2,2.5666666E1,6.4E1,6.6E1,5.5E1,2.9E1,1.8E1,6.6E1,-1.0579602E0,6.9E1,3.2E2,6.6E1,5.7E1,2.5E1,2.3E1,2.7E1,2.4E1,3.4E1,1.4907225E2,2.0535632E2,2.4661665E0,6.8E1,3.94E2,6E0,1.3017654E-1,-8.660975E-1,7.602596E-2,1.9E1,3.4E1,2.2666666E1,4.8E1,4.2224164E0,1.4299999E1,1.6966166E1,3.1E1,2.3E1,4.6E1,3.4E1,4.2E1,2.4122683E1,1.0514218E1,8.3E1,5E1,5.5E1,2.8E0,1.396756E0,4.25E2,-1.5868379E-2,1.555481E-2,-3.5806E-2,1.2821418E-1,-1.2023791E-1,-6.2437856E-1,-3.512135E-1,6.794933E-2,-6.012897E-1,-7.445355E-2,-1.3071213E-2,2.9670298E-1,9.534641E-1,9.259301E-2,2.0532395E-1,-5.948437E-1,1.1074071E-1,-4.994491E-2,-1.8937016E-2,-6.972326E-1,3.0828597E-2,-2.542663E-1,-5.216718E-2,-8.2886297E-1,-5.2828395E-1,1.7972155E-1,6.786388E-1,1.4730133E-1,-5.230997E-1,-6.0038913E-2,-4.018332E-1,2.9196626E-1,3.8584644E-1,6.6827945E-2,9.28442E-2,-6.856007E-1,1.6851656E-1,-2.2338529E-1,4.1828156E-2,2.1806946E-1],"split_indices":[3,1,7,3,0,1,1,1,0,1,0,0,0,0,1,0,0,1,1,3,7,7,4,1,0,0,0,0,0,3,0,3,2,4,5,4,0,0,0,3,3,6,6,0,1,0,5,0,0,0,0,0,0,0,0,0,0,0,0,0,0,0,0,0,0,0,0,0,0,0,0,0,0,0,0,0,0,0,0,0,0,0,0,0,0,0,0,0,0],"split_type":[0,0,0,0,0,0,0,0,0,0,0,0,0,0,0,0,0,0,0,0,0,0,0,0,0,0,0,0,0,0,0,0,0,0,0,0,0,0,0,0,0,0,0,0,0,0,0,0,0,0,0,0,0,0,0,0,0,0,0,0,0,0,0,0,0,0,0,0,0,0,0,0,0,0,0,0,0,0,0,0,0,0,0,0,0,0,0,0,0],"sum_hessian":[2.672E3,2.563E3,1.09E2,2.384E3,1.79E2,1.02E2,7E0,1.681E3,7.03E2,1.75E2,4E0,5.7E1,4.5E1,3E0,4E0,1.557E3,1.24E2,1.9E1,6.84E2,1.56E2,1.9E1,3.9E1,1.8E1,4.2E1,3E0,2E0,1E0,3E0,1E0,1.371E3,1.86E2,9.8E1,2.6E1,6E0,1.3E1,1.66E2,5.18E2,3.7E1,1.19E2,9E0,1E1,3.4E1,5E0,5E0,1.3E1,3E0,3.9E1,1E0,2E0,1E0,1E0,9.25E2,4.46E2,1.75E2,1.1E1,5.1E1,4.7E1,2.5E1,1E0,4E0,2E0,1.2E1,1E0,1.64E2,2E0,2.11E2,3.07E2,2E1,1.7E1,7.4E1,4.5E1,1E0,8E0,5E0,5E0,2.8E1,6E0,1E0,4E0,4E0,1E0,7E0,6E0,1E0,2E0,2.7E1,1.2E1,1E0,1E0],"tree_param":{"num_deleted":"0","num_feature":"8","num_nodes":"89","size_leaf_vector":"1"}},{"base_weights":[1.2982546E-3,2.380629E-1,-8.024276E-2,2.5122285E-2,6.155644E-1,-3.7230024E-1,1.2649845E-2,2.5797623E-1,-4.031906E-1,9.3195117E-1,3.3736852E-1,-1.1621781E-1,-7.0661855E-1,7.71367E-1,-5.3405855E-2,-1.0182613E-1,7.064062E-1,-7.339255E-1,3.0748522E-2,7.521872E-1,1.1760312E0,-3.2743746E-1,8.1033987E-1,-1.5984885E0,-4.7883973E-2,-5.8743045E-2,-9.334142E-1,9.2880434E-1,-4.031105E-1,-3.2533288E-1,3.6334325E-2,5.1580733E-1,-3.5015345E-1,1.3478215E0,3.3797312E-1,2.0354585E-1,-9.450795E-1,3.438519E-1,-5.9679514E-1,9.5527196E-1,3.3160028E-1,9.071543E-1,1.8094668E0,1.13663435E-1,-8.789491E-1,1.0428667E0,-2.2686588E-2,-1.15484E-1,-2.0799916E0,9.6396005E-1,-1.2202809E-1,-4.5582134E-1,7.176064E-1,-1.7701424E0,-7.575355E-1,1.0759242E0,-6.058504E-1,-1.8892417E0,5.288793E-1,-2.0913516E-1,-1.1817956E0,2.2455475E-1,-1.7769651E-1,-1.10528305E-1,4.2481834E-1,3.0326855E-1,-1.2655835E-1,5.1475245E-1,2.9962063E-1,-1.7816486E-2,2.542087E-1,-1.6329436E-1,2.3444387E-1,-5.0385183E-1,-2.1670331E-1,2.6251554E-1,7.268869E-2,2.1149993E-1,-2.7238876E-1,1.4042285E-1,3.0499485E-1,-4.5586587E-3,1.8786354E-1,3.4014076E-1,6.814602E-2,1.1737004E-1,5.6851506E-1,3.7318623E-1,-4.2516604E-2,-3.6667562E-1,-3.9848074E-2,2.802701E-1,7.071991E-1,-2.82584E-1,1.9437858E-1,2.7031246E-1,-2.2640191E-1,-6.6695267E-1,-1.4017826E-1,-3.1780474E-2,3.8316333E-1,-2.3186582E-1,2.797162E-2,5.3232588E-2,-3.6338243E-1,2.8841355E-1,-2.708911E-1,-5.922667E-1,-3.4959018E-1,-1.7464416E-1,-5.879495E-1,-6.173381E-3,3.8703802E-1,2.4655123E-1,-4.0053663E-1,-1.2793608E-1,-6.2895256E-1,-5.608869E-2,3.8463402E-1,-4.8087277E-2,-6.0073245E-1,-9.3680434E-2,-4.7230574E-1,4.736549E-2,2.419823E-1,-1.3832772E-1,5.698779E-2],"categories":[],"categories_nodes":[],"categories_segments":[],"categories_sizes":[],"default_left":[0,0,0,0,0,0,0,0,0,0,0,0,0,0,0,0,0,0,0,0,0,0,0,0,0,0,0,0,0,0,0,0,0,0,0,0,0,0,0,0,0,0,0,0,0,0,0,0,0,0,0,0,0,0,0,0,0,0,0,0,0,0,0,0,0,0,0,0,0,0,0,0,0,0,0,0,0,0,0,0,0,0,0,0,0,0,0,0,0,0,0,0,0,0,0,0,0,0,0,0,0,0,0,0,0,0,0,0,0,0,0,0,0,0,0,0,0,0,0,0,0,0,0,0,0,0,0],"id":23,"left_children":[1,3,5,7,9,11,13,15,17,19,21,23,25,27,29,31,33,35,37,39,41,43,45,47,49,51,53,55,57,59,61,63,65,67,69,71,73,75,77,79,81,83,85,87,89,91,93,95,97,99,101,103,105,107,109,111,113,115,117,119,121,123,125,-1,-1,-1,-1,-1,-1,-1,-1,-1,-1,-1,-1,-1,-1,-1,-1,-1,-1,-1,-1,-1,-1,-1,-1,-1,-1,-1,-1,-1,-1,-1,-1,-1,-1,-1,-1,-1,-1,-1,-1,-1,-1,-1,-1,-1,-1,-1,-1,-1,-1,-1,-1,-1,-1,-1,-1,-1,-1,-1,-1,-1,-1,-1,-1],"loss_changes":[5.162412E1,5.5048534E1,5.3966244E1,4.3887394E1,2.1425919E1,4.101214E1,7.571876E1,4.605558E1,2.2267984E1,4.1612244E0,4.2085083E1,2.7575418E1,3.050772E1,2.2748108E1,3.3931686E1,2.456728E1,2.9556938E1,1.7612041E1,1.356626E1,5.5768547E0,6.3634033E0,1.3723151E1,1.51323395E1,8.3286495E0,1.977347E1,1.7282036E1,2.1322098E1,2.4810112E1,2.1775066E1,3.40869E1,4.2177986E1,3.7139366E1,1.15525875E1,4.1959763E0,1.6648073E1,7.7730036E0,1.0564758E1,2.269526E0,9.9568615E0,8.99662E-1,2.4615963E0,5.136688E0,8.3649826E-1,9.413408E0,6.2413006E0,6.508148E0,1.1706769E1,3.2789993E0,1.0394478E0,6.167923E0,3.4398556E1,1.7915766E1,8.374069E0,9.087677E-1,2.6061157E1,2.3044167E1,1.1508974E1,9.250622E-1,5.631669E0,2.639479E1,1.3503269E1,2.1487226E1,5.1141724E1,0E0,0E0,0E0,0E0,0E0,0E0,0E0,0E0,0E0,0E0,0E0,0E0,0E0,0E0,0E0,0E0,0E0,0E0,0E0,0E0,0E0,0E0,0E0,0E0,0E0,0E0,0E0,0E0,0E0,0E0,0E0,0E0,0E0,0E0,0E0,0E0,0E0,0E0,0E0,0E0,0E0,0E0,0E0,0E0,0E0,0E0,0E0,0E0,0E0,0E0,0E0,0E0,0E0,0E0,0E0,0E0,0E0,0E0,0E0,0E0,0E0,0E0,0E0,0E0],"parents":[2147483647,0,0,1,1,2,2,3,3,4,4,5,5,6,6,7,7,8,8,9,9,10,10,11,11,12,12,13,13,14,14,15,15,16,16,17,17,18,18,19,19,20,20,21,21,22,22,23,23,24,24,25,25,26,26,27,27,28,28,29,29,30,30,31,31,32,32,33,33,34,34,35,35,36,36,37,37,38,38,39,39,40,40,41,41,42,42,43,43,44,44,45,45,46,46,47,47,48,48,49,49,50,50,51,51,52,52,53,53,54,54,55,55,56,56,57,57,58,58,59,59,60,60,61,61,62,62],"right_children":[2,4,6,8,10,12,14,16,18,20,22,24,26,28,30,32,34,36,38,40,42,44,46,48,50,52,54,56,58,60,62,64,66,68,70,72,74,76,78,80,82,84,86,88,90,92,94,96,98,100,102,104,106,108,110,112,114,116,118,120,122,124,126,-1,-1,-1,-1,-1,-1,-1,-1,-1,-1,-1,-1,-1,-1,-1,-1,-1,-1,-1,-1,-1,-1,-1,-1,-1,-1,-1,-1,-1,-1,-1,-1,-1,-1,-1,-1,-1,-1,-1,-1,-1,-1,-1,-1,-1,-1,-1,-1,-1,-1,-1,-1,-1,-1,-1,-1,-1,-1,-1,-1,-1,-1,-1,-1],"split_conditions":[1.6E1,1.6666666E1,1.9666666E1,1.5E1,2.1E1,2E1,1.7E1,1.2666667E1,1.5333333E1,1.8666666E1,2.0666666E1,1.2333333E1,1.3E1,4.2E1,2.4E1,9E0,1.2E1,9E0,1.9E1,1.9E1,2.574613E2,2.4E1,3.6E1,3.4890833E0,1.1E1,1.6666666E1,1.6666666E1,3.300513E2,2.5666666E1,2.9E1,3.4E1,1E1,6E0,1.3E1,1.4333333E1,1.2333333E1,1.3333333E1,1E1,1E1,1.2413477E1,1.5E1,1.8679462E2,1.4E1,1.1E1,8.791166E0,3.0666666E1,2.8333334E1,7E0,1.1214084E1,1.2666667E1,1.5333333E1,2.3E1,3.1E1,9.826584E0,2.6E1,2E1,1.224E1,1.7294992E1,5.3E1,3.2E1,1.9E1,3.9666668E1,4.2333332E1,-1.10528305E-1,4.2481834E-1,3.0326855E-1,-1.2655835E-1,5.1475245E-1,2.9962063E-1,-1.7816486E-2,2.542087E-1,-1.6329436E-1,2.3444387E-1,-5.0385183E-1,-2.1670331E-1,2.6251554E-1,7.268869E-2,2.1149993E-1,-2.7238876E-1,1.4042285E-1,3.0499485E-1,-4.5586587E-3,1.8786354E-1,3.4014076E-1,6.814602E-2,1.1737004E-1,5.6851506E-1,3.7318623E-1,-4.2516604E-2,-3.6667562E-1,-3.9848074E-2,2.802701E-1,7.071991E-1,-2.82584E-1,1.9437858E-1,2.7031246E-1,-2.2640191E-1,-6.6695267E-1,-1.4017826E-1,-3.1780474E-2,3.8316333E-1,-2.3186582E-1,2.797162E-2,5.3232588E-2,-3.6338243E-1,2.8841355E-1,-2.708911E-1,-5.922667E-1,-3.4959018E-1,-1.7464416E-1,-5.879495E-1,-6.173381E-3,3.8703802E-1,2.4655123E-1,-4.0053663E-1,-1.2793608E-1,-6.2895256E-1,-5.608869E-2,3.8463402E-1,-4.8087277E-2,-6.0073245E-1,-9.3680434E-2,-4.7230574E-1,4.736549E-2,2.419823E-1,-1.3832772E-1,5.698779E-2],"split_indices":[1,3,3,0,0,1,0,3,3,3,3,3,0,1,3,0,0,1,0,0,7,0,0,4,0,3,3,7,3,1,1,3,1,1,3,3,3,1,1,6,2,7,0,1,4,3,3,0,4,3,3,1,1,4,1,1,6,6,1,0,0,3,3,0,0,0,0,0,0,0,0,0,0,0,0,0,0,0,0,0,0,0,0,0,0,0,0,0,0,0,0,0,0,0,0,0,0,0,0,0,0,0,0,0,0,0,0,0,0,0,0,0,0,0,0,0,0,0,0,0,0,0,0,0,0,0,0],"split_type":[0,0,0,0,0,0,0,0,0,0,0,0,0,0,0,0,0,0,0,0,0,0,0,0,0,0,0,0,0,0,0,0,0,0,0,0,0,0,0,0,0,0,0,0,0,0,0,0,0,0,0,0,0,0,0,0,0,0,0,0,0,0,0,0,0,0,0,0,0,0,0,0,0,0,0,0,0,0,0,0,0,0,0,0,0,0,0,0,0,0,0,0,0,0,0,0,0,0,0,0,0,0,0,0,0,0,0,0,0,0,0,0,0,0,0,0,0,0,0,0,0,0,0,0,0,0,0],"sum_hessian":[2.672E3,6.84E2,1.988E3,4.38E2,2.46E2,4.79E2,1.509E3,2.84E2,1.54E2,1.14E2,1.32E2,2.72E2,2.07E2,1.2E2,1.389E3,1.58E2,1.26E2,8.7E1,6.7E1,6.8E1,4.6E1,5.5E1,7.7E1,1.1E1,2.61E2,5.4E1,1.53E2,1.06E2,1.4E1,3.44E2,1.045E3,4.5E1,1.13E2,4.5E1,8.1E1,1.6E1,7.1E1,4.5E1,2.2E1,4.5E1,2.3E1,3.4E1,1.2E1,3.1E1,2.4E1,6E1,1.7E1,3E0,8E0,1.7E1,2.44E2,3.6E1,1.8E1,2.5E1,1.28E2,9.7E1,9E0,5E0,9E0,3.04E2,4E1,5.56E2,4.89E2,2.3E1,2.2E1,5E0,1.08E2,2E1,2.5E1,4.6E1,3.5E1,7E0,9E0,1.5E1,5.6E1,6E0,3.9E1,4E0,1.8E1,6E0,3.9E1,1.1E1,1.2E1,2.5E1,9E0,1E0,1.1E1,5E0,2.6E1,1.6E1,8E0,5.7E1,3E0,7E0,1E1,1E0,2E0,7E0,1E0,4E0,1.3E1,6E1,1.84E2,2E1,1.6E1,1.6E1,2E0,1.7E1,8E0,1.13E2,1.5E1,1.6E1,8.1E1,3E0,6E0,1E0,4E0,5E0,4E0,2.97E2,7E0,1.3E1,2.7E1,5E2,5.6E1,2.76E2,2.13E2],"tree_param":{"num_deleted":"0","num_feature":"8","num_nodes":"127","size_leaf_vector":"1"}},{"base_weights":[8.6841517E-4,2.8120595E-1,-4.149032E-2,-3.4663755E-1,4.9260086E-1,-4.3893918E-1,-1.7822261E-3,3.40148E-1,-6.0545295E-1,3.8925004E-1,1.3815469E0,4.4387788E-1,-5.764406E-1,3.4462416E-1,-6.3343145E-2,-8.0026877E-1,1.1537771E0,-1.6366844E0,-4.3200493E-1,8.3570313E-1,1.6497932E-1,1.8699962E0,3.6418352E-1,1.6622171E-1,1.2927656E0,-3.9770684E-1,-1.0571061E0,1.2607864E0,2.9208493E-1,-1.6259535E-1,9.546586E-2,2.4777825E-1,-1.060699E0,5.7335734E-1,6.599836E-1,-3.4070712E-1,-6.7803276E-1,-1.32065E-1,-1.2630324E0,-6.540833E-1,9.423556E-1,-1.9337209E-1,4.6376866E-1,7.541613E-1,7.0952004E-1,-5.1289463E-1,5.4240733E-1,8.3119255E-1,-2.4384226E-1,-4.773045E-3,4.5405897E-1,-2.6793003E-1,-1.0521091E0,-8.6305875E-1,-1.5834975E0,1.4512093E0,-1.11590065E-1,1.1573407E-1,4.784455E-1,-1.4488712E-1,-7.718179E-1,7.0868415E-1,-2.0598533E-2,1.1943641E-1,-7.936192E-3,-1.7036685E-1,-4.604216E-1,2.4244685E-1,-9.6647464E-2,1.7531022E-1,-1.4942385E-1,-4.5257577E-1,-6.3184194E-2,5.5000675E-1,2.2982325E-1,1.7997153E-1,-1.334703E-1,2.567474E-1,-3.462508E-2,4.2074922E-1,-2.481451E-2,-5.596779E-1,7.046175E-3,1.5018225E-3,3.7303546E-1,1.4483576E-1,-1.17830575E-1,-3.701208E-1,-5.796487E-2,-2.4447562E-1,-4.6463922E-1,-1.4801005E-1,-3.3284995E-1,-3.3449465E-1,-6.0492676E-1,4.8085198E-1,9.312211E-2,3.025446E-2,-8.0469996E-2,7.9755455E-2,-3.1748268E-1,2.0071912E-1,3.5200246E-2,-2.9077154E-2,-2.511902E-1,2.7838716E-1,-1.3907927E-1,6.7806154E-2,-5.720107E-2],"categories":[],"categories_nodes":[],"categories_segments":[],"categories_sizes":[],"default_left":[0,0,0,0,0,0,0,0,0,0,0,0,0,0,0,0,0,0,0,0,0,0,0,0,0,0,0,0,0,0,0,0,0,0,0,0,0,0,0,0,0,