{"learner":{"attributes":{"scikit_learn":"{\"_estimator_type\": \"regressor\"}"},"feature_names":["pm25_lag_1","pm25_lag_2","pm25_lag_3","pm25_roll_3","temperature_2m_mean","precipitation_sum","wind_speed_10m_max","wind_direction_10m_dominant"],"feature_types":["float","float","float","float","float","float","float","float"],"gradient_booster":{"model":{"gbtree_model_param":{"num_parallel_tree":"1","num_trees":"100"},"iteration_indptr":[0,1,2,3,4,5,6,7,8,9,10,11,12,13,14,15,16,17,18,19,20,21,22,23,24,25,26,27,28,29,30,31,32,33,34,35,36,37,38,39,40,41,42,43,44,45,46,47,48,49,50,51,52,53,54,55,56,57,58,59,60,61,62,63,64,65,66,67,68,69,70,71,72,73,74,75,76,77,78,79,80,81,82,83,84,85,86,87,88,89,90,91,92,93,94,95,96,97,98,99,100],"tree_info":[0,0,0,0,0,0,0,0,0,0,0,0,0,0,0,0,0,0,0,0,0,0,0,0,0,0,0,0,0,0,0,0,0,0,0,0,0,0,0,0,0,0,0,0,0,0,0,0,0,0,0,0,0,0,0,0,0,0,0,0,0,0,0,0,0,0,0,0,0,0,0,0,0,0,0,0,0,0,0,0,0,0,0,0,0,0,0,0,0,0,0,0,0,0,0,0,0,0,0,0],"trees":[{"base_weights":[9.0946423E-7,-3.2841596E-1,1.1896901E2,-6.4938536E0,1.48471575E1,-1.0475122E1,-2.0481531E-1,1.1334683E1,3.2930897E1,-1.3746736E1,-7.7056804E0,5.872531E0,-1.9642692E0,7.7195935E0,1.583776E1,2.6480305E1,4.496548E1,-1.5863685E1,-1.2260492E1,-6.009358E0,-1.0130242E1,1.9210454E0,1.2107283E1,-5.3915157E0,1.7318802E-1,1.1986994E1,2.005243E0,2.238023E1,1.1261375E1,3.107545E1,7.3062897E0,2.2383263E1,3.5864555E1,-5.1175966E0,-4.4293084E0,-2.835743E0,-4.0424824E0,-2.2504985E0,-9.3410707E-1,-3.5596056E0,-2.5566914E0,1.7936852E0,-1.1552697E0,4.8186793E0,1.9865508E0,-1.0205544E0,-2.6337411E0,7.3695016E-1,-1.5304204E0,6.312493E0,3.1574116E0,1.0025352E0,-8.535362E-1,8.803272E0,5.925038E0,3.8703463E0,-5.807658E-1,9.863662E0,1.2904103E0,4.0542116E0,-7.817035E-1,-1.8746583E0,1.1695323E1],"categories":[],"categories_nodes":[],"categories_segments":[],"categories_sizes":[],"default_left":[0,0,0,0,0,0,0,0,0,0,0,0,0,0,0,0,0,0,0,0,0,0,0,0,0,0,0,0,0,0,0,0,0,0,0,0,0,0,0,0,0,0,0,0,0,0,0,0,0,0,0,0,0,0,0,0,0,0,0,0,0,0,0],"id":0,"left_children":[1,3,-1,5,7,9,11,13,15,17,19,21,23,25,27,29,31,33,35,37,39,41,43,45,47,49,51,53,55,57,59,-1,61,-1,-1,-1,-1,-1,-1,-1,-1,-1,-1,-1,-1,-1,-1,-1,-1,-1,-1,-1,-1,-1,-1,-1,-1,-1,-1,-1,-1,-1,-1],"loss_changes":[3.1478547E5,2.2605361E5,0E0,4.3013742E4,4.396278E4,9.425758E3,7.14364E3,9.41725E3,7.5815156E3,1.3188828E3,2.291664E3,3.6722222E3,3.795591E3,7.949996E3,7.5325938E3,6.4691133E3,7.5765312E3,4.3007812E0,8.5135156E2,1.4415352E3,5.517285E2,2.2012708E3,1.1519385E3,1.3114424E3,3.866463E3,2.2545195E3,9.2356964E2,1.3619492E3,3.3792656E3,2.803957E3,1.01970917E3,0E0,4.316625E3,0E0,0E0,0E0,0E0,0E0,0E0,0E0,0E0,0E0,0E0,0E0,0E0,0E0,0E0,0E0,0E0,0E0,0E0,0E0,0E0,0E0,0E0,0E0,0E0,0E0,0E0,0E0,0E0,0E0,0E0],"parents":[2147483647,0,0,1,1,3,3,4,4,5,5,6,6,7,7,8,8,9,9,10,10,11,11,12,12,13,13,14,14,15,15,16,16,17,17,18,18,19,19,20,20,21,21,22,22,23,23,24,24,25,25,26,26,27,27,28,28,29,29,30,30,32,32],"right_children":[2,4,-1,6,8,10,12,14,16,18,20,22,24,26,28,30,32,34,36,38,40,42,44,46,48,50,52,54,56,58,60,-1,62,-1,-1,-1,-1,-1,-1,-1,-1,-1,-1,-1,-1,-1,-1,-1,-1,-1,-1,-1,-1,-1,-1,-1,-1,-1,-1,-1,-1,-1,-1],"split_conditions":[3.13E2,3.1666666E1,1.1896901E2,2.2E1,4.9333332E1,1.6333334E1,2.1E1,3.9333332E1,6.4333336E1,1.2666667E1,2E1,2.6E1,2.5666666E1,3.7E1,4.1E1,6.8E1,5.3E1,1.1E1,1.3E1,1.9333334E1,1.9666666E1,2.7E1,2.9E1,2.8E1,3.3E1,2.3E1,4E1,2.8E1,5.9E1,7.4E1,1.8892282E1,2.2383263E1,1.6432499E0,-5.1175966E0,-4.4293084E0,-2.835743E0,-4.0424824E0,-2.2504985E0,-9.3410707E-1,-3.5596056E0,-2.5566914E0,1.7936852E0,-1.1552697E0,4.8186793E0,1.9865508E0,-1.0205544E0,-2.6337411E0,7.3695016E-1,-1.5304204E0,6.312493E0,3.1574116E0,1.0025352E0,-8.535362E-1,8.803272E0,5.925038E0,3.8703463E0,-5.807658E-1,9.863662E0,1.2904103E0,4.0542116E0,-7.817035E-1,-1.8746583E0,1.1695323E1],"split_indices":[3,3,0,3,3,3,1,3,3,3,1,3,3,1,1,1,1,3,1,3,3,0,0,1,1,1,0,1,1,0,6,0,4,0,0,0,0,0,0,0,0,0,0,0,0,0,0,0,0,0,0,0,0,0,0,0,0,0,0,0,0,0,0],"split_type":[0,0,0,0,0,0,0,0,0,0,0,0,0,0,0,0,0,0,0,0,0,0,0,0,0,0,0,0,0,0,0,0,0,0,0,0,0,0,0,0,0,0,0,0,0,0,0,0,0,0,0,0,0,0,0,0,0,0,0,0,0,0,0],"sum_hessian":[2.415E3,2.414E3,1E0,1.717E3,6.97E2,1.051E3,6.66E2,5.85E2,1.12E2,4.8E2,5.71E2,1.49E2,5.17E2,3.26E2,2.59E2,7.5E1,3.7E1,1.94E2,2.86E2,3.38E2,2.33E2,9.2E1,5.7E1,1.98E2,3.19E2,1.86E2,1.4E2,1.05E2,1.54E2,6E1,1.5E1,7E0,3E1,8.6E1,1.08E2,8.9E1,1.97E2,2.22E2,1.16E2,1.09E2,1.24E2,5.4E1,3.8E1,3.2E1,2.5E1,1.26E2,7.2E1,2.23E2,9.6E1,2.4E1,1.62E2,1.1E2,3E1,2.6E1,7.9E1,1.37E2,1.7E1,5.6E1,4E0,9E0,6E0,2E0,2.8E1],"tree_param":{"num_deleted":"0","num_feature":"8","num_nodes":"63","size_leaf_vector":"1"}},{"base_weights":[7.057414E-2,-2.0855096E-1,1.01123665E2,-4.2661395E0,1.1494861E1,-7.053601E0,7.3451614E-1,9.634744E0,3.012328E1,-9.554259E0,-5.0381455E0,9.022214E0,-1.9715032E-1,6.975389E0,1.3736105E1,4.666532E1,2.2933134E1,-1.0782191E1,-8.090126E0,-4.395232E0,-9.074187E0,9.979368E0,-4.45951E0,8.4432614E-1,-5.4458737E0,1.22065325E1,4.0353117E0,1.5184299E1,-1.1949175E-1,2.194869E1,1.1296249E1,2.4676813E1,-2.213723E0,-2.924619E0,-3.570291E0,-1.9698428E0,-2.977792E0,-8.337698E-1,-1.7232895E0,-3.3674767E0,-2.4077725E0,2.4801035E0,4.8847723E0,-1.832828E0,3.2102367E-1,-5.0021106E-1,1.2063241E0,-9.186742E-1,-2.359733E0,4.172264E0,1.1063554E0,1.6027321E0,-1.095741E0,6.603976E0,3.972593E0,-2.7585049E0,3.7434348E-1,8.320418E0,9.7075164E-1],"categories":[],"categories_nodes":[],"categories_segments":[],"categories_sizes":[],"default_left":[0,0,0,0,0,0,0,0,0,0,0,0,0,0,0,0,0,0,0,0,0,0,0,0,0,0,0,0,0,0,0,0,0,0,0,0,0,0,0,0,0,0,0,0,0,0,0,0,0,0,0,0,0,0,0,0,0,0,0],"id":1,"left_children":[1,3,-1,5,7,9,11,13,15,17,19,21,23,25,27,29,31,33,35,37,39,41,43,45,47,49,51,53,55,-1,-1,57,-1,-1,-1,-1,-1,-1,-1,-1,-1,-1,-1,-1,-1,-1,-1,-1,-1,-1,-1,-1,-1,-1,-1,-1,-1,-1,-1],"loss_changes":[2.2733731E5,1.1473166E5,0E0,2.5011984E4,2.1262719E4,5.7579062E3,4.9666196E3,6.0884414E3,5.5904375E3,8.350703E2,1.6208027E3,8.8326855E2,3.1696562E3,5.272211E3,4.456371E3,1.0654297E3,2.3491387E3,2.0309375E2,6.007002E2,1.1918057E3,1.0605713E2,5.2378564E2,5.2154366E1,3.868561E3,5.29655E2,1.7455195E3,2.2604214E3,2.3745742E3,2.8447153E2,0E0,0E0,2.4672754E3,0E0,0E0,0E0,0E0,0E0,0E0,0E0,0E0,0E0,0E0,0E0,0E0,0E0,0E0,0E0,0E0,0E0,0E0,0E0,0E0,0E0,0E0,0E0,0E0,0E0,0E0,0E0],"parents":[2147483647,0,0,1,1,3,3,4,4,5,5,6,6,7,7,8,8,9,9,10,10,11,11,12,12,13,13,14,14,15,15,16,16,17,17,18,18,19,19,20,20,21,21,22,22,23,23,24,24,25,25,26,26,27,27,28,28,31,31],"right_children":[2,4,-1,6,8,10,12,14,16,18,20,22,24,26,28,30,32,34,36,38,40,42,44,46,48,50,52,54,56,-1,-1,58,-1,-1,-1,-1,-1,-1,-1,-1,-1,-1,-1,-1,-1,-1,-1,-1,-1,-1,-1,-1,-1,-1,-1,-1,-1,-1,-1],"split_conditions":[3.13E2,3.3333332E1,1.01123665E2,2.3333334E1,6.0333332E1,1.6666666E1,1.8E1,4.1666668E1,5.7E1,1.4E1,2.6E1,4E1,3.7E1,3.4E1,6.2E1,3.3E1,2.9166666E2,1.2E1,1.6E1,1.9E1,2E1,2.8E1,2.9E1,2.8E1,4.2E1,4.6E1,4.6E1,3.7E1,4.3333332E1,2.194869E1,1.1296249E1,2.844634E2,-2.213723E0,-2.924619E0,-3.570291E0,-1.9698428E0,-2.977792E0,-8.337698E-1,-1.7232895E0,-3.3674767E0,-2.4077725E0,2.4801035E0,4.8847723E0,-1.832828E0,3.2102367E-1,-5.0021106E-1,1.2063241E0,-9.186742E-1,-2.359733E0,4.172264E0,1.1063554E0,1.6027321E0,-1.095741E0,6.603976E0,3.972593E0,-2.7585049E0,3.7434348E-1,8.320418E0,9.7075164E-1],"split_indices":[3,3,0,3,3,3,1,3,1,3,1,0,1,1,1,1,3,1,1,0,3,3,3,3,1,0,0,1,3,0,0,7,0,0,0,0,0,0,0,0,0,0,0,0,0,0,0,0,0,0,0,0,0,0,0,0,0,0,0],"split_type":[0,0,0,0,0,0,0,0,0,0,0,0,0,0,0,0,0,0,0,0,0,0,0,0,0,0,0,0,0,0,0,0,0,0,0,0,0,0,0,0,0,0,0,0,0,0,0,0,0,0,0,0,0,0,0,0,0,0,0],"sum_hessian":[2.415E3,2.414E3,1E0,1.793E3,6.21E2,1.151E3,6.42E2,5.66E2,5.5E1,5.12E2,6.39E2,6.4E1,5.78E2,3.45E2,2.21E2,1.5E1,4E1,2.75E2,2.37E2,5.53E2,8.6E1,6E1,4E0,4.83E2,9.5E1,1.23E2,2.22E2,2E2,2.1E1,2E0,1.3E1,3.8E1,2E0,1.48E2,1.27E2,1.32E2,1.05E2,2.53E2,3E2,2.5E1,6.1E1,4.9E1,1.1E1,3E0,1E0,2.7E2,2.13E2,4.9E1,4.6E1,1.02E2,2.1E1,1.9E2,3.2E1,4.2E1,1.58E2,2E0,1.9E1,3.3E1,5E0],"tree_param":{"num_deleted":"0","num_feature":"8","num_nodes":"59","size_leaf_vector":"1"}},{"base_weights":[1.06906354E-1,-1.3033056E-1,8.595511E1,-2.7930512E0,8.989483E0,-5.871198E0,-2.2217247E-1,6.4759316E0,1.6902822E1,-7.272674E0,-4.8087554E0,-2.186923E0,1.1679808E0,1.3648035E1,5.035268E0,2.4880253E1,1.3375699E1,-8.938185E0,-6.7272544E0,-2.9395819E0,-6.2754197E0,-3.8929382E-1,-4.389335E0,3.3501215E0,-2.0559537E0,1.632314E1,8.596012E0,5.8566713E0,-4.2021255E0,2.0240957E1,4.31969E1,8.262978E0,1.7996729E1,-2.7027593E0,-4.2466137E-1,-1.1710793E0,-2.207066E0,1.9941123E-1,-1.2894878E0,-1.7466426E0,-2.529772E0,1.3467826E0,-4.9183956E-1,-1.025731E0,-2.4540863E0,2.2610364E0,6.163173E-1,-3.8718453E-1,-2.059197E0,7.3026204E0,4.3249235E0,2.5528565E-1,3.263095E0,2.1821907E0,1.1886648E-1,-1.633967E0,2.519539E0,6.4567432E0,-3.1151516E0,1.755895E1,7.6073275E0,3.3386555E0,2.75248E-1,-2.0324278E0,5.7663083E0],"categories":[],"categories_nodes":[],"categories_segments":[],"categories_sizes":[],"default_left":[0,0,0,0,0,0,0,0,0,0,0,0,0,0,0,0,0,0,0,0,0,0,0,0,0,0,0,0,0,0,0,0,0,0,0,0,0,0,0,0,0,0,0,0,0,0,0,0,0,0,0,0,0,0,0,0,0,0,0,0,0,0,0,0,0],"id":2,"left_children":[1,3,-1,5,7,9,11,13,15,17,19,21,23,25,27,29,31,33,35,37,39,41,43,45,47,49,51,53,55,57,59,61,63,-1,-1,-1,-1,-1,-1,-1,-1,-1,-1,-1,-1,-1,-1,-1,-1,-1,-1,-1,-1,-1,-1,-1,-1,-1,-1,-1,-1,-1,-1,-1,-1],"loss_changes":[1.6419742E5,5.8669793E4,0E0,1.47970205E4,1.0750801E4,1.2321562E3,2.7884846E3,4.229635E3,3.3532031E3,2.7143555E2,1.3166396E3,1.6729993E3,4.2138647E3,7.921992E2,2.6651055E3,2.4397324E3,2.0485137E3,3.3723145E1,4.6730664E2,1.0606484E3,2.1686328E2,1.4345369E3,6.7087036E2,1.9211665E3,8.81647E2,3.2183105E2,4.500669E2,2.473623E3,5.0047913E2,1.5186123E3,4.305E2,9.58146E2,1.5859473E3,0E0,0E0,0E0,0E0,0E0,0E0,0E0,0E0,0E0,0E0,0E0,0E0,0E0,0E0,0E0,0E0,0E0,0E0,0E0,0E0,0E0,0E0,0E0,0E0,0E0,0E0,0E0,0E0,0E0,0E0,0E0,0E0],"parents":[2147483647,0,0,1,1,3,3,4,4,5,5,6,6,7,7,8,8,9,9,10,10,11,11,12,12,13,13,14,14,15,15,16,16,17,17,18,18,19,19,20,20,21,21,22,22,23,23,24,24,25,25,26,26,27,27,28,28,29,29,30,30,31,31,32,32],"right_children":[2,4,-1,6,8,10,12,14,16,18,20,22,24,26,28,30,32,34,36,38,40,42,44,46,48,50,52,54,56,58,60,62,64,-1,-1,-1,-1,-1,-1,-1,-1,-1,-1,-1,-1,-1,-1,-1,-1,-1,-1,-1,-1,-1,-1,-1,-1,-1,-1,-1,-1,-1,-1,-1,-1],"split_conditions":[3.13E2,3.5E1,8.595511E1,2E1,4.8333332E1,1.5E1,2.5E1,3.1E1,5E1,1.1E1,1.7E1,2.3E1,3.1E1,4.4E1,5.4E1,6.2333332E1,6.0333332E1,1.4526584E1,1E1,1.6E1,2.4E1,1.9E1,2.5E1,2.5E1,3.7E1,3.2E1,3.7E1,4.9E1,1.8200003E1,9.4E1,3.3E1,6.2E1,3.2E1,-2.7027593E0,-4.2466137E-1,-1.1710793E0,-2.207066E0,1.9941123E-1,-1.2894878E0,-1.7466426E0,-2.529772E0,1.3467826E0,-4.9183956E-1,-1.025731E0,-2.4540863E0,2.2610364E0,6.163173E-1,-3.8718453E-1,-2.059197E0,7.3026204E0,4.3249235E0,2.5528565E-1,3.263095E0,2.1821907E0,1.1886648E-1,-1.633967E0,2.519539E0,6.4567432E0,-3.1151516E0,1.755895E1,7.6073275E0,3.3386555E0,2.75248E-1,-2.0324278E0,5.7663083E0],"split_indices":[3,3,0,3,3,3,3,1,1,3,1,1,1,0,0,3,3,4,1,0,1,0,0,0,0,0,3,1,5,0,1,1,0,0,0,0,0,0,0,0,0,0,0,0,0,0,0,0,0,0,0,0,0,0,0,0,0,0,0,0,0,0,0,0,0],"split_type":[0,0,0,0,0,0,0,0,0,0,0,0,0,0,0,0,0,0,0,0,0,0,0,0,0,0,0,0,0,0,0,0,0,0,0,0,0,0,0,0,0,0,0,0,0,0,0,0,0,0,0,0,0,0,0,0,0,0,0,0,0,0,0,0,0],"sum_hessian":[2.415E3,2.414E3,1E0,1.869E3,5.45E2,8.5E2,1.019E3,4.15E2,1.3E2,3.64E2,4.86E2,4.22E2,5.97E2,6.8E1,3.47E2,3.8E1,9.2E1,8.6E1,2.78E2,2.15E2,2.71E2,2.33E2,1.89E2,3.56E2,2.41E2,4.3E1,2.5E1,3.19E2,2.8E1,3.2E1,6E0,4.5E1,4.7E1,8.5E1,1E0,5.2E1,2.26E2,5.9E1,1.56E2,2.27E2,4.4E1,4.7E1,1.86E2,1.52E2,3.7E1,8.3E1,2.73E2,2.09E2,3.2E1,6E0,3.7E1,6E0,1.9E1,2.53E2,6.6E1,2.6E1,2E0,3.1E1,1E0,2E0,4E0,3.2E1,1.3E1,2E0,4.5E1],"tree_param":{"num_deleted":"0","num_feature":"8","num_nodes":"65","size_leaf_vector":"1"}},{"base_weights":[1.2701872E-1,-7.461768E-2,7.3061844E1,-2.7029545E0,4.9662924E0,-4.7032204E0,-1.4169339E0,3.3396327E0,1.1433214E1,-5.86348E0,-4.2274785E0,2.2360976E0,-1.9612577E0,7.6744747E0,2.1327927E0,9.388828E0,1.8072495E1,-5.259996E0,-2.1909597E0,-3.40313E0,-5.8867435E0,6.890048E-1,6.2388535E0,-1.632367E0,-6.3844795E0,1.518111E1,6.74929E0,2.994599E0,-2.2511446E0,1.2342865E1,3.7903945E0,1.4047161E1,1.5174532E1,-2.5483658E0,-1.4180499E0,-7.07779E-1,-1.6370498E0,-1.5422297E0,-2.3205204E0,1.0753269E0,-5.126902E-1,2.846899E0,9.978789E-1,-8.787555E-1,-1.3621697E-1,-2.2635465E0,-1.2426693E0,1.9481179E0,5.0435443E0,1.6911398E0,3.7752898E0,2.3944615E-1,1.5353588E0,-1.8806536E0,-2.912154E-2,3.9369855E0,-7.837259E-1,-1.3352749E0,1.3406639E0,6.77967E0,2.4315286E0],"categories":[],"categories_nodes":[],"categories_segments":[],"categories_sizes":[],"default_left":[0,0,0,0,0,0,0,0,0,0,0,0,0,0,0,0,0,0,0,0,0,0,0,0,0,0,0,0,0,0,0,0,0,0,0,0,0,0,0,0,0,0,0,0,0,0,0,0,0,0,0,0,0,0,0,0,0,0,0,0,0],"id":3,"left_children":[1,3,-1,5,7,9,11,13,15,17,19,21,23,25,27,29,31,33,-1,35,37,39,41,43,45,47,49,51,53,55,57,-1,59,-1,-1,-1,-1,-1,-1,-1,-1,-1,-1,-1,-1,-1,-1,-1,-1,-1,-1,-1,-1,-1,-1,-1,-1,-1,-1,-1,-1],"loss_changes":[1.1859741E5,3.201027E4,0E0,4.0782803E3,8.671947E3,3.1799414E2,1.929188E3,3.4520898E3,2.0834805E3,1.16239746E2,5.872759E2,7.759734E2,1.2159382E3,8.976221E2,1.9713564E3,2.0866143E3,2.4556436E3,1.8231421E2,0E0,6.281196E2,1.6154248E2,6.4489386E2,2.998246E2,1.1997205E3,1.1969238E2,1.0332666E2,7.726885E2,2.024595E3,7.436715E2,1.01468164E3,2.7710437E2,0E0,1.706333E3,0E0,0E0,0E0,0E0,0E0,0E0,0E0,0E0,0E0,0E0,0E0,0E0,0E0,0E0,0E0,0E0,0E0,0E0,0E0,0E0,0E0,0E0,0E0,0E0,0E0,0E0,0E0,0E0],"parents":[2147483647,0,0,1,1,3,3,4,4,5,5,6,6,7,7,8,8,9,9,10,10,11,11,12,12,13,13,14,14,15,15,16,16,17,17,19,19,20,20,21,21,22,22,23,23,24,24,25,25,26,26,27,27,28,28,29,29,30,30,32,32],"right_children":[2,4,-1,6,8,10,12,14,16,18,20,22,24,26,28,30,32,34,-1,36,38,40,42,44,46,48,50,52,54,56,58,-1,60,-1,-1,-1,-1,-1,-1,-1,-1,-1,-1,-1,-1,-1,-1,-1,-1,-1,-1,-1,-1,-1,-1,-1,-1,-1,-1,-1,-1],"split_conditions":[3.13E2,2.9333334E1,7.3061844E1,1.7666666E1,4.6E1,1.2333333E1,1.6E1,2.8E1,6.4333336E1,1.2E1,1.7E1,2.3333334E1,3.2E1,2.6E1,4.8E1,5.5E1,3.3E1,8.666667E0,-2.1909597E0,1.8E1,1.7E1,2.1E1,2.4E1,2.2333334E1,2.7666666E1,3E1,4E1,3.6666668E1,3.7666668E1,7.2E1,1.2536666E0,1.4047161E1,1.3493999E1,-2.5483658E0,-1.4180499E0,-7.07779E-1,-1.6370498E0,-1.5422297E0,-2.3205204E0,1.0753269E0,-5.126902E-1,2.846899E0,9.978789E-1,-8.787555E-1,-1.3621697E-1,-2.2635465E0,-1.2426693E0,1.9481179E0,5.0435443E0,1.6911398E0,3.7752898E0,2.3944615E-1,1.5353588E0,-1.8806536E0,-2.912154E-2,3.9369855E0,-7.837259E-1,-1.3352749E0,1.3406639E0,6.77967E0,2.4315286E0],"split_indices":[3,3,0,3,3,3,1,1,3,0,0,3,0,0,1,1,1,3,0,1,1,0,0,3,3,3,3,3,3,0,4,0,6,0,0,0,0,0,0,0,0,0,0,0,0,0,0,0,0,0,0,0,0,0,0,0,0,0,0,0,0],"split_type":[0,0,0,0,0,0,0,0,0,0,0,0,0,0,0,0,0,0,0,0,0,0,0,0,0,0,0,0,0,0,0,0,0,0,0,0,0,0,0,0,0,0,0,0,0,0,0,0,0,0,0,0,0,0,0,0,0,0,0,0,0],"sum_hessian":[2.415E3,2.414E3,1E0,1.587E3,8.27E2,6.2E2,9.67E2,6.62E2,1.65E2,1.77E2,4.43E2,1.25E2,8.42E2,1.43E2,5.19E2,1.28E2,3.7E1,1.28E2,4.9E1,2.98E2,1.45E2,9.1E1,3.4E1,7.85E2,5.7E1,1.4E1,1.29E2,4.34E2,8.5E1,8.3E1,4.5E1,2E0,3.5E1,1.6E1,1.12E2,1.99E2,9.9E1,1.06E2,3.9E1,4.1E1,5E1,1.5E1,1.9E1,3.73E2,4.12E2,3.6E1,2.1E1,3E0,1.1E1,1.1E2,1.9E1,2.14E2,2.2E2,2.9E1,5.6E1,7.9E1,4E0,3E0,4.2E1,1.6E1,1.9E1],"tree_param":{"num_deleted":"0","num_feature":"8","num_nodes":"61","size_leaf_vector":"1"}},{"base_weights":[1.300238E-1,-4.1357998E-2,6.2102566E1,-1.9948949E0,3.3684988E0,-3.1609738E0,-9.43102E-1,2.030581E0,7.6812396E0,-2.8515964E0,-4.4747725E0,4.1852843E-2,-3.0467918E0,3.1933274E0,-1.483587E0,2.445968E1,7.147486E0,-3.811526E0,-1.898182E0,-4.0080886E0,-5.6727448E0,6.930399E-1,-2.6416667E0,-2.4143622E0,-5.834628E0,7.576863E0,2.3523424E0,-2.7452736E0,7.7453953E-1,4.3541665E0,1.1128297E1,7.4926424E0,-3.5691566E0,-9.777351E-1,-1.6501964E0,1.7134327E-1,-8.501771E-1,-1.5908884E0,-1.0485991E0,-7.018143E-1,-1.7400059E0,-9.2220895E-2,1.0801594E0,-1.2061332E0,3.3826727E-2,-5.7693315E-1,-2.0372512E0,-2.3211496E0,-1.1552728E0,1.6298864E0,3.2578573E0,3.0357036E-1,1.6500651E0,-3.8789937E-1,-1.4484864E0,8.4521943E-1,-1.7034161E0,1.6746643E0,3.467538E0],"categories":[],"categories_nodes":[],"categories_segments":[],"categories_sizes":[],"default_left":[0,0,0,0,0,0,0,0,0,0,0,0,0,0,0,0,0,0,0,0,0,0,0,0,0,0,0,0,0,0,0,0,0,0,0,0,0,0,0,0,0,0,0,0,0,0,0,0,0,0,0,0,0,0,0,0,0,0,0],"id":4,"left_children":[1,3,-1,5,7,9,11,13,15,17,19,21,23,25,27,29,31,33,35,37,39,41,43,45,47,49,51,53,55,-1,-1,57,-1,-1,-1,-1,-1,-1,-1,-1,-1,-1,-1,-1,-1,-1,-1,-1,-1,-1,-1,-1,-1,-1,-1,-1,-1,-1,-1],"loss_changes":[8.566837E4,1.6093712E4,0E0,1.8808823E3,5.062084E3,2.831416E2,1.6764075E3,2.7546736E3,1.6879287E3,5.345703E2,5.38562E1,9.66436E2,4.4079565E2,1.8475391E3,4.8076636E2,2.1558667E2,1.4235381E3,2.5640137E2,6.925032E2,4.918799E1,1.7047119E0,1.2955134E3,4.1060876E2,4.4272986E2,1.4758752E2,5.1105664E2,1.7919583E3,3.2046906E2,8.200831E2,0E0,0E0,1.4889688E3,0E0,0E0,0E0,0E0,0E0,0E0,0E0,0E0,0E0,0E0,0E0,0E0,0E0,0E0,0E0,0E0,0E0,0E0,0E0,0E0,0E0,0E0,0E0,0E0,0E0,0E0,0E0],"parents":[2147483647,0,0,1,1,3,3,4,4,5,5,6,6,7,7,8,8,9,9,10,10,11,11,12,12,13,13,14,14,15,15,16,16,17,17,18,18,19,19,20,20,21,21,22,22,23,23,24,24,25,25,26,26,27,27,28,28,31,31],"right_children":[2,4,-1,6,8,10,12,14,16,18,20,22,24,26,28,30,32,34,36,38,40,42,44,46,48,50,52,54,56,-1,-1,58,-1,-1,-1,-1,-1,-1,-1,-1,-1,-1,-1,-1,-1,-1,-1,-1,-1,-1,-1,-1,-1,-1,-1,-1,-1,-1,-1],"split_conditions":[3.13E2,2.8666666E1,6.2102566E1,1.8666666E1,4.3666668E1,1.9E1,2.6E1,4.2E1,2.5E1,1.4333333E1,1.7E1,2.8E1,2.8E1,2.8E1,4.0333332E1,6.4E1,1.41E2,1.4E1,1.5E1,1.5E1,2.471746E1,2.3666666E1,2.6333334E1,3.9E1,2.7333334E1,3.0666666E1,3.8E1,3.3E1,4.7E1,4.3541665E0,1.1128297E1,5.8333332E1,-3.5691566E0,-9.777351E-1,-1.6501964E0,1.7134327E-1,-8.501771E-1,-1.5908884E0,-1.0485991E0,-7.018143E-1,-1.7400059E0,-9.2220895E-2,1.0801594E0,-1.2061332E0,3.3826727E-2,-5.7693315E-1,-2.0372512E0,-2.3211496E0,-1.1552728E0,1.6298864E0,3.2578573E0,3.0357036E-1,1.6500651E0,-3.8789937E-1,-1.4484864E0,8.4521943E-1,-1.7034161E0,1.6746643E0,3.467538E0],"split_indices":[3,3,0,3,3,1,1,1,1,3,0,0,0,0,3,0,0,0,0,3,7,3,3,1,3,3,3,0,0,0,0,3,0,0,0,0,0,0,0,0,0,0,0,0,0,0,0,0,0,0,0,0,0,0,0,0,0,0,0],"split_type":[0,0,0,0,0,0,0,0,0,0,0,0,0,0,0,0,0,0,0,0,0,0,0,0,0,0,0,0,0,0,0,0,0,0,0,0,0,0,0,0,0,0,0,0,0,0,0,0,0,0,0,0,0,0,0,0,0,0,0],"sum_hessian":[2.415E3,2.414E3,1E0,1.535E3,8.79E2,7.27E2,8.08E2,6.72E2,2.07E2,5.91E2,1.36E2,5.51E2,2.57E2,5.05E2,1.67E2,5E0,2.02E2,2.93E2,2.98E2,1.01E2,3.5E1,4.44E2,1.07E2,2.11E2,4.6E1,8E1,4.25E2,1.07E2,6E1,4E0,1E0,1.99E2,3E0,2.23E2,7E1,8.2E1,2.16E2,2.6E1,7.5E1,2E0,3.3E1,3.31E2,1.13E2,7.1E1,3.6E1,1.91E2,2E1,2.2E1,2.4E1,5E1,3E1,2.99E2,1.26E2,6.4E1,4.3E1,4.6E1,1.4E1,1.37E2,6.2E1],"tree_param":{"num_deleted":"0","num_feature":"8","num_nodes":"59","size_leaf_vector":"1"}},{"base_weights":[1.1942806E-1,-2.6242787E-2,5.278718E1,-1.2855095E0,2.6863112E0,-2.0792792E0,-2.6740187E-1,1.9964588E0,7.208641E0,-1.8719465E0,-4.312015E0,1.0203393E0,-1.6162283E0,2.4840553E0,-3.8087006E0,1.4311275E1,4.5555778E0,-2.3712332E0,-8.136969E-1,-2.7498608E0,-5.231073E0,2.7510104E0,-2.0692547E-1,-9.316736E-1,-3.52738E0,6.0804543E0,1.79886E0,-5.963388E0,-1.0464242E0,1.5373233E1,-1.9949465E0,9.57379E0,1.8549962E0,-5.143189E-1,-9.0868884E-1,3.7631395E-1,-5.917101E-1,-1.346668E0,-5.503194E-1,-1.2482243E0,-1.9564472E0,4.805747E-1,1.3876024E0,-4.0261105E-1,7.114023E-1,-8.797611E-2,-1.0701689E0,-7.0601773E-1,-1.7075251E0,3.2196333E0,1.4017328E0,1.981873E-1,1.21948E0,-1.1484716E0,-2.600749E0,5.4539925E-1,-1.5715244E0,3.618744E0,7.3196E0,1.9965454E0,8.919491E0,1.9031466E0,-1.1070942E0],"categories":[],"categories_nodes":[],"categories_segments":[],"categories_sizes":[],"default_left":[0,0,0,0,0,0,0,0,0,0,0,0,0,0,0,0,0,0,0,0,0,0,0,0,0,0,0,0,0,0,0,0,0,0,0,0,0,0,0,0,0,0,0,0,0,0,0,0,0,0,0,0,0,0,0,0,0,0,0,0,0,0,0],"id":5,"left_children":[1,3,-1,5,7,9,11,13,15,17,19,21,23,25,27,29,31,33,35,37,39,41,43,45,47,49,51,53,55,57,-1,59,61,-1,-1,-1,-1,-1,-1,-1,-1,-1,-1,-1,-1,-1,-1,-1,-1,-1,-1,-1,-1,-1,-1,-1,-1,-1,-1,-1,-1,-1,-1],"loss_changes":[6.1889117E4,8.252681E3,0E0,1.3328799E3,2.3753286E3,4.2105396E2,1.2591931E3,1.894624E3,1.8380215E3,4.4718506E2,9.760071E1,7.885702E2,4.598476E2,1.5045669E3,3.032555E2,7.0324365E2,9.9864746E2,2.4408325E2,6.5903784E2,4.111818E1,3.9161743E1,3.242732E2,6.411854E2,4.397928E2,2.2291284E2,5.917146E2,1.3334052E3,1.3435217E2,2.9770648E2,4.8259766E2,0E0,1.3318013E3,1.2680072E3,0E0,0E0,0E0,0E0,0E0,0E0,0E0,0E0,0E0,0E0,0E0,0E0,0E0,0E0,0E0,0E0,0E0,0E0,0E0,0E0,0E0,0E0,0E0,0E0,0E0,0E0,0E0,0E0,0E0,0E0],"parents":[2147483647,0,0,1,1,3,3,4,4,5,5,6,6,7,7,8,8,9,9,10,10,11,11,12,12,13,13,14,14,15,15,16,16,17,17,18,18,19,19,20,20,21,21,22,22,23,23,24,24,25,25,26,26,27,27,28,28,29,29,31,31,32,32],"right_children":[2,4,-1,6,8,10,12,14,16,18,20,22,24,26,28,30,32,34,36,38,40,42,44,46,48,50,52,54,56,58,-1,60,62,-1,-1,-1,-1,-1,-1,-1,-1,-1,-1,-1,-1,-1,-1,-1,-1,-1,-1,-1,-1,-1,-1,-1,-1,-1,-1,-1,-1,-1,-1],"split_conditions":[3.13E2,3.0333334E1,5.278718E1,2.0666666E1,5.1333332E1,2.2E1,2.5E1,5.3E1,5.1E1,1.7333334E1,1.5E1,2.4E1,2.8E1,2.7E1,4.6E1,1.03E2,1.3493999E1,1.4E1,1.8E1,1.6666666E1,2.5E1,2.3333334E1,2.6666666E1,3.7E1,3.1E1,3.2E1,4.0666668E1,5.7E1,4.5E1,1.7174677E1,-1.9949465E0,9E1,1.1641097E2,-5.143189E-1,-9.0868884E-1,3.7631395E-1,-5.917101E-1,-1.346668E0,-5.503194E-1,-1.2482243E0,-1.9564472E0,4.805747E-1,1.3876024E0,-4.0261105E-1,7.114023E-1,-8.797611E-2,-1.0701689E0,-7.0601773E-1,-1.7075251E0,3.2196333E0,1.4017328E0,1.981873E-1,1.21948E0,-1.1484716E0,-2.600749E0,5.4539925E-1,-1.5715244E0,3.618744E0,7.3196E0,1.9965454E0,8.919491E0,1.9031466E0,-1.1070942E0],"split_indices":[3,3,0,3,3,0,1,0,1,3,1,0,0,1,3,0,6,1,1,3,0,3,3,1,1,0,3,0,1,6,0,3,7,0,0,0,0,0,0,0,0,0,0,0,0,0,0,0,0,0,0,0,0,0,0,0,0,0,0,0,0,0,0],"split_type":[0,0,0,0,0,0,0,0,0,0,0,0,0,0,0,0,0,0,0,0,0,0,0,0,0,0,0,0,0,0,0,0,0,0,0,0,0,0,0,0,0,0,0,0,0,0,0,0,0,0,0,0,0,0,0,0,0,0,0,0,0,0,0],"sum_hessian":[2.415E3,2.414E3,1E0,1.649E3,7.65E2,9.26E2,7.23E2,6.65E2,1E2,8.49E2,7.7E1,3.7E2,3.53E2,6.14E2,5.1E1,2.6E1,7.4E1,5.76E2,2.73E2,3E1,4.7E1,1.53E2,2.17E2,2.61E2,9.2E1,9.7E1,5.17E2,2.8E1,2.3E1,2.5E1,1E0,2.5E1,4.9E1,2.9E2,2.86E2,9.8E1,1.75E2,9E0,2.1E1,2.8E1,1.9E1,9.6E1,5.7E1,1.51E2,6.6E1,2.11E2,5E1,6.1E1,3.1E1,2.1E1,7.6E1,3.45E2,1.72E2,1.7E1,1.1E1,1.4E1,9E0,2E1,5E0,2.3E1,2E0,2.7E1,2.2E1],"tree_param":{"num_deleted":"0","num_feature":"8","num_nodes":"63","size_leaf_vector":"1"}},{"base_weights":[1.1115409E-1,-1.2662129E-2,4.48691E1,-7.1615225E-1,2.7174735E0,-5.769724E-1,-4.745526E0,2.534783E0,1.7184292E1,-1.1482493E0,1.102981E0,-2.3666232E0,-5.773058E0,5.0065928E0,1.6282777E0,9.53225E0,-2.399092E0,-9.742706E-1,-3.1394439E0,4.079566E0,4.0064248E-1,-3.0338478E0,1.2275429E0,-6.1867905E0,-2.7023582E0,6.4182434E0,-4.8373146E0,-2.8575045E-1,3.323338E0,-4.6210483E-1,-1.4930146E-2,-6.502005E-1,-1.3551124E0,6.414379E-1,1.5498139E0,2.9931876E-1,-7.446901E-1,-2.4094163E-1,-1.2246822E0,6.4134675E-1,-2.254944E-1,-1.4641784E0,-2.423211E0,1.20081715E-1,-9.8585266E-1,1.7405254E0,5.6462183E0,-1.907004E0,-2.9770955E-1,3.5744178E-1,-7.23927E-1,1.2617475E0,-1.7792597E-1],"categories":[],"categories_nodes":[],"categories_segments":[],"categories_sizes":[],"default_left":[0,0,0,0,0,0,0,0,0,0,0,0,0,0,0,0,0,0,0,0,0,0,0,0,0,0,0,0,0,0,0,0,0,0,0,0,0,0,0,0,0,0,0,0,0,0,0,0,0,0,0,0,0],"id":6,"left_children":[1,3,-1,5,7,9,11,13,15,17,19,21,23,25,27,-1,-1,29,31,33,35,37,39,41,43,45,47,49,51,-1,-1,-1,-1,-1,-1,-1,-1,-1,-1,-1,-1,-1,-1,-1,-1,-1,-1,-1,-1,-1,-1,-1,-1],"loss_changes":[4.4709113E4,4.6402515E3,0E0,1.074573E3,1.2647026E3,1.7844236E3,1.4277893E2,1.0897949E3,2.4584463E3,4.7743347E2,9.851146E2,5.4084618E1,3.9180664E1,1.8514441E3,1.1689312E3,0E0,0E0,6.682307E2,1.3885852E2,1.7879456E2,6.617602E2,3.881859E1,8.813358E0,5.441736E1,1.3994949E1,7.701006E2,9.3003845E1,5.3710944E2,6.6262744E2,0E0,0E0,0E0,0E0,0E0,0E0,0E0,0E0,0E0,0E0,0E0,0E0,0E0,0E0,0E0,0E0,0E0,0E0,0E0,0E0,0E0,0E0,0E0,0E0],"parents":[2147483647,0,0,1,1,3,3,4,4,5,5,6,6,7,7,8,8,9,9,10,10,11,11,12,12,13,13,14,14,17,17,18,18,19,19,20,20,21,21,22,22,23,23,24,24,25,25,26,26,27,27,28,28],"right_children":[2,4,-1,6,8,10,12,14,16,18,20,22,24,26,28,-1,-1,30,32,34,36,38,40,42,44,46,48,50,52,-1,-1,-1,-1,-1,-1,-1,-1,-1,-1,-1,-1,-1,-1,-1,-1,-1,-1,-1,-1,-1,-1,-1,-1],"split_conditions":[3.13E2,3.6333332E1,4.48691E1,3.9E1,9E1,2.6333334E1,1E-1,3.9E1,4.4E1,2.9E1,2.4E1,1.4574501E1,3.5666668E1,5.9E1,4.3666668E1,9.53225E0,-2.399092E0,1.9333334E1,2.1E1,2.7666666E1,3.5E1,1.0823973E1,4.1E1,4.4E1,2.9E1,4.5333332E1,2.6009842E1,4E1,6.6E1,-4.6210483E-1,-1.4930146E-2,-6.502005E-1,-1.3551124E0,6.414379E-1,1.5498139E0,2.9931876E-1,-7.446901E-1,-2.4094163E-1,-1.2246822E0,6.4134675E-1,-2.254944E-1,-1.4641784E0,-2.423211E0,1.20081715E-1,-9.8585266E-1,1.7405254E0,5.6462183E0,-1.907004E0,-2.9770955E-1,3.5744178E-1,-7.23927E-1,1.2617475E0,-1.7792597E-1],"split_indices":[3,3,0,0,3,3,5,0,2,1,1,4,3,1,3,0,0,3,0,3,0,6,0,0,1,3,6,1,1,0,0,0,0,0,0,0,0,0,0,0,0,0,0,0,0,0,0,0,0,0,0,0,0],"split_type":[0,0,0,0,0,0,0,0,0,0,0,0,0,0,0,0,0,0,0,0,0,0,0,0,0,0,0,0,0,0,0,0,0,0,0,0,0,0,0,0,0,0,0,0,0,0,0,0,0,0,0,0,0],"sum_hessian":[2.415E3,2.414E3,1E0,1.92E3,4.94E2,1.857E3,6.3E1,4.89E2,5E0,1.386E3,4.71E2,2E1,4.3E1,1.3E2,3.59E2,3E0,2E0,1.276E3,1.1E2,8.9E1,3.82E2,1.7E1,3E0,3.7E1,6E0,1.14E2,1.6E1,1.69E2,1.9E2,7.91E2,4.85E2,6.6E1,4.4E1,3.3E1,5.6E1,3.17E2,6.5E1,6E0,1.1E1,2E0,1E0,2.4E1,1.3E1,1E0,5E0,1.1E2,4E0,1.1E1,5E0,1E2,6.9E1,1.55E2,3.5E1],"tree_param":{"num_deleted":"0","num_feature":"8","num_nodes":"53","size_leaf_vector":"1"}},{"base_weights":[9.906714E-2,-6.1747567E-3,3.8138737E1,-4.7137868E-1,2.1794205E0,-9.559463E-1,2.2959319E-1,9.116637E0,1.7770936E0,-7.798311E-1,-3.1285117E0,9.137666E-1,-1.8649155E0,7.4306436E0,6.931275E0,3.099792E0,4.3897328E-1,-1.8751919E0,-4.703635E-1,-9.2644787E-1,-3.5682993E0,1.242943E0,-3.4939506E0,-4.0513453E0,-1.1713209E0,8.344133E0,-1.1361694E0,3.5542305E0,-7.0402985E0,-1.4516122E0,4.1580834E0,-1.1883757E0,-4.9712127E-1,2.6507565E-1,-2.693911E-1,-5.814648E-1,3.2486057E-1,-1.3488882E0,-7.296892E-1,1.2274904E-1,8.4967273E-1,-1.7831295E0,-6.318973E-1,-7.005799E-1,-1.428185E0,-1.4811346E-1,-1.3944113E0,2.5607233E0,7.055317E-1,-3.4581758E-2,-4.766945E-1,8.1635374E-1,3.620309E0,3.4149742E-1,-2.8618999E0,-2.1730833E-1,-1.5991268E0,1.4804424E0,-1.9846827E0],"categories":[],"categories_nodes":[],"categories_segments":[],"categories_sizes":[],"default_left":[0,0,0,0,0,0,0,0,0,0,0,0,0,0,0,0,0,0,0,0,0,0,0,0,0,0,0,0,0,0,0,0,0,0,0,0,0,0,0,0,0,0,0,0,0,0,0,0,0,0,0,0,0,0,0,0,0,0,0],"id":7,"left_children":[1,3,-1,5,7,9,11,13,15,17,19,21,23,25,-1,27,29,31,33,35,37,39,41,43,45,47,49,51,53,55,57,-1,-1,-1,-1,-1,-1,-1,-1,-1,-1,-1,-1,-1,-1,-1,-1,-1,-1,-1,-1,-1,-1,-1,-1,-1,-1,-1,-1],"loss_changes":[3.2300008E4,2.4564727E3,0E0,6.7683875E2,1.1671951E3,4.482887E2,1.169605E3,3.707301E2,7.10151E2,3.6894373E2,8.191699E1,8.966564E2,3.0007025E2,1.8164563E2,0E0,9.55848E2,1.4193263E3,1.0263916E2,4.940654E2,3.4626236E1,6.602051E1,7.581379E2,1.3365582E2,4.730658E1,3.60507E2,2.8897705E0,1.2036579E0,1.3430396E3,1.948317E2,3.7413535E2,6.0168384E2,0E0,0E0,0E0,0E0,0E0,0E0,0E0,0E0,0E0,0E0,0E0,0E0,0E0,0E0,0E0,0E0,0E0,0E0,0E0,0E0,0E0,0E0,0E0,0E0,0E0,0E0,0E0,0E0],"parents":[2147483647,0,0,1,1,3,3,4,4,5,5,6,6,7,7,8,8,9,9,10,10,11,11,12,12,13,13,15,15,16,16,17,17,18,18,19,19,20,20,21,21,22,22,23,23,24,24,25,25,26,26,27,27,28,28,29,29,30,30],"right_children":[2,4,-1,6,8,10,12,14,16,18,20,22,24,26,-1,28,30,32,34,36,38,40,42,44,46,48,50,52,54,56,58,-1,-1,-1,-1,-1,-1,-1,-1,-1,-1,-1,-1,-1,-1,-1,-1,-1,-1,-1,-1,-1,-1,-1,-1,-1,-1,-1,-1],"split_conditions":[3.13E2,3.8E1,3.8138737E1,2.3666666E1,2.5E1,2.5E1,3.5E1,6.4E1,4.6E1,1.3333333E1,1.5E1,4.6E1,3.1E1,1.3837002E1,6.931275E0,7.6E1,5.5666668E1,9E0,1.5E1,2.1333334E1,2.2E1,2.9333334E1,3.0666666E1,3.6E1,4E1,2.5221207E1,5.2E1,4.7666668E1,4E-1,6E1,1.11E2,-1.1883757E0,-4.9712127E-1,2.6507565E-1,-2.693911E-1,-5.814648E-1,3.2486057E-1,-1.3488882E0,-7.296892E-1,1.2274904E-1,8.4967273E-1,-1.7831295E0,-6.318973E-1,-7.005799E-1,-1.428185E0,-1.4811346E-1,-1.3944113E0,2.5607233E0,7.055317E-1,-3.4581758E-2,-4.766945E-1,8.1635374E-1,3.620309E0,3.4149742E-1,-2.8618999E0,-2.1730833E-1,-1.5991268E0,1.4804424E0,-1.9846827E0],"split_indices":[3,3,0,3,1,0,0,0,0,3,1,1,3,4,0,1,3,3,1,3,3,3,3,0,1,6,0,3,5,0,0,0,0,0,0,0,0,0,0,0,0,0,0,0,0,0,0,0,0,0,0,0,0,0,0,0,0,0,0],"split_type":[0,0,0,0,0,0,0,0,0,0,0,0,0,0,0,0,0,0,0,0,0,0,0,0,0,0,0,0,0,0,0,0,0,0,0,0,0,0,0,0,0,0,0,0,0,0,0,0,0,0,0,0,0,0,0,0,0,0,0],"sum_hessian":[2.415E3,2.414E3,1E0,1.991E3,4.23E2,1.177E3,8.14E2,2.2E1,4.01E2,1.09E3,8.7E1,6.14E2,2E2,2.1E1,1E0,2.01E2,2E2,2.39E2,8.51E2,1.5E1,7.2E1,5.72E2,4.2E1,4.7E1,1.53E2,1.9E1,2E0,1.93E2,8E0,1.33E2,6.7E1,2.1E1,2.18E2,2.04E2,6.47E2,1E1,5E0,3.8E1,3.4E1,3.76E2,1.96E2,1.4E1,2.8E1,1.5E1,3.2E1,1.29E2,2.4E1,1.8E1,1E0,1E0,1E0,1.77E2,1.6E1,2E0,6E0,1.13E2,2E1,6.3E1,4E0],"tree_param":{"num_deleted":"0","num_feature":"8","num_nodes":"59","size_leaf_vector":"1"}},{"base_weights":[8.519213E-2,-4.263076E-3,3.2417927E1,-4.3084392E-1,1.284004E0,-3.395975E-1,-3.239118E0,2.6355746E0,3.1383815E-1,-7.7738583E-1,2.3157631E-1,-1.9429046E0,-3.9983692E0,2.4261727E0,5.74122E0,-1.9817047E-1,3.7999005E0,-4.994542E-1,-1.9771038E0,2.3967166E0,-2.7947712E-1,-3.8911364E0,-1.4494647E-1,-3.8210166E-1,-4.308857E0,5.581888E0,1.4386681E0,4.5927426E-1,-2.0381925E0,-2.9860165E0,5.5793247E0,-3.3882886E-1,2.9091576E-2,-5.0232816E-1,-1.2513206E0,1.0545597E0,-1.092562E-1,4.9798346E-1,-2.1476091E-1,-5.199272E-1,-1.4630165E0,1.9440179E-1,-2.7515766E-1,-1.346075E0,-3.453989E-1,1.1389557E0,2.4082088E0,2.0797373E-1,1.4581128E0,1.6329792E0,3.1839866E-2,-1.1823261E0,-3.503496E-1,1.1056145E0,-1.5343617E0,2.61564E0,7.895416E-1],"categories":[],"categories_nodes":[],"categories_segments":[],"categories_sizes":[],"default_left":[0,0,0,0,0,0,0,0,0,0,0,0,0,0,0,0,0,0,0,0,0,0,0,0,0,0,0,0,0,0,0,0,0,0,0,0,0,0,0,0,0,0,0,0,0,0,0,0,0,0,0,0,0,0,0,0,0],"id":8,"left_children":[1,3,-1,5,7,9,11,13,15,17,19,21,23,25,-1,27,29,31,33,35,37,39,41,-1,43,45,47,49,51,53,55,-1,-1,-1,-1,-1,-1,-1,-1,-1,-1,-1,-1,-1,-1,-1,-1,-1,-1,-1,-1,-1,-1,-1,-1,-1,-1],"loss_changes":[2.3336328E4,1.3277166E3,0E0,4.6398465E2,7.872328E2,4.4002368E2,4.8328247E1,8.2090295E2,6.272508E2,3.3111835E2,8.4603766E2,8.00013E1,2.4121338E1,7.6792395E2,0E0,3.723179E2,5.6003613E2,3.0445383E2,1.17195435E2,4.5213135E2,5.250785E2,1.4944519E1,8.554949E0,0E0,1.2263245E1,2.2712256E2,4.8379852E2,3.9895428E2,1.2955002E2,1.6085121E2,3.1018555E2,0E0,0E0,0E0,0E0,0E0,0E0,0E0,0E0,0E0,0E0,0E0,0E0,0E0,0E0,0E0,0E0,0E0,0E0,0E0,0E0,0E0,0E0,0E0,0E0,0E0,0E0],"parents":[2147483647,0,0,1,1,3,3,4,4,5,5,6,6,7,7,8,8,9,9,10,10,11,11,12,12,13,13,15,15,16,16,17,17,18,18,19,19,20,20,21,21,22,22,24,24,25,25,26,26,27,27,28,28,29,29,30,30],"right_children":[2,4,-1,6,8,10,12,14,16,18,20,22,24,26,-1,28,30,32,34,36,38,40,42,-1,44,46,48,50,52,54,56,-1,-1,-1,-1,-1,-1,-1,-1,-1,-1,-1,-1,-1,-1,-1,-1,-1,-1,-1,-1,-1,-1,-1,-1,-1,-1],"split_conditions":[3.13E2,3.3666668E1,3.2417927E1,3.7E1,3.9E1,2.1333334E1,2.5E1,6.1333332E1,6.1666668E1,2E1,2.1E1,2.8E1,1.5E1,3.6E1,5.74122E0,5.4E1,4.2995E0,1.5333333E1,2.2E1,3.3E1,2E1,5.51825E0,5E-1,-3.8210166E-1,2.7798203E1,3.6666668E1,4.3333332E1,3E1,4.2E1,5.4E1,7.793249E0,-3.3882886E-1,2.9091576E-2,-5.0232816E-1,-1.2513206E0,1.0545597E0,-1.092562E-1,4.9798346E-1,-2.1476091E-1,-5.199272E-1,-1.4630165E0,1.9440179E-1,-2.7515766E-1,-1.346075E0,-3.453989E-1,1.1389557E0,2.4082088E0,2.0797373E-1,1.4581128E0,1.6329792E0,3.1839866E-2,-1.1823261E0,-3.503496E-1,1.1056145E0,-1.5343617E0,2.61564E0,7.895416E-1],"split_indices":[3,3,0,0,1,3,1,3,3,0,0,3,2,0,0,1,4,3,1,1,1,4,5,0,6,3,3,0,2,1,4,0,0,0,0,0,0,0,0,0,0,0,0,0,0,0,0,0,0,0,0,0,0,0,0,0,0],"split_type":[0,0,0,0,0,0,0,0,0,0,0,0,0,0,0,0,0,0,0,0,0,0,0,0,0,0,0,0,0,0,0,0,0,0,0,0,0,0,0,0,0,0,0,0,0,0,0,0,0,0,0,0,0,0,0,0,0],"sum_hessian":[2.415E3,2.414E3,1E0,1.814E3,6E2,1.758E3,5.6E1,2.5E2,3.5E2,9.95E2,7.63E2,2.2E1,3.4E1,2.48E2,2E0,3.06E2,4.4E1,8.09E2,1.86E2,1.45E2,6.18E2,1E1,1.2E1,4E0,3E1,5.8E1,1.9E2,2.26E2,8E1,9E0,3.5E1,3.93E2,4.16E2,1.65E2,2.1E1,1.03E2,4.2E1,1.13E2,5.05E2,4E0,6E0,6E0,6E0,2.8E1,2E0,3.5E1,2.3E1,1.57E2,3.3E1,1.4E1,2.12E2,2.4E1,5.6E1,2E0,7E0,1.6E1,1.9E1],"tree_param":{"num_deleted":"0","num_feature":"8","num_nodes":"57","size_leaf_vector":"1"}},{"base_weights":[7.6815516E-2,7.8041124E-4,2.755524E1,-2.427594E-1,1.4776834E0,-1.4845595E-1,-2.5612578E0,3.423401E0,5.2790815E-1,-4.5155498E-1,7.049097E-1,-1.018476E0,-3.3570957E0,3.0681016E0,4.592975E0,2.2974038E0,-3.7175784E-1,-1.372122E-1,-1.5263274E0,1.3825295E0,-1.2143878E0,-2.736448E0,7.673945E-1,-4.34233E0,-1.5143424E0,5.9680905E0,1.6922107E0,1.5540621E0,8.607386E0,2.133556E0,-1.2996465E0,-1.9406138E-1,1.5423694E-1,-3.4900206E-1,-9.2825073E-1,1.0553602E0,2.4438924E-1,3.56385E-1,-4.833817E-1,-2.0116459E-1,-1.0280176E0,6.710654E-1,-3.6947334E-1,-1.0618317E0,-1.6558033E0,-1.4213015E-1,-1.0137476E0,1.4991366E0,2.7414274E0,6.0316634E-1,-1.3621844E0,2.1286597E0,2.5112885E-1,7.9298407E-1,3.497158E0,3.4132564E-1,4.409926E0,-1.3136974E-1,-1.0694944E0],"categories":[],"categories_nodes":[],"categories_segments":[],"categories_sizes":[],"default_left":[0,0,0,0,0,0,0,0,0,0,0,0,0,0,0,0,0,0,0,0,0,0,0,0,0,0,0,0,0,0,0,0,0,0,0,0,0,0,0,0,0,0,0,0,0,0,0,0,0,0,0,0,0,0,0,0,0,0,0],"id":9,"left_children":[1,3,-1,5,7,9,11,13,15,17,19,21,23,25,-1,27,29,31,33,35,37,39,41,43,45,47,49,51,53,55,57,-1,-1,-1,-1,-1,-1,-1,-1,-1,-1,-1,-1,-1,-1,-1,-1,-1,-1,-1,-1,-1,-1,-1,-1,-1,-1,-1,-1],"loss_changes":[1.6858885E4,8.6899725E2,0E0,4.530842E2,6.3020685E2,5.1607495E2,9.603302E1,4.260343E2,3.6859567E2,4.971013E2,6.8186865E2,9.107413E1,8.964807E1,4.2880823E2,0E0,3.5248044E2,3.607693E2,3.7876578E2,1.8591278E2,4.664319E2,1.3253683E2,1.9092873E1,4.6816948E1,1.2595093E1,3.720869E1,6.206494E1,1.5992688E2,2.761466E2,1.1470172E2,5.0884088E2,2.1903142E2,0E0,0E0,0E0,0E0,0E0,0E0,0E0,0E0,0E0,0E0,0E0,0E0,0E0,0E0,0E0,0E0,0E0,0E0,0E0,0E0,0E0,0E0,0E0,0E0,0E0,0E0,0E0,0E0],"parents":[2147483647,0,0,1,1,3,3,4,4,5,5,6,6,7,7,8,8,9,9,10,10,11,11,12,12,13,13,15,15,16,16,17,17,18,18,19,19,20,20,21,21,22,22,23,23,24,24,25,25,26,26,27,27,28,28,29,29,30,30],"right_children":[2,4,-1,6,8,10,12,14,16,18,20,22,24,26,-1,28,30,32,34,36,38,40,42,44,46,48,50,52,54,56,58,-1,-1,-1,-1,-1,-1,-1,-1,-1,-1,-1,-1,-1,-1,-1,-1,-1,-1,-1,-1,-1,-1,-1,-1,-1,-1,-1,-1],"split_conditions":[3.13E2,4E1,2.755524E1,4.2E1,4.2E1,2.7666666E1,3E1,6.2333332E1,1.1155885E2,2.4E1,3.9E1,3.6E1,3.8666668E1,4.3E1,4.592975E0,7.0333336E1,1E-1,1.8E1,2.7E1,2.7E1,2.3E1,1.4904173E1,4.8E1,4.8E1,3.9E1,4.3E1,7.2E1,4E1,5.572417E0,8.1E1,5.9E1,-1.9406138E-1,1.5423694E-1,-3.4900206E-1,-9.2825073E-1,1.0553602E0,2.4438924E-1,3.56385E-1,-4.833817E-1,-2.0116459E-1,-1.0280176E0,6.710654E-1,-3.6947334E-1,-1.0618317E0,-1.6558033E0,-1.4213015E-1,-1.0137476E0,1.4991366E0,2.7414274E0,6.0316634E-1,-1.3621844E0,2.1286597E0,2.5112885E-1,7.9298407E-1,3.497158E0,3.4132564E-1,4.409926E0,-1.3136974E-1,-1.0694944E0],"split_indices":[3,3,0,0,1,3,1,3,7,1,1,3,3,0,0,3,5,3,0,0,0,6,0,0,1,3,0,0,4,3,1,0,0,0,0,0,0,0,0,0,0,0,0,0,0,0,0,0,0,0,0,0,0,0,0,0,0,0,0],"split_type":[0,0,0,0,0,0,0,0,0,0,0,0,0,0,0,0,0,0,0,0,0,0,0,0,0,0,0,0,0,0,0,0,0,0,0,0,0,0,0,0,0,0,0,0,0,0,0,0,0,0,0,0,0,0,0,0,0,0,0],"sum_hessian":[2.415E3,2.414E3,1E0,2.073E3,3.41E2,1.993E3,8E1,1.11E2,2.3E2,1.471E3,5.22E2,2.8E1,5.2E1,1.09E2,2E0,7.7E1,1.53E2,1.139E3,3.32E2,3.86E2,1.36E2,1.4E1,1.4E1,3.3E1,1.9E1,3.4E1,7.5E1,7E1,7E0,4.1E1,1.12E2,6.39E2,5E2,2.71E2,6.1E1,8E1,3.06E2,1.9E1,1.17E2,4E0,1E1,8E0,6E0,2.2E1,1.1E1,1.3E1,6E0,2.8E1,6E0,7.2E1,3E0,7E0,6.3E1,3E0,4E0,3.9E1,2E0,8.2E1,3E1],"tree_param":{"num_deleted":"0","num_feature":"8","num_nodes":"59","size_leaf_vector":"1"}},{"base_weights":[7.070175E-2,6.074142E-3,2.3421955E1,-9.5311E-2,2.3298419E0,-2.6958488E-2,-2.7547019E0,3.977404E0,-5.063117E-1,-2.1355157E-1,1.1595452E0,-1.9132061E0,-5.0394425E0,3.1580844E0,1.0197854E1,1.8057761E0,-3.7982936E0,-4.7507953E-2,-1.2704121E0,1.9824821E0,-3.5351887E-1,-7.0909286E-1,-3.976086E0,-5.263291E0,-2.858351E-1,8.0303955E0,2.0992844E0,1.2185037E1,-2.587864E-1,-2.4297598E-1,7.6510696E0,-4.4362917E0,-7.752261E-1,-1.0837532E-1,2.2633603E-1,-8.948401E-1,-2.8581923E-1,1.5142696E0,4.4159672E-1,8.008986E-1,-2.942543E-1,-5.904343E-1,3.7155917E-1,-6.9208455E-1,-1.6070565E0,-1.630127E0,-4.570862E-1,2.7767012E0,6.2585944E-1,7.8177404E-1,-1.2755316E0,1.5360817E0,4.3312054E0,9.212582E-1,-4.2274013E-1,3.2099466E0,3.1071323E-1,-3.028038E-1,-1.3913275E0,-9.356973E-1,3.1370774E-1],"categories":[],"categories_nodes":[],"categories_segments":[],"categories_sizes":[],"default_left":[0,0,0,0,0,0,0,0,0,0,0,0,0,0,0,0,0,0,0,0,0,0,0,0,0,0,0,0,0,0,0,0,0,0,0,0,0,0,0,0,0,0,0,0,0,0,0,0,0,0,0,0,0,0,0,0,0,0,0,0,0],"id":10,"left_children":[1,3,-1,5,7,9,11,13,15,17,19,21,23,25,27,29,31,33,35,37,39,41,43,45,-1,47,49,51,-1,53,55,57,59,-1,-1,-1,-1,-1,-1,-1,-1,-1,-1,-1,-1,-1,-1,-1,-1,-1,-1,-1,-1,-1,-1,-1,-1,-1,-1,-1,-1],"loss_changes":[1.21788545E4,5.6918524E2,0E0,4.207373E2,4.739605E2,5.0015387E2,1.0186929E2,2.939729E2,2.960902E2,3.4248624E2,3.8296378E2,1.06474E2,8.707062E0,2.8235248E2,1.6436536E2,2.7729684E2,2.7420242E1,4.2499E2,1.4131656E2,3.0394617E2,2.0934012E2,7.354846E1,2.451709E1,6.45813E-1,0E0,5.352356E1,1.6874365E2,2.1549194E1,0E0,7.388746E1,1.0992963E2,4.2943115E0,2.0332726E1,0E0,0E0,0E0,0E0,0E0,0E0,0E0,0E0,0E0,0E0,0E0,0E0,0E0,0E0,0E0,0E0,0E0,0E0,0E0,0E0,0E0,0E0,0E0,0E0,0E0,0E0,0E0,0E0],"parents":[2147483647,0,0,1,1,3,3,4,4,5,5,6,6,7,7,8,8,9,9,10,10,11,11,12,12,13,13,14,14,15,15,16,16,17,17,18,18,19,19,20,20,21,21,22,22,23,23,25,25,26,26,27,27,29,29,30,30,31,31,32,32],"right_children":[2,4,-1,6,8,10,12,14,16,18,20,22,24,26,28,30,32,34,36,38,40,42,44,46,-1,48,50,52,-1,54,56,58,60,-1,-1,-1,-1,-1,-1,-1,-1,-1,-1,-1,-1,-1,-1,-1,-1,-1,-1,-1,-1,-1,-1,-1,-1,-1,-1,-1,-1],"split_conditions":[3.13E2,5.1333332E1,2.3421955E1,5.2E1,6.6E1,3.7E1,5.9E1,6.8333336E1,1.8671474E1,3.3E1,4.5E1,4.5E1,6.8E1,5.2E1,9.4E1,7.7E1,9.624499E0,2.4666666E1,2.5666666E1,3.6E1,3.3E1,4.3666668E1,2.0969805E1,4.9333332E1,-2.858351E-1,1.5E0,7.8E1,7.1666664E1,-2.587864E-1,5.9333332E1,9.8E1,1.8961319E1,1.5E1,-1.0837532E-1,2.2633603E-1,-8.948401E-1,-2.8581923E-1,1.5142696E0,4.4159672E-1,8.008986E-1,-2.942543E-1,-5.904343E-1,3.7155917E-1,-6.9208455E-1,-1.6070565E0,-1.630127E0,-4.570862E-1,2.7767012E0,6.2585944E-1,7.8177404E-1,-1.2755316E0,1.5360817E0,4.3312054E0,9.212582E-1,-4.2274013E-1,3.2099466E0,3.1071323E-1,-3.028038E-1,-1.3913275E0,-9.356973E-1,3.1370774E-1],"split_indices":[3,3,0,0,1,3,0,3,6,1,1,1,0,0,0,0,4,3,3,0,0,3,6,3,0,5,0,3,0,3,0,7,0,0,0,0,0,0,0,0,0,0,0,0,0,0,0,0,0,0,0,0,0,0,0,0,0,0,0,0,0],"split_type":[0,0,0,0,0,0,0,0,0,0,0,0,0,0,0,0,0,0,0,0,0,0,0,0,0,0,0,0,0,0,0,0,0,0,0,0,0,0,0,0,0,0,0,0,0,0,0,0,0,0,0,0,0,0,0,0,0,0,0,0,0],"sum_hessian":[2.415E3,2.414E3,1E0,2.314E3,1E2,2.257E3,5.7E1,6.3E1,3.7E1,1.951E3,3.06E2,4.3E1,1.4E1,5.7E1,6E0,2.2E1,1.5E1,1.687E3,2.64E2,1.98E2,1.08E2,2.8E1,1.5E1,1.3E1,1E0,9E0,4.8E1,5E0,1E0,1.7E1,5E0,1.2E1,3E0,1.213E3,4.74E2,4E1,2.24E2,2.7E1,1.71E2,1.8E1,9E1,1.7E1,1.1E1,8E0,7E0,1.2E1,1E0,7E0,2E0,4.5E1,3E0,2E0,3E0,4E0,1.3E1,3E0,2E0,1E0,1.1E1,1E0,2E0],"tree_param":{"num_deleted":"0","num_feature":"8","num_nodes":"61","size_leaf_vector":"1"}},{"base_weights":[6.197107E-2,7.0383744E-3,1.9908665E1,-1.16678946E-1,1.377791E0,-2.0723369E-2,-1.8536271E0,5.7289705E0,1.069583E0,-2.0557173E-1,8.59009E-1,2.2780657E-1,-2.1650064E0,6.9898977E0,-1.4103236E0,2.8548465E0,2.104373E-1,-2.6363578E-2,-1.6391003E0,1.1836058E0,-1.6654758E0,-1.2144766E0,1.4845243E0,-1.2899332E0,-1.9094335E0,2.379158E0,8.997873E0,3.9764526E0,-5.481994E-1,-1.3773992E0,1.6317254E0,1.1202319E-1,-1.392063E-1,-3.6041906E-1,-1.000999E0,8.769991E-1,1.716953E-1,2.2296162E-1,-8.312572E-1,-6.0849156E-2,-6.5262455E-1,2.6649955E-1,7.1423954E-1,-1.3014431E-1,-6.862669E-1,1.0072149E0,-2.3006116E-1,6.4336777E-1,3.2774653E0,7.9585797E-1,1.6277496E0,1.7646196E-1,-1.2313406E0,5.0116815E-2,-6.7587423E-1,1.862825E0,2.753629E-1],"categories":[],"categories_nodes":[],"categories_segments":[],"categories_sizes":[],"default_left":[0,0,0,0,0,0,0,0,0,0,0,0,0,0,0,0,0,0,0,0,0,0,0,0,0,0,0,0,0,0,0,0,0,0,0,0,0,0,0,0,0,0,0,0,0,0,0,0,0,0,0,0,0,0,0,0,0],"id":11,"left_children":[1,3,-1,5,7,9,11,13,15,17,19,21,23,25,-1,27,29,31,33,35,37,39,41,-1,43,45,47,49,51,53,55,-1,-1,-1,-1,-1,-1,-1,-1,-1,-1,-1,-1,-1,-1,-1,-1,-1,-1,-1,-1,-1,-1,-1,-1,-1,-1],"loss_changes":[8.798729E3,4.0971063E2,0E0,3.69302E2,2.6208612E2,3.4183508E2,7.567459E1,2.0382996E2,2.877539E2,4.4619208E2,3.010667E2,3.0803602E1,4.689444E1,8.969165E1,0E0,2.3500937E2,2.911145E2,2.704929E2,1.39396E2,3.428921E2,1.1388478E2,7.3357964E0,2.6942272E0,0E0,5.0340393E1,1.7962294E1,8.222229E1,7.385187E1,6.7076126E1,8.286016E1,2.1650957E2,0E0,0E0,0E0,0E0,0E0,0E0,0E0,0E0,0E0,0E0,0E0,0E0,0E0,0E0,0E0,0E0,0E0,0E0,0E0,0E0,0E0,0E0,0E0,0E0,0E0,0E0],"parents":[2147483647,0,0,1,1,3,3,4,4,5,5,6,6,7,7,8,8,9,9,10,10,11,11,12,12,13,13,15,15,16,16,17,17,18,18,19,19,20,20,21,21,22,22,24,24,25,25,26,26,27,27,28,28,29,29,30,30],"right_children":[2,4,-1,6,8,10,12,14,16,18,20,22,24,26,-1,28,30,32,34,36,38,40,42,-1,44,46,48,50,52,54,56,-1,-1,-1,-1,-1,-1,-1,-1,-1,-1,-1,-1,-1,-1,-1,-1,-1,-1,-1,-1,-1,-1,-1,-1,-1,-1],"split_conditions":[3.13E2,4.4333332E1,1.9908665E1,4.4E1,3.1E1,3.2333332E1,2.4E1,7.2E1,4.8E1,3E1,5E1,3.4666668E1,3.5666668E1,1.1641097E2,-1.4103236E0,5.5E1,5.4666668E1,1.9000001E0,3.1E1,3.3E1,2.8E1,1.8E1,2.9E0,-1.2899332E0,3.2E1,6.4E1,4.5333332E1,4.6333332E1,9.4E1,4.4E1,5.9E1,1.1202319E-1,-1.392063E-1,-3.6041906E-1,-1.000999E0,8.769991E-1,1.716953E-1,2.2296162E-1,-8.312572E-1,-6.0849156E-2,-6.5262455E-1,2.6649955E-1,7.1423954E-1,-1.3014431E-1,-6.862669E-1,1.0072149E0,-2.3006116E-1,6.4336777E-1,3.2774653E0,7.9585797E-1,1.6277496E0,1.7646196E-1,-1.2313406E0,5.0116815E-2,-6.7587423E-1,1.862825E0,2.753629E-1],"split_indices":[3,3,0,0,1,3,1,0,0,0,1,3,3,7,0,1,3,5,1,0,0,1,5,0,1,0,3,3,1,1,0,0,0,0,0,0,0,0,0,0,0,0,0,0,0,0,0,0,0,0,0,0,0,0,0,0,0],"split_type":[0,0,0,0,0,0,0,0,0,0,0,0,0,0,0,0,0,0,0,0,0,0,0,0,0,0,0,0,0,0,0,0,0,0,0,0,0,0,0,0,0,0,0,0,0,0,0,0,0,0,0,0,0,0,0,0,0],"sum_hessian":[2.415E3,2.414E3,1E0,2.215E3,1.99E2,2.1E3,1.15E2,1.2E1,1.87E2,1.736E3,3.64E2,1.5E1,1E2,1.1E1,1E0,6E1,1.27E2,1.544E3,1.92E2,3.23E2,4.1E1,7E0,8E0,9E0,9.1E1,4E0,7E0,4.5E1,1.5E1,6E1,6.7E1,8.07E2,7.37E2,1.54E2,3.8E1,8.3E1,2.4E2,1.3E1,2.8E1,4E0,3E0,6E0,2E0,1.9E1,7.2E1,3E0,1E0,2E0,5E0,2.5E1,2E1,1.2E1,3E0,2.2E1,3.8E1,8E0,5.9E1],"tree_param":{"num_deleted":"0","num_feature":"8","num_nodes":"57","size_leaf_vector":"1"}},{"base_weights":[5.3019777E-2,6.3271397E-3,1.6922361E1,-2.3043225E-2,3.5245805E0,1.5976061E-1,-4.7895333E-1,5.856787E0,-1.6433449E0,4.6005702E-1,-2.5519642E-1,1.7754488E-1,-7.3079246E-1,9.110951E0,-1.8228977E0,-2.5511837E0,5.7055324E-1,2.1089816E0,3.28861E-1,6.202477E-1,-3.9598548E-1,3.8664335E-1,-2.7152376E0,-9.34591E-1,1.06415875E-1,1.7771302E0,3.7232358E0,2.7204004E-1,-3.3102028E0,-4.2013294E-1,-9.705331E-1,2.8970733E-1,1.4146327E0,-1.7539778E-1,1.4231424E-1,3.2584932E-1,-7.1465924E-2,-1.0246822E-1,-7.287518E-1,3.571336E-2,7.183012E-1,-1.0314517E0,2.521805E-1,3.907558E-2,-3.2314253E-1,-1.4003529E-2,5.503685E-1,-1.1002522E-1,2.3244324E-1,-1.1879114E0,-3.0168E-1],"categories":[],"categories_nodes":[],"categories_segments":[],"categories_sizes":[],"default_left":[0,0,0,0,0,0,0,0,0,0,0,0,0,0,0,0,0,0,0,0,0,0,0,0,0,0,0,0,0,0,0,0,0,0,0,0,0,0,0,0,0,0,0,0,0,0,0,0,0,0,0],"id":12,"left_children":[1,3,-1,5,7,9,11,13,15,17,19,21,23,25,27,29,-1,31,33,35,37,39,41,43,45,-1,-1,47,49,-1,-1,-1,-1,-1,-1,-1,-1,-1,-1,-1,-1,-1,-1,-1,-1,-1,-1,-1,-1,-1,-1],"loss_changes":[6.357E3,2.496289E2,0E0,1.9976422E2,2.5067819E2,2.1332532E2,1.13547455E2,3.6648172E2,2.738117E1,2.141245E2,8.886449E1,1.1658123E2,8.4727875E1,3.1653198E1,1.6479568E1,1.915474E-1,0E0,2.1298209E2,1.2271073E2,4.0256172E1,6.777682E1,9.588389E1,3.6308434E1,6.0706177E1,2.6013424E1,0E0,0E0,1.2476584E0,5.0865173E-1,0E0,0E0,0E0,0E0,0E0,0E0,0E0,0E0,0E0,0E0,0E0,0E0,0E0,0E0,0E0,0E0,0E0,0E0,0E0,0E0,0E0,0E0],"parents":[2147483647,0,0,1,1,3,3,4,4,5,5,6,6,7,7,8,8,9,9,10,10,11,11,12,12,13,13,14,14,15,15,17,17,18,18,19,19,20,20,21,21,22,22,23,23,24,24,27,27,28,28],"right_children":[2,4,-1,6,8,10,12,14,16,18,20,22,24,26,28,30,-1,32,34,36,38,40,42,44,46,-1,-1,48,50,-1,-1,-1,-1,-1,-1,-1,-1,-1,-1,-1,-1,-1,-1,-1,-1,-1,-1,-1,-1,-1,-1],"split_conditions":[3.13E2,7.0333336E1,1.6922361E1,4.6000004E0,9.8E1,2.4973355E2,1.3457053E2,1.03E2,8E1,1.2E1,1.224E1,5E1,2.9522196E1,8.0333336E1,4.2995E0,1.41E2,5.7055324E-1,1.6666666E1,5.7372185E1,9.355748E0,5.2E1,4.2333332E1,6.6E1,1.2E1,4.1E1,1.7771302E0,3.7232358E0,1.8E1,3.2E1,-4.2013294E-1,-9.705331E-1,2.8970733E-1,1.4146327E0,-1.7539778E-1,1.4231424E-1,3.2584932E-1,-7.1465924E-2,-1.0246822E-1,-7.287518E-1,3.571336E-2,7.183012E-1,-1.0314517E0,2.521805E-1,3.907558E-2,-3.2314253E-1,-1.4003529E-2,5.503685E-1,-1.1002522E-1,2.3244324E-1,-1.1879114E0,-3.0168E-1],"split_indices":[3,3,0,5,0,7,7,1,2,1,6,1,6,3,4,0,0,3,7,4,0,3,3,1,3,0,0,0,0,0,0,0,0,0,0,0,0,0,0,0,0,0,0,0,0,0,0,0,0,0,0],"split_type":[0,0,0,0,0,0,0,0,0,0,0,0,0,0,0,0,0,0,0,0,0,0,0,0,0,0,0,0,0,0,0,0,0,0,0,0,0,0,0,0,0,0,0,0,0,0,0,0,0,0,0],"sum_hessian":[2.415E3,2.414E3,1E0,2.395E3,1.9E1,1.71E3,6.85E2,1.3E1,6E0,9.92E2,7.18E2,1.9E2,4.95E2,9E0,4E0,5E0,1E0,7.2E1,9.2E2,9.9E1,6.19E2,1.78E2,1.2E1,3.98E2,9.7E1,6E0,3E0,2E0,2E0,3E0,2E0,5.1E1,2.1E1,1.26E2,7.94E2,6.4E1,3.5E1,6.04E2,1.5E1,1.58E2,2E1,1E1,2E0,4.7E1,3.51E2,9E1,7E0,1E0,1E0,1E0,1E0],"tree_param":{"num_deleted":"0","num_feature":"8","num_nodes":"51","size_leaf_vector":"1"}},{"base_weights":[4.6036303E-2,6.347965E-3,1.43840065E1,-7.6067865E-2,8.8119316E-1,-6.984671E-3,-1.5023642E0,1.3974874E0,-5.451321E-1,-2.5149012E-1,3.4163353E-1,-3.343265E0,-1.1715019E0,8.3011E-1,4.014504E0,-1.640366E0,9.835284E-1,2.0067206E-1,-8.2763916E-1,4.2395887E0,1.5336867E-1,-2.036501E-1,-3.7009597E0,5.7795423E-1,-1.7994318E0,2.1546493E0,-6.848696E-1,4.695279E0,-2.9967892E0,-8.077283E-1,-1.1312957E0,2.3227396E0,-1.9852366E0,-4.7657877E-2,3.4713164E-1,-7.560175E-1,-2.0766464E-1,1.4974185E0,6.882575E-1,3.2559326E-1,-5.535624E-2,-1.1931232E0,-5.813227E-2,-2.9535696E-1,5.9273493E-1,-3.8811356E-1,-1.1168386E0,1.4026004E0,3.6682424E-1,-6.144374E-2,-7.7640915E-1,2.6259105E0,1.1232251E0,-1.9825174E-1,-1.1503035E0,-9.3538404E-1,7.917277E-2,1.3619817E0,-2.217305E-1,5.9432906E-1,-1.0912592E0],"categories":[],"categories_nodes":[],"categories_segments":[],"categories_sizes":[],"default_left":[0,0,0,0,0,0,0,0,0,0,0,0,0,0,0,0,0,0,0,0,0,0,0,0,0,0,0,0,0,0,0,0,0,0,0,0,0,0,0,0,0,0,0,0,0,0,0,0,0,0,0,0,0,0,0,0,0,0,0,0,0],"id":13,"left_children":[1,3,-1,5,7,9,11,13,15,17,19,21,23,25,27,29,31,33,35,37,39,-1,41,43,45,47,49,51,53,55,-1,57,59,-1,-1,-1,-1,-1,-1,-1,-1,-1,-1,-1,-1,-1,-1,-1,-1,-1,-1,-1,-1,-1,-1,-1,-1,-1,-1,-1,-1],"loss_changes":[4.5927466E3,1.7419116E2,0E0,2.175506E2,1.5393376E2,1.7968459E2,5.820999E1,2.2384738E2,9.5370834E1,3.2294144E2,6.3706366E2,1.1783447E1,9.7711136E1,2.563202E2,1.4294485E2,5.54972E1,1.0003048E2,2.3917212E2,1.2316611E2,4.705133E1,2.615618E2,0E0,1.1818497E1,5.436302E1,5.8408188E1,1.5401736E2,5.4287487E1,6.3720886E1,3.3355808E0,6.2715767E1,0E0,1.1876357E2,5.96347E1,0E0,0E0,0E0,0E0,0E0,0E0,0E0,0E0,0E0,0E0,0E0,0E0,0E0,0E0,0E0,0E0,0E0,0E0,0E0,0E0,0E0,0E0,0E0,0E0,0E0,0E0,0E0,0E0],"parents":[2147483647,0,0,1,1,3,3,4,4,5,5,6,6,7,7,8,8,9,9,10,10,11,11,12,12,13,13,14,14,15,15,16,16,17,17,18,18,19,19,20,20,22,22,23,23,24,24,25,25,26,26,27,27,28,28,29,29,31,31,32,32],"right_children":[2,4,-1,6,8,10,12,14,16,18,20,22,24,26,28,30,32,34,36,38,40,-1,42,44,46,48,50,52,54,56,-1,58,60,-1,-1,-1,-1,-1,-1,-1,-1,-1,-1,-1,-1,-1,-1,-1,-1,-1,-1,-1,-1,-1,-1,-1,-1,-1,-1,-1,-1],"split_conditions":[3.13E2,4.3666668E1,1.43840065E1,4.6E1,6.2E1,2.4666666E1,3.0666666E1,5.8333332E1,6.5666664E1,1.8E1,2E1,3.5E1,2.8E1,5.1E1,9.4E1,6.6E1,1.4000001E0,1.7333334E1,1.6E1,1.9E1,2.5E1,-2.036501E-1,1.2953667E1,1.8374111E1,5.6E1,4.2E1,6.4E1,2.5E1,1.03E2,3.9745E0,-1.1312957E0,6.6E1,5.7372185E1,-4.7657877E-2,3.4713164E-1,-7.560175E-1,-2.0766464E-1,1.4974185E0,6.882575E-1,3.2559326E-1,-5.535624E-2,-1.1931232E0,-5.813227E-2,-2.9535696E-1,5.9273493E-1,-3.8811356E-1,-1.1168386E0,1.4026004E0,3.6682424E-1,-6.144374E-2,-7.7640915E-1,2.6259105E0,1.1232251E0,-1.9825174E-1,-1.1503035E0,-9.3538404E-1,7.917277E-2,1.3619817E0,-2.217305E-1,5.9432906E-1,-1.0912592E0],"split_indices":[3,3,0,1,1,3,3,3,3,0,0,2,0,0,0,0,5,3,3,0,1,0,4,6,1,1,0,2,0,4,0,2,7,0,0,0,0,0,0,0,0,0,0,0,0,0,0,0,0,0,0,0,0,0,0,0,0,0,0,0,0],"split_type":[0,0,0,0,0,0,0,0,0,0,0,0,0,0,0,0,0,0,0,0,0,0,0,0,0,0,0,0,0,0,0,0,0,0,0,0,0,0,0,0,0,0,0,0,0,0,0,0,0,0,0,0,0,0,0,0,0,0,0,0,0],"sum_hessian":[2.415E3,2.414E3,1E0,2.207E3,2.07E2,2.106E3,1.01E2,1.52E2,5.5E1,1.238E3,8.68E2,1.4E1,8.7E1,1.26E2,2.6E1,3.2E1,2.3E1,6.94E2,5.44E2,3.9E1,8.29E2,2E0,1.2E1,2.3E1,6.4E1,6.7E1,5.9E1,2.4E1,2E0,2.4E1,8E0,1.6E1,7E0,5.05E2,1.89E2,3.9E1,5.05E2,2.7E1,1.2E1,2.2E2,6.09E2,1.1E1,1E0,1.1E1,1.2E1,5.2E1,1.2E1,1.7E1,5E1,4.8E1,1.1E1,3E0,2.1E1,1E0,1E0,7E0,1.7E1,9E0,7E0,2E0,5E0],"tree_param":{"num_deleted":"0","num_feature":"8","num_nodes":"61","size_leaf_vector":"1"}},{"base_weights":[3.864139E-2,4.9061095E-3,1.2226401E1,-1.1229331E0,5.8191575E-2,-3.4143156E-1,-1.8564715E0,2.039382E0,-2.5017863E-2,-2.5256994E0,4.1274354E-1,-1.3871921E0,-8.554363E-1,2.4608192E0,-2.167455E0,1.0268584E0,-1.20254196E-1,-7.549556E-1,-2.7579103E0,9.136143E-1,-1.469643E0,-7.989748E-1,-2.6931179E0,1.555088E0,3.4892433E0,6.288514E-2,-2.4907913E0,3.0795598E-1,2.623221E0,-9.9003065E-1,5.8828063E-2,-5.2602285E-1,1.862928E-1,-1.7253357E-1,-8.712191E-1,-1.2497216E-1,4.7929308E-1,-1.3445342E-1,-5.7170373E-1,-5.6050706E-1,9.7101636E-2,-2.6781836E-1,-8.891769E-1,1.1277343E0,5.4250844E-2,-1.1396496E0,1.1343012E0,-2.1269618E-1,-7.932153E-1,3.75209E-1,-9.9809855E-2,8.810389E-1,-6.797556E-1,-2.2954866E-1,-6.158697E-1,2.9397953E-1,-2.5765484E-2],"categories":[],"categories_nodes":[],"categories_segments":[],"categories_sizes":[],"default_left":[0,0,0,0,0,0,0,0,0,0,0,0,0,0,0,0,0,0,0,0,0,0,0,0,0,0,0,0,0,0,0,0,0,0,0,0,0,0,0,0,0,0,0,0,0,0,0,0,0,0,0,0,0,0,0,0,0],"id":14,"left_children":[1,3,-1,5,7,9,11,13,15,17,19,21,-1,23,25,27,29,31,33,35,37,39,41,43,45,-1,47,49,51,53,55,-1,-1,-1,-1,-1,-1,-1,-1,-1,-1,-1,-1,-1,-1,-1,-1,-1,-1,-1,-1,-1,-1,-1,-1,-1,-1],"loss_changes":[3.318337E3,1.4520065E2,0E0,6.185164E1,3.803686E2,8.9997765E1,2.2192291E1,1.7021506E2,2.220152E2,3.6745148E0,3.9998814E1,2.8574997E1,0E0,7.374939E1,7.439457E0,2.1035585E2,3.1656567E2,5.210237E0,2.1581192E0,3.0691832E1,3.1544743E0,3.542034E1,3.204689E0,1.416779E2,9.729196E1,0E0,3.1002808E-1,7.772452E1,9.404068E1,8.1364105E1,2.2482066E2,0E0,0E0,0E0,0E0,0E0,0E0,0E0,0E0,0E0,0E0,0E0,0E0,0E0,0E0,0E0,0E0,0E0,0E0,0E0,0E0,0E0,0E0,0E0,0E0,0E0,0E0],"parents":[2147483647,0,0,1,1,3,3,4,4,5,5,6,6,7,7,8,8,9,9,10,10,11,11,13,13,14,14,15,15,16,16,17,17,18,18,19,19,20,20,21,21,22,22,23,23,24,24,26,26,27,27,28,28,29,29,30,30],"right_children":[2,4,-1,6,8,10,12,14,16,18,20,22,-1,24,26,28,30,32,34,36,38,40,42,44,46,-1,48,50,52,54,56,-1,-1,-1,-1,-1,-1,-1,-1,-1,-1,-1,-1,-1,-1,-1,-1,-1,-1,-1,-1,-1,-1,-1,-1,-1,-1],"split_conditions":[3.13E2,1.1333333E1,1.2226401E1,1E1,1.1E1,8.333333E0,1.1E1,2.4E1,1.3E1,6E0,1.2E1,1.4E1,-8.554363E-1,1.4E1,1.6E1,1.6666666E1,1.8333334E1,7E0,1.5296764E2,9.666667E0,1.5E1,1.0333333E1,1.7119998E0,1.3E1,5E0,6.288514E-2,1.8E1,1.4E1,3.228063E2,1.9E1,1.9E1,-5.2602285E-1,1.862928E-1,-1.7253357E-1,-8.712191E-1,-1.2497216E-1,4.7929308E-1,-1.3445342E-1,-5.7170373E-1,-5.6050706E-1,9.7101636E-2,-2.6781836E-1,-8.891769E-1,1.1277343E0,5.4250844E-2,-1.1396496E0,1.1343012E0,-2.1269618E-1,-7.932153E-1,3.75209E-1,-9.9809855E-2,8.810389E-1,-6.797556E-1,-2.2954866E-1,-6.158697E-1,2.9397953E-1,-2.5765484E-2],"split_indices":[3,3,0,1,0,3,0,1,1,1,0,1,0,3,2,3,3,0,7,3,0,3,4,1,0,0,2,0,7,0,1,0,0,0,0,0,0,0,0,0,0,0,0,0,0,0,0,0,0,0,0,0,0,0,0,0,0],"split_type":[0,0,0,0,0,0,0,0,0,0,0,0,0,0,0,0,0,0,0,0,0,0,0,0,0,0,0,0,0,0,0,0,0,0,0,0,0,0,0,0,0,0,0,0,0,0,0,0,0,0,0,0,0,0,0,0,0],"sum_hessian":[2.415E3,2.414E3,1E0,1.08E2,2.306E3,5.3E1,5.5E1,9.2E1,2.214E3,1.3E1,4E1,3.9E1,1.6E1,8.4E1,8E0,1.83E2,2.031E3,2E0,1.1E1,3.2E1,8E0,2.8E1,1.1E1,4.6E1,3.8E1,1E0,7E0,1.27E2,5.6E1,3.46E2,1.685E3,1E0,1E0,1E0,1E1,1.1E1,2.1E1,3E0,5E0,1.4E1,1.4E1,2E0,9E0,1.7E1,2.9E1,1E0,3.7E1,1E0,6E0,5.1E1,7.6E1,5.3E1,3E0,2.87E2,5.9E1,2.28E2,1.457E3],"tree_param":{"num_deleted":"0","num_feature":"8","num_nodes":"57","size_leaf_vector":"1"}},{"base_weights":[3.0421697E-2,1.7456979E-3,1.0392445E1,-1.2652406E-1,4.548981E-1,4.1255057E-2,-9.747235E-1,1.4129236E0,-8.427091E-2,-9.022038E-2,1.0162024E0,-6.615319E-1,-2.2218716E0,1.7942219E0,-1.6150275E0,-1.8050967E-1,6.438324E0,6.2510565E-2,-1.1346664E0,1.4430296E0,-3.2348585E-1,-1.4260825E0,2.7802116E-1,-1.8579601E0,-1.1220576E0,5.3545203E0,1.5633749E0,-2.87388E0,1.829834E-1,-6.9609535E-1,5.626389E-1,2.490064E0,-1.5138474E-1,-1.1448499E-1,8.436463E-2,-6.05779E-1,-1.5265638E-1,1.619612E0,3.4042817E-1,-2.8335908E-1,3.068924E-1,-2.5054199E-1,-6.5411663E-1,3.5679442E-1,-3.0809167E-1,-9.816058E-1,-4.3301228E-1,1.712955E0,3.234833E-1,3.556906E-1,8.557587E-1,5.7400897E-2,-1.0345759E0,3.4301314E-1,-7.317183E-1,-7.1660556E-2,-5.3542244E-1,4.8758373E-1,-4.5745797E-2],"categories":[],"categories_nodes":[],"categories_segments":[],"categories_sizes":[],"default_left":[0,0,0,0,0,0,0,0,0,0,0,0,0,0,0,0,0,0,0,0,0,0,0,0,0,0,0,0,0,0,0,0,0,0,0,0,0,0,0,0,0,0,0,0,0,0,0,0,0,0,0,0,0,0,0,0,0,0,0],"id":15,"left_children":[1,3,-1,5,7,9,11,13,15,17,19,21,23,25,27,29,31,33,35,37,39,41,43,45,-1,47,49,51,53,55,57,-1,-1,-1,-1,-1,-1,-1,-1,-1,-1,-1,-1,-1,-1,-1,-1,-1,-1,-1,-1,-1,-1,-1,-1,-1,-1,-1,-1],"loss_changes":[2.3978357E3,1.4043124E2,0E0,2.6801025E2,2.7543365E2,2.0172137E2,1.20005585E2,2.2457178E2,2.1584465E2,2.2132408E2,1.07396286E2,1.7998047E2,2.7308014E1,1.3217108E2,5.032134E1,1.2989865E2,6.882332E1,1.1773511E2,9.6958145E1,1.6703043E2,3.9431973E1,5.969278E1,1.356046E2,2.5762207E1,0E0,9.037964E0,7.5506165E1,2.3560623E1,2.7970713E1,9.912532E1,1.0587678E2,0E0,0E0,0E0,0E0,0E0,0E0,0E0,0E0,0E0,0E0,0E0,0E0,0E0,0E0,0E0,0E0,0E0,0E0,0E0,0E0,0E0,0E0,0E0,0E0,0E0,0E0,0E0,0E0],"parents":[2147483647,0,0,1,1,3,3,4,4,5,5,6,6,7,7,8,8,9,9,10,10,11,11,12,12,13,13,14,14,15,15,16,16,17,17,18,18,19,19,20,20,21,21,22,22,23,23,25,25,26,26,27,27,28,28,29,29,30,30],"right_children":[2,4,-1,6,8,10,12,14,16,18,20,22,24,26,28,30,32,34,36,38,40,42,44,46,-1,48,50,52,54,56,58,-1,-1,-1,-1,-1,-1,-1,-1,-1,-1,-1,-1,-1,-1,-1,-1,-1,-1,-1,-1,-1,-1,-1,-1,-1,-1,-1,-1],"split_conditions":[3.13E2,3.5333332E1,1.0392445E1,3E1,4.1E1,2.7333334E1,3.5E1,5.7E1,9E1,2.7E1,4E1,3.0333334E1,4.4E1,2.6E1,2.103152E1,4.6666668E1,9.8E1,1.5333333E1,2.3E1,1.9E1,3.2333332E1,3.3E1,3.7E1,3.1E1,-1.1220576E0,4.2666668E1,4.1333332E1,1.1592895E1,6.5765834E0,4.9E1,5.5E1,2.490064E0,-1.5138474E-1,-1.1448499E-1,8.436463E-2,-6.05779E-1,-1.5265638E-1,1.619612E0,3.4042817E-1,-2.8335908E-1,3.068924E-1,-2.5054199E-1,-6.5411663E-1,3.5679442E-1,-3.0809167E-1,-9.816058E-1,-4.3301228E-1,1.712955E0,3.234833E-1,3.556906E-1,8.557587E-1,5.7400897E-2,-1.0345759E0,3.4301314E-1,-7.317183E-1,-7.1660556E-2,-5.3542244E-1,4.8758373E-1,-4.5745797E-2],"split_indices":[3,3,0,0,0,3,1,1,3,1,1,3,1,0,6,3,0,3,3,0,3,0,0,3,0,3,3,6,4,0,0,0,0,0,0,0,0,0,0,0,0,0,0,0,0,0,0,0,0,0,0,0,0,0,0,0,0,0,0],"split_type":[0,0,0,0,0,0,0,0,0,0,0,0,0,0,0,0,0,0,0,0,0,0,0,0,0,0,0,0,0,0,0,0,0,0,0,0,0,0,0,0,0,0,0,0,0,0,0,0,0,0,0,0,0,0,0,0,0,0,0],"sum_hessian":[2.415E3,2.414E3,1E0,1.882E3,5.32E2,1.572E3,3.1E2,1.91E2,3.41E2,1.386E3,1.86E2,2.49E2,6.1E1,1.7E2,2.1E1,3.37E2,4E0,1.21E3,1.76E2,1.41E2,4.5E1,1.37E2,1.12E2,5.1E1,1E1,9E0,1.61E2,1.2E1,9E0,1.99E2,1.38E2,3E0,1E0,3.99E2,8.11E2,7.2E1,1.04E2,9E0,1.32E2,3.1E1,1.4E1,7.8E1,5.9E1,6.6E1,4.6E1,1E1,4.1E1,8E0,1E0,1.26E2,3.5E1,2E0,1E1,7E0,2E0,1.41E2,5.8E1,5.5E1,8.3E1],"tree_param":{"num_deleted":"0","num_feature":"8","num_nodes":"59","size_leaf_vector":"1"}},{"base_weights":[2.6365751E-2,1.9913672E-3,8.833576E0,4.4776493E-1,-1.0060112E-1,-2.8667583E-3,1.2168242E0,-3.6683962E-1,2.1977387E-1,2.4706694E-1,-1.2472686E0,2.0486007E0,4.4683632E-1,-2.0921284E-2,-1.0843867E0,1.237644E0,1.7271126E-2,-3.6287937E-1,1.0985211E0,-1.7433908E0,-2.4002288E-1,-9.813567E-1,2.1573472E0,-4.0944362E-1,1.4846083E0,-4.3125585E-1,8.311332E-1,-1.9432483E0,-8.0049855E-1,1.1608871E0,1.8781358E0,7.0426196E-1,-1.87064E-1,-3.3804414E-1,1.8255757E-2,5.699971E-1,7.7715725E-2,2.195117E-1,-5.540508E-1,5.920136E-1,-2.000105E-1,1.1445826E0,5.0271785E-1,5.738645E-2,-2.2036804E-1,6.156276E-1,-3.1255132E-1,-4.237762E-2,-4.063708E-1,3.073613E-1,-2.7598873E-1,-4.433825E-1,-8.562943E-1,-1.2195902E-1,-5.7902294E-1,5.932856E-1,2.30799E-1,3.143083E-1,-2.834378E-1,-2.513508E-1,6.468716E-2],"categories":[],"categories_nodes":[],"categories_segments":[],"categories_sizes":[],"default_left":[0,0,0,0,0,0,0,0,0,0,0,0,0,0,0,0,0,0,0,0,0,0,0,0,0,0,0,0,0,0,0,0,0,0,0,0,0,0,0,0,0,0,0,0,0,0,0,0,0,0,0,0,0,0,0,0,0,0,0,0,0],"id":16,"left_children":[1,3,-1,5,7,9,11,13,15,17,19,21,23,25,27,29,31,33,35,37,39,-1,41,43,45,47,49,51,53,55,-1,57,59,-1,-1,-1,-1,-1,-1,-1,-1,-1,-1,-1,-1,-1,-1,-1,-1,-1,-1,-1,-1,-1,-1,-1,-1,-1,-1,-1,-1],"loss_changes":[1.7323757E3,1.10490295E2,0E0,1.5664972E2,1.6760225E2,8.92593E1,1.06041046E2,2.663095E2,1.8383899E2,1.245212E2,2.3567955E1,5.333783E1,7.880672E1,2.538383E2,8.353787E1,4.979152E1,1.04712135E2,4.5387047E1,6.678862E1,9.5445175E0,1.7370646E1,0E0,5.668759E1,9.710596E0,5.9486618E1,1.3101016E2,8.086859E1,3.2239014E1,1.16700134E2,4.548874E1,0E0,9.783372E1,1.5086398E2,0E0,0E0,0E0,0E0,0E0,0E0,0E0,0E0,0E0,0E0,0E0,0E0,0E0,0E0,0E0,0E0,0E0,0E0,0E0,0E0,0E0,0E0,0E0,0E0,0E0,0E0,0E0,0E0],"parents":[2147483647,0,0,1,1,3,3,4,4,5,5,6,6,7,7,8,8,9,9,10,10,11,11,12,12,13,13,14,14,15,15,16,16,17,17,18,18,19,19,20,20,22,22,23,23,24,24,25,25,26,26,27,27,28,28,29,29,31,31,32,32],"right_children":[2,4,-1,6,8,10,12,14,16,18,20,22,24,26,28,30,32,34,36,38,40,-1,42,44,46,48,50,52,54,56,-1,58,60,-1,-1,-1,-1,-1,-1,-1,-1,-1,-1,-1,-1,-1,-1,-1,-1,-1,-1,-1,-1,-1,-1,-1,-1,-1,-1,-1,-1],"split_conditions":[3.13E2,1.5E1,8.833576E0,1.5333333E1,2.8333334E1,1.6E1,2E1,2.3E1,2.7E1,1.2E1,1.4666667E1,5E0,2.0666666E1,2.0666666E1,2.2666666E1,6.0333332E1,3.1E1,1.0333333E1,1.3E1,5.8284373E0,1E1,-9.813567E-1,1.1E1,1.2E1,3.3E1,2.2E1,3.6E1,2.6E1,2.8E1,3.2E1,1.8781358E0,5.2E1,3.8666668E1,-3.3804414E-1,1.8255757E-2,5.699971E-1,7.7715725E-2,2.195117E-1,-5.540508E-1,5.920136E-1,-2.000105E-1,1.1445826E0,5.0271785E-1,5.738645E-2,-2.2036804E-1,6.156276E-1,-3.1255132E-1,-4.237762E-2,-4.063708E-1,3.073613E-1,-2.7598873E-1,-4.433825E-1,-8.562943E-1,-1.2195902E-1,-5.7902294E-1,5.932856E-1,2.30799E-1,3.143083E-1,-2.834378E-1,-2.513508E-1,6.468716E-2],"split_indices":[3,1,0,3,3,0,0,0,1,3,3,0,3,3,3,3,0,3,0,7,1,0,1,1,0,1,1,0,1,0,0,1,3,0,0,0,0,0,0,0,0,0,0,0,0,0,0,0,0,0,0,0,0,0,0,0,0,0,0,0,0],"split_type":[0,0,0,0,0,0,0,0,0,0,0,0,0,0,0,0,0,0,0,0,0,0,0,0,0,0,0,0,0,0,0,0,0,0,0,0,0,0,0,0,0,0,0,0,0,0,0,0,0,0,0,0,0,0,0,0,0,0,0,0,0],"sum_hessian":[2.415E3,2.414E3,1E0,4.51E2,1.963E3,2.85E2,1.66E2,1.072E3,8.91E2,2.38E2,4.7E1,7.9E1,8.7E1,7.24E2,3.48E2,1.47E2,7.44E2,1.39E2,9.9E1,3.1E1,1.6E1,1E0,7.8E1,4.8E1,3.9E1,4.89E2,2.35E2,8.5E1,2.63E2,1.46E2,1E0,1.7E2,5.74E2,4.9E1,9E1,5E1,4.9E1,1E0,3E1,2E0,1.4E1,1.6E1,6.2E1,1.7E1,3.1E1,3.2E1,7E0,3.73E2,1.16E2,2.12E2,2.3E1,5.8E1,2.7E1,1.96E2,6.7E1,4.6E1,1E2,1.41E2,2.9E1,2.19E2,3.55E2],"tree_param":{"num_deleted":"0","num_feature":"8","num_nodes":"61","size_leaf_vector":"1"}},{"base_weights":[2.265862E-2,1.9404887E-3,7.508542E0,4.3476817E-1,-9.740161E-2,1.01036884E-1,2.161472E0,-4.492243E-1,1.2391637E-1,-4.4085094E-1,4.5791036E-1,2.9042304E0,-9.041412E-1,-2.2566582E-1,-1.0687265E0,1.275273E0,1.4976198E-3,8.408048E-3,-1.7312461E0,6.931443E-1,-1.4053833E0,-8.34153E-1,3.0501828E0,2.023761E-1,-1.6643056E0,-1.027236E0,-4.6657488E-2,-8.875937E-1,-2.0334039E0,1.4833689E0,-2.3836585E-2,-3.0153102E-1,2.878085E-1,-2.2901292E-1,1.6490507E-1,-3.9027652E-1,-8.125056E-1,3.7161985E-1,-7.724386E-3,-1.3608126E-1,-7.4339765E-1,5.852783E-1,1.1833998E0,-1.9309668E-1,4.6349105E-1,-2.1168867E-1,-6.0781175E-1,1.7254452E-1,-3.5654694E-1,5.8495596E-2,-2.774662E-1,-1.5496582E-1,-4.8047334E-1,-8.189616E-1,-2.9781047E-1,3.0688363E-1,7.892344E-1,4.9936518E-1,-2.0141481E-1,4.0483847E-2,-2.9560938E-1,2.6259863E-1,-6.5185264E-2],"categories":[],"categories_nodes":[],"categories_segments":[],"categories_sizes":[],"default_left":[0,0,0,0,0,0,0,0,0,0,0,0,0,0,0,0,0,0,0,0,0,0,0,0,0,0,0,0,0,0,0,0,0,0,0,0,0,0,0,0,0,0,0,0,0,0,0,0,0,0,0,0,0,0,0,0,0,0,0,0,0,0,0],"id":17,"left_children":[1,3,-1,5,7,9,11,13,15,17,19,21,23,25,27,29,31,33,35,37,39,-1,41,43,45,47,49,51,53,55,57,59,61,-1,-1,-1,-1,-1,-1,-1,-1,-1,-1,-1,-1,-1,-1,-1,-1,-1,-1,-1,-1,-1,-1,-1,-1,-1,-1,-1,-1,-1,-1],"loss_changes":[1.2516176E3,1.03882545E2,0E0,2.5967267E2,1.5305977E2,7.349493E1,1.6884747E2,1.04876526E2,1.701219E2,8.755252E1,1.0134712E2,5.7433502E1,1.2953841E1,8.016172E1,3.331682E1,3.1394714E1,9.482914E1,4.7625137E1,1.2875076E1,8.004464E1,2.5419025E1,0E0,4.933362E1,8.945569E0,1.6914368E0,2.703939E1,9.7376144E1,4.4473557E1,1.9759354E1,5.0138412E1,1.9703796E1,1.5862463E2,1.6696494E2,0E0,0E0,0E0,0E0,0E0,0E0,0E0,0E0,0E0,0E0,0E0,0E0,0E0,0E0,0E0,0E0,0E0,0E0,0E0,0E0,0E0,0E0,0E0,0E0,0E0,0E0,0E0,0E0,0E0,0E0],"parents":[2147483647,0,0,1,1,3,3,4,4,5,5,6,6,7,7,8,8,9,9,10,10,11,11,12,12,13,13,14,14,15,15,16,16,17,17,18,18,19,19,20,20,22,22,23,23,24,24,25,25,26,26,27,27,28,28,29,29,30,30,31,31,32,32],"right_children":[2,4,-1,6,8,10,12,14,16,18,20,22,24,26,28,30,32,34,36,38,40,-1,42,44,46,48,50,52,54,56,58,60,62,-1,-1,-1,-1,-1,-1,-1,-1,-1,-1,-1,-1,-1,-1,-1,-1,-1,-1,-1,-1,-1,-1,-1,-1,-1,-1,-1,-1,-1,-1],"split_conditions":[3.13E2,1.5E1,7.508542E0,1.7333334E1,2.4E1,1.2E1,3.2E1,2.2E1,2.3E1,1.3E1,2.2E1,5E0,6.4203334E0,1.5666667E1,3E1,4.9E1,3.4333332E1,1.0333333E1,1.6E1,1.3E1,2.609142E2,-8.34153E-1,1.9E1,3.6E1,8.9995E0,9E0,2.4E1,2.2E1,2.2666666E1,2.7333334E1,1.7359657E2,3E1,4.3E1,-2.2901292E-1,1.6490507E-1,-3.9027652E-1,-8.125056E-1,3.7161985E-1,-7.724386E-3,-1.3608126E-1,-7.4339765E-1,5.852783E-1,1.1833998E0,-1.9309668E-1,4.6349105E-1,-2.1168867E-1,-6.0781175E-1,1.7254452E-1,-3.5654694E-1,5.8495596E-2,-2.774662E-1,-1.5496582E-1,-4.8047334E-1,-8.189616E-1,-2.9781047E-1,3.0688363E-1,7.892344E-1,4.9936518E-1,-2.0141481E-1,4.0483847E-2,-2.9560938E-1,2.6259863E-1,-6.5185264E-2],"split_indices":[3,0,0,3,3,3,1,1,0,1,1,0,4,3,1,1,3,3,1,0,7,0,3,1,4,1,0,0,3,3,7,1,0,0,0,0,0,0,0,0,0,0,0,0,0,0,0,0,0,0,0,0,0,0,0,0,0,0,0,0,0,0,0],"split_type":[0,0,0,0,0,0,0,0,0,0,0,0,0,0,0,0,0,0,0,0,0,0,0,0,0,0,0,0,0,0,0,0,0,0,0,0,0,0,0,0,0,0,0,0,0,0,0,0,0,0,0,0,0,0,0,0,0,0,0,0,0,0,0],"sum_hessian":[2.415E3,2.414E3,1E0,4.5E2,1.964E3,3.78E2,7.2E1,7.58E2,1.206E3,1.5E2,2.28E2,5.8E1,1.4E1,5.58E2,2E2,1.15E2,1.091E3,1.12E2,3.8E1,2.03E2,2.5E1,1E0,5.7E1,6E0,8E0,1.01E2,4.57E2,1.7E2,3E1,9.9E1,1.6E1,5.3E2,5.61E2,4.6E1,6.6E1,2.8E1,1E1,1.15E2,8.8E1,1.4E1,1.1E1,2.7E1,3E1,4E0,2E0,3E0,5E0,9E0,9.2E1,3.59E2,9.8E1,1.13E2,5.7E1,1.7E1,1.3E1,7.2E1,2.7E1,4E0,1.2E1,3.24E2,2.06E2,2.59E2,3.02E2],"tree_param":{"num_deleted":"0","num_feature":"8","num_nodes":"63","size_leaf_vector":"1"}},{"base_weights":[1.805143E-2,4.4051994E-4,6.3822603E0,8.2322043E-1,-4.2939354E-2,-1.2339499E0,1.0822682E0,-3.418084E-1,8.4696434E-2,-1.6934626E0,-5.3251404E-1,-9.019215E-1,1.1877754E0,4.0778586E-1,-4.9797696E-1,7.7889335E-1,-5.962258E-2,-4.4422247E-2,-5.679237E-1,2.6415977E-1,-1.2738392E0,7.1773666E-1,2.2058082E0,-4.669551E-1,9.6538913E-1,-1.398812E0,-3.729159E-1,1.7300053E0,4.965727E-1,-3.7933597E-1,1.753549E-1,-8.961955E-2,-4.3287995E-1,3.6144465E-1,-1.4649145E-1,7.323852E-1,-3.3513594E-2,-5.323547E-2,-4.194868E-1,3.5507256E-1,-2.1529926E-1,-3.5788387E-1,-7.916106E-1,1.2544933E-1,-1.6916656E-1,1.0874544E0,3.7783936E-1,3.219426E-3,3.552817E-1,-4.0598664E-2,-3.0377448E-1,2.3842178E-1,-4.7839012E-2],"categories":[],"categories_nodes":[],"categories_segments":[],"categories_sizes":[],"default_left":[0,0,0,0,0,0,0,0,0,0,0,0,0,0,0,0,0,0,0,0,0,0,0,0,0,0,0,0,0,0,0,0,0,0,0,0,0,0,0,0,0,0,0,0,0,0,0,0,0,0,0,0,0],"id":18,"left_children":[1,3,-1,5,7,9,11,13,15,17,19,-1,21,23,25,27,29,-1,-1,-1,31,33,35,37,39,41,43,45,47,49,51,-1,-1,-1,-1,-1,-1,-1,-1,-1,-1,-1,-1,-1,-1,-1,-1,-1,-1,-1,-1,-1,-1],"loss_changes":[9.043964E2,8.623174E1,0E0,6.581702E1,8.7574905E1,3.61067E0,5.01604E1,8.062539E1,1.612454E2,2.1875648E0,8.454346E0,0E0,4.913939E1,5.849405E1,6.358156E1,7.352055E1,1.0020873E2,0E0,0E0,0E0,3.9337254E-1,4.4058674E1,1.8281448E1,1.2424224E1,2.7656372E1,1.4464493E1,7.5924225E1,5.160547E1,7.1821556E1,8.716474E1,1.5960286E2,0E0,0E0,0E0,0E0,0E0,0E0,0E0,0E0,0E0,0E0,0E0,0E0,0E0,0E0,0E0,0E0,0E0,0E0,0E0,0E0,0E0,0E0],"parents":[2147483647,0,0,1,1,3,3,4,4,5,5,6,6,7,7,8,8,9,9,10,10,12,12,13,13,14,14,15,15,16,16,20,20,21,21,22,22,23,23,24,24,25,25,26,26,27,27,28,28,29,29,30,30],"right_children":[2,4,-1,6,8,10,12,14,16,18,20,-1,22,24,26,28,30,-1,-1,-1,32,34,36,38,40,42,44,46,48,50,52,-1,-1,-1,-1,-1,-1,-1,-1,-1,-1,-1,-1,-1,-1,-1,-1,-1,-1,-1,-1,-1,-1],"split_conditions":[3.13E2,1E1,6.3822603E0,8.333333E0,1.9333334E1,8E0,5E0,1.1E1,2.1E1,1.5296764E2,8E0,-9.019215E-1,1.3666667E1,1.1666667E1,1.3E1,1.9E1,3E1,-4.4422247E-2,-5.679237E-1,2.6415977E-1,9E0,1.3E1,3.2E1,1.5E1,2.4E1,1.5E1,1.4E1,1.5E1,2.2666666E1,2.8E1,3.5E1,-8.961955E-2,-4.3287995E-1,3.6144465E-1,-1.4649145E-1,7.323852E-1,-3.3513594E-2,-5.323547E-2,-4.194868E-1,3.5507256E-1,-2.1529926E-1,-3.5788387E-1,-7.916106E-1,1.2544933E-1,-1.6916656E-1,1.0874544E0,3.7783936E-1,3.219426E-3,3.552817E-1,-4.0598664E-2,-3.0377448E-1,2.3842178E-1,-4.7839012E-2],"split_indices":[3,1,0,3,3,3,1,0,0,7,1,0,3,3,3,1,3,0,0,0,0,0,0,1,1,1,0,0,3,1,1,0,0,0,0,0,0,0,0,0,0,0,0,0,0,0,0,0,0,0,0,0,0],"split_type":[0,0,0,0,0,0,0,0,0,0,0,0,0,0,0,0,0,0,0,0,0,0,0,0,0,0,0,0,0,0,0,0,0,0,0,0,0,0,0,0,0,0,0,0,0,0,0,0,0,0,0,0,0],"sum_hessian":[2.415E3,2.414E3,1E0,1.2E2,2.294E3,1.3E1,1.07E2,6.86E2,1.608E3,7E0,6E0,2E0,1.05E2,1.18E2,5.68E2,2.76E2,1.332E3,1E0,6E0,2E0,4E0,7.3E1,3.2E1,4.6E1,7.2E1,6.8E1,5E2,6.2E1,2.14E2,5.64E2,7.68E2,1E0,3E0,5.2E1,2.1E1,2.9E1,3E0,3.6E1,1E1,6.4E1,8E0,6E1,8E0,9.7E1,4.03E2,1.1E1,5.1E1,1.26E2,8.8E1,4.08E2,1.56E2,2.69E2,4.99E2],"tree_param":{"num_deleted":"0","num_feature":"8","num_nodes":"53","size_leaf_vector":"1"}},{"base_weights":[1.4981607E-2,1.218393E-5,5.424921E0,-1.5054278E-2,1.8049737E0,4.275873E-2,-5.8994776E-1,3.0489295E0,-9.4079125E-1,1.494362E-3,1.1537033E0,-9.5427233E-1,2.8790233E-1,-1.7041769E0,4.5001564E0,-1.6933743E0,5.3620607E-1,6.559532E-2,-7.8720033E-1,1.6294295E0,-7.9157495E-1,-5.053415E-1,-1.8087177E0,2.3811233E0,-5.030535E-1,-8.8413335E-2,-6.227286E-1,5.0450087E0,4.0966418E-1,-7.240154E-1,-2.1900688E-1,-1.5522974E-3,3.3676255E-1,-4.500207E-1,-8.959972E-2,7.4143517E-1,3.1436765E-1,7.249329E-1,-4.267399E-1,-3.3208627E-1,3.956799E-1,-8.2477564E-1,-3.9830887E-1,1.7029074E-1,1.3731085E0,2.2851441E-2,-6.741228E-1,1.739705E0,4.8119622E-1],"categories":[],"categories_nodes":[],"categories_segments":[],"categories_sizes":[],"default_left":[0,0,0,0,0,0,0,0,0,0,0,0,0,0,0,0,0,0,0,0,0,0,0,0,0,0,0,0,0,0,0,0,0,0,0,0,0,0,0,0,0,0,0,0,0,0,0,0,0],"id":19,"left_children":[1,3,-1,5,7,9,11,13,15,17,19,21,23,25,27,29,-1,31,33,35,37,39,41,43,45,-1,-1,47,-1,-1,-1,-1,-1,-1,-1,-1,-1,-1,-1,-1,-1,-1,-1,-1,-1,-1,-1,-1,-1],"loss_changes":[6.5345245E2,6.570161E1,0E0,7.965945E1,7.118062E1,9.984307E1,7.031584E1,1.0423877E2,1.7398746E1,1.0626999E2,7.347255E1,5.854196E1,1.0881478E2,1.4831944E0,1.189769E1,2.3999119E0,0E0,1.4541649E2,5.4577225E1,2.8259201E1,3.5819874E1,1.1450318E2,2.0327957E1,6.908235E1,4.865987E1,0E0,0E0,1.4049469E1,0E0,0E0,0E0,0E0,0E0,0E0,0E0,0E0,0E0,0E0,0E0,0E0,0E0,0E0,0E0,0E0,0E0,0E0,0E0,0E0,0E0],"parents":[2147483647,0,0,1,1,3,3,4,4,5,5,6,6,7,7,8,8,9,9,10,10,11,11,12,12,13,13,14,14,15,15,17,17,18,18,19,19,20,20,21,21,22,22,23,23,24,24,27,27],"right_children":[2,4,-1,6,8,10,12,14,16,18,20,22,24,26,28,30,-1,32,34,36,38,40,42,44,46,-1,-1,48,-1,-1,-1,-1,-1,-1,-1,-1,-1,-1,-1,-1,-1,-1,-1,-1,-1,-1,-1,-1,-1],"split_conditions":[3.13E2,7.0333336E1,5.424921E0,4.6E1,9.8E1,4.3333332E1,5.1E1,6.4E1,8E1,4.1E1,6.2E1,4.3E1,5.5E1,1.8E1,1.2670333E1,4.6E1,5.3620607E-1,3.5333332E1,3.8333332E1,3.9E1,1.2E1,4.2333332E1,4.5E1,5.7666668E1,7.1E1,-8.8413335E-2,-6.227286E-1,8E1,4.0966418E-1,-7.240154E-1,-2.1900688E-1,-1.5522974E-3,3.3676255E-1,-4.500207E-1,-8.959972E-2,7.4143517E-1,3.1436765E-1,7.249329E-1,-4.267399E-1,-3.3208627E-1,3.956799E-1,-8.2477564E-1,-3.9830887E-1,1.7029074E-1,1.3731085E0,2.2851441E-2,-6.741228E-1,1.739705E0,4.8119622E-1],"split_indices":[3,3,0,1,0,3,3,0,2,0,0,0,0,0,4,2,0,3,3,1,2,3,3,3,1,0,0,1,0,0,0,0,0,0,0,0,0,0,0,0,0,0,0,0,0,0,0,0,0],"split_type":[0,0,0,0,0,0,0,0,0,0,0,0,0,0,0,0,0,0,0,0,0,0,0,0,0,0,0,0,0,0,0,0,0,0,0,0,0,0,0,0,0,0,0,0,0,0,0,0,0],"sum_hessian":[2.415E3,2.414E3,1E0,2.395E3,1.9E1,2.177E3,2.18E2,1.3E1,6E0,2.1E3,7.7E1,1.54E2,6.4E1,3E0,1E1,5E0,1E0,1.943E3,1.57E2,6.2E1,1.5E1,1.02E2,5.2E1,1.7E1,4.7E1,1E0,2E0,8E0,2E0,2E0,3E0,1.822E3,1.21E2,6.3E1,9.4E1,2.4E1,3.8E1,2E0,1.3E1,7.7E1,2.5E1,1.6E1,3.6E1,1E1,7E0,3.6E1,1.1E1,6E0,2E0],"tree_param":{"num_deleted":"0","num_feature":"8","num_nodes":"49","size_leaf_vector":"1"}},{"base_weights":[1.3723987E-2,1.0003897E-3,4.6111817E0,5.311743E-1,-3.9891757E-2,-3.8799453E-1,7.7553976E-1,-5.7417065E-1,1.5869569E-2,2.629441E-1,-7.1096283E-1,2.1695693E0,5.7327497E-1,7.9066105E-2,-8.7655634E-1,1.0327282E0,-4.2864654E-2,-1.1498234E0,1.018599E0,4.5082474E-1,-8.315889E-1,-5.73509E-1,2.5441294E0,-4.8186786E-2,1.1461792E0,-9.600194E-2,1.4040767E0,-5.932651E-1,-1.3870683E0,1.345316E0,-6.5704876E-1,-3.7106472E-1,4.665308E-2,-3.7526038E-2,-4.124208E-1,4.6643886E-1,-1.2103916E-2,2.0636788E-1,-3.4967423E-3,-2.6992485E-1,1.0019145E-1,8.673779E-1,3.606575E-1,1.351505E-1,-2.544989E-1,4.0638676E-1,-2.1446544E-1,8.66916E-2,-1.8760511E-1,5.634865E-1,2.2316763E-1,-4.3376914E-1,-9.952885E-2,-5.2256626E-1,-2.845143E-1,9.117104E-2,5.633753E-1,-3.945673E-1,3.9517573E-1,-2.4476366E-2,-2.566508E-1,2.2443579E-1,-1.1792178E-2],"categories":[],"categories_nodes":[],"categories_segments":[],"categories_sizes":[],"default_left":[0,0,0,0,0,0,0,0,0,0,0,0,0,0,0,0,0,0,0,0,0,0,0,0,0,0,0,0,0,0,0,0,0,0,0,0,0,0,0,0,0,0,0,0,0,0,0,0,0,0,0,0,0,0,0,0,0,0,0,0,0,0,0],"id":20,"left_children":[1,3,-1,5,7,9,11,13,15,17,19,21,23,25,27,29,31,33,35,37,39,-1,41,43,45,47,49,51,53,55,57,59,61,-1,-1,-1,-1,-1,-1,-1,-1,-1,-1,-1,-1,-1,-1,-1,-1,-1,-1,-1,-1,-1,-1,-1,-1,-1,-1,-1,-1,-1,-1],"loss_changes":[4.7205838E2,5.2378265E1,0E0,3.915898E1,6.683278E1,7.965549E0,3.7385185E1,4.1945557E1,1.2140424E2,1.5049549E1,3.8784475E0,3.085115E1,4.313583E1,1.5908552E1,2.0147514E1,5.951455E1,5.6485146E1,9.8041916E-1,5.172962E0,3.3693624E-1,2.1277313E0,0E0,3.9773788E0,2.392447E1,2.5407768E1,1.2611614E1,1.1072931E0,2.0702E1,6.286415E0,5.156714E1,2.5122341E1,5.7706425E1,9.11401E1,0E0,0E0,0E0,0E0,0E0,0E0,0E0,0E0,0E0,0E0,0E0,0E0,0E0,0E0,0E0,0E0,0E0,0E0,0E0,0E0,0E0,0E0,0E0,0E0,0E0,0E0,0E0,0E0,0E0,0E0],"parents":[2147483647,0,0,1,1,3,3,4,4,5,5,6,6,7,7,8,8,9,9,10,10,11,11,12,12,13,13,14,14,15,15,16,16,17,17,18,18,19,19,20,20,22,22,23,23,24,24,25,25,26,26,27,27,28,28,29,29,30,30,31,31,32,32],"right_children":[2,4,-1,6,8,10,12,14,16,18,20,22,24,26,28,30,32,34,36,38,40,-1,42,44,46,48,50,52,54,56,58,60,62,-1,-1,-1,-1,-1,-1,-1,-1,-1,-1,-1,-1,-1,-1,-1,-1,-1,-1,-1,-1,-1,-1,-1,-1,-1,-1,-1,-1,-1,-1],"split_conditions":[3.13E2,1.1E1,4.6111817E0,1.0333333E1,1.4666667E1,8E0,1E1,1E1,1.4E1,7E0,1.6416019E2,5E0,1.3333333E1,1.4E1,1.5E1,3E1,2.0333334E1,6E0,1E1,9E0,3.4346954E2,-5.73509E-1,6.499999E0,1.4E1,3.1647342E2,1.5E1,1.6E1,1.1666667E1,1.4E1,1.5666667E1,2.1666666E1,1.9E1,1.9E1,-3.7526038E-2,-4.124208E-1,4.6643886E-1,-1.2103916E-2,2.0636788E-1,-3.4967423E-3,-2.6992485E-1,1.0019145E-1,8.673779E-1,3.606575E-1,1.351505E-1,-2.544989E-1,4.0638676E-1,-2.1446544E-1,8.66916E-2,-1.8760511E-1,5.634865E-1,2.2316763E-1,-4.3376914E-1,-9.952885E-2,-5.2256626E-1,-2.845143E-1,9.117104E-2,5.633753E-1,-3.945673E-1,3.9517573E-1,-2.4476366E-2,-2.566508E-1,2.2443579E-1,-1.1792178E-2],"split_indices":[3,1,0,3,3,1,0,0,0,3,7,0,3,3,1,1,3,0,0,1,7,0,5,0,7,1,1,3,3,3,3,0,1,0,0,0,0,0,0,0,0,0,0,0,0,0,0,0,0,0,0,0,0,0,0,0,0,0,0,0,0,0,0],"split_type":[0,0,0,0,0,0,0,0,0,0,0,0,0,0,0,0,0,0,0,0,0,0,0,0,0,0,0,0,0,0,0,0,0,0,0,0,0,0,0,0,0,0,0,0,0,0,0,0,0,0,0,0,0,0,0,0,0,0,0,0,0,0,0],"sum_hessian":[2.415E3,2.414E3,1E0,1.72E2,2.242E3,3.6E1,1.36E2,2.11E2,2.031E3,1.2E1,2.4E1,1.6E1,1.2E2,6.7E1,1.44E2,1.1E2,1.921E3,4E0,8E0,2E0,2.2E1,1E0,1.5E1,5.8E1,6.2E1,6E1,7E0,9.4E1,5E1,9.3E1,1.7E1,4.11E2,1.51E3,1E0,3E0,5E0,3E0,1E0,1E0,2.1E1,1E0,1.1E1,4E0,3.6E1,2.2E1,5.6E1,6E0,3.5E1,2.5E1,3E0,4E0,2.1E1,7.3E1,2.6E1,2.4E1,3.2E1,6.1E1,1.3E1,4E0,2.58E2,1.53E2,1.64E2,1.346E3],"tree_param":{"num_deleted":"0","num_feature":"8","num_nodes":"63","size_leaf_vector":"1"}},{"base_weights":[1.1803374E-2,9.883831E-4,3.9195008E0,-3.2614395E-2,4.979956E-1,4.905032E-2,-5.322588E-1,1.1593993E0,-1.2002776E-1,-3.151648E-2,7.5649613E-1,-4.052484E-1,-2.1436858E0,1.2913986E0,-2.3950531E0,-5.716059E-1,7.8757405E-1,1.2864492E-2,-9.333648E-1,1.2622558E0,3.0984056E-1,-1.3046713E0,-2.1269639E-1,-2.5783668E0,-4.8236242E-1,7.874663E-1,3.322871E0,-1.1591721E-1,-9.618568E-1,2.4568892E0,-7.97927E-1,1.9557395E0,-1.4625549E-2,1.4291498E-2,-2.6197335E-1,-3.893753E-1,-1.2202173E-1,5.330883E-1,2.3522101E-1,-2.2626817E-2,5.968521E-1,-2.6027584E-2,-4.4765896E-1,8.269715E-1,-8.963174E-2,-2.3485811E-1,-1.0232645E0,3.4978354E-1,-3.135639E-1,5.3819484E-1,-3.535316E-2,5.8713543E-1,1.3227108E0,-3.1059266E-3,9.8482627E-1,-4.5657876E-1,-1.2970602E-2,-5.340233E-1,8.951123E-1,7.307662E-1,-3.7159893E-1],"categories":[],"categories_nodes":[],"categories_segments":[],"categories_sizes":[],"default_left":[0,0,0,0,0,0,0,0,0,0,0,0,0,0,0,0,0,0,0,0,0,0,0,0,0,0,0,0,0,0,0,0,0,0,0,0,0,0,0,0,0,0,0,0,0,0,0,0,0,0,0,0,0,0,0,0,0,0,0,0,0],"id":21,"left_children":[1,3,-1,5,7,9,11,13,15,17,19,21,23,25,27,29,31,33,35,37,39,41,43,45,47,49,51,-1,-1,53,55,57,59,-1,-1,-1,-1,-1,-1,-1,-1,-1,-1,-1,-1,-1,-1,-1,-1,-1,-1,-1,-1,-1,-1,-1,-1,-1,-1,-1,-1],"loss_changes":[3.4105432E2,4.0348732E1,0E0,9.236401E1,6.2679886E1,1.10939316E2,6.421571E1,3.7812706E1,3.3238434E1,6.997554E1,4.4563065E1,5.0985462E1,1.5365631E1,7.1091545E1,3.6490536E0,3.897268E1,2.5330353E1,5.1407547E1,1.5214684E1,2.1496338E1,6.939123E1,1.1746788E1,6.34414E1,2.42359E1,6.785165E0,5.3972767E1,1.2139053E1,0E0,0E0,8.184422E0,2.7800518E1,4.755453E1,5.4009068E1,0E0,0E0,0E0,0E0,0E0,0E0,0E0,0E0,0E0,0E0,0E0,0E0,0E0,0E0,0E0,0E0,0E0,0E0,0E0,0E0,0E0,0E0,0E0,0E0,0E0,0E0,0E0,0E0],"parents":[2147483647,0,0,1,1,3,3,4,4,5,5,6,6,7,7,8,8,9,9,10,10,11,11,12,12,13,13,14,14,15,15,16,16,17,17,18,18,19,19,20,20,21,21,22,22,23,23,24,24,25,25,26,26,29,29,30,30,31,31,32,32],"right_children":[2,4,-1,6,8,10,12,14,16,18,20,22,24,26,28,30,32,34,36,38,40,42,44,46,48,50,52,-1,-1,54,56,58,60,-1,-1,-1,-1,-1,-1,-1,-1,-1,-1,-1,-1,-1,-1,-1,-1,-1,-1,-1,-1,-1,-1,-1,-1,-1,-1,-1,-1],"split_conditions":[3.13E2,4.6666668E1,3.9195008E0,3.8E1,5.4E1,3.3E1,5E1,9.4E1,6.5666664E1,3.3E1,3.8E1,3.4666668E1,2.0969805E1,5.6666668E1,1.03E2,2.5E1,7E1,3.9E1,3.0333334E1,3.4E1,4.1333332E1,1.8E1,1.9E1,3E-1,5.2E1,5.1E1,1.5E0,-1.1591721E-1,-9.618568E-1,5.7333332E1,5.5E1,9.761578E0,1.318308E1,1.4291498E-2,-2.6197335E-1,-3.893753E-1,-1.2202173E-1,5.330883E-1,2.3522101E-1,-2.2626817E-2,5.968521E-1,-2.6027584E-2,-4.4765896E-1,8.269715E-1,-8.963174E-2,-2.3485811E-1,-1.0232645E0,3.4978354E-1,-3.135639E-1,5.3819484E-1,-3.535316E-2,5.8713543E-1,1.3227108E0,-3.1059266E-3,9.8482627E-1,-4.5657876E-1,-1.2970602E-2,-5.340233E-1,8.951123E-1,7.307662E-1,-3.7159893E-1],"split_indices":[3,3,0,0,1,3,1,0,3,0,1,3,6,3,0,2,1,1,3,0,3,1,1,5,1,0,5,0,0,3,2,6,6,0,0,0,0,0,0,0,0,0,0,0,0,0,0,0,0,0,0,0,0,0,0,0,0,0,0,0,0],"split_type":[0,0,0,0,0,0,0,0,0,0,0,0,0,0,0,0,0,0,0,0,0,0,0,0,0,0,0,0,0,0,0,0,0,0,0,0,0,0,0,0,0,0,0,0,0,0,0,0,0,0,0,0,0,0,0,0,0,0,0,0,0],"sum_hessian":[2.415E3,2.414E3,1E0,2.262E3,1.52E2,1.945E3,3.17E2,7.3E1,7.9E1,1.747E3,1.98E2,2.95E2,2.2E1,7.1E1,2E0,5.3E1,2.6E1,1.666E3,8.1E1,9.2E1,1.06E2,5.1E1,2.44E2,1.7E1,5E0,5.8E1,1.3E1,1E0,1E0,3E0,5E1,1E1,1.6E1,1.604E3,6.2E1,4.7E1,3.4E1,4.3E1,4.9E1,8.7E1,1.9E1,7E0,4.4E1,6E0,2.38E2,6E0,1.1E1,1E0,4E0,2.7E1,3.1E1,7E0,6E0,1E0,2E0,2.5E1,2.5E1,2E0,8E0,5E0,1.1E1],"tree_param":{"num_deleted":"0","num_feature":"8","num_nodes":"61","size_leaf_vector":"1"}},{"base_weights":[1.0791941E-2,1.5995103E-3,3.3315766E0,2.5186643E-1,-5.5998378E-2,4.2751823E-2,8.300606E-1,-2.3375928E-1,1.1876965E-1,1.2125908E-1,-1.5202519E0,-6.452874E-1,8.988148E-1,-1.1804457E-1,-9.1091835E-1,5.894692E-1,-6.927935E-2,-4.545291E-1,2.709854E-1,-2.1459665E0,-4.0919495E-1,3.11881E0,7.9356223E-1,-3.981974E-1,7.693574E-2,-2.141006E0,-7.487741E-1,6.99067E-1,-8.111826E-1,1.7142204E0,-1.288881E-1,1.4665307E-1,-2.1537447E-1,5.110956E-1,4.6199903E-2,-6.7642045E-1,-1.7505799E-1,1.530264E-1,-2.6367772E-1,4.1052574E-1,1.1488793E0,2.7436298E-1,-2.1584938E-1,-7.664989E-2,-3.679327E-1,2.6604763E-1,-3.802792E-2,-2.7664167E-1,-7.411351E-1,-9.786023E-3,-3.4241632E-1,1.8193115E-1,7.758113E-1,-5.4634494E-1,-5.2835084E-2,-2.1495897E-1,5.939523E-1,-1.510915E-1,3.404513E-2],"categories":[],"categories_nodes":[],"categories_segments":[],"categories_sizes":[],"default_left":[0,0,0,0,0,0,0,0,0,0,0,0,0,0,0,0,0,0,0,0,0,0,0,0,0,0,0,0,0,0,0,0,0,0,0,0,0,0,0,0,0,0,0,0,0,0,0,0,0,0,0,0,0,0,0,0,0,0,0],"id":22,"left_children":[1,3,-1,5,7,9,11,13,15,17,19,-1,21,23,25,27,29,31,33,35,37,39,41,43,45,47,49,51,53,55,57,-1,-1,-1,-1,-1,-1,-1,-1,-1,-1,-1,-1,-1,-1,-1,-1,-1,-1,-1,-1,-1,-1,-1,-1,-1,-1,-1,-1],"loss_changes":[2.4637817E2,3.482596E1,0E0,5.4615307E1,6.1043194E1,4.104582E1,2.6528221E1,7.621246E1,8.775879E1,2.7538158E1,1.0245155E1,0E0,2.5096924E1,4.5532665E1,2.6718987E1,4.4009926E1,7.559629E1,1.675003E1,4.2140827E1,3.8373947E-1,3.4710376E0,9.8028946E-1,2.1525879E1,4.0107178E1,8.127807E1,4.1466827E0,3.5671585E1,4.4401443E1,1.3148568E1,1.626873E1,6.245661E1,0E0,0E0,0E0,0E0,0E0,0E0,0E0,0E0,0E0,0E0,0E0,0E0,0E0,0E0,0E0,0E0,0E0,0E0,0E0,0E0,0E0,0E0,0E0,0E0,0E0,0E0,0E0,0E0],"parents":[2147483647,0,0,1,1,3,3,4,4,5,5,6,6,7,7,8,8,9,9,10,10,12,12,13,13,14,14,15,15,16,16,17,17,18,18,19,19,20,20,21,21,22,22,23,23,24,24,25,25,26,26,27,27,28,28,29,29,30,30],"right_children":[2,4,-1,6,8,10,12,14,16,18,20,-1,22,24,26,28,30,32,34,36,38,40,42,44,46,48,50,52,54,56,58,-1,-1,-1,-1,-1,-1,-1,-1,-1,-1,-1,-1,-1,-1,-1,-1,-1,-1,-1,-1,-1,-1,-1,-1,-1,-1,-1,-1],"split_conditions":[3.13E2,1.5E1,3.3315766E0,1.6666666E1,2.6666666E1,2.1E1,5E0,2.6E1,3.1E1,1.0666667E1,2.3550662E2,-6.452874E-1,1.1E1,1.8666666E1,2.1333334E1,5.6E1,2E1,8E0,9E0,1.8E1,1.1E1,1.7462784E1,3.3E1,2.2E1,1.7E1,1.7E1,2.1E1,3.7666668E1,1.5931789E2,1.1E1,3.7333332E1,1.4665307E-1,-2.1537447E-1,5.110956E-1,4.6199903E-2,-6.7642045E-1,-1.7505799E-1,1.530264E-1,-2.6367772E-1,4.1052574E-1,1.1488793E0,2.7436298E-1,-2.1584938E-1,-7.664989E-2,-3.679327E-1,2.6604763E-1,-3.802792E-2,-2.7664167E-1,-7.411351E-1,-9.786023E-3,-3.4241632E-1,1.8193115E-1,7.758113E-1,-5.4634494E-1,-5.2835084E-2,-2.1495897E-1,5.939523E-1,-1.510915E-1,3.404513E-2],"split_indices":[3,1,0,3,3,0,1,0,0,3,7,0,0,3,3,1,1,1,0,2,1,6,0,1,0,1,1,3,7,2,3,0,0,0,0,0,0,0,0,0,0,0,0,0,0,0,0,0,0,0,0,0,0,0,0,0,0,0,0],"split_type":[0,0,0,0,0,0,0,0,0,0,0,0,0,0,0,0,0,0,0,0,0,0,0,0,0,0,0,0,0,0,0,0,0,0,0,0,0,0,0,0,0,0,0,0,0,0,0,0,0,0,0,0,0,0,0,0,0,0,0],"sum_hessian":[2.415E3,2.414E3,1E0,4.51E2,1.963E3,3.32E2,1.19E2,9.73E2,9.9E2,3.17E2,1.5E1,2E0,1.17E2,8.32E2,1.41E2,2.82E2,7.08E2,6.5E1,2.52E2,9E0,6E0,4E0,1.13E2,3.41E2,4.91E2,1.5E1,1.26E2,2.62E2,2E1,2.2E1,6.86E2,1.4E1,5.1E1,1.8E1,2.34E2,8E0,1E0,2E0,4E0,2E0,2E0,1.05E2,8E0,2.92E2,4.9E1,9.8E1,3.93E2,4E0,1.1E1,4.5E1,8.1E1,2.51E2,1.1E1,7E0,1.3E1,2E0,2E1,2.69E2,4.17E2],"tree_param":{"num_deleted":"0","num_feature":"8","num_nodes":"59","size_leaf_vector":"1"}},{"base_weights":[8.740175E-3,9.264411E-4,2.831836E0,7.154489E-2,-1.7080611E-1,7.2067697E-3,6.2596893E-1,-7.938243E-1,-4.6547726E-2,2.1173629E-1,-1.22481324E-1,1.4189698E0,3.6287257E-1,-5.626382E-1,-1.4759532E0,1.103474E0,-1.3025323E-1,4.2385835E-2,1.1390216E0,-3.969357E-1,7.030491E-2,1.5299981E0,-5.032866E-1,-2.0076641E-1,7.07472E-1,-1.2977195E0,-6.2164817E-2,7.919941E-2,-1.5475228E0,1.9208645E0,-5.517414E-1,-2.403873E-1,4.1943875E-1,2.1855678E-1,-1.2415008E-2,2.4979411E-1,6.06583E-1,-6.652052E-2,-3.569039E-1,1.0556935E-1,-6.979333E-2,-1.8149415E-2,5.084032E-1,9.5558695E-2,-2.1969388E-1,2.3462246E-1,-8.226849E-1,-2.2171597E-1,-5.4459816E-1,1.4133696E-1,-3.751691E-1,-5.0415444E-1,-9.8832615E-2,2.8453308E-1,7.5903785E-1,-2.8141987E-2,-5.0193805E-1,-1.9495273E-2,-2.7567494E-1,4.6814606E-1,4.94209E-3],"categories":[],"categories_nodes":[],"categories_segments":[],"categories_sizes":[],"default_left":[0,0,0,0,0,0,0,0,0,0,0,0,0,0,0,0,0,0,0,0,0,0,0,0,0,0,0,0,0,0,0,0,0,0,0,0,0,0,0,0,0,0,0,0,0,0,0,0,0,0,0,0,0,0,0,0,0,0,0,0,0],"id":23,"left_children":[1,3,-1,5,7,9,11,13,15,17,19,21,23,25,27,29,31,33,35,37,39,41,-1,43,45,47,49,-1,51,53,55,57,59,-1,-1,-1,-1,-1,-1,-1,-1,-1,-1,-1,-1,-1,-1,-1,-1,-1,-1,-1,-1,-1,-1,-1,-1,-1,-1,-1,-1],"loss_changes":[1.7802406E2,2.9300102E1,0E0,6.106356E1,5.446338E1,4.074188E1,3.662224E1,1.7620323E1,5.6746468E1,9.3545296E1,4.9764267E1,1.7694359E1,2.6363047E1,3.2661407E1,4.019844E0,5.517811E1,3.3337185E1,2.9056093E1,2.3202873E1,5.362523E1,4.72574E1,1.136515E1,0E0,1.4586805E1,2.3763039E1,9.068497E0,3.481215E1,0E0,3.9822235E0,1.3596695E1,7.0323477E0,5.444965E1,4.227613E1,0E0,0E0,0E0,0E0,0E0,0E0,0E0,0E0,0E0,0E0,0E0,0E0,0E0,0E0,0E0,0E0,0E0,0E0,0E0,0E0,0E0,0E0,0E0,0E0,0E0,0E0,0E0,0E0],"parents":[2147483647,0,0,1,1,3,3,4,4,5,5,6,6,7,7,8,8,9,9,10,10,11,11,12,12,13,13,14,14,15,15,16,16,17,17,18,18,19,19,20,20,21,21,23,23,24,24,25,25,26,26,28,28,29,29,30,30,31,31,32,32],"right_children":[2,4,-1,6,8,10,12,14,16,18,20,22,24,26,28,30,32,34,36,38,40,42,-1,44,46,48,50,-1,52,54,56,58,60,-1,-1,-1,-1,-1,-1,-1,-1,-1,-1,-1,-1,-1,-1,-1,-1,-1,-1,-1,-1,-1,-1,-1,-1,-1,-1,-1,-1],"split_conditions":[3.13E2,3.2E1,2.831836E0,3.1E1,2.9666666E1,1.7E1,3.3E1,2.6E1,2.5E1,1.8333334E1,2.1E1,1.7732834E1,3.4333332E1,2.5E1,2E1,5.6E1,5.1333332E1,9E0,2.1333334E1,2.1E1,2.6E1,-1.2734166E0,-5.032866E-1,3.7E1,9.4E1,3.4E1,4.1E1,7.919941E-2,1.3116165E1,3.2E1,6.8E1,4.7E1,5.5E1,2.1855678E-1,-1.2415008E-2,2.4979411E-1,6.06583E-1,-6.652052E-2,-3.569039E-1,1.0556935E-1,-6.979333E-2,-1.8149415E-2,5.084032E-1,9.5558695E-2,-2.1969388E-1,2.3462246E-1,-8.226849E-1,-2.2171597E-1,-5.4459816E-1,1.4133696E-1,-3.751691E-1,-5.0415444E-1,-9.8832615E-2,2.8453308E-1,7.5903785E-1,-2.8141987E-2,-5.0193805E-1,-1.9495273E-2,-2.7567494E-1,4.6814606E-1,4.94209E-3],"split_indices":[3,1,0,3,3,0,0,0,0,3,3,4,3,3,2,1,3,1,3,1,0,4,0,0,0,1,1,0,4,2,1,0,0,0,0,0,0,0,0,0,0,0,0,0,0,0,0,0,0,0,0,0,0,0,0,0,0,0,0,0,0],"split_type":[0,0,0,0,0,0,0,0,0,0,0,0,0,0,0,0,0,0,0,0,0,0,0,0,0,0,0,0,0,0,0,0,0,0,0,0,0,0,0,0,0,0,0,0,0,0,0,0,0,0,0,0,0,0,0,0,0,0,0,0,0],"sum_hessian":[2.415E3,2.414E3,1E0,1.711E3,7.03E2,1.534E3,1.77E2,1.16E2,5.87E2,5.95E2,9.39E2,4.3E1,1.34E2,8.8E1,2.8E1,3.9E1,5.48E2,5.04E2,9.1E1,3.87E2,5.52E2,4.2E1,1E0,5.1E1,8.3E1,3.5E1,5.3E1,1E0,2.7E1,2.6E1,1.3E1,4.57E2,9.1E1,5.4E1,4.5E2,6.9E1,2.2E1,3.18E2,6.9E1,2.86E2,2.66E2,4E0,3.8E1,2.6E1,2.5E1,8.2E1,1E0,1.8E1,1.7E1,3.7E1,1.6E1,2.4E1,3E0,1.1E1,1.5E1,1E1,3E0,3.64E2,9.3E1,2.3E1,6.8E1],"tree_param":{"num_deleted":"0","num_feature":"8","num_nodes":"61","size_leaf_vector":"1"}},{"base_weights":[6.9249864E-3,2.8310937E-4,2.4070587E0,-4.7446582E-3,2.0197227E0,1.4045999E-2,-5.8994776E-1,4.179962E0,-1.5338377E0,-1.5812976E-3,1.4586966E0,-1.661856E0,-2.4711503E-1,1.4805794E0,2.8710824E-1,-6.53312E-1,-3.6914922E-2,1.0725007E-2,-1.4873224E0,1.8184844E0,-1.785909E0,5.8289975E-1,-1.9788818E0,2.5589958E-1,-1.2156378E0,-5.455618E-3,1.3981149E-1,-5.598422E-1,1.1993437E-1,8.7779254E-1,2.2244807E-1,-1.0437699E-1,-6.992821E-1,7.16486E-3,2.5514004E-1,-6.419853E-1,6.5573215E-2,-4.78804E-2,7.7032644E-1,-5.833744E-1,2.4279806E-1],"categories":[],"categories_nodes":[],"categories_segments":[],"categories_sizes":[],"default_left":[0,0,0,0,0,0,0,0,0,0,0,0,0,0,0,0,0,0,0,0,0,0,0,0,0,0,0,0,0,0,0,0,0,0,0,0,0,0,0,0,0],"id":24,"left_children":[1,3,-1,5,7,9,11,13,15,17,19,21,23,-1,-1,-1,-1,25,27,29,31,33,35,37,39,-1,-1,-1,-1,-1,-1,-1,-1,-1,-1,-1,-1,-1,-1,-1,-1],"loss_changes":[1.2863838E2,2.4529737E1,0E0,2.6509493E1,5.2470634E1,5.2739803E1,2.7150724E1,5.013977E0,2.457121E0,4.2288525E1,3.2431892E1,1.3963108E1,2.8567587E1,0E0,0E0,0E0,0E0,3.020506E1,1.43285675E1,2.5263832E1,1.5402536E0,4.2841184E-1,6.130821E0,3.7872353E1,3.1095488E1,0E0,0E0,0E0,0E0,0E0,0E0,0E0,0E0,0E0,0E0,0E0,0E0,0E0,0E0,0E0,0E0],"parents":[2147483647,0,0,1,1,3,3,4,4,5,5,6,6,7,7,8,8,9,9,10,10,11,11,12,12,17,17,18,18,19,19,20,20,21,21,22,22,23,23,24,24],"right_children":[2,4,-1,6,8,10,12,14,16,18,20,22,24,-1,-1,-1,-1,26,28,30,32,34,36,38,40,-1,-1,-1,-1,-1,-1,-1,-1,-1,-1,-1,-1,-1,-1,-1,-1],"split_conditions":[3.13E2,9E1,2.4070587E0,6E1,4.4E1,5.7333332E1,4.116167E0,8E1,3.2E1,6.1E1,9.4E1,2.5574997E-1,6.6E1,1.4805794E0,2.8710824E-1,-6.53312E-1,-3.6914922E-2,4.2666668E1,5.3666668E1,6.2E1,1.03E2,5.6E1,1.04E2,6.5333336E1,7.0333336E1,-5.455618E-3,1.3981149E-1,-5.598422E-1,1.1993437E-1,8.7779254E-1,2.2244807E-1,-1.0437699E-1,-6.992821E-1,7.16486E-3,2.5514004E-1,-6.419853E-1,6.5573215E-2,-4.78804E-2,7.7032644E-1,-5.833744E-1,2.4279806E-1],"split_indices":[3,3,0,1,2,3,4,1,0,0,0,4,0,0,0,0,0,3,3,3,0,0,1,3,3,0,0,0,0,0,0,0,0,0,0,0,0,0,0,0,0],"split_type":[0,0,0,0,0,0,0,0,0,0,0,0,0,0,0,0,0,0,0,0,0,0,0,0,0,0,0,0,0,0,0,0,0,0,0,0,0,0,0,0,0],"sum_hessian":[2.415E3,2.414E3,1E0,2.409E3,5E0,2.335E3,7.4E1,3E0,2E0,2.311E3,2.4E1,1.7E1,5.7E1,2E0,1E0,1E0,1E0,2.293E3,1.8E1,2.2E1,2E0,2E0,1.5E1,3.8E1,1.9E1,2.157E3,1.36E2,1.5E1,3E0,1E1,1.2E1,1E0,1E0,1E0,1E0,1.4E1,1E0,3.3E1,5E0,1.4E1,5E0],"tree_param":{"num_deleted":"0","num_feature":"8","num_nodes":"41","size_leaf_vector":"1"}},{"base_weights":[6.3137463E-3,6.683213E-4,2.0460024E0,3.6578752E-2,-2.9970136E-1,1.2009976E-2,7.5859314E-1,-5.2403915E-1,3.2238388E-1,3.1183017E-2,-9.459997E-1,1.3548594E0,1.74055E-1,-3.5866033E-2,-8.4210104E-1,1.0482267E0,-4.5563748E-1,-4.627896E-2,2.0128487E-1,-1.7410988E0,-5.964268E-1,1.9694103E0,5.883107E-1,1.8879783E0,-9.090476E-2,-5.314161E-1,1.2046396E0,-1.5738424E0,-5.6532353E-1,2.7983813E0,6.0491645E-1,4.833641E-1,-8.670283E-1,2.2665963E-2,-1.2965527E-1,5.831687E-1,4.948472E-2,1.7471695E-2,-5.7299083E-1,7.8686595E-2,-2.466103E-1,1.8422014E-1,6.5554744E-1,-8.303018E-2,3.6646262E-1,-2.8637124E-2,7.223105E-1,1.3005437E-1,-1.8299302E-1,-4.6494955E-1,-9.752811E-2,-9.648244E-2,5.391249E-1,-6.713042E-1,-3.9750424E-1,2.0994486E-2,-3.3164197E-1,9.7026366E-1,2.750931E-2,-2.4054752E-1,3.2037514E-1,-3.9454806E-1,6.603983E-1,-3.7995222E-1,8.521941E-2],"categories":[],"categories_nodes":[],"categories_segments":[],"categories_sizes":[],"default_left":[0,0,0,0,0,0,0,0,0,0,0,0,0,0,0,0,0,0,0,0,0,0,0,0,0,0,0,0,0,0,0,0,0,0,0,0,0,0,0,0,0,0,0,0,0,0,0,0,0,0,0,0,0,0,0,0,0,0,0,0,0,0,0,0,0],"id":25,"left_children":[1,3,-1,5,7,9,11,13,15,17,19,21,23,25,27,29,31,33,35,37,39,41,43,45,47,49,51,53,55,57,59,61,63,-1,-1,-1,-1,-1,-1,-1,-1,-1,-1,-1,-1,-1,-1,-1,-1,-1,-1,-1,-1,-1,-1,-1,-1,-1,-1,-1,-1,-1,-1,-1,-1],"loss_changes":[9.292976E1,2.6060127E1,0E0,3.827167E1,3.6174706E1,3.83818E1,2.451054E1,2.9470951E1,3.9443375E1,2.6994633E1,1.0357307E1,1.5329292E1,1.6974092E1,4.7359848E1,2.2401176E1,2.6238228E1,1.3553177E1,6.623073E1,4.0266945E1,3.7574959E0,6.02759E0,4.213997E0,9.650587E0,5.38402E0,9.247408E0,1.1052871E1,2.0470694E1,2.1556702E0,2.9245949E1,7.961025E0,2.039595E1,3.688289E1,1.1395868E1,0E0,0E0,0E0,0E0,0E0,0E0,0E0,0E0,0E0,0E0,0E0,0E0,0E0,0E0,0E0,0E0,0E0,0E0,0E0,0E0,0E0,0E0,0E0,0E0,0E0,0E0,0E0,0E0,0E0,0E0,0E0,0E0],"parents":[2147483647,0,0,1,1,3,3,4,4,5,5,6,6,7,7,8,8,9,9,10,10,11,11,12,12,13,13,14,14,15,15,16,16,17,17,18,18,19,19,20,20,21,21,22,22,23,23,24,24,25,25,26,26,27,27,28,28,29,29,30,30,31,31,32,32],"right_children":[2,4,-1,6,8,10,12,14,16,18,20,22,24,26,28,30,32,34,36,38,40,42,44,46,48,50,52,54,56,58,60,62,64,-1,-1,-1,-1,-1,-1,-1,-1,-1,-1,-1,-1,-1,-1,-1,-1,-1,-1,-1,-1,-1,-1,-1,-1,-1,-1,-1,-1,-1,-1,-1,-1],"split_conditions":[3.13E2,4.5E1,2.0460024E0,4.3333332E1,5.4666668E1,4.9E1,5.1E1,3.6E1,6.6E1,2.6666666E1,1.4693999E1,3.8E1,2.5E1,3.9E1,4.2333332E1,5.5E1,1.318308E1,2.3E1,1.9E1,2E1,1.6071491E1,2E1,1.2364401E2,5.5E1,5.9E1,2.9333334E1,1.3744025E2,1.127553E1,4.7E1,6.2E1,3.6E1,1.01887E1,1.1566167E1,2.2665963E-2,-1.2965527E-1,5.831687E-1,4.948472E-2,1.7471695E-2,-5.7299083E-1,7.8686595E-2,-2.466103E-1,1.8422014E-1,6.5554744E-1,-8.303018E-2,3.6646262E-1,-2.8637124E-2,7.223105E-1,1.3005437E-1,-1.8299302E-1,-4.6494955E-1,-9.752811E-2,-9.648244E-2,5.391249E-1,-6.713042E-1,-3.9750424E-1,2.0994486E-2,-3.3164197E-1,9.7026366E-1,2.750931E-2,-2.4054752E-1,3.2037514E-1,-3.9454806E-1,6.603983E-1,-3.7995222E-1,8.521941E-2],"split_indices":[3,1,0,3,3,0,0,0,1,3,6,2,1,3,3,0,6,1,0,1,6,2,7,0,0,3,7,6,0,1,2,6,4,0,0,0,0,0,0,0,0,0,0,0,0,0,0,0,0,0,0,0,0,0,0,0,0,0,0,0,0,0,0,0,0],"split_type":[0,0,0,0,0,0,0,0,0,0,0,0,0,0,0,0,0,0,0,0,0,0,0,0,0,0,0,0,0,0,0,0,0,0,0,0,0,0,0,0,0,0,0,0,0,0,0,0,0,0,0,0,0,0,0,0,0,0,0,0,0,0,0,0,0],"sum_hessian":[2.415E3,2.414E3,1E0,2.157E3,2.57E2,2.087E3,7E1,1.89E2,6.8E1,2.047E3,4E1,3.4E1,3.6E1,7.5E1,1.14E2,3.5E1,3.3E1,1.407E3,6.4E2,1.1E1,2.9E1,1.8E1,1.6E1,4E0,3.2E1,5.4E1,2.1E1,3E1,8.4E1,6E0,2.9E1,1E1,2.3E1,1.07E3,3.37E2,1.2E1,6.28E2,1E0,1E1,6E0,2.3E1,3E0,1.5E1,7E0,9E0,1E0,3E0,1.6E1,1.6E1,8E0,4.6E1,6E0,1.5E1,6E0,2.4E1,3.9E1,4.5E1,5E0,1E0,7E0,2.2E1,5E0,5E0,1.7E1,6E0],"tree_param":{"num_deleted":"0","num_feature":"8","num_nodes":"65","size_leaf_vector":"1"}},{"base_weights":[5.728575E-3,9.3012134E-4,1.7390991E0,-2.9055753E-1,3.307907E-2,1.7957613E-2,-5.9922236E-1,8.4998274E-1,-1.1243588E-2,-1.0249218E0,1.8663372E-1,-4.4974262E-1,-1.1492556E0,5.582749E-1,1.2136422E0,4.5692667E-1,-5.10715E-2,-4.628775E-1,-6.8051E-1,5.069517E-1,-5.599338E-1,-7.834338E-1,-2.1760987E-1,-3.2664886E-1,-1.3385749E0,6.7560613E-1,-9.6135503E-1,-4.3288395E-1,1.2990493E0,4.127947E-1,6.290823E-1,-4.5821244E-1,3.7616913E-3,3.403921E-2,-2.5519538E-1,7.10993E-1,1.0999089E-1,2.1369968E-1,-1.8718594E-1,-8.351677E-2,-2.915705E-1,-6.794028E-3,-2.6722205E-1,-1.471201E-1,7.3816255E-2,-4.3913415E-1,-4.234505E-2,5.713764E-1,1.5877551E-1,-3.7954524E-2,-4.42723E-1,5.6197447E-1,1.9403952E-1,1.510719E-1,-1.1252787E-1,-1.0094545E-1,-3.6391923E-1,8.8970765E-2,-2.6143214E-2],"categories":[],"categories_nodes":[],"categories_segments":[],"categories_sizes":[],"default_left":[0,0,0,0,0,0,0,0,0,0,0,0,0,0,0,0,0,0,0,0,0,0,0,0,0,0,0,0,0,0,0,0,0,0,0,0,0,0,0,0,0,0,0,0,0,0,0,0,0,0,0,0,0,0,0,0,0,0,0],"id":26,"left_children":[1,3,-1,5,7,9,11,13,15,17,19,21,23,25,27,29,31,-1,33,35,37,39,41,43,45,47,49,-1,51,53,-1,55,57,-1,-1,-1,-1,-1,-1,-1,-1,-1,-1,-1,-1,-1,-1,-1,-1,-1,-1,-1,-1,-1,-1,-1,-1,-1,-1],"loss_changes":[6.7133156E1,2.2640629E1,0E0,2.2865425E1,7.879672E1,2.1476255E1,9.349396E0,1.1203682E1,3.8527824E1,1.982935E0,2.5393452E1,7.2657375E0,3.4561386E0,1.2060701E1,1.2992126E1,1.0859482E1,4.2508213E1,0E0,1.7175708E0,1.8475496E1,3.050848E0,3.441637E0,7.59149E0,6.833508E-1,2.79187E0,9.784014E0,1.9604554E0,0E0,1.6765427E1,1.1561054E1,0E0,2.0358124E1,4.4717266E1,0E0,0E0,0E0,0E0,0E0,0E0,0E0,0E0,0E0,0E0,0E0,0E0,0E0,0E0,0E0,0E0,0E0,0E0,0E0,0E0,0E0,0E0,0E0,0E0,0E0,0E0],"parents":[2147483647,0,0,1,1,3,3,4,4,5,5,6,6,7,7,8,8,9,9,10,10,11,11,12,12,13,13,14,14,15,15,16,16,18,18,19,19,20,20,21,21,22,22,23,23,24,24,25,25,26,26,28,28,29,29,31,31,32,32],"right_children":[2,4,-1,6,8,10,12,14,16,18,20,22,24,26,28,30,32,-1,34,36,38,40,42,44,46,48,50,-1,52,54,-1,56,58,-1,-1,-1,-1,-1,-1,-1,-1,-1,-1,-1,-1,-1,-1,-1,-1,-1,-1,-1,-1,-1,-1,-1,-1,-1,-1],"split_conditions":[3.13E2,1.3333333E1,1.7390991E0,1.1E1,1.3E1,8.666667E0,1.4E1,1.5666667E1,1.4E1,2.937E0,1.4E1,1.1666667E1,8E-1,2.3E1,5E0,1.53619995E1,1.8E1,-4.628775E-1,1.675064E1,7E0,-2.6442502E0,9E0,1.6E1,1.6E1,2.4503809E1,9E0,1E1,-4.3288395E-1,2.1E1,2.6E1,6.290823E-1,2.1E1,2.2E1,3.403921E-2,-2.5519538E-1,7.10993E-1,1.0999089E-1,2.1369968E-1,-1.8718594E-1,-8.351677E-2,-2.915705E-1,-6.794028E-3,-2.6722205E-1,-1.471201E-1,7.3816255E-2,-4.3913415E-1,-4.234505E-2,5.713764E-1,1.5877551E-1,-3.7954524E-2,-4.42723E-1,5.6197447E-1,1.9403952E-1,1.510719E-1,-1.1252787E-1,-1.0094545E-1,-3.6391923E-1,8.8970765E-2,-2.6143214E-2],"split_indices":[3,3,0,0,0,3,1,3,1,4,1,3,5,1,0,4,3,0,6,1,4,1,0,2,6,0,0,0,1,0,0,1,0,0,0,0,0,0,0,0,0,0,0,0,0,0,0,0,0,0,0,0,0,0,0,0,0,0,0],"split_type":[0,0,0,0,0,0,0,0,0,0,0,0,0,0,0,0,0,0,0,0,0,0,0,0,0,0,0,0,0,0,0,0,0,0,0,0,0,0,0,0,0,0,0,0,0,0,0,0,0,0,0,0,0,0,0,0,0,0,0],"sum_hessian":[2.415E3,2.414E3,1E0,2.39E2,2.175E3,1.2E2,1.19E2,1.11E2,2.064E3,1.6E1,1.04E2,9.5E1,2.4E1,6.3E1,4.8E1,1.61E2,1.903E3,5E0,1.1E1,7.3E1,3.1E1,3.8E1,5.7E1,5E0,1.9E1,5.9E1,4E0,1E0,4.7E1,1.58E2,3E0,2.25E2,1.678E3,2E0,9E0,4E0,6.9E1,1E0,3E1,1.1E1,2.7E1,4.5E1,1.2E1,4E0,1E0,1.7E1,2E0,5E0,5.4E1,2E0,2E0,2.4E1,2.3E1,1.42E2,1.6E1,1.95E2,3E1,3.97E2,1.281E3],"tree_param":{"num_deleted":"0","num_feature":"8","num_nodes":"59","size_leaf_vector":"1"}},{"base_weights":[4.6462105E-3,5.674226E-4,1.478238E0,5.7856597E-2,-1.1302144E-1,-2.9296726E-2,2.9327825E-1,-1.3504906E0,-6.2043227E-2,6.326019E-2,-5.574971E-1,4.5356905E-1,-1.1048565E-3,-4.4301774E-2,-1.7840408E0,7.3380804E-1,-1.027175E-1,-5.474329E-2,3.9713493E-1,-6.383869E-2,-7.8927046E-1,1.9936332E-1,6.473661E-1,-6.235808E-1,4.2516786E-1,1.8354245E-1,-3.191629E-1,-9.437058E-1,-2.074549E0,1.253727E0,-3.6247656E-1,-6.258349E-1,-7.744363E-3,1.1123689E-2,-1.1860954E-1,3.5348254E-1,5.4857496E-2,-2.5731742E-1,8.8501796E-2,-3.821651E-1,-1.5833148E-1,2.3706075E-2,3.1816965E-1,-2.3225991E-1,2.0671397E-1,-2.788596E-1,2.420723E-2,-3.9545603E-2,2.26185E-1,-1.9508277E-1,-1.6998768E-2,-3.9277622E-1,-7.52532E-2,-6.6511697E-1,-2.0114872E-1,-8.217859E-2,4.177336E-1,-2.7070418E-1,6.875296E-2,-9.679388E-2,-3.1079924E-1,1.7646186E-1,-2.758222E-2],"categories":[],"categories_nodes":[],"categories_segments":[],"categories_sizes":[],"default_left":[0,0,0,0,0,0,0,0,0,0,0,0,0,0,0,0,0,0,0,0,0,0,0,0,0,0,0,0,0,0,0,0,0,0,0,0,0,0,0,0,0,0,0,0,0,0,0,0,0,0,0,0,0,0,0,0,0,0,0,0,0,0,0],"id":27,"left_children":[1,3,-1,5,7,9,11,13,15,17,19,21,23,25,27,29,31,33,35,37,39,41,43,45,47,-1,49,51,53,55,57,59,61,-1,-1,-1,-1,-1,-1,-1,-1,-1,-1,-1,-1,-1,-1,-1,-1,-1,-1,-1,-1,-1,-1,-1,-1,-1,-1,-1,-1,-1,-1],"loss_changes":[4.8508343E1,1.572194E1,0E0,3.2960144E1,5.1014225E1,5.7381584E1,2.0479618E1,1.8042519E1,2.5292126E1,3.9380726E1,1.9972572E1,1.3714218E1,4.1128178E1,1.8183185E0,3.901207E0,2.2113653E1,3.685927E1,2.3128115E1,4.3470734E1,1.6491293E1,1.4408043E1,1.2663879E1,9.954437E0,1.3649784E1,1.6947084E1,0E0,5.715746E-1,1.6977768E0,1.914978E0,5.8911896E0,4.359207E0,1.3842392E1,3.161533E1,0E0,0E0,0E0,0E0,0E0,0E0,0E0,0E0,0E0,0E0,0E0,0E0,0E0,0E0,0E0,0E0,0E0,0E0,0E0,0E0,0E0,0E0,0E0,0E0,0E0,0E0,0E0,0E0,0E0,0E0],"parents":[2147483647,0,0,1,1,3,3,4,4,5,5,6,6,7,7,8,8,9,9,10,10,11,11,12,12,13,13,14,14,15,15,16,16,17,17,18,18,19,19,20,20,21,21,22,22,23,23,24,24,26,26,27,27,28,28,29,29,30,30,31,31,32,32],"right_children":[2,4,-1,6,8,10,12,14,16,18,20,22,24,26,28,30,32,34,36,38,40,42,44,46,48,-1,50,52,54,56,58,60,62,-1,-1,-1,-1,-1,-1,-1,-1,-1,-1,-1,-1,-1,-1,-1,-1,-1,-1,-1,-1,-1,-1,-1,-1,-1,-1,-1,-1,-1,-1],"split_conditions":[3.13E2,3E1,1.478238E0,2.4333334E1,2.2666666E1,2.3E1,3.3E1,1.3E1,1.9E1,1.9E1,1.7E1,7E-1,3.2E1,2.7E1,1.4118243E1,2.6015585E2,2.9666666E1,1.8E1,1.8E1,1.9E1,2.1333334E1,3.1E1,-1.0150834E0,4.2000003E0,1.3979871E1,1.8354245E-1,1E-1,2.0666666E1,1.3018249E1,4.617909E1,2.811018E2,2.6E1,2.9E1,1.1123689E-2,-1.1860954E-1,3.5348254E-1,5.4857496E-2,-2.5731742E-1,8.8501796E-2,-3.821651E-1,-1.5833148E-1,2.3706075E-2,3.1816965E-1,-2.3225991E-1,2.0671397E-1,-2.788596E-1,2.420723E-2,-3.9545603E-2,2.26185E-1,-1.9508277E-1,-1.6998768E-2,-3.9277622E-1,-7.52532E-2,-6.6511697E-1,-2.0114872E-1,-8.217859E-2,4.177336E-1,-2.7070418E-1,6.875296E-2,-9.679388E-2,-3.1079924E-1,1.7646186E-1,-2.758222E-2],"split_indices":[3,1,0,3,3,0,0,0,0,3,1,5,3,2,6,7,3,0,1,3,3,3,4,5,6,0,5,3,4,7,7,0,0,0,0,0,0,0,0,0,0,0,0,0,0,0,0,0,0,0,0,0,0,0,0,0,0,0,0,0,0,0,0],"split_type":[0,0,0,0,0,0,0,0,0,0,0,0,0,0,0,0,0,0,0,0,0,0,0,0,0,0,0,0,0,0,0,0,0,0,0,0,0,0,0,0,0,0,0,0,0,0,0,0,0,0,0,0,0,0,0,0,0,0,0,0,0,0,0],"sum_hessian":[2.415E3,2.414E3,1E0,1.605E3,8.09E2,1.172E3,4.33E2,3.1E1,7.78E2,9.98E2,1.74E2,2.8E2,1.53E2,8E0,2.3E1,3.7E1,7.41E2,7.38E2,2.6E2,5.6E1,1.18E2,1.22E2,1.58E2,6.2E1,9.1E1,2E0,6E0,7E0,1.6E1,2.5E1,1.2E1,1.13E2,6.28E2,5.82E2,1.56E2,5.5E1,2.05E2,1.7E1,3.9E1,4E1,7.8E1,1.08E2,1.4E1,4E0,1.54E2,4.3E1,1.9E1,3.4E1,5.7E1,2E0,4E0,4E0,3E0,1.4E1,2E0,2E0,2.3E1,6E0,6E0,6.6E1,4.7E1,7.7E1,5.51E2],"tree_param":{"num_deleted":"0","num_feature":"8","num_nodes":"63","size_leaf_vector":"1"}},{"base_weights":[3.182341E-3,-3.7261937E-3,2.3812375E0,3.1773332E-3,-9.75686E-1,1.4019241E0,-5.059147E-1,-3.450409E-2,1.7634597E-1,-2.1491702E-1,-2.3346097E0,-4.902635E-1,4.1492143E-1,-2.2784683E-3,-5.7331914E-1,8.5805017E-1,2.4353744E-2,3.905754E-1,-7.032081E-1,-1.937665E-1,-7.6295286E-1,1.530407E-1,3.3673957E-2,1.8804608E-2,-6.683897E-1,-9.00098E-2,-8.6620295E-1,9.2852646E-1,-3.6400986E-1,-1.660676E-1,2.4753709E-1,-2.1500333E-1,2.241347E-1,-4.9694183E-1,4.258585E-1,-5.725055E-2,2.0210572E-2,-2.4416123E-1,9.732464E-2,-2.4957001E-1,1.5959473E-1,-3.3611384E-1,1.3734126E-2,3.4446806E-1,2.9548274E-2,3.157338E-3,-2.4856529E-1,1.43459E-1,-1.14575416E-1,3.6246302E-3,-1.0037614E-1,2.0561449E-1,-5.290661E-2],"categories":[],"categories_nodes":[],"categories_segments":[],"categories_sizes":[],"default_left":[0,0,0,0,0,0,0,0,0,0,0,0,0,0,0,0,0,0,0,0,0,0,0,0,0,0,0,0,0,0,0,0,0,0,0,0,0,0,0,0,0,0,0,0,0,0,0,0,0,0,0,0,0],"id":28,"left_children":[1,3,5,7,9,-1,11,13,15,17,19,-1,21,23,25,27,29,31,33,-1,-1,-1,-1,35,37,39,41,43,-1,45,47,49,-1,-1,51,-1,-1,-1,-1,-1,-1,-1,-1,-1,-1,-1,-1,-1,-1,-1,-1,-1,-1],"loss_changes":[3.9701042E1,1.617408E1,4.8682472E1,1.562751E1,1.7073309E1,0E0,4.833976E0,3.4152992E1,4.4325787E1,3.8225343E0,4.7065735E-1,0E0,2.9195905E-2,2.6091673E1,1.5634468E1,1.2513531E1,1.4958213E1,1.4561114E0,8.239517E0,0E0,0E0,0E0,0E0,1.8348722E1,8.496788E0,2.0284903E1,1.6045818E1,1.374614E1,0E0,2.2236687E1,2.3703388E1,8.550972E-2,0E0,0E0,7.460243E-1,0E0,0E0,0E0,0E0,0E0,0E0,0E0,0E0,0E0,0E0,0E0,0E0,0E0,0E0,0E0,0E0,0E0,0E0],"parents":[2147483647,0,0,1,1,2,2,3,3,4,4,6,6,7,7,8,8,9,9,10,10,12,12,13,13,14,14,15,15,16,16,17,17,18,18,23,23,24,24,25,25,26,26,27,27,29,29,30,30,31,31,34,34],"right_children":[2,4,6,8,10,-1,12,14,16,18,20,-1,22,24,26,28,30,32,34,-1,-1,-1,-1,36,38,40,42,44,-1,46,48,50,-1,-1,52,-1,-1,-1,-1,-1,-1,-1,-1,-1,-1,-1,-1,-1,-1,-1,-1,-1,-1],"split_conditions":[9E1,7.6E1,4.3E1,3.7333332E1,7E-1,1.4019241E0,3.2E1,4E1,3.8E1,7.2E1,1.5E1,-4.902635E-1,9.4E1,4E1,2.5E1,4.9E1,4.5E1,4.6E1,7E1,-1.937665E-1,-7.6295286E-1,1.530407E-1,3.3673957E-2,1.4666667E1,3.7E1,2.9333334E1,2.4881702E1,5.4E1,-3.6400986E-1,4.5E1,6.5E1,4.5E1,2.241347E-1,-4.9694183E-1,1.11E2,-5.725055E-2,2.0210572E-2,-2.4416123E-1,9.732464E-2,-2.4957001E-1,1.5959473E-1,-3.3611384E-1,1.3734126E-2,3.4446806E-1,2.9548274E-2,3.157338E-3,-2.4856529E-1,1.43459E-1,-1.14575416E-1,3.6246302E-3,-1.0037614E-1,2.0561449E-1,-5.290661E-2],"split_indices":[3,1,2,3,5,0,0,1,0,2,0,0,0,0,0,3,3,2,0,0,0,0,0,3,1,3,6,1,0,1,0,0,0,0,0,0,0,0,0,0,0,0,0,0,0,0,0,0,0,0,0,0,0],"split_type":[0,0,0,0,0,0,0,0,0,0,0,0,0,0,0,0,0,0,0,0,0,0,0,0,0,0,0,0,0,0,0,0,0,0,0,0,0,0,0,0,0,0,0,0,0,0,0,0,0,0,0,0,0],"sum_hessian":[2.415E3,2.409E3,6E0,2.393E3,1.6E1,3E0,3E0,1.966E3,4.27E2,1.1E1,5E0,1E0,2E0,1.856E3,1.1E2,7.7E1,3.5E2,5E0,6E0,1E0,4E0,1E0,1E0,1.8E3,5.6E1,4.2E1,6.8E1,7.5E1,2E0,1.89E2,1.61E2,2E0,3E0,3E0,3E0,3.38E2,1.462E3,4.9E1,7E0,1.9E1,2.3E1,5.3E1,1.5E1,5.9E1,1.6E1,1.5E2,3.9E1,1.18E2,4.3E1,1E0,1E0,2E0,1E0],"tree_param":{"num_deleted":"0","num_feature":"8","num_nodes":"53","size_leaf_vector":"1"}},{"base_weights":[1.86447E-3,-1.0228708E-3,1.0462189E0,1.4459254E-1,-4.27375E-2,-1.2860999E-1,3.6340195E-1,-2.3971412E-1,3.0279903E-2,1.6377184E-1,-3.4962532E-1,5.247159E-1,5.589302E-2,-1.7914724E-1,-1.8785262E0,5.078322E-1,-1.2836005E-3,-6.2194526E-1,2.92905E-1,-2.3300138E-1,-8.385582E-1,4.122863E-1,1.0880334E0,-4.5821598E-1,2.705077E-1,-1.3913204E-1,-4.597754E-1,-1.9552534E0,-8.612466E-2,2.5543788E-1,1.0125123E0,2.328877E-1,-5.2458897E-2,-2.9398528E-1,-8.231746E-2,3.7863123E-1,4.2593174E-2,-3.5600722E-1,-4.4469055E-2,-2.9028583E-2,-2.7933216E-1,2.7809754E-1,6.6982634E-2,-4.2400533E-1,3.6429456E-1,3.7758514E-1,-1.8600565E-1,1.2655313E-1,-1.9037539E-1,1.9465225E-2,-1.12405844E-1,-9.917078E-2,-6.1084074E-1,1.032886E-1,-3.0906343E-1,-3.52129E-3,3.5511294E-1,4.9400155E-2,2.7217552E-1,-1.1815472E-1,5.136494E-3],"categories":[],"categories_nodes":[],"categories_segments":[],"categories_sizes":[],"default_left":[0,0,0,0,0,0,0,0,0,0,0,0,0,0,0,0,0,0,0,0,0,0,0,0,0,0,0,0,0,0,0,0,0,0,0,0,0,0,0,0,0,0,0,0,0,0,0,0,0,0,0,0,0,0,0,0,0,0,0,0,0],"id":29,"left_children":[1,3,-1,5,7,9,11,13,15,17,19,21,23,25,27,29,31,33,35,37,39,41,43,45,47,49,-1,51,-1,53,55,57,59,-1,-1,-1,-1,-1,-1,-1,-1,-1,-1,-1,-1,-1,-1,-1,-1,-1,-1,-1,-1,-1,-1,-1,-1,-1,-1,-1,-1],"loss_changes":[2.4317995E1,1.4675597E1,0E0,3.2207993E1,2.701801E1,1.5566265E1,1.4802708E1,5.008638E1,2.0666044E1,1.0734234E1,7.6165295E0,1.196479E1,1.1598826E1,2.6378386E1,1.6366158E0,1.0568531E1,1.54353485E1,1.5975027E0,1.2985924E1,8.878778E0,1.6948681E0,1.5845039E1,1.182439E1,9.39181E0,1.0403705E1,2.299548E1,