{"learner":{"attributes":{"scikit_learn":"{\"_estimator_type\": \"regressor\"}"},"feature_names":["pm25_lag_1","pm25_lag_2","pm25_lag_3","pm25_roll_3","temperature_2m_mean","precipitation_sum","wind_speed_10m_max","wind_direction_10m_dominant"],"feature_types":["float","float","float","float","float","float","float","float"],"gradient_booster":{"model":{"gbtree_model_param":{"num_parallel_tree":"1","num_trees":"100"},"iteration_indptr":[0,1,2,3,4,5,6,7,8,9,10,11,12,13,14,15,16,17,18,19,20,21,22,23,24,25,26,27,28,29,30,31,32,33,34,35,36,37,38,39,40,41,42,43,44,45,46,47,48,49,50,51,52,53,54,55,56,57,58,59,60,61,62,63,64,65,66,67,68,69,70,71,72,73,74,75,76,77,78,79,80,81,82,83,84,85,86,87,88,89,90,91,92,93,94,95,96,97,98,99,100],"tree_info":[0,0,0,0,0,0,0,0,0,0,0,0,0,0,0,0,0,0,0,0,0,0,0,0,0,0,0,0,0,0,0,0,0,0,0,0,0,0,0,0,0,0,0,0,0,0,0,0,0,0,0,0,0,0,0,0,0,0,0,0,0,0,0,0,0,0,0,0,0,0,0,0,0,0,0,0,0,0,0,0,0,0,0,0,0,0,0,0,0,0,0,0,0,0,0,0,0,0,0,0],"trees":[{"base_weights":[-1.6704258E-6,-5.1993475E0,1.7524986E1,-9.724428E0,1.8464961E0,1.5302661E1,1.1108639E2,-1.3126117E1,-6.7450294E0,-6.847345E-1,3.9022462E0,1.1429005E1,3.145152E1,4.008491E1,5.777312E1,-1.6296326E1,-1.1740043E1,-8.172336E0,-5.61355E0,-1.1698124E0,9.793181E0,5.8416715E0,2.566684E0,8.397779E0,1.4329973E1,2.7438242E1,4.637669E1,6.5634895E1,4.111067E-1,-1.7797056E1,-1.4114117E1,-1.1965428E1,-4.087747E0,-8.338122E0,-2.0854974E0,3.4481425E0,-5.6953187E0,3.9103656E0,-1.4907892E0,2.2436188E1,2.0694168E0,5.3378625E0,1.7218828E1,4.8995748E0,9.9075043E-1,7.898283E0,1.731067E1,1.4915738E1,2.144005E0,1.1859621E1,2.9676205E1,3.152067E1,5.7228043E1,2.3277771E1,7.1481423E0,-5.3660135E0,-6.3889337E-1,-4.635218E0,-3.2589593E0,-3.9278743E0,-3.3263817E0,-2.7508018E0,2.535178E0,-1.9685853E0,-2.719721E0,2.7481422E0,-1.488897E0,-1.4138978E0,-2.062002E0,1.5448892E-1,3.0111032E0,-6.719781E-2,-7.9559064E-1,-2.2888935E0,8.144437E0,-2.3422294E0,1.8036957E0,-1.5358104E0,1.7070459E0,4.8142243E-2,6.297523E0,2.980894E0,1.0806336E0,4.9173576E-1,-1.4495456E0,2.5956767E0,9.48834E-1,-3.3889332E-1,5.5385537E0,4.341195E0,7.1673994E0,6.6166606E0,-9.926009E-1,4.689575E0,-1.85834E0,7.218686E0,1.0578728E1,-1.8889333E-1,1.0070826E1,1.1611067E0,1.7993202E1],"categories":[],"categories_nodes":[],"categories_segments":[],"categories_sizes":[],"default_left":[0,0,1,0,0,0,0,0,0,0,0,0,0,0,0,0,0,0,0,0,0,0,0,0,0,0,0,0,0,0,0,0,0,0,0,0,0,0,0,0,0,0,0,0,0,0,0,0,0,0,0,0,0,0,0,0,0,0,0,0,0,0,0,0,0,0,0,0,0,0,0,0,0,0,0,0,0,0,0,0,0,0,0,0,0,0,0,0,0,0,0,0,0,0,0,0,0,0,0,0,0],"id":0,"left_children":[1,3,5,7,9,11,13,15,17,19,21,23,25,-1,27,29,31,33,35,37,39,41,43,45,47,49,51,53,-1,55,57,59,61,63,65,-1,67,69,71,73,75,77,79,81,83,85,87,89,91,93,95,97,99,-1,-1,-1,-1,-1,-1,-1,-1,-1,-1,-1,-1,-1,-1,-1,-1,-1,-1,-1,-1,-1,-1,-1,-1,-1,-1,-1,-1,-1,-1,-1,-1,-1,-1,-1,-1,-1,-1,-1,-1,-1,-1,-1,-1,-1,-1,-1,-1],"loss_changes":[3.6319822E5,9.8026336E4,1.8792669E5,1.8884156E4,6.2625767E3,5.5439703E4,1.7504625E4,3.6447656E3,1.5690859E3,2.756063E3,1.704915E3,6.2197656E3,9.030109E3,0E0,3.4574648E3,6.1010156E2,1.0048906E3,4.2662305E2,8.5021094E2,8.4885974E2,2.2972092E3,1.455706E3,1.4473557E3,1.4437207E3,2.587711E3,4.459336E3,3.838414E3,1.6506523E3,0E0,1.7541406E2,3.188203E2,4.4152344E2,1.2880663E3,4.9364648E2,4.6614587E2,0E0,6.1448047E2,6.3970654E2,7.157722E2,1.4821445E3,6.700359E2,9.869658E2,7.045884E2,1.00327E3,9.026355E2,1.1794434E3,4.0295947E2,1.0525E3,2.0272539E3,1.3908333E3,2.9147734E3,1.1408926E3,2.5550898E3,0E0,0E0,0E0,0E0,0E0,0E0,0E0,0E0,0E0,0E0,0E0,0E0,0E0,0E0,0E0,0E0,0E0,0E0,0E0,0E0,0E0,0E0,0E0,0E0,0E0,0E0,0E0,0E0,0E0,0E0,0E0,0E0,0E0,0E0,0E0,0E0,0E0,0E0,0E0,0E0,0E0,0E0,0E0,0E0,0E0,0E0,0E0,0E0],"parents":[2147483647,0,0,1,1,2,2,3,3,4,4,5,5,6,6,7,7,8,8,9,9,10,10,11,11,12,12,14,14,15,15,16,16,17,17,18,18,19,19,20,20,21,21,22,22,23,23,24,24,25,25,26,26,27,27,29,29,30,30,31,31,32,32,33,33,34,34,36,36,37,37,38,38,39,39,40,40,41,41,42,42,43,43,44,44,45,45,46,46,47,47,48,48,49,49,50,50,51,51,52,52],"right_children":[2,4,6,8,10,12,14,16,18,20,22,24,26,-1,28,30,32,34,36,38,40,42,44,46,48,50,52,54,-1,56,58,60,62,64,66,-1,68,70,72,74,76,78,80,82,84,86,88,90,92,94,96,98,100,-1,-1,-1,-1,-1,-1,-1,-1,-1,-1,-1,-1,-1,-1,-1,-1,-1,-1,-1,-1,-1,-1,-1,-1,-1,-1,-1,-1,-1,-1,-1,-1,-1,-1,-1,-1,-1,-1,-1,-1,-1,-1,-1,-1,-1,-1,-1,-1],"split_conditions":[4.3E1,2.8E1,1.24E2,1.9E1,3.4E1,6.2E1,1.4E0,1.3E1,2.3E1,5.7E1,9.222835E0,4.9E1,8.4E1,4.008491E1,1.85E2,2.0380579E1,1.0300002E1,1.7949917E1,1.3666667E1,1.0703569E1,3.5E1,3.7861664E1,3.3E1,5.2666668E1,7.2E1,1.665618E2,9.463251E0,1.68E2,4.111067E-1,1.0300002E1,1.8666666E1,1.6E1,3.2E1,2E1,1.8154917E1,3.4481425E0,2.6E1,3.2666668E1,2.8E1,1.9499167E0,1.4205182E1,1.4E1,1.562205E2,1E-1,2.937169E2,5.1E1,2.3028333E0,6.1666668E1,2.5603335E0,7.4E1,6.9E1,1.6061665E0,1E-1,2.3277771E1,7.1481423E0,-5.3660135E0,-6.3889337E-1,-4.635218E0,-3.2589593E0,-3.9278743E0,-3.3263817E0,-2.7508018E0,2.535178E0,-1.9685853E0,-2.719721E0,2.7481422E0,-1.488897E0,-1.4138978E0,-2.062002E0,1.5448892E-1,3.0111032E0,-6.719781E-2,-7.9559064E-1,-2.2888935E0,8.144437E0,-2.3422294E0,1.8036957E0,-1.5358104E0,1.7070459E0,4.8142243E-2,6.297523E0,2.980894E0,1.0806336E0,4.9173576E-1,-1.4495456E0,2.5956767E0,9.48834E-1,-3.3889332E-1,5.5385537E0,4.341195E0,7.1673994E0,6.6166606E0,-9.926009E-1,4.689575E0,-1.85834E0,7.218686E0,1.0578728E1,-1.8889333E-1,1.0070826E1,1.1611067E0,1.7993202E1],"split_indices":[0,0,0,0,0,0,5,0,0,2,4,0,0,0,0,6,5,4,3,6,1,6,1,3,1,7,4,1,0,5,3,0,2,3,4,0,1,3,1,4,6,2,7,5,7,1,4,3,4,1,0,4,5,0,0,0,0,0,0,0,0,0,0,0,0,0,0,0,0,0,0,0,0,0,0,0,0,0,0,0,0,0,0,0,0,0,0,0,0,0,0,0,0,0,0,0,0,0,0,0,0],"split_type":[0,0,0,0,0,0,0,0,0,0,0,0,0,0,0,0,0,0,0,0,0,0,0,0,0,0,0,0,0,0,0,0,0,0,0,0,0,0,0,0,0,0,0,0,0,0,0,0,0,0,0,0,0,0,0,0,0,0,0,0,0,0,0,0,0,0,0,0,0,0,0,0,0,0,0,0,0,0,0,0,0,0,0,0,0,0,0,0,0,0,0,0,0,0,0,0,0,0,0,0,0],"sum_hessian":[3.984E3,3.073E3,9.11E2,1.871E3,1.202E3,8.91E2,2E1,8.72E2,9.99E2,5.39E2,6.63E2,7.2E2,1.71E2,1.3E1,7E0,2.62E2,6.1E2,4.39E2,5.6E2,5.16E2,2.3E1,2.69E2,3.94E2,3.54E2,3.66E2,1.37E2,3.4E1,6E0,1E0,1.51E2,1.11E2,5.92E2,1.8E1,4.27E2,1.2E1,2E0,5.58E2,3E1,4.86E2,8E0,1.5E1,2.59E2,1E1,1.58E2,2.36E2,3.37E2,1.7E1,3.49E2,1.7E1,1.8E1,1.19E2,1.6E1,1.8E1,4E0,2E0,1.5E2,1E0,7.6E1,3.5E1,2.53E2,3.39E2,1.3E1,5E0,1.27E2,3E2,2E0,1E1,3.07E2,2.51E2,2E1,1E1,2.33E2,2.53E2,1E0,7E0,4E0,1.1E1,8E0,2.51E2,2E0,8E0,3.1E1,1.27E2,2.13E2,2.3E1,2.9E2,4.7E1,1E0,1.6E1,3.35E2,1.4E1,3E0,1.4E1,1.5E1,3E0,6.2E1,5.7E1,1E0,1.5E1,1E0,1.7E1],"tree_param":{"num_deleted":"0","num_feature":"8","num_nodes":"101","size_leaf_vector":"1"}},{"base_weights":[3.4849238E-2,-3.8020093E0,1.1980946E1,-7.0726933E0,7.9561466E-1,1.0508486E1,8.505084E1,-9.991916E0,-5.42857E0,-8.4709823E-1,2.5506806E0,7.801049E0,2.2553759E1,3.4944078E-1,8.964647E1,-9.092638E0,-1.1739097E1,-6.920953E0,-4.393619E0,-2.1740656E0,7.625872E-1,6.629916E0,2.156536E0,5.05216E0,9.534479E0,1.9356253E1,3.3870026E1,2.6388853E0,9.388493E1,-1.2098434E1,-8.666482E0,-1.2989888E1,-9.864521E0,-7.1262717E0,-7.651377E-1,-2.2209342E0,-5.320034E0,-3.594572E0,-6.506711E-1,6.832588E0,5.3381765E-1,1.50305195E1,2.9183483E0,1.617416E0,5.53313E0,4.7564025E0,2.1728027E1,9.746084E0,-1.3009449E0,1.1677888E1,2.2371117E1,4.6016216E1,2.5373499E1,2.9183462E1,5.938885E0,1.1063894E0,-3.748761E0,2.4563894E0,-2.620086E0,-2.3992472E0,-4.0072994E0,-3.34695E0,-2.2001987E0,-2.1849265E0,-4.0284997E-1,-1.6079808E0,3.1246216E0,2.3356516E0,-7.543275E-1,-1.6303295E0,1.9148788E0,-1.2933718E-1,-1.3937793E0,-7.7944195E-1,2.926956E-1,2.8404275E-2,3.2317355E0,1.1609676E0,1.4263479E1,1.2077943E0,-1.5591664E0,-2.4232872E0,5.2715385E-1,-3.9261896E-2,2.7689672E0,1.8048166E0,5.9644127E-1,7.6828485E0,9.303234E-1,2.0874856E0,3.2368443E0,-2.0232596E0,2.5649953E0,5.952158E0,1.8616729E0,5.3437347E0,8.560763E0,4.070203E0,1.6089756E1,6.271515E0,1.2746848E1],"categories":[],"categories_nodes":[],"categories_segments":[],"categories_sizes":[],"default_left":[0,0,1,0,0,0,0,0,0,0,0,0,0,0,0,0,0,0,0,0,0,0,0,0,0,0,0,0,0,0,0,0,0,0,0,0,0,0,0,0,0,0,0,0,0,0,0,0,0,0,0,0,0,0,0,0,0,0,0,0,0,0,0,0,0,0,0,0,0,0,0,0,0,0,0,0,0,0,0,0,0,0,0,0,0,0,0,0,0,0,0,0,0,0,0,0,0,0,0,0,0],"id":1,"left_children":[1,3,5,7,9,11,13,15,17,19,21,23,25,-1,27,29,31,33,35,37,39,41,43,45,47,49,51,-1,53,55,57,59,61,63,65,67,69,71,73,-1,75,77,79,81,83,85,87,89,91,93,95,97,99,-1,-1,-1,-1,-1,-1,-1,-1,-1,-1,-1,-1,-1,-1,-1,-1,-1,-1,-1,-1,-1,-1,-1,-1,-1,-1,-1,-1,-1,-1,-1,-1,-1,-1,-1,-1,-1,-1,-1,-1,-1,-1,-1,-1,-1,-1,-1,-1],"loss_changes":[1.8269994E5,4.53734E4,1.0336334E5,8.407383E3,3.6204126E3,3.083789E4,7.2202656E3,8.8940234E2,1.7149258E3,1.387922E3,9.6164185E2,3.659004E3,5.640383E3,0E0,5.3423906E3,4.3698047E2,3.6893945E2,5.7720703E2,1.3367676E3,7.680421E2,1.4683783E3,1.6086443E3,1.0013672E3,1.3910532E3,1.1040703E3,2.9333477E3,2.6508242E3,0E0,2.3481094E3,3.5978857E2,4.947207E2,1.208457E2,2.0915332E2,3.9471484E2,8.777834E2,6.1280927E2,6.625781E2,6.0996606E2,5.5046277E2,0E0,1.3118588E3,5.6221064E3,3.6250845E2,6.6459937E2,1.592531E3,1.030667E3,2.8208252E2,1.2833203E3,5.9387384E2,1.7082871E3,2.2458086E3,2.7323125E3,9.4732227E2,0E0,0E0,0E0,0E0,0E0,0E0,0E0,0E0,0E0,0E0,0E0,0E0,0E0,0E0,0E0,0E0,0E0,0E0,0E0,0E0,0E0,0E0,0E0,0E0,0E0,0E0,0E0,0E0,0E0,0E0,0E0,0E0,0E0,0E0,0E0,0E0,0E0,0E0,0E0,0E0,0E0,0E0,0E0,0E0,0E0,0E0,0E0,0E0],"parents":[2147483647,0,0,1,1,2,2,3,3,4,4,5,5,6,6,7,7,8,8,9,9,10,10,11,11,12,12,14,14,15,15,16,16,17,17,18,18,19,19,20,20,21,21,22,22,23,23,24,24,25,25,26,26,28,28,29,29,30,30,31,31,32,32,33,33,34,34,35,35,36,36,37,37,38,38,40,40,41,41,42,42,43,43,44,44,45,45,46,46,47,47,48,48,49,49,50,50,51,51,52,52],"right_children":[2,4,6,8,10,12,14,16,18,20,22,24,26,-1,28,30,32,34,36,38,40,42,44,46,48,50,52,-1,54,56,58,60,62,64,66,68,70,72,74,-1,76,78,80,82,84,86,88,90,92,94,96,98,100,-1,-1,-1,-1,-1,-1,-1,-1,-1,-1,-1,-1,-1,-1,-1,-1,-1,-1,-1,-1,-1,-1,-1,-1,-1,-1,-1,-1,-1,-1,-1,-1,-1,-1,-1,-1,-1,-1,-1,-1,-1,-1,-1,-1,-1,-1,-1,-1],"split_conditions":[4.2E1,2.7E1,1.3E2,1.7E1,3.4E1,6.2E1,3.6E1,1.4172833E1,2.1E1,3E1,2.1E1,4.7E1,8.4E1,3.4944078E-1,5.4236665E0,1E1,1.9602652E1,1.1400001E1,2E1,3E1,5.8867397E0,2E-1,3.1542658E1,7.2E1,8.3E1,4.3E1,6.8E1,2.6388853E0,1.831742E1,6E0,9.666667E0,8E0,3.5E0,1.7949917E1,3E1,1.4666667E1,1.992075E1,8.434084E0,9.874917E0,6.832588E0,1.831742E1,1.3612418E1,3.4E1,8.557102E0,3.4666668E1,4.4E1,4.6E1,4.1333332E1,9.817416E0,4.8333332E1,2.7722336E1,1.6595179E1,1.5896584E1,2.9183462E1,5.938885E0,1.1063894E0,-3.748761E0,2.4563894E0,-2.620086E0,-2.3992472E0,-4.0072994E0,-3.34695E0,-2.2001987E0,-2.1849265E0,-4.0284997E-1,-1.6079808E0,3.1246216E0,2.3356516E0,-7.543275E-1,-1.6303295E0,1.9148788E0,-1.2933718E-1,-1.3937793E0,-7.7944195E-1,2.926956E-1,2.8404275E-2,3.2317355E0,1.1609676E0,1.4263479E1,1.2077943E0,-1.5591664E0,-2.4232872E0,5.2715385E-1,-3.9261896E-2,2.7689672E0,1.8048166E0,5.9644127E-1,7.6828485E0,9.303234E-1,2.0874856E0,3.2368443E0,-2.0232596E0,2.5649953E0,5.952158E0,1.8616729E0,5.3437347E0,8.560763E0,4.070203E0,1.6089756E1,6.271515E0,1.2746848E1],"split_indices":[0,0,0,0,0,0,1,4,0,2,1,0,0,0,4,0,6,5,1,0,7,5,6,2,1,2,1,0,4,0,3,1,5,4,1,3,4,4,4,0,4,4,2,6,3,1,0,3,4,3,6,6,4,0,0,0,0,0,0,0,0,0,0,0,0,0,0,0,0,0,0,0,0,0,0,0,0,0,0,0,0,0,0,0,0,0,0,0,0,0,0,0,0,0,0,0,0,0,0,0,0],"split_type":[0,0,0,0,0,0,0,0,0,0,0,0,0,0,0,0,0,0,0,0,0,0,0,0,0,0,0,0,0,0,0,0,0,0,0,0,0,0,0,0,0,0,0,0,0,0,0,0,0,0,0,0,0,0,0,0,0,0,0,0,0,0,0,0,0,0,0,0,0,0,0,0,0,0,0,0,0,0,0,0,0,0,0,0,0,0,0,0,0,0,0,0,0,0,0,0,0,0,0,0,0],"sum_hessian":[3.984E3,3.016E3,9.68E2,1.762E3,1.254E3,9.5E2,1.8E1,6.33E2,1.129E3,6.48E2,6.06E2,7.77E2,1.73E2,1E0,1.7E1,4.22E2,2.11E2,4.6E2,6.69E2,3.55E2,2.93E2,5.2E1,5.54E2,3.02E2,4.75E2,1.37E2,3.6E1,1E0,1.6E1,4.9E1,3.73E2,1.23E2,8.8E1,4.45E2,1.5E1,2.01E2,4.68E2,1.83E2,1.72E2,2E0,2.91E2,1.5E1,3.7E1,4.79E2,7.5E1,2.98E2,4E0,4.66E2,9E0,4E1,9.7E1,1.3E1,2.3E1,1.5E1,1E0,1E0,4.8E1,1E0,3.72E2,1E1,1.13E2,5.6E1,3.2E1,4.33E2,1.2E1,1.1E1,4E0,5E0,1.96E2,4.64E2,4E0,4.6E1,1.37E2,7.8E1,9.4E1,2.8E2,1.1E1,1.2E1,3E0,3.3E1,4E0,6E0,4.73E2,3E1,4.5E1,2.04E2,9.4E1,3E0,1E0,1.29E2,3.37E2,6E0,3E0,1.5E1,2.5E1,5.8E1,3.9E1,3E0,1E1,2E1,3E0],"tree_param":{"num_deleted":"0","num_feature":"8","num_nodes":"101","size_leaf_vector":"1"}},{"base_weights":[5.5991214E-2,-2.815665E0,8.10644E0,-4.799291E0,6.671498E-1,7.112876E0,6.1541412E1,-6.3433785E0,-3.0884624E0,5.675877E-1,1.5662618E1,5.731256E0,1.9359497E1,6.812959E1,1.9803331E1,-8.314868E0,-5.6154385E0,-2.4256532E0,-3.9798186E0,-3.4634405E-1,1.5048542E0,6.671737E0,5.170459E0,3.8221502E0,7.8631544E0,9.78046E0,2.2932985E1,7.0427986E1,5.048053E0,5.644615E0,9.341923E0,-9.1738825E0,-6.618504E0,-5.775464E0,-1.7370019E0,-2.9521353E0,5.040356E-1,-4.745363E0,-2.209835E0,9.770954E0,-5.174937E-1,2.4345164E0,-3.6306956E-1,2.5827312E-1,1.8960016E0,1.7064637E0,5.1292214E0,3.1200588E1,7.629945E0,8.306553E0,5.960433E0,1.7798664E1,2.1639408E1,2.181316E1,5.7708507E0,2.2430525E0,2.9702455E-1,-2.7939289E0,-7.9846007E-1,-1.38743E0,-2.4391892E0,-1.111475E0,-1.8456088E0,-3.3685324E0,1.8312706E-1,4.5256194E-1,-9.5122284E-1,-1.1959334E-1,1.836144E0,-1.4606967E0,2.2775667E0,-5.260463E-2,-1.4964316E0,-1.9639035E-1,4.5278563E0,-5.6219167E-1,2.0735373E-1,1.5652092E-1,1.0405976E0,4.3281255E0,-2.1147473E-1,-3.660979E0,5.9892696E-1,1.443368E0,4.8761697E0,1.9968047E0,1.1149033E1,1.8655757E0,3.0241325E0,3.6524942E0,-1.0862297E0,5.5898184E-1,6.734633E0],"categories":[],"categories_nodes":[],"categories_segments":[],"categories_sizes":[],"default_left":[0,0,1,0,0,0,0,0,0,0,0,0,0,0,0,0,0,0,0,0,0,0,0,0,0,0,0,0,0,0,0,0,0,0,0,0,0,0,0,0,0,0,0,0,0,0,0,0,0,0,0,0,0,0,0,0,0,0,0,0,0,0,0,0,0,0,0,0,0,0,0,0,0,0,0,0,0,0,0,0,0,0,0,0,0,0,0,0,0,0,0,0,0],"id":2,"left_children":[1,3,5,7,9,11,13,15,17,19,21,23,25,27,29,31,33,35,37,39,41,-1,43,45,47,49,51,53,-1,55,-1,57,59,61,63,65,67,69,71,73,75,77,79,-1,-1,81,83,85,87,-1,89,-1,91,-1,-1,-1,-1,-1,-1,-1,-1,-1,-1,-1,-1,-1,-1,-1,-1,-1,-1,-1,-1,-1,-1,-1,-1,-1,-1,-1,-1,-1,-1,-1,-1,-1,-1,-1,-1,-1,-1,-1,-1],"loss_changes":[9.214854E4,2.0300672E4,5.5201703E4,4.925621E3,1.5841207E3,1.7316824E4,3.8753906E3,1.3640352E3,5.161572E2,9.0937134E2,3.680255E2,3.7428555E3,3.3356836E3,7.015469E2,4.6626416E2,3.2252734E2,4.3745508E2,7.927539E2,5.017041E2,9.3664246E2,9.108297E2,0E0,1.4375137E1,1.3490347E3,2.1403164E3,1.8872412E3,2.2472305E3,3.5404688E2,0E0,1.8181786E1,0E0,1.3115039E2,2.3975806E2,5.167578E2,6.7526746E2,4.2896777E2,4.029582E2,4.3809375E2,6.5479834E2,5.0923584E2,8.7025055E2,6.905205E2,8.949626E2,0E0,0E0,7.866482E2,9.936904E2,3.38062E2,1.4383164E3,0E0,1.592196E3,0E0,1.142625E3,0E0,0E0,0E0,0E0,0E0,0E0,0E0,0E0,0E0,0E0,0E0,0E0,0E0,0E0,0E0,0E0,0E0,0E0,0E0,0E0,0E0,0E0,0E0,0E0,0E0,0E0,0E0,0E0,0E0,0E0,0E0,0E0,0E0,0E0,0E0,0E0,0E0,0E0,0E0,0E0],"parents":[2147483647,0,0,1,1,2,2,3,3,4,4,5,5,6,6,7,7,8,8,9,9,10,10,11,11,12,12,13,13,14,14,15,15,16,16,17,17,18,18,19,19,20,20,22,22,23,23,24,24,25,25,26,26,27,27,29,29,31,31,32,32,33,33,34,34,35,35,36,36,37,37,38,38,39,39,40,40,41,41,42,42,45,45,46,46,47,47,48,48,50,50,52,52],"right_children":[2,4,6,8,10,12,14,16,18,20,22,24,26,28,30,32,34,36,38,40,42,-1,44,46,48,50,52,54,-1,56,-1,58,60,62,64,66,68,70,72,74,76,78,80,-1,-1,82,84,86,88,-1,90,-1,92,-1,-1,-1,-1,-1,-1,-1,-1,-1,-1,-1,-1,-1,-1,-1,-1,-1,-1,-1,-1,-1,-1,-1,-1,-1,-1,-1,-1,-1,-1,-1,-1,-1,-1,-1,-1,-1,-1,-1,-1],"split_conditions":[4.1E1,2.8E1,1.3E2,2E1,8.3E1,6.9E1,6.2E0,1.3E1,2.6E1,3.4E1,1.2E2,4.9E1,1.9406637E1,1.831742E1,1.47E2,1.8E1,9.8E0,2.5666666E1,3.3666668E1,1.9308798E1,3.7666668E1,6.671737E0,3.5E1,3.1E1,1.8E1,2.8E1,1.9602652E1,2.27E2,5.048053E0,1.52E2,9.341923E0,3.3142938E2,1.1E1,6.172834E0,1.5E1,1.1E1,2.7E1,2.0526999E1,4.4E1,1E-1,2.1958476E2,1.7533146E1,2.9E1,2.5827312E-1,1.8960016E0,1.9499167E0,1.4E1,5E1,2.4575801E2,8.306553E0,1.6595179E1,1.7798664E1,1.6406662E2,2.181316E1,5.7708507E0,2.2430525E0,2.9702455E-1,-2.7939289E0,-7.9846007E-1,-1.38743E0,-2.4391892E0,-1.111475E0,-1.8456088E0,-3.3685324E0,1.8312706E-1,4.5256194E-1,-9.5122284E-1,-1.1959334E-1,1.836144E0,-1.4606967E0,2.2775667E0,-5.260463E-2,-1.4964316E0,-1.9639035E-1,4.5278563E0,-5.6219167E-1,2.0735373E-1,1.5652092E-1,1.0405976E0,4.3281255E0,-2.1147473E-1,-3.660979E0,5.9892696E-1,1.443368E0,4.8761697E0,1.9968047E0,1.1149033E1,1.8655757E0,3.0241325E0,3.6524942E0,-1.0862297E0,5.5898184E-1,6.734633E0],"split_indices":[0,0,0,0,2,0,5,0,1,0,2,0,6,4,2,1,5,3,3,7,3,0,0,2,1,2,6,1,0,0,0,7,0,4,1,1,0,4,1,5,7,6,2,0,0,4,5,0,7,0,6,0,7,0,0,0,0,0,0,0,0,0,0,0,0,0,0,0,0,0,0,0,0,0,0,0,0,0,0,0,0,0,0,0,0,0,0,0,0,0,0,0,0],"split_type":[0,0,0,0,0,0,0,0,0,0,0,0,0,0,0,0,0,0,0,0,0,0,0,0,0,0,0,0,0,0,0,0,0,0,0,0,0,0,0,0,0,0,0,0,0,0,0,0,0,0,0,0,0,0,0,0,0,0,0,0,0,0,0,0,0,0,0,0,0,0,0,0,0,0,0,0,0,0,0,0,0,0,0,0,0,0,0,0,0,0,0,0,0],"sum_hessian":[3.984E3,2.937E3,1.047E3,1.871E3,1.066E3,1.029E3,1.8E1,9.82E2,8.89E2,1.06E3,6E0,9.26E2,1.03E2,1.5E1,3E0,2.62E2,7.2E2,5.12E2,3.77E2,5.37E2,5.23E2,3E0,3E0,4.9E2,4.36E2,2.9E1,7.4E1,1.4E1,1E0,2E0,1E0,1.71E2,9.1E1,6.91E2,2.9E1,4.34E2,7.8E1,2.62E2,1.15E2,8E0,5.29E2,3.49E2,1.74E2,1E0,2E0,1.88E2,3.02E2,3E0,4.33E2,4E0,2.5E1,1E0,7.3E1,1.3E1,1E0,1E0,1E0,1.67E2,4E0,4.1E1,5E1,1.08E2,5.83E2,5E0,2.4E1,2E1,4.14E2,6.8E1,1E1,2.6E2,2E0,6.7E1,4.8E1,3E0,5E0,2.49E2,2.8E2,1.23E2,2.26E2,3E0,1.71E2,3E0,1.85E2,2.95E2,7E0,1E0,2E0,2.77E2,1.56E2,1.5E1,1E1,3E0,7E1],"tree_param":{"num_deleted":"0","num_feature":"8","num_nodes":"93","size_leaf_vector":"1"}},{"base_weights":[6.5998025E-2,-7.9675704E-1,1.4025984E1,-3.1221106E0,2.088211E0,1.1172959E1,4.5421837E1,-4.4541607E0,-1.9256408E0,1.0360467E0,3.8694735E0,-1.1814021E1,1.1667064E1,2.5247097E-1,4.7851765E1,-5.260557E0,-3.5296497E0,-8.767338E-1,-2.438927E0,9.073524E-1,6.771056E0,6.013273E0,3.0300736E0,-4.3330803E0,-1.9435559E-1,2.1972845E1,9.827362E0,1.9065944E0,4.991889E1,-4.82988E0,-7.6924E0,-3.708386E0,5.9690255E-1,-1.8775705E0,5.502992E-1,-2.6314185E0,1.3770561E0,-6.5881953E0,9.722817E-1,8.719035E0,-2.7365448E0,6.5602813E0,-4.7441373E0,2.4937582E0,7.4585876E0,1.7564783E1,4.1381817E1,6.9553404E0,1.3026871E1,5.248403E1,6.1360664E0,-1.6627651E0,-9.875445E-1,-2.8371663E0,-1.6586657E0,-1.7159435E0,-1.0276589E0,-2.7624207E0,8.606528E-1,-6.225534E-1,2.689863E0,2.701149E-1,-2.934662E0,-8.5960245E-1,3.6121747E-1,-4.8352282E-2,5.5053945E0,7.504014E-1,-2.8627617E0,1.6639267E0,2.4721427E-1,-1.5220927E0,3.1313791E0,1.702232E0,4.53085E0,-4.597081E0,1.4029607E-1,6.923307E-1,6.126827E0,3.140438E0,-7.327118E-1,2.5777967E0,6.701116E0,1.6488834E1,4.2020745E0,2.7816157E0,-5.61143E-1,3.5371437E0,1.0442123E1,1.6256891E1,4.2908444E0],"categories":[],"categories_nodes":[],"categories_segments":[],"categories_sizes":[],"default_left":[0,0,1,0,0,0,0,0,0,0,0,0,0,0,0,0,0,0,0,0,0,0,0,0,0,0,0,0,0,0,0,0,0,0,0,0,0,0,0,0,0,0,0,0,0,0,0,0,1,0,0,0,0,0,0,0,0,0,0,0,0,0,0,0,0,0,0,0,0,0,0,0,0,0,0,0,0,0,0,0,0,0,0,0,0,0,0,0,0,0,0],"id":3,"left_children":[1,3,5,7,9,11,13,15,17,19,21,23,25,-1,27,29,31,33,35,37,39,41,43,-1,-1,45,47,-1,49,51,53,55,57,59,61,63,65,67,69,71,-1,73,75,77,79,81,83,85,87,89,-1,-1,-1,-1,-1,-1,-1,-1,-1,-1,-1,-1,-1,-1,-1,-1,-1,-1,-1,-1,-1,-1,-1,-1,-1,-1,-1,-1,-1,-1,-1,-1,-1,-1,-1,-1,-1,-1,-1,-1,-1],"loss_changes":[4.8006707E4,2.5190494E4,2.0273469E4,3.3048457E3,3.1371187E3,2.5684434E3,2.0179414E3,7.142793E2,5.8847534E2,7.7251294E2,1.1010703E3,1.3745428E2,3.7655723E3,0E0,1.2267617E3,5.106045E2,3.4223047E2,5.180514E2,5.4424756E2,5.0914716E2,7.915901E2,1.0550078E3,1.047811E3,0E0,0E0,1.925374E3,1.5634238E3,0E0,2.1142188E2,4.7172656E2,2.4171436E2,2.3188037E2,4.7194263E2,4.7502527E2,5.5139417E2,6.323921E2,9.429293E2,2.6555157E2,6.9042444E2,5.508296E2,0E0,1.170957E3,5.0340784E2,1.2933789E3,1.4558386E3,9.6413574E2,1.0890283E3,2.0006895E3,1.8516318E3,2.0176172E2,0E0,0E0,0E0,0E0,0E0,0E0,0E0,0E0,0E0,0E0,0E0,0E0,0E0,0E0,0E0,0E0,0E0,0E0,0E0,0E0,0E0,0E0,0E0,0E0,0E0,0E0,0E0,0E0,0E0,0E0,0E0,0E0,0E0,0E0,0E0,0E0,0E0,0E0,0E0,0E0,0E0],"parents":[2147483647,0,0,1,1,2,2,3,3,4,4,5,5,6,6,7,7,8,8,9,9,10,10,11,11,12,12,14,14,15,15,16,16,17,17,18,18,19,19,20,20,21,21,22,22,25,25,26,26,28,28,29,29,30,30,31,31,32,32,33,33,34,34,35,35,36,36,37,37,38,38,39,39,41,41,42,42,43,43,44,44,45,45,46,46,47,47,48,48,49,49],"right_children":[2,4,6,8,10,12,14,16,18,20,22,24,26,-1,28,30,32,34,36,38,40,42,44,-1,-1,46,48,-1,50,52,54,56,58,60,62,64,66,68,70,72,-1,74,76,78,80,82,84,86,88,90,-1,-1,-1,-1,-1,-1,-1,-1,-1,-1,-1,-1,-1,-1,-1,-1,-1,-1,-1,-1,-1,-1,-1,-1,-1,-1,-1,-1,-1,-1,-1,-1,-1,-1,-1,-1,-1,-1,-1,-1,-1],"split_conditions":[5.9E1,3E1,1.3E2,2E1,4.4E1,4.1666668E1,3.6E1,1.6E1,8.216583E0,6.6E1,7.1978326E0,6.6E1,4.6E1,2.5247097E-1,5.4236665E0,1.6485334E1,1.01E1,6.32575E0,3.5141975E1,9E0,7.7E1,3.328976E2,9.099999E0,-4.3330803E0,-1.9435559E-1,5.7E1,2.5501621E1,1.9065944E0,1.9433333E2,2.7E1,1.7709658E1,1.224E1,1.3E1,7.9E1,4.5E1,4.8E1,1.5896584E1,1.093325E1,1.7E1,1.0009036E1,-2.7365448E0,3.0445474E2,3.8333332E1,7.4E1,1.6099998E1,2.217352E2,1.9602652E1,2.2406927E1,1.02E2,1.831742E1,6.1360664E0,-1.6627651E0,-9.875445E-1,-2.8371663E0,-1.6586657E0,-1.7159435E0,-1.0276589E0,-2.7624207E0,8.606528E-1,-6.225534E-1,2.689863E0,2.701149E-1,-2.934662E0,-8.5960245E-1,3.6121747E-1,-4.8352282E-2,5.5053945E0,7.504014E-1,-2.8627617E0,1.6639267E0,2.4721427E-1,-1.5220927E0,3.1313791E0,1.702232E0,4.53085E0,-4.597081E0,1.4029607E-1,6.923307E-1,6.126827E0,3.140438E0,-7.327118E-1,2.5777967E0,6.701116E0,1.6488834E1,4.2020745E0,2.7816157E0,-5.61143E-1,3.5371437E0,1.0442123E1,1.6256891E1,4.2908444E0],"split_indices":[0,0,0,0,0,3,1,0,4,2,4,0,1,0,4,4,5,4,6,2,1,7,5,0,0,2,6,0,3,2,6,6,1,2,3,2,4,4,1,6,0,7,3,2,5,7,6,6,1,4,0,0,0,0,0,0,0,0,0,0,0,0,0,0,0,0,0,0,0,0,0,0,0,0,0,0,0,0,0,0,0,0,0,0,0,0,0,0,0,0,0],"split_type":[0,0,0,0,0,0,0,0,0,0,0,0,0,0,0,0,0,0,0,0,0,0,0,0,0,0,0,0,0,0,0,0,0,0,0,0,0,0,0,0,0,0,0,0,0,0,0,0,0,0,0,0,0,0,0,0,0,0,0,0,0,0,0,0,0,0,0,0,0,0,0,0,0,0,0,0,0,0,0,0,0,0,0,0,0,0,0,0,0,0,0],"sum_hessian":[3.984E3,3.753E3,2.31E2,2.078E3,1.675E3,2.13E2,1.8E1,9.82E2,1.096E3,1.054E3,6.21E2,4E0,2.09E2,1E0,1.7E1,5.22E2,4.6E2,3.61E2,7.35E2,1.032E3,2.2E1,1.73E2,4.48E2,3E0,1E0,3E1,1.79E2,1E0,1.6E1,4.46E2,7.6E1,4.41E2,1.9E1,2.12E2,1.49E2,7E2,3.5E1,8E0,1.024E3,2E1,2E0,1.65E2,8E0,4.01E2,4.7E1,2.6E1,4E0,9.6E1,8.3E1,1.4E1,2E0,3.03E2,1.43E2,4E1,3.6E1,5.2E1,3.89E2,3E0,1.6E1,2.09E2,3E0,1.45E2,4E0,6.6E2,4E1,3.3E1,2E0,2E0,6E0,3.1E1,9.93E2,2E0,1.8E1,1.51E2,1.4E1,2E0,6E0,3.98E2,3E0,3.6E1,1.1E1,1E1,1.6E1,2E0,2E0,7.6E1,2E1,8E1,3E0,1.3E1,1E0],"tree_param":{"num_deleted":"0","num_feature":"8","num_nodes":"91","size_leaf_vector":"1"}},{"base_weights":[6.444934E-2,-2.3936081E-1,2.1777418E1,-1.8328866E0,2.512455E0,1.5050021E1,3.3731956E1,-2.8040242E0,-5.04939E-1,1.7405709E0,5.372324E0,2.2603443E1,8.87253E0,3.6255817E1,-1.7546248E0,-4.014159E0,-2.419837E0,-3.5621524E-1,-4.3626237E0,2.980289E0,8.4007716E-1,6.073307E0,-4.430224E0,4.273829E0,2.8357162E1,-4.3637915E0,1.2056368E1,2.2242485E1,4.5242233E1,-5.1820107E0,-3.5231054E0,-6.83755E0,-2.3395803E0,-5.413295E-1,5.739748E0,-5.285384E0,8.472297E0,6.1555296E-1,4.0286293E0,6.5340304E-1,1.0866029E1,1.0594573E1,4.4160104E0,-6.8714685E0,-7.8617945E-2,-4.3206673E0,3.4331148E0,3.1994604E1,-1.7482018E0,-1.1304855E0,-2.5945525E0,1.3007794E1,-6.176823E-1,1.6206053E0,7.1016874E0,1.4270252E1,3.647218E0,-1.2377621E0,-2.0184379E0,-1.2028012E0,-6.046281E-1,-5.9058607E-1,-2.679995E0,3.1594095E0,-7.120063E-1,-2.0698023E-1,1.019803E0,2.516446E0,3.2043844E-1,1.0182624E0,-2.122439E0,3.6376066E0,1.7492695E-1,4.7229448E-1,-1.9188904E0,8.5826063E-1,1.9757398E0,7.191042E-1,-4.7112364E-2,4.891205E-1,7.040948E0,-1.21493E0,3.572297E0,8.273067E-1,2.869355E0,1.0473127E0,-3.017383E0,-2.0809422E-1,-1.7362062E0,1.0368969E1,9.4625247E-1,-8.810114E-1,1.3514672E-1,4.1194096E0,2.1460019E-1],"categories":[],"categories_nodes":[],"categories_segments":[],"categories_sizes":[],"default_left":[0,0,1,0,0,0,0,0,0,0,0,0,0,0,0,0,0,0,0,0,0,0,0,0,0,0,0,0,0,0,0,0,0,0,0,0,0,0,0,0,0,0,0,0,0,0,0,0,0,0,0,1,0,0,0,0,0,0,0,0,0,0,0,0,0,0,0,0,0,0,0,0,0,0,0,0,0,0,0,0,0,0,0,0,0,0,0,0,0,0,0,0,0,0,0],"id":4,"left_children":[1,3,5,7,9,11,13,15,17,19,21,23,25,27,-1,29,31,33,35,37,39,41,43,45,47,49,51,53,55,57,59,61,63,65,67,69,71,73,75,77,79,81,83,-1,85,87,-1,89,-1,91,-1,93,-1,-1,-1,-1,-1,-1,-1,-1,-1,-1,-1,-1,-1,-1,-1,-1,-1,-1,-1,-1,-1,-1,-1,-1,-1,-1,-1,-1,-1,-1,-1,-1,-1,-1,-1,-1,-1,-1,-1,-1,-1,-1,-1],"loss_changes":[2.6292742E4,1.7242393E4,3.9155957E3,3.2097373E3,3.1738467E3,1.525915E3,2.1100781E3,6.5883887E2,6.0258307E2,1.2667961E3,2.1295605E3,1.5662222E3,9.797422E2,1.2604336E3,0E0,1.7959326E2,3.718828E2,1.1484838E3,5.066781E2,1.1825049E3,1.2281464E3,2.0962344E3,1.6864834E3,3.5755228E2,1.6785723E3,5.9491974E1,2.685166E2,8.882959E1,1.9101367E2,1.355315E2,1.7225757E2,1.7629236E2,4.9273486E2,5.797487E2,3.6221057E2,5.986738E2,7.938904E1,1.0050292E3,9.695791E2,9.17478E2,1.3585824E3,1.5096455E3,1.7751162E3,0E0,6.763231E2,1.1944721E1,0E0,7.0586426E2,0E0,1.27453E1,0E0,1.413833E2,0E0,0E0,0E0,0E0,0E0,0E0,0E0,0E0,0E0,0E0,0E0,0E0,0E0,0E0,0E0,0E0,0E0,0E0,0E0,0E0,0E0,0E0,0E0,0E0,0E0,0E0,0E0,0E0,0E0,0E0,0E0,0E0,0E0,0E0,0E0,0E0,0E0,0E0,0E0,0E0,0E0,0E0,0E0],"parents":[2147483647,0,0,1,1,2,2,3,3,4,4,5,5,6,6,7,7,8,8,9,9,10,10,11,11,12,12,13,13,15,15,16,16,17,17,18,18,19,19,20,20,21,21,22,22,23,23,24,24,25,25,26,26,27,27,28,28,29,29,30,30,31,31,32,32,33,33,34,34,35,35,36,36,37,37,38,38,39,39,40,40,41,41,42,42,44,44,45,45,47,47,49,49,51,51],"right_children":[2,4,6,8,10,12,14,16,18,20,22,24,26,28,-1,30,32,34,36,38,40,42,44,46,48,50,52,54,56,58,60,62,64,66,68,70,72,74,76,78,80,82,84,-1,86,88,-1,90,-1,92,-1,94,-1,-1,-1,-1,-1,-1,-1,-1,-1,-1,-1,-1,-1,-1,-1,-1,-1,-1,-1,-1,-1,-1,-1,-1,-1,-1,-1,-1,-1,-1,-1,-1,-1,-1,-1,-1,-1,-1,-1,-1,-1,-1,-1],"split_conditions":[8.4E1,3.5E1,1.06E2,2.4E1,5.4E1,7.4333336E1,2.3053131E2,1.4E1,5.3E1,9.222835E0,1.6291582E1,1.7377226E1,6.172834E0,1.1233253E1,-1.7546248E0,1E1,9E0,4.2333332E1,1.5727E1,2.8E1,6.6E1,1.6279802E1,1.6485334E1,4.6E1,1.46049185E1,1.12E2,2.8960217E2,5.4236665E0,1.831742E1,2.2706818E2,2.5486198E2,8.873103E1,1.1333333E1,3.221987E2,4.9E1,5.714422E1,3.2E1,6.299999E0,2.7598173E1,3.3E1,1.4402001E1,6.2087173E1,6.9E1,-6.8714685E0,6.5E1,8.8E1,3.4331148E0,2.6560138E2,-1.7482018E0,9.5E1,-2.5945525E0,1.96E2,-6.176823E-1,1.6206053E0,7.1016874E0,1.4270252E1,3.647218E0,-1.2377621E0,-2.0184379E0,-1.2028012E0,-6.046281E-1,-5.9058607E-1,-2.679995E0,3.1594095E0,-7.120063E-1,-2.0698023E-1,1.019803E0,2.516446E0,3.2043844E-1,1.0182624E0,-2.122439E0,3.6376066E0,1.7492695E-1,4.7229448E-1,-1.9188904E0,8.5826063E-1,1.9757398E0,7.191042E-1,-4.7112364E-2,4.891205E-1,7.040948E0,-1.21493E0,3.572297E0,8.273067E-1,2.869355E0,1.0473127E0,-3.017383E0,-2.0809422E-1,-1.7362062E0,1.0368969E1,9.4625247E-1,-8.810114E-1,1.3514672E-1,4.1194096E0,2.1460019E-1],"split_indices":[0,0,3,0,0,3,7,0,1,4,4,6,4,4,0,0,2,3,4,2,1,6,4,2,4,0,7,4,4,7,7,7,3,7,1,7,0,5,6,1,4,7,0,0,0,0,0,7,0,0,0,0,0,0,0,0,0,0,0,0,0,0,0,0,0,0,0,0,0,0,0,0,0,0,0,0,0,0,0,0,0,0,0,0,0,0,0,0,0,0,0,0,0,0,0],"split_type":[0,0,0,0,0,0,0,0,0,0,0,0,0,0,0,0,0,0,0,0,0,0,0,0,0,0,0,0,0,0,0,0,0,0,0,0,0,0,0,0,0,0,0,0,0,0,0,0,0,0,0,0,0,0,0,0,0,0,0,0,0,0,0,0,0,0,0,0,0,0,0,0,0,0,0,0,0,0,0,0,0,0,0,0,0,0,0,0,0,0,0,0,0,0,0],"sum_hessian":[3.984E3,3.93E3,5.4E1,2.489E3,1.441E3,3.6E1,1.8E1,1.437E3,1.052E3,1.136E3,3.05E2,1.5E1,2.1E1,1.7E1,1E0,3.44E2,1.093E3,1.014E3,3.8E1,4.77E2,6.59E2,2.85E2,2E1,4E0,1.1E1,4E0,1.7E1,8E0,9E0,9.9E1,2.45E2,1.8E1,1.075E3,9.85E2,2.9E1,3.6E1,2E0,1.47E2,3.3E2,6.48E2,1.1E1,7.5E1,2.1E2,3E0,1.7E1,2E0,2E0,1E1,1E0,3E0,1E0,1.6E1,1E0,1E0,7E0,8E0,1E0,6.1E1,3.8E1,1.84E2,6.1E1,6E0,1.2E1,2E0,1.073E3,9.5E2,3.5E1,1.8E1,1.1E1,6E0,3E1,1E0,1E0,1.3E2,1.7E1,2.28E2,1.02E2,2.05E2,4.43E2,7E0,4E0,6E0,6.9E1,1.6E2,5E1,1.3E1,4E0,1E0,1E0,9E0,1E0,1E0,2E0,1.5E1,1E0],"tree_param":{"num_deleted":"0","num_feature":"8","num_nodes":"95","size_leaf_vector":"1"}},{"base_weights":[5.605285E-2,-1.6570258E-1,1.5904499E1,-1.3982002E0,1.5989218E0,1.0837828E1,2.4934097E1,-2.1972477E0,-6.817056E-1,7.19813E-1,3.037593E0,2.0298084E1,7.5281672E0,1.8241024E-1,2.6251766E1,-3.659969E0,-2.0480323E0,6.3172345E0,-7.621882E-1,9.3278325E-1,-2.0119827E0,3.1625693E0,-5.0342126E0,3.3256729E0,9.963264E0,1.1630572E1,2.3019776E0,1.7313284E1,3.3266552E1,-4.662325E0,-2.2782812E0,-4.676752E-3,-2.1698887E0,-2.1049023E0,7.8826127E0,-2.5975212E-1,-1.7815202E0,6.486185E-1,4.0833855E0,-3.2811317E0,7.377648E0,2.3890095E0,5.3985124E0,-3.906733E-1,1.7800386E0,1.4356288E1,-1.4898876E0,4.102604E0,-7.3319596E-1,1.3775145E0,5.46498E0,1.2500117E1,5.4638205E0,2.9453775E-1,-1.4982207E0,-1.0431486E0,1.0653985E0,-5.9731716E-1,1.8715701E0,-9.321532E-1,-5.620885E-1,3.5772982E0,3.539676E-1,-1.3803835E-1,1.742325E0,-5.981805E-1,2.0042388E0,3.2138908E-1,-3.235341E-1,9.4195145E-1,4.4176183E0,-2.0748515E-1,-1.8837537E0,3.942437E0,-9.3374294E-1,1.3228551E0,3.295859E-1,1.3566076E0,7.0227513E0,1.0768891E-3,-1.7687988E-1,2.7018635E0,5.996607E0,8.815068E-1,-1.9383119E0],"categories":[],"categories_nodes":[],"categories_segments":[],"categories_sizes":[],"default_left":[0,0,1,0,0,0,0,0,0,0,1,0,0,0,0,0,0,0,0,0,0,0,0,0,0,0,0,0,0,0,0,0,0,0,0,0,0,0,0,0,0,0,0,0,0,1,0,0,0,0,0,0,0,0,0,0,0,0,0,0,0,0,0,0,0,0,0,0,0,0,0,0,0,0,0,0,0,0,0,0,0,0,0,0,0],"id":5,"left_children":[1,3,5,7,9,11,13,15,17,19,21,23,25,-1,27,29,31,33,35,37,39,41,-1,43,-1,45,47,49,51,53,55,57,59,-1,61,63,65,67,69,71,73,75,77,79,-1,81,-1,-1,83,-1,-1,-1,-1,-1,-1,-1,-1,-1,-1,-1,-1,-1,-1,-1,-1,-1,-1,-1,-1,-1,-1,-1,-1,-1,-1,-1,-1,-1,-1,-1,-1,-1,-1,-1,-1],"loss_changes":[1.4007835E4,8.551749E3,2.2460186E3,1.3238706E3,2.0429116E3,1.0056719E3,5.930576E2,2.3128174E2,6.931589E2,5.8657697E2,1.5713613E3,1.8620024E3,5.949852E2,0E0,5.526748E2,1.2787219E2,2.4774121E2,3.475163E2,6.187256E2,8.326571E2,8.941366E2,1.0421802E3,0E0,5.0775276E1,0E0,7.9511084E2,4.9330878E2,3.1270508E1,3.7926562E2,1.11630005E2,3.198648E2,7.1930444E2,2.549209E2,0E0,3.3810687E2,9.886698E2,7.305309E2,6.267597E2,7.269403E2,5.0028375E2,5.8506995E2,1.1814507E3,2.3567773E3,2.3740423E-1,0E0,2.4185083E2,0E0,0E0,2.7134573E2,0E0,0E0,0E0,0E0,0E0,0E0,0E0,0E0,0E0,0E0,0E0,0E0,0E0,0E0,0E0,0E0,0E0,0E0,0E0,0E0,0E0,0E0,0E0,0E0,0E0,0E0,0E0,0E0,0E0,0E0,0E0,0E0,0E0,0E0,0E0,0E0],"parents":[2147483647,0,0,1,1,2,2,3,3,4,4,5,5,6,6,7,7,8,8,9,9,10,10,11,11,12,12,14,14,15,15,16,16,17,17,18,18,19,19,20,20,21,21,23,23,25,25,26,26,27,27,28,28,29,29,30,30,31,31,32,32,34,34,35,35,36,36,37,37,38,38,39,39,40,40,41,41,42,42,43,43,45,45,48,48],"right_children":[2,4,6,8,10,12,14,16,18,20,22,24,26,-1,28,30,32,34,36,38,40,42,-1,44,-1,46,48,50,52,54,56,58,60,-1,62,64,66,68,70,72,74,76,78,80,-1,82,-1,-1,84,-1,-1,-1,-1,-1,-1,-1,-1,-1,-1,-1,-1,-1,-1,-1,-1,-1,-1,-1,-1,-1,-1,-1,-1,-1,-1,-1,-1,-1,-1,-1,-1,-1,-1,-1,-1],"split_conditions":[8.4E1,3.3E1,1.3E2,2.1E1,4.7E1,8.9E1,3.6E1,1E1,1.5354952E1,5.4E1,1.27E2,1.0537416E1,2.3471024E2,1.8241024E-1,1.1233253E1,1.3666667E1,1E1,3.52075E0,3E1,4.5E1,1.4543668E1,2.7722336E1,-5.0342126E0,6.4E1,9.963264E0,3.7861664E1,3.9E1,5.4236665E0,1.3842416E1,7.6666665E0,3.8999999E0,2.5228625E2,1.4966405E2,-2.1049023E0,9.710334E0,3.3333332E1,1.831742E1,4E1,3.8423992E1,2.3093538E2,1.5786167E1,1.6434305E1,3.0445474E2,8.7E1,1.7800386E0,1.07E2,-1.4898876E0,4.102604E0,1.12E2,1.3775145E0,5.46498E0,1.2500117E1,5.4638205E0,2.9453775E-1,-1.4982207E0,-1.0431486E0,1.0653985E0,-5.9731716E-1,1.8715701E0,-9.321532E-1,-5.620885E-1,3.5772982E0,3.539676E-1,-1.3803835E-1,1.742325E0,-5.981805E-1,2.0042388E0,3.2138908E-1,-3.235341E-1,9.4195145E-1,4.4176183E0,-2.0748515E-1,-1.8837537E0,3.942437E0,-9.3374294E-1,1.3228551E0,3.295859E-1,1.3566076E0,7.0227513E0,1.0768891E-3,-1.7687988E-1,2.7018635E0,5.996607E0,8.815068E-1,-1.9383119E0],"split_indices":[0,0,0,0,0,0,1,0,7,1,2,4,7,0,4,3,1,4,1,3,4,6,0,2,0,6,2,4,4,3,5,7,7,0,4,3,4,3,6,7,4,6,7,0,0,0,0,0,0,0,0,0,0,0,0,0,0,0,0,0,0,0,0,0,0,0,0,0,0,0,0,0,0,0,0,0,0,0,0,0,0,0,0,0,0],"split_type":[0,0,0,0,0,0,0,0,0,0,0,0,0,0,0,0,0,0,0,0,0,0,0,0,0,0,0,0,0,0,0,0,0,0,0,0,0,0,0,0,0,0,0,0,0,0,0,0,0,0,0,0,0,0,0,0,0,0,0,0,0,0,0,0,0,0,0,0,0,0,0,0,0,0,0,0,0,0,0,0,0,0,0,0,0],"sum_hessian":[3.984E3,3.93E3,5.4E1,2.314E3,1.616E3,3.6E1,1.8E1,1.093E3,1.221E3,1.004E3,6.12E2,8E0,2.8E1,1E0,1.7E1,9.9E1,9.94E2,1.3E1,1.208E3,9.32E2,7.2E1,6.09E2,3E0,4E0,4E0,1.5E1,1.3E1,9E0,8E0,5.6E1,4.3E1,5.6E1,9.38E2,1E0,1.2E1,8.1E2,3.98E2,8.56E2,7.6E1,6.4E1,8E0,4.54E2,1.55E2,2E0,2E0,1.3E1,2E0,2E0,1.1E1,1E0,8E0,4E0,4E0,3E0,5.3E1,3.6E1,7E0,4.3E1,1.3E1,2.23E2,7.15E2,7E0,5E0,7.85E2,2.5E1,3.89E2,9E0,6.88E2,1.68E2,7.1E1,5E0,3.5E1,2.9E1,5E0,3E0,1.76E2,2.78E2,1.49E2,6E0,1E0,1E0,8E0,5E0,7E0,4E0],"tree_param":{"num_deleted":"0","num_feature":"8","num_nodes":"85","size_leaf_vector":"1"}},{"base_weights":[5.467458E-2,-2.7450785E-1,6.157191E0,-1.2327855E0,6.643567E-1,4.8357773E0,1.876907E1,-1.9819522E0,-9.4163954E-1,1.5503976E-1,1.3066962E0,-3.8366356E0,5.1945887E0,1.5504856E-1,1.975437E1,-2.4060388E0,-1.0305586E0,-2.9197106E-1,-1.2951295E0,1.746362E0,-1.317454E-1,1.3952812E0,-6.2296824E0,1.2241442E1,3.7880938E0,3.8410645E0,2.5282576E1,-3.5070174E0,-2.1432068E0,-5.198668E-1,-5.3859186E0,-1.3002281E0,3.4563825E-1,-3.184128E0,-9.815064E-1,3.7596944E-1,5.444106E0,-3.340034E0,3.6088202E-2,1.2282575E0,8.148433E0,2.3697653E0,-8.677251E0,2.1722343E1,6.4148746E0,-6.8610144E0,4.818586E0,9.050151E0,3.490513E0,-6.998924E-1,-1.8624213E0,-5.363589E-1,-1.2364719E0,-6.091209E-1,4.2509088E-1,-2.5221167E0,3.9299503E-2,3.116921E-1,-6.893648E-1,-2.6268892E0,1.6992971E-1,-5.152651E-1,-1.9758444E0,-6.206932E-1,-1.6999982E-1,3.5647178E-1,-1.6167406E0,6.510124E0,5.346275E-1,1.0100577E0,-1.6057457E0,-8.789097E-3,2.4051802E0,4.2017925E-1,-1.9498583E0,3.1988766E0,-4.5828602E-1,-3.9211166E0,2.4530126E-2,6.861117E-1,8.617412E0,-1.1974114E0,2.7797692E0,-3.3209586E0,3.6784136E0,1.2122866E0,4.092423E0],"categories":[],"categories_nodes":[],"categories_segments":[],"categories_sizes":[],"default_left":[0,0,1,0,0,0,0,0,0,0,0,0,0,0,0,0,0,0,0,0,0,0,0,0,0,0,0,0,0,0,0,0,0,0,0,0,0,0,0,0,0,0,0,0,0,0,0,0,0,0,0,0,0,0,0,0,0,0,0,0,0,0,0,0,0,0,0,0,0,0,0,0,0,0,0,0,0,0,0,0,0,0,0,0,0,0,0],"id":6,"left_children":[1,3,5,7,9,11,13,15,17,19,21,-1,23,-1,25,27,29,31,33,35,37,39,41,43,45,-1,47,49,51,53,55,57,59,61,63,65,67,69,71,73,75,-1,77,79,81,83,85,-1,-1,-1,-1,-1,-1,-1,-1,-1,-1,-1,-1,-1,-1,-1,-1,-1,-1,-1,-1,-1,-1,-1,-1,-1,-1,-1,-1,-1,-1,-1,-1,-1,-1,-1,-1,-1,-1,-1,-1],"loss_changes":[8.0069214E3,3.4034575E3,3.3090005E3,4.0644873E2,6.2498944E2,1.2426763E3,3.3148535E2,2.0853687E2,3.0965112E2,4.8717432E2,5.728229E2,0E0,1.7674072E3,0E0,3.6795312E2,9.694702E1,3.5975214E2,3.0710037E2,5.1466174E2,8.239332E2,4.874256E2,9.3294617E2,4.1435803E2,1.5178872E3,1.7230295E3,0E0,2.4896777E2,2.0115503E2,1.9931323E2,4.3294922E2,2.844465E2,4.3412463E2,5.937884E2,6.073644E2,3.3762372E2,5.6834204E2,2.5806843E3,6.253993E2,4.4954852E2,1.0971881E3,5.028955E2,0E0,3.4738483E2,1.4313286E3,6.303524E2,1.2624968E3,9.1226245E2,0E0,0E0,0E0,0E0,0E0,0E0,0E0,0E0,0E0,0E0,0E0,0E0,0E0,0E0,0E0,0E0,0E0,0E0,0E0,0E0,0E0,0E0,0E0,0E0,0E0,0E0,0E0,0E0,0E0,0E0,0E0,0E0,0E0,0E0,0E0,0E0,0E0,0E0,0E0,0E0],"parents":[2147483647,0,0,1,1,2,2,3,3,4,4,5,5,6,6,7,7,8,8,9,9,10,10,12,12,14,14,15,15,16,16,17,17,18,18,19,19,20,20,21,21,22,22,23,23,24,24,26,26,27,27,28,28,29,29,30,30,31,31,32,32,33,33,34,34,35,35,36,36,37,37,38,38,39,39,40,40,42,42,43,43,44,44,45,45,46,46],"right_children":[2,4,6,8,10,12,14,16,18,20,22,-1,24,-1,26,28,30,32,34,36,38,40,42,44,46,-1,48,50,52,54,56,58,60,62,64,66,68,70,72,74,76,-1,78,80,82,84,86,-1,-1,-1,-1,-1,-1,-1,-1,-1,-1,-1,-1,-1,-1,-1,-1,-1,-1,-1,-1,-1,-1,-1,-1,-1,-1,-1,-1,-1,-1,-1,-1,-1,-1,-1,-1,-1,-1,-1,-1],"split_conditions":[6.1E1,2.8E1,1.3E2,1.6E1,4.1E1,4.1333332E1,3.6E1,2.7E1,2E1,2.1E1,8.3E1,-3.8366356E0,4.6E1,1.5504856E-1,1.1233253E1,1.3246826E1,2.9278238E2,2.0427443E2,2.1333334E1,2.8E1,1.5E1,6.1666668E1,3.1E1,1.9602652E1,5.1666668E1,3.8410645E0,1.79E2,1.1983188E1,1.8333334E1,2.2885551E2,3.274825E2,1.5463246E1,9E0,1.2666583E1,1.6135872E1,2.5E1,2.6666666E1,2.2333334E1,8.3E1,6.4E1,3.297097E1,2.3697653E0,2.7370447E2,3.5E1,2.1739273E2,2.6635983E2,8.900001E0,9.050151E0,3.490513E0,-6.998924E-1,-1.8624213E0,-5.363589E-1,-1.2364719E0,-6.091209E-1,4.2509088E-1,-2.5221167E0,3.9299503E-2,3.116921E-1,-6.893648E-1,-2.6268892E0,1.6992971E-1,-5.152651E-1,-1.9758444E0,-6.206932E-1,-1.6999982E-1,3.5647178E-1,-1.6167406E0,6.510124E0,5.346275E-1,1.0100577E0,-1.6057457E0,-8.789097E-3,2.4051802E0,4.2017925E-1,-1.9498583E0,3.1988766E0,-4.5828602E-1,-3.9211166E0,2.4530126E-2,6.861117E-1,8.617412E0,-1.1974114E0,2.7797692E0,-3.3209586E0,3.6784136E0,1.2122866E0,4.092423E0],"split_indices":[0,0,0,0,0,3,1,2,1,1,1,0,1,0,4,6,7,7,3,2,2,3,2,6,3,0,1,6,3,7,7,6,2,4,6,3,3,3,2,1,6,0,7,2,7,7,5,0,0,0,0,0,0,0,0,0,0,0,0,0,0,0,0,0,0,0,0,0,0,0,0,0,0,0,0,0,0,0,0,0,0,0,0,0,0,0,0],"split_type":[0,0,0,0,0,0,0,0,0,0,0,0,0,0,0,0,0,0,0,0,0,0,0,0,0,0,0,0,0,0,0,0,0,0,0,0,0,0,0,0,0,0,0,0,0,0,0,0,0,0,0,0,0,0,0,0,0,0,0,0,0,0,0,0,0,0,0,0,0,0,0,0,0,0,0,0,0,0,0,0,0,0,0,0,0,0,0],"sum_hessian":[3.984E3,3.781E3,2.03E2,1.871E3,1.91E3,1.85E2,1.8E1,5.22E2,1.349E3,1.066E3,8.44E2,3E0,1.82E2,1E0,1.7E1,3.6E2,1.62E2,4.76E2,8.73E2,1.62E2,9.04E2,8.35E2,9E0,2.9E1,1.53E2,9E0,8E0,6.7E1,2.93E2,1.46E2,1.6E1,1.84E2,2.92E2,1.23E2,7.5E2,1.19E2,4.3E1,4.4E1,8.6E2,8.16E2,1.9E1,1E0,8E0,1E1,1.9E1,1.3E1,1.4E2,5E0,3E0,4.8E1,1.9E1,2.5E2,4.3E1,8.2E1,6.4E1,1E1,6E0,5.5E1,1.29E2,6E0,2.86E2,8.7E1,3.6E1,2.06E2,5.44E2,1.05E2,1.4E1,7E0,3.6E1,1E1,3.4E1,8.54E2,6E0,7.99E2,1.7E1,1.5E1,4E0,5E0,3E0,3E0,7E0,4E0,1.5E1,1.1E1,2E0,1.3E2,1E1],"tree_param":{"num_deleted":"0","num_feature":"8","num_nodes":"87","size_leaf_vector":"1"}},{"base_weights":[4.4144407E-2,-8.494679E-2,9.269842E0,-8.014426E-1,7.1898186E-1,1.2359638E1,3.2447162E0,-9.14142E-1,1.1674174E0,5.361738E-1,2.901258E0,6.3376484E0,2.1370075E1,6.657598E-1,1.0848433E1,-8.6392033E-1,-5.760024E0,2.5786226E0,-1.8009671E0,2.8633554E0,3.1561178E-1,3.951696E0,-5.683574E0,-1.7658833E-1,8.647179E0,1.016881E1,1.4872449E1,3.2215104E0,-3.080421E0,3.7707987E0,5.9472775E-1,-1.9135368E-1,-1.1297265E0,-2.9070256E0,-8.32232E0,8.136104E-1,8.31874E0,-2.5310278E0,3.6721833E0,8.817418E-1,6.615018E0,5.828986E-1,-2.995046E0,2.9989772E0,2.2823816E1,-5.2734985E0,-2.5379577E-1,-2.5908737E0,4.9345236E0,9.767194E0,1.6470973E-1,5.4320655E0,9.159272E0,-2.1135228E0,4.819459E0,2.616094E-1,-4.469555E0,5.001428E-3,-1.227726E0,-2.8773573E-1,-8.4369415E-1,-2.2246368E-1,-2.530337E0,-2.7732432E0,-3.8855553E-3,-1.9582647E0,4.7990134E-1,3.4305234E0,8.981801E-1,2.1048322E0,-9.0127903E-1,-3.5542265E-1,2.1908295E0,-1.1427897E0,2.349272E0,7.032425E-2,8.584041E-1,-7.2238034E-1,-4.036586E0,-7.784135E-1,1.2528173E0,7.983103E0,5.836785E-1,-2.5093007E0,2.7752402E0,-3.321911E-1,2.016542E0,-1.5060997E-1,3.160971E0,4.9024546E-1,-4.1612607E-1,7.903405E-1,2.9812021E0,-1.0828767E0,1.3179131E-1,1.71345E0,4.286675E-1,-1.8092766E-1,2.986519E-1,-3.1535283E-1,-1.5184067E0],"categories":[],"categories_nodes":[],"categories_segments":[],"categories_sizes":[],"default_left":[0,0,0,0,0,0,1,0,0,0,1,0,0,1,0,0,0,0,0,0,0,0,0,0,0,0,0,0,0,0,0,0,0,0,0,0,0,0,0,0,0,0,0,0,0,0,0,0,0,0,0,0,0,0,1,0,0,0,0,0,0,0,0,0,0,0,0,0,0,0,0,0,0,0,0,0,0,0,0,0,0,0,0,0,0,0,0,0,0,0,0,0,0,0,0,0,0,0,0,0,0],"id":7,"left_children":[1,3,5,7,9,11,13,15,17,19,21,23,25,27,29,31,33,35,37,39,41,43,45,47,49,-1,51,53,55,-1,-1,57,59,61,63,65,67,69,-1,71,73,75,77,79,81,-1,83,-1,85,87,89,-1,91,93,95,97,99,-1,-1,-1,-1,-1,-1,-1,-1,-1,-1,-1,-1,-1,-1,-1,-1,-1,-1,-1,-1,-1,-1,-1,-1,-1,-1,-1,-1,-1,-1,-1,-1,-1,-1,-1,-1,-1,-1,-1,-1,-1,-1,-1,-1],"loss_changes":[4.746748E3,2.2648774E3,9.837993E2,4.6237512E2,7.376756E2,1.8179512E3,3.8497064E2,4.73729E2,4.7800104E2,8.77332E2,1.31201E3,3.4755798E2,6.353286E2,1.6311246E2,5.1369568E1,3.4803247E2,1.2201135E2,7.733478E2,4.1027594E2,1.0944504E3,1.3857219E3,2.2329692E3,1.0289127E3,3.4528354E2,1.5989966E2,0E0,3.7421875E1,9.5437126E1,3.366697E1,0E0,0E0,4.4883862E2,3.9804114E2,1.25410446E2,7.647797E1,3.566778E2,2.6445422E2,1.8372775E2,0E0,1.309008E3,6.7624536E2,1.1490469E3,6.8613586E2,8.206948E2,4.225625E2,0E0,1.00242566E3,0E0,6.143535E1,1.238031E2,9.107534E0,0E0,4.2808228E0,1.3043301E1,1.603508E1,2.5041876E0,4.7946243E0,0E0,0E0,0E0,0E0,0E0,0E0,0E0,0E0,0E0,0E0,0E0,0E0,0E0,0E0,0E0,0E0,0E0,0E0,0E0,0E0,0E0,0E0,0E0,0E0,0E0,0E0,0E0,0E0,0E0,0E0,0E0,0E0,0E0,0E0,0E0,0E0,0E0,0E0,0E0,0E0,0E0,0E0,0E0,0E0],"parents":[2147483647,0,0,1,1,2,2,3,3,4,4,5,5,6,6,7,7,8,8,9,9,10,10,11,11,12,12,13,13,14,14,15,15,16,16,17,17,18,18,19,19,20,20,21,21,22,22,23,23,24,24,26,26,27,27,28,28,31,31,32,32,33,33,34,34,35,35,36,36,37,37,39,39,40,40,41,41,42,42,43,43,44,44,46,46,48,48,49,49,50,50,52,52,53,53,54,54,55,55,56,56],"right_children":[2,4,6,8,10,12,14,16,18,20,22,24,26,28,30,32,34,36,38,40,42,44,46,48,50,-1,52,54,56,-1,-1,58,60,62,64,66,68,70,-1,72,74,76,78,80,82,-1,84,-1,86,88,90,-1,92,94,96,98,100,-1,-1,-1,-1,-1,-1,-1,-1,-1,-1,-1,-1,-1,-1,-1,-1,-1,-1,-1,-1,-1,-1,-1,-1,-1,-1,-1,-1,-1,-1,-1,-1,-1,-1,-1,-1,-1,-1,-1,-1,-1,-1,-1,-1],"split_conditions":[8.4E1,3E1,3.3E0,3.7333332E1,6E1,1.1602E1,1.24E2,3.6333332E1,5.2E1,4.167417E0,9E1,1.7377226E1,1.3016585E1,8E1,1.68E2,8.216583E0,2.312409E2,2.8E1,1.01E1,4.3E1,5.6E1,7.3E1,2.0427443E2,3.67575E0,2.8960217E2,1.016881E1,1.1E2,4.6E1,8.3E1,3.7707987E0,5.9472775E-1,3.221987E2,3.1333334E1,5.4E0,2.9E1,5.5457848E1,1.9083395E1,2.7186668E0,3.6721833E0,3.003642E2,6.96958E1,5.2E1,5.8E1,4.5895004E0,7.7E1,-5.2734985E0,8.4E1,-2.5908737E0,8.8E1,2.3028333E0,9.4E1,5.4320655E0,9.4E1,1.1E2,7.3E1,8.7E1,8.1E1,5.001428E-3,-1.227726E0,-2.8773573E-1,-8.4369415E-1,-2.2246368E-1,-2.530337E0,-2.7732432E0,-3.8855553E-3,-1.9582647E0,4.7990134E-1,3.4305234E0,8.981801E-1,2.1048322E0,-9.0127903E-1,-3.5542265E-1,2.1908295E0,-1.1427897E0,2.349272E0,7.032425E-2,8.584041E-1,-7.2238034E-1,-4.036586E0,-7.784135E-1,1.2528173E0,7.983103E0,5.836785E-1,-2.5093007E0,2.7752402E0,-3.321911E-1,2.016542E0,-1.5060997E-1,3.160971E0,4.9024546E-1,-4.1612607E-1,7.903405E-1,2.9812021E0,-1.0828767E0,1.3179131E-1,1.71345E0,4.286675E-1,-1.8092766E-1,2.986519E-1,-3.1535283E-1,-1.5184067E0],"split_indices":[0,0,5,3,2,4,1,3,1,4,1,6,4,1,1,4,7,0,5,2,1,0,7,4,7,0,1,1,3,0,0,7,3,5,0,7,6,4,0,7,7,0,2,4,2,0,3,0,0,4,0,0,0,0,1,0,1,0,0,0,0,0,0,0,0,0,0,0,0,0,0,0,0,0,0,0,0,0,0,0,0,0,0,0,0,0,0,0,0,0,0,0,0,0,0,0,0,0,0,0,0],"split_type":[0,0,0,0,0,0,0,0,0,0,0,0,0,0,0,0,0,0,0,0,0,0,0,0,0,0,0,0,0,0,0,0,0,0,0,0,0,0,0,0,0,0,0,0,0,0,0,0,0,0,0,0,0,0,0,0,0,0,0,0,0,0,0,0,0,0,0,0,0,0,0,0,0,0,0,0,0,0,0,0,0,0,0,0,0,0,0,0,0,0,0,0,0,0,0,0,0,0,0,0,0],"sum_hessian":[3.984E3,3.93E3,5.4E1,2.078E3,1.852E3,3.5E1,1.9E1,1.966E3,1.12E2,1.71E3,1.42E2,2.2E1,1.3E1,1.5E1,4E0,1.947E3,1.9E1,7.6E1,3.6E1,1.47E2,1.563E3,1.27E2,1.5E1,6E0,1.6E1,3E0,1E1,9E0,6E0,3E0,1E0,5.52E2,1.395E3,1E1,9E0,5.9E1,1.7E1,3.5E1,1E0,9.7E1,5E1,1.447E3,1.16E2,1.22E2,5E0,4E0,1.1E1,2E0,4E0,1.4E1,2E0,5E0,5E0,2E0,7E0,2E0,4E0,5.25E2,2.7E1,1.268E3,1.27E2,8E0,2E0,8E0,1E0,5E0,5.4E1,1E1,7E0,1E0,3.4E1,7.4E1,2.3E1,5E0,4.5E1,1.256E3,1.91E2,1.11E2,5E0,2.1E1,1.01E2,4E0,1E0,6E0,5E0,1E0,3E0,1E0,1.3E1,1E0,1E0,1E0,4E0,1E0,1E0,5E0,2E0,1E0,1E0,1E0,3E0],"tree_param":{"num_deleted":"0","num_feature":"8","num_nodes":"101","size_leaf_vector":"1"}},{"base_weights":[3.8047414E-2,-8.664788E-2,5.692392E0,-7.3902273E-1,3.4672853E-1,8.743285E0,1.2121711E0,-8.039157E-1,1.5645081E0,3.662779E-1,-4.509115E0,1.6618607E0,1.1647716E1,-5.36142E0,3.9466836E0,-7.1666336E-1,-3.1513035E0,4.8962307E0,-3.9520878E-1,-2.918493E-1,7.5402975E-1,-3.1246557E0,1.2817128E1,1.2816841E1,-9.09503E-1,-1.0468678E0,-3.7950509E0,4.7824593E0,-1.8456964E0,-1.0780586E0,-3.4476513E-1,-5.194181E0,-5.7379854E-1,2.6803153E0,1.0873898E1,9.782914E-1,-2.9653382E0,-6.047373E0,-1.9737595E-1,4.249281E-1,2.7663336E0,1.5583763E0,-9.992576E0,6.2119427E0,1.700452E0,1.3513266E1,-1.420308E0,4.1670915E-1,-6.416073E-1,-2.81678E0,8.525738E-1,2.6221194E0,3.1974542E0,-1.2212826E0,7.24506E-1,-3.9522663E-1,1.7125005E-2,1.5683694E0,-1.7063378E-1,-9.0202105E-1,-1.8412701E0,1.3747069E0,-9.8093235E-1,-3.1284545E-2,2.6915188E0,4.012626E0,5.0539947E-1,-7.145838E-2,2.2636845E0,-1.3397368E0,1.2053576E-1,9.2207056E-1,-2.0956237E0,-2.1970461E-1,2.2132331E-1,8.876986E-1,6.374738E-2,6.552418E-1,3.882426E0,-1.189807E0,2.4222846E0,-2.8236237E-1,-3.606035E0,2.7501554E0,5.99784E0,-9.865559E-1,-6.871262E-2,9.133797E-2,2.3100283E0],"categories":[],"categories_nodes":[],"categories_segments":[],"categories_sizes":[],"default_left":[0,0,0,0,0,0,0,0,0,0,0,0,0,0,0,0,0,0,0,0,0,0,0,0,0,0,0,0,0,0,0,0,0,0,0,0,0,0,0,0,0,0,0,0,0,0,0,0,0,0,0,0,1,0,0,0,0,0,0,0,0,0,0,0,0,0,0,0,0,0,0,0,0,0,0,0,0,0,0,0,0,0,0,0,0,0,0,0,0],"id":8,"left_children":[1,3,5,7,9,11,13,15,17,19,-1,21,23,25,27,29,31,33,35,37,39,41,43,45,47,49,-1,51,53,55,57,59,61,63,65,67,69,71,73,75,77,79,81,-1,-1,83,-1,-1,-1,85,-1,-1,87,-1,-1,-1,-1,-1,-1,-1,-1,-1,-1,-1,-1,-1,-1,-1,-1,-1,-1,-1,-1,-1,-1,-1,-1,-1,-1,-1,-1,-1,-1,-1,-1,-1,-1,-1,-1],"loss_changes":[2.8101975E3,1.1028793E3,1.164908E3,2.3400262E2,7.1014166E2,1.0295859E3,6.682803E2,3.0803625E2,2.8269205E2,5.9787506E2,0E0,8.9436707E2,5.401714E2,3.326815E2,1.3469638E2,1.9612445E2,2.813581E2,1.8279059E2,1.0174301E2,4.7131952E2,9.749848E2,4.0152448E2,1.6463507E2,4.673379E2,1.4272024E1,6.3067444E1,0E0,1.1634009E2,4.7755962E1,2.0141333E2,9.0428577E2,4.345404E1,3.6250497E2,2.2868327E2,6.941519E1,1.5358942E2,5.2316338E1,1.4125134E2,4.2876617E2,6.8197253E2,1.1979767E3,3.199945E2,8.0446594E1,0E0,0E0,7.178613E2,0E0,0E0,0E0,6.5712166E0,0E0,0E0,2.3212563E2,0E0,0E0,0E0,0E0,0E0,0E0,0E0,0E0,0E0,0E0,0E0,0E0,0E0,0E0,0E0,0E0,0E0,0E0,0E0,0E0,0E0,0E0,0E0,0E0,0E0,0E0,0E0,0E0,0E0,0E0,0E0,0E0,0E0,0E0,0E0,0E0],"parents":[2147483647,0,0,1,1,2,2,3,3,4,4,5,5,6,6,7,7,8,8,9,9,11,11,12,12,13,13,14,14,15,15,16,16,17,17,18,18,19,19,20,20,21,21,22,22,23,23,24,24,25,25,27,27,28,28,29,29,30,30,31,31,32,32,33,33,34,34,35,35,36,36,37,37,38,38,39,39,40,40,41,41,42,42,45,45,49,49,52,52],"right_children":[2,4,6,8,10,12,14,16,18,20,-1,22,24,26,28,30,32,34,36,38,40,42,44,46,48,50,-1,52,54,56,58,60,62,64,66,68,70,72,74,76,78,80,82,-1,-1,84,-1,-1,-1,86,-1,-1,88,-1,-1,-1,-1,-1,-1,-1,-1,-1,-1,-1,-1,-1,-1,-1,-1,-1,-1,-1,-1,-1,-1,-1,-1,-1,-1,-1,-1,-1,-1,-1,-1,-1,-1,-1,-1],"split_conditions":[7.5E1,2.5E1,1.0000001E0,1.8507E1,7.4E1,1.8374111E1,8.4E1,1.7435335E1,9.522297E1,2.8E1,-4.509115E0,1.2E2,3.113617E2,7.4E1,3.7861664E1,2.0969807E1,1.7E1,1.6135872E1,2.142123E2,9E0,3.1542658E1,1.6311613E1,1.503835E1,1.7108253E1,5.92075E0,5.6E1,-3.7950509E0,7.2E1,6.8E1,3.1E1,2.1434364E1,2E-1,1.6563911E1,2.1E1,1.9102835E1,2.1341338E2,1.9491583E1,1.0361166E1,1.237075E1,3E1,1.5510331E1,1.503835E1,3.8E1,6.2119427E0,1.700452E0,2.2623773E2,-1.420308E0,4.1670915E-1,-6.416073E-1,5.3E1,8.525738E-1,2.6221194E0,1.24E2,-1.2212826E0,7.24506E-1,-3.9522663E-1,1.7125005E-2,1.5683694E0,-1.7063378E-1,-9.0202105E-1,-1.8412701E0,1.3747069E0,-9.8093235E-1,-3.1284545E-2,2.6915188E0,4.012626E0,5.0539947E-1,-7.145838E-2,2.2636845E0,-1.3397368E0,1.2053576E-1,9.2207056E-1,-2.0956237E0,-2.1970461E-1,2.2132331E-1,8.876986E-1,6.374738E-2,6.552418E-1,3.882426E0,-1.189807E0,2.4222846E0,-2.8236237E-1,-3.606035E0,2.7501554E0,5.99784E0,-9.865559E-1,-6.871262E-2,9.133797E-2,2.3100283E0],"split_indices":[0,0,5,4,0,6,0,4,7,2,0,0,7,1,6,6,0,6,7,2,6,6,6,4,4,2,0,3,2,1,6,5,6,0,4,7,4,4,4,3,4,6,2,0,0,7,0,0,0,1,0,0,1,0,0,0,0,0,0,0,0,0,0,0,0,0,0,0,0,0,0,0,0,0,0,0,0,0,0,0,0,0,0,0,0,0,0,0,0],"split_type":[0,0,0,0,0,0,0,0,0,0,0,0,0,0,0,0,0,0,0,0,0,0,0,0,0,0,0,0,0,0,0,0,0,0,0,0,0,0,0,0,0,0,0,0,0,0,0,0,0,0,0,0,0,0,0,0,0,0,0,0,0,0,0,0,0,0,0,0,0,0,0,0,0,0,0,0,0,0,0,0,0,0,0,0,0,0,0,0,0],"sum_hessian":[3.984E3,3.899E3,8.5E1,1.556E3,2.343E3,5E1,3.5E1,1.514E3,4.2E1,2.341E3,2E0,1.5E1,3.5E1,1E1,2.5E1,1.461E3,5.3E1,1.5E1,2.7E1,8.68E2,1.473E3,1.1E1,4E0,3.2E1,3E0,7E0,3E0,2.2E1,3E0,7.4E2,7.21E2,2.9E1,2.4E1,1.2E1,3E0,1.8E1,9E0,1.3E1,8.55E2,1.267E3,2.06E2,7E0,4E0,1E0,3E0,3.1E1,1E0,1E0,2E0,5E0,2E0,5E0,1.7E1,2E0,1E0,6.11E2,1.29E2,2.7E1,6.94E2,1E1,1.9E1,8E0,1.6E1,9E0,3E0,2E0,1E0,1.6E1,2E0,6E0,3E0,1E0,1.2E1,5.44E2,3.11E2,9.7E1,1.17E3,1.96E2,1E1,4E0,3E0,1E0,3E0,2E1,1.1E1,4E0,1E0,1.1E1,6E0],"tree_param":{"num_deleted":"0","num_feature":"8","num_nodes":"89","size_leaf_vector":"1"}},{"base_weights":[3.1530816E-2,-8.6311765E-2,3.3672838E0,-2.750826E-1,7.375119E-1,-3.8886647E0,4.2318077E0,-4.762955E0,-2.5341117E-1,1.1924221E1,5.786901E-1,-1.0057756E1,-7.3101705E-1,5.5397005E0,-1.0644028E0,5.07669E-1,-1.8368751E0,-2.713002E0,-2.1489759E-1,1.5397989E1,-1.3139025E0,3.7029417E0,2.8940737E-1,-7.119501E-1,-3.415684E0,2.2295518E0,-2.2904866E0,6.1383395E0,-4.6624894E0,-7.065719E0,4.1556115E0,-7.6463157E-1,7.1282196E-1,-1.0481941E-1,-5.316817E0,-1.11205995E-1,-1.0703305E0,1.9514897E0,5.183451E0,-1.0055037E0,4.1424754E-1,-6.16169E0,5.3390713E0,-4.3782225E0,3.5786578E-1,-4.2249255E0,3.6315129E0,3.520379E0,9.519127E0,-2.520343E0,-6.928768E-1,-5.363598E-1,-1.1652925E1,6.9308214E0,3.902844E-1,8.233496E-1,-7.618814E-1,-2.7070406E-1,-2.1244383E0,-6.6256575E-2,3.4202775E-1,4.6454227E-1,-4.4908535E-1,-3.559678E0,2.3236519E-1,2.3230322E-1,2.7672122E0,-1.2273991E-1,4.8141924E-1,-1.6356455E0,6.548481E-1,-5.840607E-2,1.692587E0,3.0365044E-1,2.992275E0,3.2704303E0,7.881665E-1,3.5420266E-1,-5.132859E-1,-2.0230513E0,6.161309E-1,-4.882561E0,-1.2352241E0,3.423317E-1,2.2784727E0,-4.4013274E-1,1.7301968E0],"categories":[],"categories_nodes":[],"categories_segments":[],"categories_sizes":[],"default_left":[0,0,0,0,0,0,0,0,0,0,0,0,0,0,0,0,0,0,0,0,0,0,0,0,0,0,0,0,0,0,0,0,0,0,0,0,0,0,0,0,0,0,0,0,0,0,0,1,0,0,0,0,0,0,0,0,0,0,0,0,0,0,0,0,0,0,0,0,0,0,0,0,0,0,0,0,0,0,0,0,0,0,0,0,0,0,0],"id":9,"left_children":[1,3,5,7,9,11,13,15,17,19,21,23,25,27,29,31,-1,33,35,37,39,41,43,-1,-1,-1,45,47,49,51,53,-1,-1,55,57,59,61,-1,-1,-1,-1,63,65,-1,67,69,71,73,75,-1,77,79,81,83,85,-1,-1,-1,-1,-1,-1,-1,-1,-1,-1,-1,-1,-1,-1,-1,-1,-1,-1,-1,-1,-1,-1,-1,-1,-1,-1,-1,-1,-1,-1,-1,-1],"loss_changes":[1.566769E3,5.9893134E2,8.695764E2,3.035041E2,1.2687646E3,2.848449E2,8.5097485E2,1.1062613E2,2.9487262E2,4.8009326E2,6.397169E2,2.4000153E1,1.570495E2,6.271482E2,8.125363E2,2.8898737E1,0E0,3.2542145E2,2.723711E2,2.1370117E1,2.110184E1,1.0012868E3,6.6750714E2,0E0,0E0,0E0,1.2990034E2,7.896101E2,8.32251E1,3.5316803E2,1.4358904E2,0E0,0E0,1.8040688E2,1.8056934E2,3.763278E2,3.7324036E2,0E0,0E0,0E0,0E0,3.6526328E2,9.1501624E2,0E0,6.2036743E2,7.481116E1,2.4175488E1,8.6403864E2,3.524287E2,0E0,9.649755E0,1.10313446E2,1.7680695E2,2.2092438E1,7.8372215E1,0E0,0E0,0E0,0E0,0E0,0E0,0E0,0E0,0E0,0E0,0E0,0E0,0E0,0E0,0E0,0E0,0E0,0E0,0E0,0E0,0E0,0E0,0E0,0E0,0E0,0E0,0E0,0E0,0E0,0E0,0E0,0E0],"parents":[2147483647,0,0,1,1,2,2,3,3,4,4,5,5,6,6,7,7,8,8,9,9,10,10,11,11,12,12,13,13,14,14,15,15,17,17,18,18,19,19,20,20,21,21,22,22,26,26,27,27,28,28,29,29,30,30,33,33,34,34,35,35,36,36,41,41,42,42,44,44,45,45,46,46,47,47,48,48,50,50,51,51,52,52,53,53,54,54],"right_children":[2,4,6,8,10,12,14,16,18,20,22,24,26,28,30,32,-1,34,36,38,40,42,44,-1,-1,-1,46,48,50,52,54,-1,-1,56,58,60,62,-1,-1,-1,-1,64,66,-1,68,70,72,74,76,-1,78,80,82,84,86,-1,-1,-1,-1,-1,-1,-1,-1,-1,-1,-1,-1,-1,-1,-1,-1,-1,-1,-1,-1,-1,-1,-1,-1,-1,-1,-1,-1,-1,-1,-1,-1],"split_conditions":[6.7E1,4.4E1,3.67575E0,7.353611E0,1.8E1,7.3E1,1.44486685E1,6.2087173E1,9E0,2.6983196E1,1.1592895E1,2.9E1,7.4E1,3.113617E2,8E1,1.7E1,-1.8368751E0,1.3E1,2.8960217E2,1.4E1,1.2E1,6.876608E1,1.1726277E1,-7.119501E-1,-3.415684E0,2.2295518E0,2.689419E1,2.2771344E2,7.3E1,6.5E1,1.6999999E0,-7.6463157E-1,7.1282196E-1,2.073736E2,1.080825E1,2.6560138E2,4.2882495E0,1.9514897E0,5.183451E0,-1.0055037E0,4.1424754E-1,4.1E1,9.659814E0,-4.3782225E0,1.12895E1,1.5000001E0,8E1,9.6E1,8E1,-2.520343E0,5.92075E0,5.4E1,7.7E1,8.3E1,1.16E2,8.233496E-1,-7.618814E-1,-2.7070406E-1,-2.1244383E0,-6.6256575E-2,3.4202775E-1,4.6454227E-1,-4.4908535E-1,-3.559678E0,2.3236519E-1,2.3230322E-1,2.7672122E0,-1.2273991E-1,4.8141924E-1,-1.6356455E0,6.548481E-1,-5.840607E-2,1.692587E0,3.0365044E-1,2.992275E0,3.2704303E0,7.881665E-1,3.5420266E-1,-5.132859E-1,-2.0230513E0,6.161309E-1,-4.882561E0,-1.2352241E0,3.423317E-1,2.2784727E0,-4.4013274E-1,1.7301968E0],"split_indices":[0,0,4,6,1,0,4,7,2,6,6,1,0,7,0,0,0,1,7,1,1,7,6,0,0,0,6,7,0,2,5,0,0,7,4,7,4,0,0,0,0,3,6,0,4,5,0,1,3,0,4,1,0,0,1,0,0,0,0,0,0,0,0,0,0,0,0,0,0,0,0,0,0,0,0,0,0,0,0,0,0,0,0,0,0,0,0],"split_type":[0,0,0,0,0,0,0,0,0,0,0,0,0,0,0,0,0,0,0,0,0,0,0,0,0,0,0,0,0,0,0,0,0,0,0,0,0,0,0,0,0,0,0,0,0,0,0,0,0,0,0,0,0,0,0,0,0,0,0,0,0,0,0,0,0,0,0,0,0,0,0,0,0,0,0,0,0,0,0,0,0,0,0,0,0,0,0],"sum_hessian":[3.984E3,3.849E3,1.35E2,3.132E3,7.17E2,1.4E1,1.21E2,1.4E1,3.118E3,9E0,7.08E2,4E0,1E1,9.7E1,2.4E1,3E0,1.1E1,4.7E1,3.071E3,7E0,2E0,5.9E1,6.49E2,1E0,3E0,1E0,9E0,9.2E1,5E0,1.1E1,1.3E1,1E0,2E0,2.4E1,2.3E1,2.74E3,3.31E2,2E0,5E0,1E0,1E0,8E0,5.1E1,2E0,6.47E2,7E0,2E0,5.3E1,3.9E1,2E0,3E0,5E0,6E0,7E0,6E0,1.1E1,1.3E1,7E0,1.6E1,2.52E3,2.2E2,4.6E1,2.85E2,4E0,4E0,2.4E1,2.7E1,4.01E2,2.46E2,6E0,1E0,1E0,1E0,3.9E1,1.4E1,3.2E1,7E0,1E0,2E0,1E0,4E0,3E0,3E0,1E0,6E0,5E0,1E0],"tree_param":{"num_deleted":"0","num_feature":"8","num_nodes":"87","size_leaf_vector":"1"}},{"base_weights":[2.159093E-2,-4.6044055E-2,3.088508E0,-2.9083133E-1,3.8596612E-1,5.5709224E0,-4.5964267E-2,-3.3947486E-1,1.3712552E0,5.3379685E-1,-2.4969707E0,2.9719088E0,1.1090625E1,-3.5667636E0,1.4645913E0,-2.3492587E-1,-1.647069E0,-5.903171E-1,4.5897546E0,4.449092E-1,8.939998E0,-8.5163915E-1,-1.0241326E1,1.6366258E0,4.8672876E0,2.3782503E1,2.3664355E0,-6.305711E-1,-2.7844517E0,4.425776E0,7.866532E-1,-1.7855373E-1,-1.9074272E0,-6.1793244E-1,-2.8299506E0,2.5413342E0,-2.4057567E0,-4.3819304E0,6.827953E0,5.50635E-1,-5.0960035E0,1.651582E1,-3.9137356E0,-1.7552451E0,5.982525E0,-1.2682378E1,1.309288E0,-1.9448007E0,3.6052206E0,8.449561E0,3.003421E0,-1.4461427E0,3.7005894E0,-1.8034505E0,6.949013E-1,3.748665E-1,2.100428E0,2.3839352E0,-1.317765E0,-7.001048E-2,6.3105357E-1,2.7388498E-2,-1.4829358E0,-4.5444545E-1,2.2009366E0,-1.1577803E-1,-1.2004284E0,1.4807056E0,-4.061629E-2,1.1647897E-1,-1.4100493E0,-1.7909335E0,-2.4124698E-1,1.1694579E0,3.7647376E0,1.5251139E-1,2.8869138E0,-5.6426895E-1,-4.489108E0,1.486219E0,7.432324E0,2.0722837E0,-2.2378583E0,1.788729E0,-7.048314E-1,-6.003445E-1,2.2939987E0,-4.2835236E0,2.5229016E-1,-2.7367402E-2,6.1654705E-1,-3.0090132E0,2.0257565E-1,2.4147342E-1,3.1415527E0,1.7429368E0,-7.3632205E-1,1.4810772E-1,-1.0949192E0,4.5851672E-1,-2.8982678E-1,1.8294166E0,3.7702316E-1,-7.318248E-1,7.459328E-1],"categories":[],"categories_nodes":[],"categories_segments":[],"categories_sizes":[],"default_left":[0,0,0,0,0,0,0,0,0,0,0,0,0,0,0,0,0,0,0,0,0,0,0,0,0,0,0,0,0,0,1,0,0,0,0,0,0,0,0,0,0,0,0,0,0,0,0,0,0,0,0,0,0,0,0,0,0,0,0,0,0,0,0,0,0,0,0,0,0,0,0,0,0,0,0,0,0,0,0,0,0,0,0,0,0,0,0,0,0,0,0,0,0,0,0,0,0,0,0,0,0,0,0,0,0],"id":10,"left_children":[1,3,5,7,9,11,13,15,17,19,21,23,25,27,29,31,33,35,37,39,41,43,45,47,-1,49,51,53,-1,55,57,59,61,63,65,67,69,71,73,75,77,79,81,83,85,87,89,91,93,-1,-1,-1,95,97,-1,99,-1,101,103,-1,-1,-1,-1,-1,-1,-1,-1,-1,-1,-1,-1,-1,-1,-1,-1,-1,-1,-1,-1,-1,-1,-1,-1,-1,-1,-1,-1,-1,-1,-1,-1,-1,-1,-1,-1,-1,-1,-1,-1,-1,-1,-1,-1,-1,-1],"loss_changes":[8.267543E2,4.1253958E2,6.694271E2,2.0178133E2,6.026823E2,6.556372E2,2.1264001E2,3.3044556E2,4.5095505E2,9.995222E2,8.704783E2,5.751001E2,1.6046156E3,1.9550233E2,5.272845E1,2.1104066E2,2.1615634E2,2.619534E2,5.7209064E2,7.8194324E2,1.427925E3,3.686735E2,3.5495264E2,2.3262354E2,0E0,8.015454E1,1.1372307E2,3.5284714E1,0E0,4.954403E1,8.3813835E1,2.7193692E2,4.4337915E2,7.031285E2,2.3609454E2,1.0962143E2,1.877329E2,2.928511E1,3.1983765E2,4.9587244E2,7.649969E2,7.3662036E2,2.81749E2,2.5246931E2,1.0830357E2,2.2784485E2,3.3212762E0,2.6097797E2,3.95373E2,0E0,0E0,0E0,1.3109863E2,3.149003E1,0E0,6.1170278E0,0E0,5.0947655E1,5.3002388E1,0E0,0E0,0E0,0E0,0E0,0E0,0E0,0E0,0E0,0E0,0E0,0E0,0E0,0E0,0E0,0E0,0E0,0E0,0E0,0E0,0E0,0E0,0E0,0E0,0E0,0E0,0E0,0E0,0E0,0E0,0E0,0E0,0E0,0E0,0E0,0E0,0E0,0E0,0E0,0E0,0E0,0E0,0E0,0E0,0E0,0E0],"parents":[2147483647,0,0,1,1,2,2,3,3,4,4,5,5,6,6,7,7,8,8,9,9,10,10,11,11,12,12,13,13,14,14,15,15,16,16,17,17,18,18,19,19,20,20,21,21,22,22,23,23,25,25,26,26,27,27,29,29,30,30,31,31,32,32,33,33,34,34,35,35,36,36,37,37,38,38,39,39,40,40,41,41,42,42,43,43,44,44,45,45,46,46,47,47,48,48,52,52,53,53,55,55,57,57,58,58],"right_children":[2,4,6,8,10,12,14,16,18,20,22,24,26,28,30,32,34,36,38,40,42,44,46,48,-1,50,52,54,-1,56,58,60,62,64,66,68,70,72,74,76,78,80,82,84,86,88,90,92,94,-1,-1,-1,96,98,-1,100,-1,102,104,-1,-1,-1,-1,-1,-1,-1,-1,-1,-1,-1,-1,-1,-1,-1,-1,-1,-1,-1,-1,-1,-1,-1,-1,-1,-1,-1,-1,-1,-1,-1,-1,-1,-1,-1,-1,-1,-1,-1,-1,-1,-1,-1,-1,-1,-1],"split_conditions":[7.5E1,3.5E1,8E-1,1.8507E1,1.6991583E1,1.1660333E1,8.4E1,1.6485334E1,2.6E1,1.6670752E1,2.4066206E1,3.1542658E1,1.3842416E1,3.1394394E1,1.7789842E2,3.9134167E1,2.2337143E2,1.0238291E2,1.2287555E1,1.6291582E1,2.440568E2,2.2127556E1,3.0972555E1,1.8374111E1,4.8672876E0,2E-1,7.13494E1,2.9784426E1,-2.7844517E0,2.3469128E1,8E1,3.6233242E1,2.6E1,2.16081E2,2.1E1,1.3797912E1,1.7E1,3.6E1,1.9000002E0,1.6218664E1,4.9E1,1.6434305E1,1.5683774E1,9.3876505E0,3.7E1,1.9491583E1,4.3E1,8.1E1,3E-1,8.449561E0,3.003421E0,-1.4461427E0,3E-1,2.8082502E0,6.949013E-1,8.7E1,2.100428E0,8.7E1,1.65E2,-7.001048E-2,6.3105357E-1,2.7388498E-2,-1.4829358E0,-4.5444545E-1,2.2009366E0,-1.1577803E-1,-1.2004284E0,1.4807056E0,-4.061629E-2,1.1647897E-1,-1.4100493E0,-1.7909335E0,-2.4124698E-1,1.1694579E0,3.7647376E0,1.5251139E-1,2.8869138E0,-5.6426895E-1,-4.489108E0,1.486219E0,7.432324E0,2.0722837E0,-2.2378583E0,1.788729E0,-7.048314E-1,-6.003445E-1,2.2939987E0,-4.2835236E0,2.5229016E-1,-2.7367402E-2,6.1654705E-1,-3.0090132E0,2.0257565E-1,2.4147342E-1,3.1415527E0,1.7429368E0,-7.3632205E-1,1.4810772E-1,-1.0949192E0,4.5851672E-1,-2.8982678E-1,1.8294166E0,3.7702316E-1,-7.318248E-1,7.459328E-1],"split_indices":[0,0,5,4,4,4,0,4,2,4,6,6,4,6,7,6,7,7,6,4,7,6,6,6,0,5,7,6,0,6,1,6,3,7,2,6,0,1,5,4,0,6,6,6,0,4,0,0,5,0,0,0,5,4,0,0,0,0,1,0,0,0,0,0,0,0,0,0,0,0,0,0,0,0,0,0,0,0,0,0,0,0,0,0,0,0,0,0,0,0,0,0,0,0,0,0,0,0,0,0,0,0,0,0,0],"split_type":[0,0,0,0,0,0,0,0,0,0,0,0,0,0,0,0,0,0,0,0,0,0,0,0,0,0,0,0,0,0,0,0,0,0,0,0,0,0,0,0,0,0,0,0,0,0,0,0,0,0,0,0,0,0,0,0,0,0,0,0,0,0,0,0,0,0,0,0,0,0,0,0,0,0,0,0,0,0,0,0,0,0,0,0,0,0,0,0,0,0,0,0,0,0,0,0,0,0,0,0,0,0,0,0,0],"sum_hessian":[3.984E3,3.899E3,8.5E1,2.489E3,1.41E3,4.7E1,3.8E1,2.419E3,7E1,1.342E3,6.8E1,3.3E1,1.4E1,1.1E1,2.7E1,2.241E3,1.78E2,4.4E1,2.6E1,1.329E3,1.3E1,5.7E1,1.1E1,3.1E1,2E0,5E0,9E0,8E0,3E0,4E0,2.3E1,2.169E3,7.2E1,9.6E1,8.2E1,1.6E1,2.8E1,5E0,2.1E1,1.305E3,2.4E1,8E0,5E0,5.1E1,6E0,9E0,2E0,1.1E1,2E1,3E0,2E0,1E0,8E0,6E0,2E0,2E0,2E0,1.3E1,1E1,2.119E3,5E1,4.4E1,2.8E1,8.7E1,9E0,2.7E1,5.5E1,8E0,8E0,1.3E1,1.5E1,3E0,2E0,1.5E1,6E0,1.3E3,5E0,1.9E1,5E0,4E0,4E0,1E0,4E0,3E0,4.8E1,1E0,5E0,8E0,1E0,1E0,1E0,2E0,9E0,1.5E1,5E0,6E0,2E0,3E0,3E0,1E0,1E0,2E0,1.1E1,8E0,2E0],"tree_param":{"num_deleted":"0","num_feature":"8","num_nodes":"105","size_leaf_vector":"1"}},{"base_weights":[2.178129E-2,-7.790582E-2,1.3991612E0,1.4611252E-1,-4.4622195E-1,6.0874166E0,4.0477931E-1,-5.3463154E-2,1.6307428E0,-1.9993752E0,3.5757795E-2,1.5344998E0,1.215713E1,-6.247796E0,1.238496E0,3.30694E-1,-5.879779E-1,2.6843958E0,-1.253244E0,-1.6498661E0,-7.1135173E0,3.1311113E-1,-2.1718104E0,7.190062E0,-1.5228752E0,1.8501812E1,3.9622657E0,-4.6958655E-1,-9.468689E0,5.8637033E0,6.007489E-1,-3.52749E-2,4.142036E0,-3.3503144E0,-4.044675E-1,2.0961506E0,1.1030084E1,-1.096744E1,-5.414695E-1,-6.4549774E-1,-3.6620533E0,-9.287861E0,2.7085488E0,1.4849588E-1,5.214917E0,-3.443085E0,1.2840677E0,4.7593156E-1,1.1586827E1,-5.2894764E0,5.689795E0,2.889802E1,5.0219707E0,-2.7052722E0,8.334422E0,2.4587467E0,-3.889669E0,-1.320408E1,-1.0423597E0,-5.152525E0,9.033896E0,-1.1062577E0,2.3597126E0,-5.1390108E-2,1.8741261E0,-9.864659E-1,1.4641705E0,1.4075196E0,-1.3430349E0,5.0944276E-2,-3.379314E-1,2.9963858E0,5.482252E-1,1.6366398E0,8.338097E0,-5.615845E-2,-4.0847106E0,3.4458025E0,-3.1923926E-1,-8.3452666E-1,3.5335723E-1,-1.685547E0,-4.7927085E-1,2.184125E0,-3.4995987E0,3.5923952E-1,-1.3726507E-1,1.128719E0,5.255294E0,-3.381276E-1,-2.0271301E0,1.231764E0,-1.0119054E0,-1.4669914E0,1.7049574E0,4.228399E0,1.3142312E0,1.085122E0,-2.8949518E0,4.097107E0,6.25726E-1,9.688253E0,1.7875838E0,2.442752E0,-2.4381982E-1,-6.04513E-1,4.4841332E0,9.779008E-1,1.7138024E-1,-1.3141454E0,-2.8896105E-1,-4.3982544E0,2.0453969E-1,1.8259244E0,-1.8385051E0,-5.7213753E-1,-3.2069287E0,1.3796865E0,6.159583E0,2.42722E0,-5.578512E-1,1.2230456E0,-1.7209105E-1],"categories":[],"categories_nodes":[],"categories_segments":[],"categories_sizes":[],"default_left":[0,0,0,0,0,0,0,0,0,0,0,0,0,0,0,0,0,0,0,0,0,0,0,0,0,0,0,0,0,0,0,0,0,0,0,0,0,0,0,0,0,0,0,0,0,0,0,0,0,0,0,0,0,0,0,0,0,0,0,0,0,0,0,0,0,0,0,0,0,0,0,0,0,0,0,0,0,0,0,0,0,0,0,0,0,0,0,0,0,0,0,0,0,0,0,0,0,0,0,0,0,0,0,0,0,0,0,0,0,0,0,0,0,0,0,0,0,0,0,0,0,0,0],"id":11,"left_children":[1,3,5,7,9,11,13,15,17,19,21,23,25,27,29,31,33,35,37,39,41,43,45,47,49,51,53,55,57,59,61,63,65,67,69,71,73,75,77,79,81,83,-1,85,87,89,91,93,95,97,99,101,103,-1,105,107,109,111,113,115,117,119,121,-1,-1,-1,-1,-1,-1,-1,-1,-1,-1,-1,-1,-1,-1,-1,-1,-1,-1,-1,-1,-1,-1,-1,-1,-1,-1,-1,-1,-1,-1,-1,-1,-1,-1,-1,-1,-1,-1,-1,-1,-1,-1,-1,-1,-1,-1,-1,-1,-1,-1,-1,-1,-1,-1,-1,-1,-1,-1,-1,-1],"loss_changes":[5.472775E2,3.0675327E2,1.2515916E3,6.8512366E2,1.0525869E3,1.2801854E3,1.2445767E3,4.188779E2,8.35974E2,5.8348096E2,6.582649E2,4.9510245E2,9.665674E2,4.6082855E2,5.834701E2,1.6558124E3,4.310455E2,9.6365076E2,5.0572098E2,6.302021E2,8.209192E2,7.698266E2,5.3162555E2,2.8969E2,5.4627374E2,1.396406E3,6.4265515E2,1.09715126E2,4.8984644E2,8.847131E2,5.3106146E2,9.2741437E2,5.867462E2,5.011366E2,3.322974E2,3.825774E2,1.063229E3,1.4019574E2,4.522633E2,8.2125934E2,4.1108325E2,8.333491E2,0E0,5.8859235E2,4.880606E2,6.6780493E2,4.4751608E2,1.6749889E2,4.6684143E1,5.397695E2,1.7251439E2,2.7500684E2,1.1586206E2,0E0,5.776213E2,7.208206E0,2.962471E0,2.3250928E2,2.5484096E2,8.7436584E1,8.744447E2,6.385287E2,4.405464E2,0E0,0E0,0E0,0E0,0E0,0E0,0E0,0E0,0E0,0E0,0E0,0E0,0E0,0E0,0E0,0E0,0E0,0E0,0E0,0E0,0E0,0E0,0E0,0E0,0E0,0E0,0E0,0E0,0E0,0E0,0E0,0E0,0E0,0E0,0E0,0E0,0E0,0E0,0E0,0E0,0E0,0E0,0E0,0E0,0E0,0E0,0E0,0E0,0E0,0E0,0E0,0E0,0E0,0E0,0E0,0E0,0E0,0E0,0E0,0E0],"parents":[2147483647,0,0,1,1,2,2,3,3,4,4,5,5,6,6,7,7,8,8,9,9,10,10,11,11,12,12,13,13,14,14,15,15,16,16,17,17,18,18,19,19,20,20,21,21,22,22,23,23,24,24,25,25,26,26,27,27,28,28,29,29,30,30,31,31,32,32,33,33,34,34,35,35,36,36,37,37,38,38,39,39,40,40,41,41,43,43,44,44,45,45,46,46,47,47,48,48,49,49,50,50,51,51,52,52,54,54,55,55,56,56,57,57,58,58,59,59,60,60,61,61,62,62],"right_children":[2,4,6,8,10,12,14,16,18,20,22,24,26,28,30,32,34,36,38,40,42,44,46,48,50,52,54,56,58,60,62,64,66,68,70,72,74,76,78,80,82,84,-1,86,88,90,92,94,96,98,100,102,104,-1,106,108,110,112,114,116,118,120,122,-1,-1,-1,-1,-1,-1,-1,-1,-1,-1,-1,-1,-1,-1,-1,-1,-1,-1,-1,-1,-1,-1,-1,-1,-1,-1,-1,-1,-1,-1,-1,-1,-1,-1,-1,-1,-1,-1,-1,-1,-1,-1,-1,-1,-1,-1,-1,-1,-1,-1,-1,-1,-1,-1,-1,-1,-1,-1,-1,-1],"split_conditions":[5.7E1,2.36185E2,4.8333332E1,4.3666668E1,2.4733414E2,2.3471024E2,5.1666668E1,2.8E1,5.1333332E1,5.1E1,4.9E1,1.7935081E1,2.815668E2,4.7E1,5.1E1,2.9333334E1,1.8E1,5.0666668E1,4.379404E1,1.2822835E1,6.8E1,5.2E1,5.2333332E1,7.7019997E0,2.5744402E1,1.6E0,3.1E1,2.5077126E2,2.4870972E2,4.3E1,6.7666664E1,2.341476E2,1.119189E1,1.119189E1,3.5E1,2.5603335E0,2.1768593E2,5.3E1,3.4E1,7.7445006E0,2.4086195E2,3.6333332E1,2.7085488E0,8.216583E0,9.8E0,4.8666668E1,1.1000001E0,3.9E1,4.7E1,1E-1,7E-1,4.7333332E1,2.4220963E2,-2.7052722E0,3.1E1,5E1,5E1,1.6354918E1,5.1E1,5E1,4.1E0,5.2666668E1,2.6999998E0,-5.1390108E-2,1.8741261E0,-9.864659E-1,1.4641705E0,1.4075196E0,-1.3430349E0,5.0944276E-2,-3.379314E-1,2.9963858E0,5.482252E-1,1.6366398E0,8.338097E0,-5.615845E-2,-4.0847106E0,3.4458025E0,-3.1923926E-1,-8.3452666E-1,3.5335723E-1,-1.685547E0,-4.7927085E-1,2.184125E0,-3.4995987E0,3.5923952E-1,-1.3726507E-1,1.128719E0,5.255294E0,-3.381276E-1,-2.0271301E0,1.231764E0,-1.0119054E0,-1.4669914E0,1.7049574E0,4.228399E0,1.3142312E0,1.085122E0,-2.8949518E0,4.097107E0,6.25726E-1,9.688253E0,1.7875838E0,2.442752E0,-2.4381982E-1,-6.04513E-1,4.4841332E0,9.779008E-1,1.7138024E-1,-1.3141454E0,-2.8896105E-1,-4.3982544E0,2.0453969E-1,1.8259244E0,-1.8385051E0,-5.7213753E-1,-3.2069287E0,1.3796865E0,6.159583E0,2.42722E0,-5.578512E-1,1.2230456E0,-1.7209105E-1],"split_indices":[0,7,3,3,7,7,3,1,3,0,1,6,7,1,1,3,2,3,7,4,1,0,3,4,6,5,1,7,7,2,3,7,6,6,2,4,7,2,1,4,7,3,0,4,5,3,5,1,1,5,5,3,7,0,2,3,3,4,1,1,5,3,5,0,0,0,0,0,0,0,0,0,0,0,0,0,0,0,0,0,0,0,0,0,0,0,0,0,0,0,0,0,0,0,0,0,0,0,0,0,0,0,0,0,0,0,0,0,0,0,0,0,0,0,0,0,0,0,0,0,0,0,0],"split_type":[0,0,0,0,0,0,0,0,0,0,0,0,0,0,0,0,0,0,0,0,0,0,0,0,0,0,0,0,0,0,0,0,0,0,0,0,0,0,0,0,0,0,0,0,0,0,0,0,0,0,0,0,0,0,0,0,0,0,0,0,0,0,0,0,0,0,0,0,0,0,0,0,0,0,0,0,0,0,0,0,0,0,0,0,0,0,0,0,0,0,0,0,0,0,0,0,0,0,0,0,0,0,0,0,0,0,0,0,0,0,0,0,0,0,0,0,0,0,0,0,0,0,0],"sum_hessian":[3.984E3,3.716E3,2.68E2,2.311E3,1.405E3,4.6E1,2.22E2,2.038E3,2.73E2,3.32E2,1.073E3,2.7E1,1.9E1,2.4E1,1.98E2,1.186E3,8.52E2,2E2,7.3E1,3.12E2,2E1,9.54E2,1.19E2,9E0,1.8E1,1E1,9E0,9E0,1.5E1,2.3E1,1.75E2,1.083E3,1.03E2,5.2E1,8E2,1.88E2,1.2E1,4E0,6.9E1,2.09E2,1.03E2,1.8E1,2E0,9.24E2,3E1,8.7E1,3.2E1,4E0,5E0,1.2E1,6E0,5E0,5E0,2E0,7E0,5E0,4E0,1E1,5E0,5E0,1.8E1,8.9E1,8.6E1,1.061E3,2.2E1,9E0,9.4E1,6E0,4.6E1,4.46E2,3.54E2,5E0,1.83E2,1E1,2E0,1E0,3E0,2E0,6.7E1,9.6E1,1.13E2,5.2E1,5.1E1,2E0,1.6E1,3.38E2,5.86E2,2.8E1,2E0,5.2E1,3.5E1,2E1,1.2E1,2E0,2E0,3E0,2E0,4E0,8E0,1E0,5E0,4E0,1E0,3E0,2E0,3E0,4E0,3E0,2E0,3E0,1E0,9E0,1E0,2E0,3E0,4E0,1E0,1.4E1,4E0,6E0,8.3E1,5.4E1,3.2E1],"tree_param":{"num_deleted":"0","num_feature":"8","num_nodes":"123","size_leaf_vector":"1"}},{"base_weights":[2.6126008E-2,-1.7182909E-2,1.9898312E0,-2.7059746E-1,2.1519484E-1,3.534207E0,3.8039673E-2,8.190952E-1,-3.9825106E-1,8.460425E-2,1.7144647E0,2.6704254E0,3.7104597E0,1.0452402E0,-3.4354334E0,1.8357223E0,-1.7552533E0,-5.244151E0,-3.363721E-1,-9.7735995E-1,3.090242E-1,2.0984068E0,-1.083779E1,6.697166E-1,7.0527296E0,3.2406333E-1,4.7305474E0,-2.3402479E0,4.740079E-2,1.6247344E-1,3.2646527E0,-2.5017283E0,4.882325E0,-4.3288708E-2,-5.4919295E0,-3.5662827E0,-2.9457903E-1,-1.1107705E0,1.584027E0,6.3439626E-1,-7.204019E-1,1.7833229E0,7.7822495E0,-3.6000414E0,-9.282601E-1,2.6723256E0,-2.4627368E0,1.8386082E1,6.8078077E-1,1.4903135E0,-1.2579422E0,4.1555217E-1,1.5661793E0,6.614365E-1,-8.5347486E-1,1.8307687E0,-1.9371483E-1,6.01866E-1,1.725482E0,-1.09810114E-1,-2.025476E0,-6.2919927E-1,2.668946E0,-1.749372E0,-4.8762688E-1,7.0092785E-1,-2.456405E0,3.1522602E-1,-1.23246945E-1,-2.6379833E-1,-1.487362E0,2.8205377E-1,-2.1183795E-1,1.6224086E0,-3.196743E-1,3.3734363E-1,2.5439062E0,1.0596825E-1,3.5581234E0,-1.2928841E0,-7.9212084E-2,6.261477E0,1.2666069E0,-1.4126782E0,5.408554E-1,-1.5443835E-1,8.2345736E-1,-6.1805195E-1,2.5846884E-1],"categories":[],"categories_nodes":[],"categories_segments":[],"categories_sizes":[],"default_left":[0,1,0,0,0,0,0,0,0,0,0,0,0,0,0,0,0,0,0,0,0,0,0,0,0,0,0,0,0,0,0,0,0,0,0,0,0,0,0,0,0,0,0,0,0,0,0,0,0,0,0,0,0,0,0,0,0,0,0,0,0,0,0,0,0,0,0,0,0,0,0,0,0,0,0,0,0,0,0,0,0,0,0,0,0,0,0,0,0],"id":12,"left_children":[1,3,5,7,9,11,13,15,17,19,21,23,-1,25,27,29,31,33,35,37,39,41,43,45,47,49,51,-1,53,55,57,59,61,-1,63,65,67,69,-1,71,73,75,-1,-1,-1,77,79,81,83,85,87,-1,-1,-1,-1,-1,-1,-1,-1,-1,-1,-1,-1,-1,-1,-1,-1,-1,-1,-1,-1,-1,-1,-1,-1,-1,-1,-1,-1,-1,-1,-1,-1,-1,-1,-1,-1,-1,-1],"loss_changes":[3.389423E2,2.2972104E2,2.5909537E2,2.5989276E2,3.9828864E2,3.3324237E2,1.4003174E2,5.161841E2,4.993008E2,4.4668658E2,8.0829456E2,3.8982382E2,0E0,8.085751E1,1.372052E2,3.3659436E2,2.8968225E2,2.5743835E1,2.2181438E2,2.7884778E2,5.1861914E2,1.148205E3,7.8728027E0,2.0731978E2,9.985006E2,5.1690113E1,9.655609E-1,0E0,4.3711525E1,3.2078784E2,2.2631549E2,4.60425E2,1.8676363E2,0E0,1.6760681E1,5.920265E2,2.5549878E2,2.8145377E2,0E0,4.827169E2,7.926936E2,6.875388E2,0E0,0E0,0E0,4.21972E2,5.165149E1,8.7904175E1,6.896582E1,4.1660988E1,2.2178953E1,0E0,0E0,0E0,0E0,0E0,0E0,0E0,0E0,0E0,0E0,0E0,0E0,0E0,0E0,0E0,0E0,0E0,0E0,0E0,0E0,0E0,0E0,0E0,0E0,0E0,0E0,0E0,0E0,0E0,0E0,0E0,0E0,0E0,0E0,0E0,0E0,0E0,0E0],"parents":[2147483647,0,0,1,1,2,2,3,3,4,4,5,5,6,6,7,7,8,8,9,9,10,10,11,11,13,13,14,14,15,15,16,16,17,17,18,18,19,19,20,20,21,21,22,22,23,23,24,24,25,25,26,26,28,28,29,29,30,30,31,31,32,32,34,34,35,35,36,36,37,37,39,39,40,40,41,41,45,45,46,46,47,47,48,48,49,49,50,50],"right_children":[2,4,6,8,10,12,14,16,18,20,22,24,-1,26,28,30,32,34,36,38,40,42,44,46,48,50,52,-1,54,56,58,60,62,-1,64,66,68,70,-1,72,74,76,-1,-1,-1,78,80,82,84,86,88,-1,-1,-1,-1,-1,-1,-1,-1,-1,-1,-1,-1,-1,-1,-1,-1,-1,-1,-1,-1,-1,-1,-1,-1,-1,-1,-1,-1,-1,-1,-1,-1,-1,-1,-1,-1,-1,-1],"split_conditions":[7.5E1,2.8E1,8E-1,7.490589E1,8.900001E0,3.1542658E1,3.6982006E1,1.4E0,7.803554E1,1.1063872E2,8.2E1,1.1660333E1,3.7104597E0,8.799999E0,8.2E1,1.9E1,1.5565333E1,7E0,1.2311666E0,1.9491583E1,1.3768666E1,6.7E1,9.5E1,7.8E1,1.3016585E1,7.8E1,6.4E1,-2.3402479E0,7.2999997E0,9E0,1.7148247E1,2.7E1,1.9E1,-4.3288708E-2,1.6485334E1,1.1450002E-1,1.1592895E1,5.5E1,1.584027E0,5.2E1,1.7E1,1.6291582E1,7.7822495E0,-3.6000414E0,-9.282601E-1,3E-1,1.07E2,1.64E2,7.13494E1,6.7666664E1,1.65E2,4.1555217E-1,1.5661793E0,6.614365E-1,-8.5347486E-1,1.8307687E0,-1.9371483E-1,6.01866E-1,1.725482E0,-1.09810114E-1,-2.025476E0,-6.2919927E-1,2.668946E0,-1.749372E0,-4.8762688E-1,7.0092785E-1,-2.456405E0,3.1522602E-1,-1.23246945E-1,-2.6379833E-1,-1.487362E0,2.8205377E-1,-2.1183795E-1,1.6224086E0,-3.196743E-1,3.3734363E-1,2.5439062E0,1.0596825E-1,3.5581234E0,-1.2928841E0,-7.9212084E-2,6.261477E0,1.2666069E0,-1.4126782E0,5.408554E-1,-1.5443835E-1,8.2345736E-1,-6.1805195E-1,2.5846884E-1],"split_indices":[0,2,5,7,5,6,6,5,7,7,1,4,0,5,0,3,4,1,4,4,4,0,1,1,4,1,1,0,5,1,6,0,0,0,4,4,6,0,0,1,1,4,0,0,0,5,1,2,7,3,1,0,0,0,0,0,0,0,0,0,0,0,0,0,0,0,0,0,0,0,0,0,0,0,0,0,0,0,0,0,0,0,0,0,0,0,0,0,0],"split_type":[0,0,0,0,0,0,0,0,0,0,0,0,0,0,0,0,0,0,0,0,0,0,0,0,0,0,0,0,0,0,0,0,0,0,0,0,0,0,0,0,0,0,0,0,0,0,0,0,0,0,0,0,0,0,0,0,0,0,0,0,0,0,0,0,0,0,0,0,0,0,0,0,0,0,0,0,0,0,0,0,0,0,0,0,0,0,0,0,0],"sum_hessian":[3.984E3,3.899E3,8.5E1,1.865E3,2.034E3,4.7E1,3.8E1,1.95E2,1.67E3,1.872E3,1.62E2,4.4E1,3E0,3E1,8E0,1.4E2,5.5E1,2E1,1.65E3,3.26E2,1.546E3,1.58E2,4E0,3.1E1,1.3E1,2.6E1,4E0,3E0,5E0,6.5E1,7.5E1,5E1,5E0,1E0,1.9E1,2E1,1.63E3,3.2E2,6E0,1.175E3,3.71E2,1.57E2,1E0,3E0,1E0,1.9E1,1.2E1,4E0,9E0,1.5E1,1.1E1,1E0,3E0,3E0,2E0,7E0,5.8E1,5.1E1,2.4E1,3.4E1,1.6E1,2E0,3E0,1.7E1,2E0,9E0,1.1E1,1.29E2,1.501E3,3.03E2,1.7E1,9.57E2,2.18E2,1.9E1,3.52E2,1.44E2,1.3E1,1.6E1,3E0,6E0,6E0,3E0,1E0,1E0,8E0,6E0,9E0,8E0,3E0],"tree_param":{"num_deleted":"0","num_feature":"8","num_nodes":"89","size_leaf_vector":"1"}},{"base_weights":[2.3252528E-2,-4.9612552E-2,1.0340328E0,2.4089752E-2,-1.6268094E0,-4.2290373E0,1.3849779E0,-4.2443264E-2,2.2984898E0,-1.1899056E0,-5.6484127E0,-5.463379E0,3.3523495E0,1.238698E0,1.0144655E1,-1.8106675E-2,-5.619182E0,7.915271E-1,9.698098E0,-1.7810162E0,1.4703664E0,4.591316E0,-7.4391823E0,1.1867237E0,-6.418727E0,1.6627162E0,-1.5415879E-1,3.751784E0,7.9633707E-1,-6.109171E-2,4.09859E0,5.3727478E-2,-1.6386793E0,-2.284612E0,-1.4218098E1,3.0276623E-1,1.4050069E1,1.5460995E1,-7.225052E0,7.9420185E-1,-2.8026662E0,-2.1234713E0,3.2844722E0,1.0474778E-1,1.9613446E0,-9.850423E0,1.0515261E0,-9.131848E0,-2.4010558E0,1.4538475E1,1.6120363E0,-1.664237E0,1.4285072E0,-3.3408742E-2,2.3719707E-1,1.8178585E0,-6.0356545E-1,-1.2493783E0,7.5495034E-1,-6.0499377E0,5.440476E-1,2.8414053E-1,-2.0485632E0,6.247153E0,7.5378805E-2,5.0792656E0,-3.2665443E-1,-4.1843386E0,-6.172254E-1,1.4514576E0,-5.9974927E-1,-1.2365752E0,-1.317092E-1,-1.3951584E0,1.596951E0,1.3835684E0,3.8913766E-1,-3.1508408E0,-4.9899617E-1,-1.8279248E-1,5.424721E-1,-2.9858007E0,-5.0791514E-1,-1.7331039E0,4.725496E-1,4.7625935E-1,5.0433474E0,-4.2644885E-1,1.1287282E0,-8.898074E-1,1.1183487E0,-2.727499E-1,7.663292E-1],"categories":[],"categories_nodes":[],"categories_segments":[],"categories_sizes":[],"default_left":[1,0,0,0,1,0,0,0,0,0,0,0,0,0,0,0,0,0,0,0,0,0,0,0,0,0,0,0,0,0,0,0,0,0,0,0,0,0,0,0,0,0,0,0,0,0,0,0,0,0,0,0,0,0,0,0,0,0,0,0,0,0,0,0,0,0,0,0,0,0,0,0,0,0,0,0,0,0,0,0,0,0,0,0,0,0,0,0,0,0,0,0,0],"id":13,"left_children":[1,3,5,7,9,11,13,15,17,19,21,23,25,27,29,31,33,35,37,39,41,43,45,-1,47,-1,-1,49,51,-1,-1,53,55,57,59,61,63,65,67,69,71,73,75,-1,-1,77,79,81,83,85,87,89,91,-1,-1,-1,-1,-1,-1,-1,-1,-1,-1,-1,-1,-1,-1,-1,-1,-1,-1,-1,-1,-1,-1,-1,-1,-1,-1,-1,-1,-1,-1,-1,-1,-1,-1,-1,-1,-1,-1,-1,-1],"loss_changes":[2.9354892E2,4.322308E2,5.0086615E2,5.377471E2,2.849498E2,1.7740155E2,3.1033762E2,4.6853525E2,1.1185681E3,2.4006851E2,3.2754758E2,1.6036896E2,2.8249474E1,2.7382343E2,1.4837482E2,4.004305E2,3.976225E2,5.4656793E2,1.7696547E3,3.2846628E2,1.8952335E2,2.2489326E1,2.96982E2,0E0,1.3067993E2,0E0,0E0,8.30553E2,3.3369922E2,0E0,0E0,4.0083487E2,4.31651E2,1.1879227E2,4.1801843E2,3.8786868E2,2.7517767E2,3.3467896E2,1.450069E2,4.1634073E2,2.7571265E2,2.1293637E2,4.4140717E1,0E0,0E0,4.128247E1,6.128883E0,3.1996948E1,1.03064606E2,1.4991211E2,2.140932E2,3.199071E2,4.497694E2,0E0,0E0,0E0,0E0,0E0,0E0,0E0,0E0,0E0,0E0,0E0,0E0,0E0,0E0,0E0,0E0,0E0,0E0,0E0,0E0,0E0,0E0,0E0,0E0,0E0,0E0,0E0,0E0,0E0,0E0,0E0,0E0,0E0,0E0,0E0,0E0,0E0,0E0,0E0,0E0],"parents":[2147483647,0,0,1,1,2,2,3,3,4,4,5,5,6,6,7,7,8,8,9,9,10,10,11,11,12,12,13,13,14,14,15,15,16,16,17,17,18,18,19,19,20,20,21,21,22,22,24,24,27,27,28,28,31,31,32,32,33,33,34,34,35,35,36,36,37,37,38,38,39,39,40,40,41,41,42,42,45,45,46,46,47,47,48,48,49,49,50,50,51,51,52,52],"right_children":[2,4,6,8,10,12,14,16,18,20,22,24,26,28,30,32,34,36,38,40,42,44,46,-1,48,-1,-1,50,52,-1,-1,54,56,58,60,62,64,66,68,70,72,74,76,-1,-1,78,80,82,84,86,88,90,92,-1,-1,-1,-1,-1,-1,-1,-1,-1,-1,-1,-1,-1,-1,-1,-1,-1,-1,-1,-1,-1,-1,-1,-1,-1,-1,-1,-1,-1,-1,-1,-1,-1,-1,-1,-1,-1,-1,-1,-1],"split_conditions":[5.7E1,3.6982006E1,1.2594856E1,3.4589985E1,5E1,2.2129332E2,4.6160084E1,3.4387066E1,4.7E1,1.1695751E1,3E-1,3.6333332E1,4.3E1,3.5E1,1.7E1,5.2E1,4.6E1,1.5896584E1,3.6233242E1,6.881167E0,2.0188379E2,6.8E1,7.9E1,1.1867237E0,1E-1,1.6627162E0,-1.5415879E-1,1.6434305E1,1.7955998E2,-6.109171E-2,4.09859E0,3.9E1,2.7186668E0,1.6999999E0,4.9E1,4.9E1,2.8E1,7E1,4.0666668E1,4.0113754E1,4.0953064E1,4.3E1,1.3541583E1,1.0474778E-1,1.9613446E0,8.599999E0,5.6E1,1.4485335E1,6.1E1,1.5E1,2.7E1,8.4E1,3E-1,-3.3408742E-2,2.3719707E-1,1.8178585E0,-6.0356545E-1,-1.2493783E0,7.5495034E-1,-6.0499377E0,5.440476E-1,2.8414053E-1,-2.0485632E0,6.247153E0,7.5378805E-2,5.0792656E0,-3.2665443E-1,-4.1843386E0,-6.172254E-1,1.4514576E0,-5.9974927E-1,-1.2365752E0,-1.317092E-1,-1.3951584E0,1.596951E0,1.3835684E0,3.8913766E-1,-3.1508408E0,-4.9899617E-1,-1.8279248E-1,5.424721E-1,-2.9858007E0,-5.0791514E-1,-1.7331039E0,4.725496E-1,4.7625935E-1,5.0433474E0,-4.2644885E-1,1.1287282E0,-8.898074E-1,1.1183487E0,-2.727499E-1,7.663292E-1],"split_indices":[2,6,6,6,3,7,6,6,0,4,5,3,0,1,0,2,0,4,6,4,7,0,1,0,5,0,0,6,7,0,0,3,4,5,0,2,0,0,3,6,6,1,4,0,0,5,0,4,1,0,1,0,5,0,0,0,0,0,0,0,0,0,0,0,0,0,0,0,0,0,0,0,0,0,0,0,0,0,0,0,0,0,0,0,0,0,0,0,0,0,0,0,0],"split_type":[0,0,0,0,0,0,0,0,0,0,0,0,0,0,0,0,0,0,0,0,0,0,0,0,0,0,0,0,0,0,0,0,0,0,0,0,0,0,0,0,0,0,0,0,0,0,0,0,0,0,0,0,0,0,0,0,0,0,0,0,0,0,0,0,0,0,0,0,0,0,0,0,0,0,0,0,0,0,0,0,0,0,0,0,0,0,0,0,0,0,0,0,0],"sum_hessian":[3.984E3,3.717E3,2.67E2,3.552E3,1.65E2,1.6E1,2.51E2,3.452E3,1E2,1.5E2,1.5E1,1.4E1,2E0,2.48E2,3E0,3.438E3,1.4E1,8.4E1,1.6E1,1.23E2,2.7E1,2E0,1.3E1,1E0,1.3E1,1E0,1E0,3.6E1,2.12E2,1E0,2E0,3.293E3,1.45E2,1.1E1,3E0,8.2E1,2E0,1.2E1,4E0,3.5E1,8.8E1,9E0,1.8E1,1E0,1E0,1E1,3E0,7E0,6E0,5E0,3.1E1,4.3E1,1.69E2,2.691E3,6.02E2,6E0,1.39E2,8E0,3E0,2E0,1E0,7.6E1,6E0,1E0,1E0,1.1E1,1E0,1E0,3E0,1.4E1,2.1E1,5.6E1,3.2E1,7E0,2E0,1E1,8E0,9E0,1E0,1E0,2E0,6E0,1E0,3E0,3E0,1E0,4E0,1.3E1,1.8E1,3.5E1,8E0,5.5E1,1.14E2],"tree_param":{"num_deleted":"0","num_feature":"8","num_nodes":"93","size_leaf_vector":"1"}},{"base_weights":[1.855631E-2,9.64846E-2,-6.97993E-1,-7.101506E-1,1.9064559E-1,2.4549482E0,-1.1888717E0,-4.303071E0,-4.747062E-1,9.255688E-1,7.3380776E-2,-2.667633E0,4.5472207E0,-4.4218884E0,-4.0577692E-1,-2.6069305E0,-9.887792E0,3.042154E-2,-1.8521641E0,-8.41529E-1,1.937428E0,-3.2843585E0,1.1742206E-1,-5.5144873E0,4.6983438E0,1.189262E1,3.073899E0,-5.0789914E0,7.032959E0,-1.3844028E0,2.0273423E0,-3.235617E0,5.4738086E-1,-3.2751613E0,-8.6552125E-1,-3.1309393E-1,2.5781033E0,-5.5407076E0,-1.3530331E0,-1.6705302E0,4.2411532E0,2.5160158E0,-1.5249056E0,6.6135395E-1,-6.8495407E0,5.3614188E-2,1.7690197E0,7.476139E-1,-7.6849227E0,-9.550164E-1,2.239387E0,-4.539565E-1,1.487642E1,1.7821313E0,8.589831E0,-3.3273153E0,-9.623097E0,2.6151466E0,2.9705545E-1,2.737173E-1,-3.692932E0,-1.0407764E0,3.5520945E0,-3.300207E-1,-1.2101269E0,-2.3507778E-2,-9.7487164E-1,2.875445E0,3.555236E-1,-1.7665524E0,-3.0940592E-1,-3.035528E-1,-1.9829139E0,7.281716E-1,-6.5450406E-1,-1.4820721E0,2.3316743E0,6.1617386E-1,2.1131055E0,3.0740017E-1,-1.954539E0,-5.1548123E-1,1.7120947E0,-3.0143025E0,-8.8993627E-1,1.1260404E-3,5.424751E-1,2.8856725E-1,3.3397648E0,9.572751E-1,-9.873442E-1,-2.4231267E0,-6.8214E-1,5.5286655E0,1.9095448E0,9.337046E-1,-1.4878013E0,2.8046412E0,7.1924573E-1,7.045939E-2,-1.5520309E0,-5.750847E0,-1.8624578E0,6.118414E-1,-3.495704E-1,-1.6346604E0,1.3540521E0,1.2522626E-1,-2.8589299E0,4.3317667E-1,1.8117919E0],"categories":[],"categories_nodes":[],"categories_segments":[],"categories_sizes":[],"default_left":[0,0,0,0,0,0,0,0,0,0,0,0,0,0,0,0,0,0,0,0,0,0,0,0,0,0,0,0,0,0,0,0,0,0,0,0,0,0,0,0,0,0,0,0,0,1,0,0,0,0,0,0,0,0,0,0,0,0,0,0,0,0,0,0,0,0,0,0,0,0,0,0,0,0,0,0,0,0,0,0,0,0,0,0,0,0,0,0,0,0,0,0,0,0,0,0,0,0,0,0,0,0,0,0,0,0,0,0,0,0,0],"id":14,"left_children":[1,3,5,7,9,11,13,15,17,19,21,23,25,27,29,31,33,35,37,39,41,43,45,47,49,51,53,55,57,59,61,63,-1,-1,-1,65,67,69,71,73,75,77,79,81,83,85,87,89,91,-1,-1,-1,93,95,97,99,101,-1,-1,103,105,107,109,-1,-1,-1,-1,-1,-1,-1,-1,-1,-1,-1,-1,-1,-1,-1,-1,-1,-1,-1,-1,-1,-1,-1,-1,-1,-1,-1,-1,-1,-1,-1,-1,-1,-1,-1,-1,-1,-1,-1,-1,-1,-1,-1,-1,-1,-1,-1,-1],"loss_changes":[2.225876E2,2.7318845E2,6.08074E2,3.160282E2,2.7743372E2,5.8017566E2,8.5647186E2,1.9209006E2,2.463668E2,7.937384E2,4.111939E2,3.614268E2,3.746845E2,5.3250354E2,6.552317E2,5.8838562E1,4.5465393E0,2.283509E2,1.6740457E2,6.8968E2,5.687572E2,5.109486E2,2.8897604E2,1.6884317E2,1.3277817E2,2.6251227E2,2.1982681E2,4.6944836E2,3.207727E1,7.5126324E2,3.7326846E2,2.4538483E1,0E0,0E0,0E0,1.582828E2,2.9121747E2,1.1178772E1,1.45762E2,2.9853598E2,7.8406525E2,4.9185706E2,5.2831635E2,2.2592677E2,2.0614801E2,2.3113498E2,7.601645E2,4.997344E1,7.327881E-1,0E0,0E0,0E0,3.387732E1,2.665285E2,5.785248E0,3.1029712E2,4.351925E2,0E0,0E0,2.9457245E2,1.2062119E3,3.3820065E2,2.6918365E2,0E0,0E0,0E0,0E0,0E0,0E0,0E0,0E0,0E0,0E0,0E0,0E0,0E0,0E0,0E0,0E0,0E0,0E0,0E0,0E0,0E0,0E0,0E0,0E0,0E0,0E0,0E0,0E0,0E0,0E0,0E0,0E0,0E0,0E0,0E0,0E0,0E0,0E0,0E0,0E0,0E0,0E0,0E0,0E0,0E0,0E0,0E0,0E0],"parents":[2147483647,0,0,1,1,2,2,3,3,4,4,5,5,6,6,7,7,8,8,9,9,10,10,11,11,12,12,13,13,14,14,15,15,16,16,17,17,18,18,19,19,20,20,21,21,22,22,23,23,24,24,25,25,26,26,27,27,28,28,29,29,30,30,31,31,35,35,36,36,37,37,38,38,39,39,40,40,41,41,42,42,43,43,44,44,45,45,46,46,47,47,48,48,52,52,53,53,54,54,55,55,56,56,59,59,60,60,61,61,62,62],"right_children":[2,4,6,8,10,12,14,16,18,20,22,24,26,28,30,32,34,36,38,40,42,44,46,48,50,52,54,56,58,60,62,64,-1,-1,-1,66,68,70,72,74,76,78,80,82,84,86,88,90,92,-1,-1,-1,94,96,98,100,102,-1,-1,104,106,108,110,-1,-1,-1,-1,-1,-1,-1,-1,-1,-1,-1,-1,-1,-1,-1,-1,-1,-1,-1,-1,-1,-1,-1,-1,-1,-1,-1,-1,-1,-1,-1,-1,-1,-1,-1,-1,-1,-1,-1,-1,-1,-1,-1,-1,-1,-1,-1,-1],"split_conditions":[2.9278238E2,1.7E1,3.7665834E0,4.5895004E0,5.5311666E0,1.4205182E1,6.1236663E0,1.6666666E1,2.8999996E0,3.52075E0,5.7695003E0,3.1E1,1.5629971E1,7.3E1,3.328976E2,2.9427658E1,1.8E1,2.1E1,3.4E0,2.64606E2,3.4152596E1,3.2E1,1.34E1,1.5E1,3.2E1,1.9E1,5.4E1,4.5E1,8E1,3.1E1,1.3584932E1,1.1E1,5.4738086E-1,-3.2751613E0,-8.6552125E-1,1.6666666E1,1.4666667E1,1.7E1,2E1,1.9E1,1.6061665E0,5.8E1,4.9E1,3E1,7E-1,6.8333336E1,1.6218664E1,3.8E1,8E-1,-9.550164E-1,2.239387E0,-4.539565E-1,3.5E1,4.8333332E1,8.3E1,1.6563911E1,3.5E1,2.6151466E0,2.9705545E-1,1.2089499E1,2.5501621E1,1.3324863E1,1.1695751E1,-3.300207E-1,-1.2101269E0,-2.3507778E-2,-9.7487164E-1,2.875445E0,3.555236E-1,-1.7665524E0,-3.0940592E-1,-3.035528E-1,-1.9829139E0,7.281716E-1,-6.5450406E-1,-1.4820721E0,2.3316743E0,6.1617386E-1,2.1131055E0,3.0740017E-1,-1.954539E0,-5.1548123E-1,1.7120947E0,-3.0143025E0,-8.8993627E-1,1.1260404E-3,5.424751E-1,2.8856725E-1,3.3397648E0,9.572751E-1,-9.873442E-1,-2.4231267E0,-6.8214E-1,5.5286655E0,1.9095448E0,9.337046E-1,-1.4878013E0,2.8046412E0,7.1924573E-1,7.045939E-2,-1.5520309E0,-5.750847E0,-1.8624578E0,6.118414E-1,-3.495704E-1,-1.6346604E0,1.3540521E0,1.2522626E-1,-2.8589299E0,4.3317667E-1,1.8117919E0],"split_indices":[7,3,4,4,4,6,4,3,5,4,4,1,6,0,7,6,1,0,5,7,6,0,5,1,0,0,1,0,0,0,6,0,0,0,0,3,3,1,1,2,4,0,1,1,5,3,4,0,5,0,0,0,1,3,1,6,1,0,0,4,6,6,4,0,0,0,0,0,0,0,0,0,0,0,0,0,0,0,0,0,0,0,0,0,0,0,0,0,0,0,0,0,0,0,0,0,0,0,0,0,0,0,0,0,0,0,0,0,0,0,0],"split_type":[0,0,0,0,0,0,0,0,0,0,0,0,0,0,0,0,0,0,0,0,0,0,0,0,0,0,0,0,0,0,0,0,0,0,0,0,0,0,0,0,0,0,0,0,0,0,0,0,0,0,0,0,0,0,0,0,0,0,0,0,0,0,0,0,0,0,0,0,0,0,0,0,0,0,0,0,0,0,0,0,0,0,0,0,0,0,0,0,0,0,0,0,0,0,0,0,0,0,0,0,0,0,0,0,0,0,0,0,0,0,0],"sum_hessian":[3.984E3,3.594E3,3.9E2,3.75E2,3.219E3,5.2E1,3.38E2,2.2E1,3.53E2,4.42E2,2.777E3,1.5E1,3.7E1,6.5E1,2.73E2,1.8E1,4E0,2.59E2,9.4E1,1.61E2,2.81E2,3.5E1,2.742E3,1.1E1,4E0,5E0,3.2E1,6.2E1,3E0,1.95E2,7.8E1,1.6E1,2E0,3E0,1E0,2.29E2,3E1,1E1,8.4E1,1.39E2,2.2E1,2.41E2,4E1,1.7E1,1.8E1,2.641E3,1.01E2,3E0,8E0,1E0,3E0,1E0,4E0,2.7E1,5E0,4.6E1,1.6E1,2E0,1E0,1.14E2,8.1E1,2.6E1,5.2E1,5E0,1.1E1,2.13E2,1.6E1,4E0,2.6E1,9E0,1E0,8E1,4E0,1.5E1,1.24E2,6E0,1.6E1,2.2E2,2.1E1,2.7E1,1.3E1,1.2E1,5E0,9E0,9E0,2.569E3,7.2E1,9.4E1,7E0,2E0,1E0,7E0,1E0,2E0,2E0,2.3E1,4E0,4E0,1E0,1.6E1,3E1,3E0,1.3E1,5.1E1,6.3E1,6.7E1,1.4E1,2.3E1,3E0,2.9E1,2.3E1],"tree_param":{"num_deleted":"0","num_feature":"8","num_nodes":"111","size_leaf_vector":"1"}},{"base_weights":[1.2392544E-2,-3.2045476E0,2.6168203E-2,-1.8711463E0,-2.1210947E0,3.5884986E0,1.174649E-2,-3.4005861E0,4.8703284E0,-4.361725E-1,7.667691E0,2.9304491E-2,-2.0134497E0,2.8082338E-1,-1.2494851E0,1.8531418E-1,2.0063336E0,3.4128785E0,-4.197989E0,1.4673762E0,3.3283215E0,-4.8232E-1,1.0732501E-1,1.8426018E0,-3.2707963E0,-4.1613925E-1,5.425098E-1,4.203541E0,3.7534334E-2,-1.5978796E0,4.7267534E-2,1.4864755E0,-1.346777E0,2.4528215E0,-5.507046E-1,6.998307E-1,-2.544679E-2,-1.4197183E0,3.2560256E0,-5.3265643E0,-8.0529225E-1,1.4259408E0,3.8321343E-1,-5.3900445E-1,-6.704521E-2,-2.283931E-1,1.7381514E0,-4.414243E-1,-1.1255144E-1,1.6749913E-1,2.1889536E0,-1.0208217E0,1.5561421E-3,1.2726836E0,-5.471618E-1,-8.153905E-1,-4.1956286E0,6.376274E-1,-1.3736099E0],"categories":[],"categories_nodes":[],"categories_segments":[],"categories_sizes":[],"default_left":[0,0,0,0,0,0,0,0,0,0,0,0,0,0,0,0,0,0,0,0,0,0,0,0,0,0,0,0,0,0,0,0,0,0,0,0,0,0,0,0,0,0,0,0,0,0,0,0,0,0,0,0,0,0,0,0,0,0,0],"id":15,"left_children":[1,3,5,7,-1,9,11,13,15,17,19,21,23,25,-1,-1,-1,27,29,31,-1,33,35,37,39,-1,-1,41,-1,-1,-1,-1,43,45,47,49,51,-1,53,55,57,-1,-1,-1,-1,-1,-1,-1,-1,-1,-1,-1,-1,-1,-1,-1,-1,-1,-1],"loss_changes":[1.76681E2,7.439896E1,2.0386485E2,1.609115E2,0E0,2.6602295E2,1.4065689E2,3.493686E1,1.9055603E1,1.4464203E2,1.53694E2,1.5656715E2,1.7087216E2,1.0152052E1,0E0,0E0,0E0,1.2471638E1,2.5410507E1,4.5931076E1,0E0,1.0552365E2,2.6772516E2,9.90481E1,1.2749164E2,0E0,0E0,3.6125946E-1,0E0,0E0,0E0,0E0,1.1145935E0,1.3327252E2,8.154843E1,5.7745447E2,2.8773914E2,0E0,4.7817894E1,2.7821274E2,1.5349591E2,0E0,0E0,0E0,0E0,0E0,0E0,0E0,0E0,0E0,0E0,0E0,0E0,0E0,0E0,0E0,0E0,0E0,0E0],"parents":[2147483647,0,0,1,1,2,2,3,3,5,5,6,6,7,7,8,8,9,9,10,10,11,11,12,12,13,13,17,17,18,18,19,19,21,21,22,22,23,23,24,24,27,27,32,32,33,33,34,34,35,35,36,36,38,38,39,39,40,40],"right_children":[2,4,6,8,-1,10,12,14,16,18,20,22,24,26,-1,-1,-1,28,30,32,-1,34,36,38,40,-1,-1,42,-1,-1,-1,-1,44,46,48,50,52,-1,54,56,58,-1,-1,-1,-1,-1,-1,-1,-1,-1,-1,-1,-1,-1,-1,-1,-1,-1,-1],"split_conditions":[7.353611E0,3.7E1,5.8867397E0,3.2E1,-2.1210947E0,2.8E1,3.50484E2,2.873211E1,3.4E1,1.3896187E1,1.1233253E1,1.6E1,2.3E1,1.7E1,-1.2494851E0,1.8531418E-1,2.0063336E0,2.4E1,5.6E1,3.2E1,3.3283215E0,8.557102E0,2E1,1.0464798E1,3.9333332E1,-4.1613925E-1,5.425098E-1,1.5007E1,3.7534334E-2,-1.5978796E0,4.7267534E-2,1.4864755E0,3.4E1,1.8E1,1.3246826E1,3.3721933E2,1.5354952E1,-1.4197183E0,1.5387416E1,3.7333332E1,1.3648667E1,1.4259408E0,3.8321343E-1,-5.3900445E-1,-6.704521E-2,-2.283931E-1,1.7381514E0,-4.414243E-1,-1.1255144E-1,1.6749913E-1,2.1889536E0,-1.0208217E0,1.5561421E-3,1.2726836E0,-5.471618E-1,-8.153905E-1,-4.1956286E0,6.376274E-1,-1.3736099E0],"split_indices":[6,1,7,0,0,0,7,7,0,6,4,0,2,0,0,0,0,0,1,0,0,6,1,6,3,0,0,4,0,0,0,0,0,3,6,7,7,0,4,3,4,0,0,0,0,0,0,0,0,0,0,0,0,0,0,0,0,0,0],"split_type":[0,0,0,0,0,0,0,0,0,0,0,0,0,0,0,0,0,0,0,0,0,0,0,0,0,0,0,0,0,0,0,0,0,0,0,0,0,0,0,0,0,0,0,0,0,0,0,0,0,0,0,0,0,0,0,0,0,0,0],"sum_hessian":[3.984E3,1.6E1,3.968E3,1.3E1,3E0,1.5E1,3.953E3,1.1E1,2E0,8E0,7E0,3.92E3,3.3E1,2E0,9E0,1E0,1E0,4E0,4E0,3E0,4E0,5.18E2,3.402E3,8E0,2.5E1,1E0,1E0,3E0,1E0,3E0,1E0,1E0,2E0,1.1E1,5.07E2,6.22E2,2.78E3,1E0,7E0,1.3E1,1.2E1,2E0,1E0,1E0,1E0,6E0,5E0,8E1,4.27E2,6.1E2,1.2E1,2.4E1,2.756E3,6E0,1E0,1.1E1,2E0,7E0,5E0],"tree_param":{"num_deleted":"0","num_feature":"8","num_nodes":"59","size_leaf_vector":"1"}},{"base_weights":[8.499835E-3,-1.360549E-1,2.3615871E-1,-2.2155172E-3,-1.6095959E0,2.4749744E0,9.46301E-2,-3.0198308E-2,3.652138E0,-1.9589295E0,6.1381435E0,-3.5668302E0,4.6598296E0,3.634465E-1,-7.9984415E-1,-9.314177E-3,-3.5749648E0,6.245394E0,-2.1430645E0,-1.4596301E0,-7.1010275E0,-4.8040983E-1,7.3057528E0,3.957166E0,-6.1511006E0,2.8075147E0,1.0051626E1,1.8084055E0,1.20988786E-1,-4.851592E0,-3.881046E-1,-2.4398597E-2,3.3257606E0,3.691932E0,-7.214911E0,7.637653E0,2.768702E0,-2.2400293E0,2.385476E0,-1.6791956E0,6.517089E0,2.521983E0,-9.729153E0,1.9502106E-1,2.4491093E0,6.8296614E0,-6.448145E-1,-3.114357E0,-3.663496E0,9.398246E-2,6.8087296E0,5.570328E0,5.9078026E0,2.1652799E0,-6.3521523E0,-1.7375405E0,3.583378E-1,1.2951881E0,-7.8403063E0,5.436593E0,-5.6213194E-1,-4.0543474E-2,2.3308508E-1,1.6616738E0,-5.543985E-1,-1.0472678E0,-2.5485315E0,6.807661E-1,2.4241195E0,9.1326404E-1,2.4999848E-1,8.5677457E-1,1.4612389E-1,-1.4763529E0,-3.6873782E-1,2.4171822E0,5.3452495E-2,-3.5878575E0,9.536522E-1,9.8276146E-2,2.511985E0,-2.744624E-1,-2.5153034E0,1.0205042E0,-1.0278963E0,3.2889996E0,1.5333684E-2,2.5733986E-1,2.2708423E0,1.9492066E-1,1.3104427E0,-1.7639866E-1,-2.1644537E0,-1.2230151E0,1.8996827E-1,2.9910436E-1,-4.927114E-2,-2.177656E0,1.623093E0,-7.6819235E-1,-4.0175624E0,2.2400238E-1,2.297132E0,-1.1377444E0,-7.992592E-2],"categories":[],"categories_nodes":[],"categories_segments":[],"categories_sizes":[],"default_left":[0,0,0,0,0,0,0,0,0,0,0,0,0,0,0,0,0,0,0,0,0,0,0,0,0,0,0,0,0,0,0,0,0,0,0,0,0,0,0,0,0,0,0,0,0,0,0,0,0,0,0,0,0,0,0,0,0,0,0,0,0,0,0,0,0,0,0,0,0,0,0,0,0,0,0,0,0,0,0,0,0,0,0,0,0,0,0,0,0,0,0,0,0,0,0,0,0,0,0,0,0,0,0,0,0],"id":16,"left_children":[1,3,5,7,9,11,13,15,17,19,21,23,25,27,29,31,33,35,37,39,41,-1,43,45,47,49,51,53,55,57,59,61,-1,63,65,67,69,-1,71,73,75,-1,77,-1,-1,79,-1,81,-1,83,85,87,-1,89,91,93,95,97,99,101,103,-1,-1,-1,-1,-1,-1,-1,-1,-1,-1,-1,-1,-1,-1,-1,-1,-1,-1,-1,-1,-1,-1,-1,-1,-1,-1,-1,-1,-1,-1,-1,-1,-1,-1,-1,-1,-1,-1,-1,-1,-1,-1,-1,-1],"loss_changes":[1.3117517E2,4.808135E2,4.9025967E2,2.2876144E2,5.6145294E2,1.2310637E3,3.506254E2,1.6431189E2,2.6886786E2,4.9028717E2,9.3029724E1,5.10442E2,6.509165E2,3.9251398E2,5.603223E2,3.69811E2,3.7050146E2,3.6939056E1,1.6246333E2,3.244463E2,7.746415E2,0E0,4.0374695E1,1.3746677E2,3.1165112E2,5.639462E2,6.247803E2,4.8263324E2,4.2453903E2,5.796546E2,3.1424866E2,1.9587962E2,0E0,6.139656E1,1.3251709E1,6.7858887E-1,1.292572E-1,0E0,2.1812592E0,2.4929675E2,4.7379898E1,0E0,4.698617E2,0E0,0E0,4.744075E1,0E0,1.5460677E2,0E0,3.8426648E2,5.8901917E2,1.15980316E2,0E0,5.1463477E2,3.056662E1,6.070567E2,2.84858E2,4.264828E2,5.812272E2,8.800888E1,2.8461047E2,0E0,0E0,0E0,0E0,0E0,0E0,0E0,0E0,0E0,0E0,0E0,0E0,0E0,0E0,0E0,0E0,0E0,0E0,0E0,0E0,0E0,0E0,0E0,0E0,0E0,0E0,0E0,0E0,0E0,0E0,0E0,0E0,0E0,0E0,0E0,0E0,0E0,0E0,0E0,0E0,0E0,0E0,0E0,0E0],"parents":[2147483647,0,0,1,1,2,2,3,3,4,4,5,5,6,6,7,7,8,8,9,9,10,10,11,11,12,12,13,13,14,14,15,15,16,16,17,17,18,18,19,19,20,20,22,22,23,23,24,24,25,25,26,26,27,27,28,28,29,29,30,30,31,31,33,33,34,34,35,35,36,36,38,38,39,39,40,40,42,42,45,45,47,47,49,49,50,50,51,51,53,53,54,54,55,55,56,56,57,57,58,58,59,59,60,60],"right_children":[2,4,6,8,10,12,14,16,18,20,22,24,26,28,30,32,34,36,38,40,42,-1,44,46,48,50,52,54,56,58,60,62,-1,64,66,68,70,-1,72,74,76,-1,78,-1,-1,80,-1,82,-1,84,86,88,-1,90,92,94,96,98,100,102,104,-1,-1,-1,-1,-1,-1,-1,-1,-1,-1,-1,-1,-1,-1,-1,-1,-1,-1,-1,-1,-1,-1,-1,-1,-1,-1,-1,-1,-1,-1,-1,-1,-1,-1,-1,-1,-1,-1,-1,-1,-1,-1,-1,-1],"split_conditions":[3.3666668E1,3.1666666E1,3E1,4.7E1,5E1,6.172834E0,1.4029918E1,4.4E1,1.5727E1,4.5E1,2.1E1,2.9E1,2.9E1,3.6333332E1,1.43186655E1,4.3E1,2E1,6E-1,2.0124474E2,4.7E1,1.0299397E1,-4.8040983E-1,3.52075E0,5.22075E0,2.5228625E2,1.4E0,2.3907559E2,3.7374172E1,3.8333332E1,1.7043336E2,1.44486685E1,2.9E1,3.3257606E0,4.9E1,1.0204083E1,6.748328E1,3.1542658E1,-2.2400293E0,4.8E1,1.2413477E1,3.5E1,2.521983E0,1.1897835E1,1.9502106E-1,2.4491093E0,1.7E1,-6.448145E-1,3.8666668E1,-3.663496E0,1.2749916E1,2.7722336E1,1.224E1,5.9078026E0,2.2195724E2,1.9827357E2,2.19718E1,2.2255669E2,5.305478E1,4.2333332E1,8.705999E1,1.46049185E1,-4.0543474E-2,2.3308508E-1,1.6616738E0,-5.543985E-1,-1.0472678E0,-2.5485315E0,6.807661E-1,2.4241195E0,9.1326404E-1,2.4999848E-1,8.5677457E-1,1.4612389E-1,-1.4763529E0,-3.6873782E-1,2.4171822E0,5.3452495E-2,-3.5878575E0,9.536522E-1,9.8276146E-2,2.511985E0,-2.744624E-1,-2.5153034E0,1.0205042E0,-1.0278963E0,3.2889996E0,1.5333684E-2,2.5733986E-1,2.2708423E0,1.9492066E-1,1.3104427E0,-1.7639866E-1,-2.1644537E0,-1.2230151E0,1.8996827E-1,2.9910436E-1,-4.927114E-2,-2.177656E0,1.623093E0,-7.6819235E-1,-4.0175624E0,2.2400238E-1,2.297132E0,-1.1377444E0,-7.992592E-2],"split_indices":[3,3,1,0,0,4,4,1,4,0,1,0,1,3,4,1,0,5,7,1,6,0,4,4,7,5,7,6,3,7,4,3,0,1,4,7,6,0,0,6,2,0,4,0,0,0,0,3,0,4,6,6,0,7,7,6,7,7,3,7,4,0,0,0,0,0,0,0,0,0,0,0,0,0,0,0,0,0,0,0,0,0,0,0,0,0,0,0,0,0,0,0,0,0,0,0,0,0,0,0,0,0,0,0,0],"split_type":[0,0,0,0,0,0,0,0,0,0,0,0,0,0,0,0,0,0,0,0,0,0,0,0,0,0,0,0,0,0,0,0,0,0,0,0,0,0,0,0,0,0,0,0,0,0,0,0,0,0,0,0,0,0,0,0,0,0,0,0,0,0,0,0,0,0,0,0,0,0,0,0,0,0,0,0,0,0,0,0,0,0,0,0,0,0,0,0,0,0,0,0,0,0,0,0,0,0,0,0,0,0,0,0,0],"sum_hessian":[3.984E3,2.437E3,1.547E3,2.235E3,2.02E2,9.1E1,1.456E3,2.219E3,1.6E1,1.94E2,8E0,2.4E1,6.7E1,1.12E3,3.36E2,2.207E3,1.2E1,1.1E1,5E0,1.78E2,1.6E1,1E0,7E0,6E0,1.8E1,5.1E1,1.6E1,1.6E2,9.6E2,3E1,3.06E2,2.205E3,2E0,4E0,8E0,7E0,4E0,2E0,3E0,1.74E2,4E0,2E0,1.4E1,1E0,6E0,4E0,2E0,1.3E1,5E0,3.1E1,2E1,1.2E1,4E0,1.54E2,6E0,1.08E2,8.52E2,1E1,2E1,8E0,2.98E2,1.938E3,2.67E2,3E0,1E0,3E0,5E0,1E0,6E0,3E0,1E0,2E0,1E0,2E1,1.54E2,3E0,1E0,1.2E1,2E0,1E0,3E0,1E1,3E0,1.6E1,1.5E1,1.2E1,8E0,4E0,8E0,9.2E1,6.2E1,1E0,5E0,5.4E1,5.4E1,3.83E2,4.69E2,3E0,7E0,1.1E1,9E0,3E0,5E0,2.4E1,2.74E2],"tree_param":{"num_deleted":"0","num_feature":"8","num_nodes":"105","size_leaf_vector":"1"}},{"base_weights":[8.0391755E-3,-1.7873164E-3,3.5582452E0,1.7847084E-2,-2.984637E0,4.816553E0,-1.4027609E0,1.0770294E-2,4.1946135E0,-3.9089904E0,3.0765533E0,2.059185E0,1.8058465E0,-4.5973208E-2,-5.852692E-1,2.289018E-2,-3.1693978E0,-4.7564855E0,-7.1500653E-1,5.6917316E-1,1.5898042E0,7.429413E-1,1.5998192E-1,-9.76222E-3,2.3265462E0,-1.191764E0,-8.30995E0,-1.0072447E0,-5.1621876E0,4.1165316E-1,-1.4068787E0,2.8952867E-1,-3.340073E-2,2.1865424E-3,-1.4159786E0,1.3505269E0,-2.6866847E-1,-6.6288114E-1,7.794869E-1,-2.966124E0,-5.36784E-1,-8.710471E-2,-3.6615545E-1,-9.3336874E-1,-1.8244921E0,-5.931313E-1,1.3110352E-1],"categories":[],"categories_nodes":[],"categories_segments":[],"categories_sizes":[],"default_left":[1,1,0,1,0,0,0,1,0,0,0,0,0,0,0,1,0,0,0,0,0,0,0,1,0,0,0,0,0,0,0,0,0,0,0,0,0,0,0,0,0,0,0,0,0,0,0],"id":17,"left_children":[1,3,5,7,9,11,13,15,-1,17,19,-1,21,-1,-1,23,25,27,29,31,-1,-1,-1,33,35,37,39,41,43,-1,45,-1,-1,-1,-1,-1,-1,-1,-1,-1,-1,-1,-1,-1,-1,-1,-1],"loss_changes":[1.3902736E2,2.3285497E2,7.5423676E1,3.9019504E2,1.5769594E2,4.3081757E1,1.755754E0,1.5227994E2,0E0,5.885742E1,1.927731E1,0E0,2.9464588E0,0E0,0E0,2.96013E2,1.4258844E2,2.217981E1,1.0594872E1,9.1573566E-1,0E0,0E0,0E0,3.1172372E2,3.8951346E2,5.2033188E1,2.3445007E1,1.0430813E-1,1.1250763E1,0E0,6.1211853E0,0E0,0E0,0E0,0E0,0E0,0E0,0E0,0E0,0E0,0E0,0E0,0E0,0E0,0E0,0E0,0E0],"parents":[2147483647,0,0,1,1,2,2,3,3,4,4,5,5,6,6,7,7,9,9,10,10,12,12,15,15,16,16,17,17,18,18,19,19,23,23,24,24,25,25,26,26,27,27,28,28,30,30],"right_children":[2,4,6,8,10,12,14,16,-1,18,20,-1,22,-1,-1,24,26,28,30,32,-1,-1,-1,34,36,38,40,42,44,-1,46,-1,-1,-1,-1,-1,-1,-1,-1,-1,-1,-1,-1,-1,-1,-1,-1],"split_conditions":[1.71E2,9E1,2.05E2,8.9666664E1,1.6991583E1,1.3842416E1,2.27E2,9E1,4.1946135E0,1.54E2,1.05E2,2.059185E0,1.82E2,-4.5973208E-2,-5.852692E-1,6.7666664E1,6.2E0,1.4336861E1,1.47E2,1.1E2,1.5898042E0,7.429413E-1,1.5998192E-1,7.7E1,2.6999998E0,8.4E1,7.5E1,1.9E1,8.7E1,4.1165316E-1,9.874917E0,2.8952867E-1,-3.340073E-2,2.1865424E-3,-1.4159786E0,1.3505269E0,-2.6866847E-1,-6.6288114E-1,7.794869E-1,-2.966124E0,-5.36784E-1,-8.710471E-2,-3.6615545E-1,-9.3336874E-1,-1.8244921E0,-5.931313E-1,1.3110352E-1],"split_indices":[0,3,0,3,4,4,0,1,0,3,2,0,0,0,0,3,5,6,0,0,0,0,0,1,5,3,0,0,2,0,4,0,0,0,0,0,0,0,0,0,0,0,0,0,0,0,0],"split_type":[0,0,0,0,0,0,0,0,0,0,0,0,0,0,0,0,0,0,0,0,0,0,0,0,0,0,0,0,0,0,0,0,0,0,0,0,0,0,0,0,0,0,0,0,0,0,0],"sum_hessian":[3.984E3,3.974E3,1E1,3.949E3,2.5E1,8E0,2E0,3.948E3,1E0,2.2E1,3E0,4E0,4E0,1E0,1E0,3.934E3,1.4E1,1.7E1,5E0,2E0,1E0,2E0,2E0,3.88E3,5.4E1,1.1E1,3E0,2E0,1.5E1,1E0,4E0,1E0,1E0,3.867E3,1.3E1,3.2E1,2.2E1,9E0,2E0,2E0,1E0,1E0,1E0,6E0,9E0,3E0,1E0],"tree_param":{"num_deleted":"0","num_feature":"8","num_nodes":"47","size_leaf_vector":"1"}},{"base_weights":[5.977281E-3,-1.5381302E0,2.6385926E-2,2.8248522E-1,-3.6739516E0,-3.5896146E0,3.65158E-2,6.8924766E0,-1.7415333E0,2.0097363E0,-4.581609E0,-3.3683233E-2,-7.8499956E0,-2.0371077E0,5.1405445E-2,5.7743096E-1,2.5483818E0,-2.5429935E0,-3.0743432E-1,1.8439963E0,-1.418121E0,-6.2956133E0,-2.5422654E-1,-1.1901306E0,1.9049568E0,-6.757888E-1,-2.605854E0,1.1681786E0,-2.9643757E0,1.6382198E0,3.1191021E-2,-1.3663024E0,4.2696133E0,-6.925723E-1,5.4417804E-2,-6.678964E0,-1.3930522E-1,-2.6853147E0,2.2404182E0,-1.1709881E-1,-8.223387E-1,7.209838E-1,1.3624679E-1,-1.992554E0,1.814002E0,-3.5268238E0,1.3270546E0,2.574013E0,-5.497299E0,1.4857752E0,8.155072E-3,1.2210007E-1,-6.417285E-1,1.4814359E0,3.396143E-1,-7.2649235E-1,-2.1560144E0,-9.1411656E-1,-2.4001409E-1,8.071487E-1,1.3352795E-1,-1.4898378E-1,5.248299E-2,-3.720217E-2,-9.590748E-1,-2.7382207E-1,-1.3534824E0,-9.126928E-3,1.8007511E0,-2.1539252E0,-4.2647955E-1,1.59546E-1,2.0497293E0,4.9890015E-2,-7.04987E-2],"categories":[],"categories_nodes":[],"categories_segments":[],"categories_sizes":[],"default_left":[1,0,0,0,1,0,0,0,0,0,0,0,0,0,0,0,0,0,0,0,0,0,0,0,0,0,0,0,0,0,0,0,0,0,0,0,0,1,0,0,0,0,0,0,0,0,0,0,0,0,0,0,0,0,0,0,0,0,0,0,0,0,0,0,0,0,0,0,0,0,0,0,0,0,0],"id":18,"left_children":[1,3,5,7,9,11,13,15,17,19,21,23,25,27,29,-1,-1,-1,31,-1,33,35,37,39,41,-1,-1,43,45,47,49,51,53,-1,-1,55,-1,57,59,61,-1,-1,-1,63,-1,65,-1,67,69,71,73,-1,-1,-1,-1,-1,-1,-1,-1,-1,-1,-1,-1,-1,-1,-1,-1,-1,-1,-1,-1,-1,-1,-1,-1],"loss_changes":[1.2562046E2,2.0324033E2,1.4423201E2,3.999871E2,1.3301999E2,1.663814E2,1.21260254E2,3.9362183E1,2.1954678E2,6.543976E1,1.541597E2,1.7960693E1,3.8354187E0,8.668339E1,1.2495116E2,0E0,0E0,0E0,1.0276337E2,0E0,4.6916347E0,3.042987E1,4.8469135E1,8.00037E0,1.0774374E0,0E0,0E0,1.1998563E2,1.0701764E2,3.413412E2,1.2895914E2,2.4167336E1,2.7997437E0,0E0,0E0,1.2859558E1,0E0,2.9012108E-1,2.0346203E0,5.30215E-1,0E0,0E0,0E0,1.0855593E1,0E0,4.9942535E1,0E0,3.930711E2,3.093628E1,3.0239462E2,1.4577618E2,0E0,0E0,0E0,0E0,0E0,0E0,0E0,0E0,0E0,0E0,0E0,0E0,0E0,0E0,0E0,0E0,0E0,0E0,0E0,0E0,0E0,0E0,0E0,0E0],"parents":[2147483647,0,0,1,1,2,2,3,3,4,4,5,5,6,6,7,7,8,8,9,9,10,10,11,11,12,12,13,13,14,14,18,18,20,20,21,21,22,22,23,23,24,24,27,27,28,28,29,29,30,30,31,31,32,32,35,35,37,37,38,38,39,39,43,43,45,45,47,47,48,48,49,49,50,50],"right_children":[2,4,6,8,10,12,14,16,18,20,22,24,26,28,30,-1,-1,-1,32,-1,34,36,38,40,42,-1,-1,44,46,48,50,52,54,-1,-1,56,-1,58,60,62,-1,-1,-1,64,-1,66,-1,68,70,72,74,-1,-1,-1,-1,-1,-1,-1,-1,-1,-1,-1,-1,-1,-1,-1,-1,-1,-1,-1,-1,-1,-1,-1,-1],"split_conditions":[9E0,2.1077686E1,7E0,1.080825E1,7E0,1.6E1,8E0,8E0,7.13494E1,7E0,3.0972555E1,1.8154917E1,6E0,1E1,1E1,5.7743096E-1,2.5483818E0,-2.5429935E0,1.9491583E1,1.8439963E0,6E0,1.9491583E1,1.064575E1,1.4E1,1.1E1,-6.757888E-1,-2.605854E0,1.2E1,2.7E1,1.8154917E1,1E1,1.2E1,2.5E1,-6.925723E-1,5.4417804E-2,1E-1,-1.3930522E-1,7.2E1,2.6E1,6E0,-8.223387E-1,7.209838E-1,1.3624679E-1,1.1119281E1,1.814002E0,1.080825E1,1.3270546E0,1.3467416E1,1.9491583E1,2.4E1,2.3471024E2,1.2210007E-1,-6.417285E-1,1.4814359E0,3.396143E-1,-7.2649235E-1,-2.1560144E0,-9.1411656E-1,-2.4001409E-1,8.071487E-1,1.3352795E-1,-1.4898378E-1,5.248299E-2,-3.720217E-2,-9.590748E-1,-2.7382207E-1,-1.3534824E0,-9.126928E-3,1.8007511E0,-2.1539252E0,-4.2647955E-1,1.59546E-1,2.0497293E0,4.9890015E-2,-7.04987E-2],"split_indices":[2,6,1,4,0,2,0,2,7,1,6,4,1,3,2,0,0,0,4,0,0,4,4,2,0,0,0,2,1,4,1,0,0,0,0,5,0,1,0,1,0,0,0,6,0,4,0,4,4,2,7,0,0,0,0,0,0,0,0,0,0,0,0,0,0,0,0,0,0,0,0,0,0,0,0],"split_type":[0,0,0,0,0,0,0,0,0,0,0,0,0,0,0,0,0,0,0,0,0,0,0,0,0,0,0,0,0,0,0,0,0,0,0,0,0,0,0,0,0,0,0,0,0,0,0,0,0,0,0,0,0,0,0,0,0,0,0,0,0,0,0,0,0,0,0,0,0,0,0,0,0,0,0],"sum_hessian":[3.984E3,5.1E1,3.933E3,2.8E1,2.3E1,1E1,3.923E3,6E0,2.2E1,3E0,2E1,6E0,4E0,2.7E1,3.896E3,2E0,4E0,3E0,1.9E1,1E0,2E0,1.4E1,6E0,4E0,2E0,1E0,3E0,6E0,2.1E1,4.8E1,3.848E3,1.6E1,3E0,1E0,1E0,1.3E1,1E0,3E0,3E0,3E0,1E0,1E0,1E0,4E0,2E0,2E1,1E0,4.3E1,5E0,5.9E1,3.789E3,5E0,1.1E1,2E0,1E0,2E0,1.1E1,2E0,1E0,2E0,1E0,1E0,2E0,2E0,2E0,6E0,1.4E1,2.5E1,1.8E1,3E0,2E0,5.1E1,8E0,2.296E3,1.493E3],"tree_param":{"num_deleted":"0","num_feature":"8","num_nodes":"75","size_leaf_vector":"1"}},{"base_weights":[3.7902726E-3,2.0690878E-1,-1.3199207E-1,1.5646741E-1,3.2487133E0,-3.169356E-1,3.4794715E-1,3.2853594E-1,-7.211551E-1,-7.966E-1,8.837468E0,-2.1486967E0,-1.462036E-1,9.8854266E-2,3.9488056E0,1.6618358E-1,3.7818987E0,4.563622E-1,-2.3871503E0,1.2975118E0,-7.403313E0,-7.0559406E-1,1.019161E1,1.055124E0,-3.5724914E0,-6.5102124E-1,2.2853561E-1,3.544476E-1,-3.1919768E0,5.502309E0,-3.53556E0,-2.4547129E0,2.5434345E-1,8.205857E0,1.6395301E0,-9.877314E-1,5.1369896E0,-1.4189137E0,-6.063568E0,1.842352E0,-3.3982202E-1,-4.2992336E-1,-2.6747098E0,6.5471272E0,4.953909E0,-2.888666E-1,5.922377E0,-2.107877E0,-9.472017E0,-2.0890032E-1,-4.226988E0,4.0528126E0,6.1235536E-2,9.619394E-1,-9.445454E-1,-1.0927218E0,-6.585295E0,-2.9287475E-1,6.6711082E0,-1.3616899E0,-3.5022736E-1,2.6882634E-1,-1.3266996E0,1.7816795E0,5.6409705E-2,5.8853596E-1,3.2810493E0,-1.24991275E-1,1.690427E0,-6.990703E-2,-1.9570744E0,3.6693654E0,1.0794612E0,-6.65493E-1,1.7000531E0,-2.3961864E0,-2.4008135E-1,-2.4000007E-1,6.5597624E-1,2.20259E0,8.325222E-1,4.7265133E-1,-1.1555926E0,-3.1295434E-1,2.3382494E0,-8.160087E-1,1.860423E0,-3.5210917E0,-6.692879E-1,-1.4778487E-1,9.4193107E-1,-3.3943227E-1,-2.0928097E0,-5.452604E-2,2.361903E0,3.275683E-2,-2.0586972E0,-1.542747E0,3.4998834E-1,3.1239966E-1,-6.010599E-1,-1.6124834E0,6.7385906E-1,-8.293467E-1,-2.6950233E0,1.3188397E0,-9.1431123E-1,1.6100775E0,3.6355922E0,3.7769166E-1,-5.35294E-1],"categories":[],"categories_nodes":[],"categories_segments":[],"categories_sizes":[],"default_left":[0,0,0,0,1,0,0,0,0,1,0,0,1,0,0,0,0,0,0,0,0,0,0,0,0,1,0,0,0,0,0,0,0,0,0,0,0,0,0,0,0,0,0,0,0,0,0,0,0,1,0,0,0,0,0,0,0,0,0,0,0,0,0,0,0,0,0,0,0,0,0,0,0,0,0,0,0,0,0,0,0,0,0,0,0,0,0,0,0,0,0,0,0,0,0,0,0,0,0,0,0,0,0,0,0,0,0,0,0,0,0],"id":19,"left_children":[1,3,5,7,9,11,13,15,17,19,21,23,25,27,29,31,33,35,37,39,41,-1,43,45,47,49,51,53,55,57,59,61,63,65,67,69,71,73,75,77,-1,-1,-1,79,-1,81,83,85,87,89,91,93,95,97,99,101,103,105,107,-1,109,-1,-1,-1,-1,-1,-1,-1,-1,-1,-1,-1,-1,-1,-1,-1,-1,-1,-1,-1,-1,-1,-1,-1,-1,-1,-1,-1,-1,-1,-1,-1,-1,-1,-1,-1,-1,-1,-1,-1,-1,-1,-1,-1,-1,-1,-1,-1,-1,-1,-1],"loss_changes":[1.0993324E2,2.4452382E2,2.1216187E2,2.3762662E2,5.9485474E2,5.391627E2,5.960802E2,7.366416E2,5.0721783E2,2.30969E2,1.9064362E2,6.7432214E2,2.9885608E2,5.251457E2,5.194142E2,2.9106415E2,5.457336E2,1.0324822E3,3.72278E2,1.9300196E1,2.3340317E1,0E0,1.2227026E2,3.0262177E2,8.6136816E2,1.0631365E3,5.8005206E2,4.5781342E2,3.13359E2,2.4579651E2,2.397979E1,2.742799E2,4.5763306E2,3.0253955E2,3.3915668E2,4.8729996E2,3.4898334E2,4.9970294E2,2.1636035E2,1.1754768E1,0E0,0E0,0E0,3.6109009E0,0E0,2.5185817E2,1.3851117E2,4.3905133E2,3.018286E2,5.715893E2,6.218318E2,6.1615234E2,2.895994E2,4.9955405E2,3.9114493E2,4.2671494E2,1.3093195E2,1.0382001E2,1.4809753E2,0E0,9.169592E0,0E0,0E0,0E0,0E0,0E0,0E0,0E0,0E0,0E0,0E0,0E0,0E0,0E0,0E0,0E0,0E0,0E0,0E0,0E0,0E0,0E0,0E0,0E0,0E0,0E0,0E0,0E0,0E0,0E0,0E0,0E0,0E0,0E0,0E0,0E0,0E0,0E0,0E0,0E0,0E0,0E0,0E0,0E0,0E0,0E0,0E0,0E0,0E0,0E0,0E0],"parents":[2147483647,0,0,1,1,2,2,3,3,4,4,5,5,6,6,7,7,8,8,9,9,10,10,11,11,12,12,13,13,14,14,15,15,16,16,17,17,18,18,19,19,20,20,22,22,23,23,24,24,25,25,26,26,27,27,28,28,29,29,30,30,31,31,32,32,33,33,34,34,35,35,36,36,37,37,38,38,39,39,43,43,45,45,46,46,47,47,48,48,49,49,50,50,51,51,52,52,53,53,54,54,55,55,56,56,57,57,58,58,60,60],"right_children":[2,4,6,8,10,12,14,16,18,20,22,24,26,28,30,32,34,36,38,40,42,-1,44,46,48,50,52,54,56,58,