{"learner":{"attributes":{"scikit_learn":"{\"_estimator_type\": \"regressor\"}"},"feature_names":["pm25_lag_1","pm25_lag_2","pm25_lag_3","pm25_roll_3","temperature_2m_mean","precipitation_sum","wind_speed_10m_max","wind_direction_10m_dominant"],"feature_types":["float","float","float","float","float","float","float","float"],"gradient_booster":{"model":{"gbtree_model_param":{"num_parallel_tree":"1","num_trees":"100"},"iteration_indptr":[0,1,2,3,4,5,6,7,8,9,10,11,12,13,14,15,16,17,18,19,20,21,22,23,24,25,26,27,28,29,30,31,32,33,34,35,36,37,38,39,40,41,42,43,44,45,46,47,48,49,50,51,52,53,54,55,56,57,58,59,60,61,62,63,64,65,66,67,68,69,70,71,72,73,74,75,76,77,78,79,80,81,82,83,84,85,86,87,88,89,90,91,92,93,94,95,96,97,98,99,100],"tree_info":[0,0,0,0,0,0,0,0,0,0,0,0,0,0,0,0,0,0,0,0,0,0,0,0,0,0,0,0,0,0,0,0,0,0,0,0,0,0,0,0,0,0,0,0,0,0,0,0,0,0,0,0,0,0,0,0,0,0,0,0,0,0,0,0,0,0,0,0,0,0,0,0,0,0,0,0,0,0,0,0,0,0,0,0,0,0,0,0,0,0,0,0,0,0,0,0,0,0,0,0],"trees":[{"base_weights":[1.0243876E-7,-5.781888E0,1.4096338E1,-8.834717E0,-1.9749674E0,1.0160234E1,3.7539574E1,-1.1527934E1,-7.3514137E0,1.1078646E0,-4.577795E0,1.6834703E1,6.846596E0,3.0647379E1,1.6292225E1,-3.431101E0,-1.1636276E1,-5.099235E0,-9.26042E0,-1.9762844E0,3.8489146E0,-2.5061266E0,-6.488865E0,1.22877655E1,2.6293547E1,1.7489873E0,1.3073728E1,3.832084E1,1.8898844E1,-1.2521572E0,4.240179E-2,-1.2936567E1,-1.0798081E1,-2.7028902E0,-6.6905184E0,-7.9140677E0,-1.0367498E1,2.5865042E-1,-4.7080054E0,7.1684265E0,9.110021E-1,-5.9677057E0,-9.3603335E-2,-8.25078E0,-4.0466127E0,1.4953037E1,4.6699767E0,2.4225088E1,1.0636324E1,3.2294004E0,-5.6220055E0,1.793165E1,2.4113007E0,3.2742596E1,1.4500175E1,9.513458E0,1.1633466E1,-3.8955467E0,-1.0075983E0,-2.7979727E0,-3.7334087E0,-1.3018386E0,5.56035E-2,-2.5047307E0,-1.3787565E0,-2.6087775E0,-1.3995844E0,-3.7748928E0,-2.8430262E0,1.2705516E0,-3.9033854E-1,-3.3627486E-1,-1.8367383E0,1.3498999E0,3.2608902E0,-3.664813E-1,1.3773088E0,-9.4374394E-1,-2.4232132E0,1.4430804E0,-4.181026E-1,-2.1978712E0,-3.3080232E0,-7.656867E-1,-2.4385886E0,6.0028977E0,3.6962852E0,3.0092271E-2,2.509337E0,7.5254807E0,3.8206697E0,1.7599345E0,-2.2012982E-1,-5.222634E-1,-2.125368E0,4.0837164E0,7.219712E0,1.9705448E0,-8.738929E-1,9.991745E0,2.2924018E0,4.9858894E0,7.75381E-1],"categories":[],"categories_nodes":[],"categories_segments":[],"categories_sizes":[],"default_left":[0,0,0,0,0,0,0,0,0,0,0,0,0,0,0,0,0,0,0,0,0,0,0,0,0,0,0,0,0,0,0,0,0,0,0,0,0,0,0,0,0,0,0,0,0,0,0,0,0,0,0,0,0,0,0,0,0,0,0,0,0,0,0,0,0,0,0,0,0,0,0,0,0,0,0,0,0,0,0,0,0,0,0,0,0,0,0,0,0,0,0,0,0,0,0,0,0,0,0,0,0,0,0],"id":0,"left_children":[1,3,5,7,9,11,13,15,17,19,21,23,25,27,-1,29,31,33,35,37,39,41,43,45,47,49,51,53,55,-1,-1,57,59,61,63,65,67,69,71,73,75,77,79,81,83,85,87,89,-1,91,93,95,97,99,-1,-1,101,-1,-1,-1,-1,-1,-1,-1,-1,-1,-1,-1,-1,-1,-1,-1,-1,-1,-1,-1,-1,-1,-1,-1,-1,-1,-1,-1,-1,-1,-1,-1,-1,-1,-1,-1,-1,-1,-1,-1,-1,-1,-1,-1,-1,-1,-1],"loss_changes":[2.0343261E5,2.0553277E4,6.661025E4,3.8382031E3,6.3360713E3,1.3663504E4,1.0354609E4,2.6447266E2,2.6872148E3,3.0678848E3,1.6782334E3,8.536719E3,1.324591E4,6.127328E3,0E0,1.6510643E1,2.3305469E2,1.1030161E3,4.2919727E2,1.04521E3,1.8659373E3,1.7281272E3,9.218877E2,2.792961E3,3.9173828E2,2.5388542E3,9.694646E3,9.3091406E2,2.6099326E3,0E0,0E0,1.6417969E1,4.0245703E2,5.6329407E2,5.73083E2,3.6330566E2,2.4583789E2,5.947474E2,3.8381836E2,8.4007715E2,8.139575E2,4.8061792E2,7.908763E2,2.4772559E2,5.587395E2,1.1376445E3,6.406979E2,2.4364453E2,0E0,2.0213594E3,2.0904468E2,3.090207E3,1.3471729E3,1.9790625E2,0E0,0E0,9.496655E2,0E0,0E0,0E0,0E0,0E0,0E0,0E0,0E0,0E0,0E0,0E0,0E0,0E0,0E0,0E0,0E0,0E0,0E0,0E0,0E0,0E0,0E0,0E0,0E0,0E0,0E0,0E0,0E0,0E0,0E0,0E0,0E0,0E0,0E0,0E0,0E0,0E0,0E0,0E0,0E0,0E0,0E0,0E0,0E0,0E0,0E0],"parents":[2147483647,0,0,1,1,2,2,3,3,4,4,5,5,6,6,7,7,8,8,9,9,10,10,11,11,12,12,13,13,15,15,16,16,17,17,18,18,19,19,20,20,21,21,22,22,23,23,24,24,25,25,26,26,27,27,28,28,31,31,32,32,33,33,34,34,35,35,36,36,37,37,38,38,39,39,40,40,41,41,42,42,43,43,44,44,45,45,46,46,47,47,49,49,50,50,51,51,52,52,53,53,56,56],"right_children":[2,4,6,8,10,12,14,16,18,20,22,24,26,28,-1,30,32,34,36,38,40,42,44,46,48,50,52,54,56,-1,-1,58,60,62,64,66,68,70,72,74,76,78,80,82,84,86,88,90,-1,92,94,96,98,100,-1,-1,102,-1,-1,-1,-1,-1,-1,-1,-1,-1,-1,-1,-1,-1,-1,-1,-1,-1,-1,-1,-1,-1,-1,-1,-1,-1,-1,-1,-1,-1,-1,-1,-1,-1,-1,-1,-1,-1,-1,-1,-1,-1,-1,-1,-1,-1,-1],"split_conditions":[2.6333334E1,1.8333334E1,4.8E1,1.4E1,2.1E1,2.7E1,6.8E1,-7.046667E-1,1.6E1,2.0666666E1,2.6E1,3.2333332E1,3.6E1,5.7E1,1.6292225E1,8E0,1.2E1,1.6E1,1.9E1,2.1E1,2.4E1,2.1333334E1,2.3666666E1,3.4E1,4.2E1,4.4E1,5E1,5.6333332E1,9.782684E1,-1.2521572E0,4.240179E-2,3.4966362E1,1.4E1,1.5666667E1,1.6333334E1,1.7333334E1,1.6E1,1.5E1,1.5E1,2.2333334E1,2.3666666E1,1.8E1,2E1,2.2E1,2.7E1,1.8E1,2.9333334E1,5.3E1,1.0636324E1,3.3E1,2.1682498E0,4.2E1,5.8E1,5.5E1,1.4500175E1,9.513458E0,2.0316889E1,-3.8955467E0,-1.0075983E0,-2.7979727E0,-3.7334087E0,-1.3018386E0,5.56035E-2,-2.5047307E0,-1.3787565E0,-2.6087775E0,-1.3995844E0,-3.7748928E0,-2.8430262E0,1.2705516E0,-3.9033854E-1,-3.3627486E-1,-1.8367383E0,1.3498999E0,3.2608902E0,-3.664813E-1,1.3773088E0,-9.4374394E-1,-2.4232132E0,1.4430804E0,-4.181026E-1,-2.1978712E0,-3.3080232E0,-7.656867E-1,-2.4385886E0,6.0028977E0,3.6962852E0,3.0092271E-2,2.509337E0,7.5254807E0,3.8206697E0,1.7599345E0,-2.2012982E-1,-5.222634E-1,-2.125368E0,4.0837164E0,7.219712E0,1.9705448E0,-8.738929E-1,9.991745E0,2.2924018E0,4.9858894E0,7.75381E-1],"split_indices":[3,3,3,3,1,1,3,4,1,3,1,3,3,1,0,1,3,0,1,0,0,3,3,0,3,1,1,3,7,0,0,6,1,3,3,3,3,1,1,3,3,0,0,0,0,1,3,0,0,0,4,3,1,2,0,0,6,0,0,0,0,0,0,0,0,0,0,0,0,0,0,0,0,0,0,0,0,0,0,0,0,0,0,0,0,0,0,0,0,0,0,0,0,0,0,0,0,0,0,0,0,0,0],"split_type":[0,0,0,0,0,0,0,0,0,0,0,0,0,0,0,0,0,0,0,0,0,0,0,0,0,0,0,0,0,0,0,0,0,0,0,0,0,0,0,0,0,0,0,0,0,0,0,0,0,0,0,0,0,0,0,0,0,0,0,0,0,0,0,0,0,0,0,0,0,0,0,0,0,0,0,0,0,0,0,0,0,0,0,0,0,0,0,0,0,0,0,0,0,0,0,0,0,0,0,0,0,0,0],"sum_hessian":[2.494E3,1.769E3,7.25E2,9.81E2,7.88E2,6.22E2,1.03E2,3.46E2,6.35E2,3.61E2,4.27E2,2.05E2,4.17E2,7.5E1,2.8E1,5E0,3.41E2,2.93E2,3.42E2,1.7E2,1.91E2,2.06E2,2.21E2,1.4E2,6.5E1,2.3E2,1.87E2,4.4E1,3.1E1,4E0,1E0,1.28E2,2.13E2,1.18E2,1.75E2,1.58E2,1.84E2,9.4E1,7.6E1,8.9E1,1.02E2,8.4E1,1.22E2,1.27E2,9.4E1,1.03E2,3.7E1,5.6E1,9E0,1.92E2,3.8E1,1.28E2,5.9E1,3.1E1,1.3E1,1E1,2.1E1,1.27E2,1E0,1.16E2,9.7E1,7.5E1,4.3E1,9.6E1,7.9E1,1.26E2,3.2E1,4.9E1,1.35E2,2.6E1,6.8E1,2.2E1,5.4E1,5.3E1,3.6E1,6.5E1,3.7E1,3.7E1,4.7E1,2.5E1,9.7E1,9.8E1,2.9E1,7E1,2.4E1,3.3E1,7E1,1.7E1,2E1,5.1E1,5E0,1.15E2,7.7E1,1.1E1,2.7E1,7.7E1,5.1E1,3.3E1,2.6E1,3E1,1E0,1.3E1,8E0],"tree_param":{"num_deleted":"0","num_feature":"8","num_nodes":"103","size_leaf_vector":"1"}},{"base_weights":[2.7551495E-2,-3.0656614E0,1.3754888E1,-5.892276E0,2.721151E-1,1.0588278E1,3.0353834E1,-7.7296634E0,-4.4902234E0,2.9978843E0,-2.0849683E0,1.7412525E1,6.5619287E0,2.619581E1,4.752965E1,-8.570999E0,-6.668456E0,-3.0527108E0,-6.3483343E0,9.8169076E-1,1.0280055E1,-4.4137373E0,-2.525468E-1,1.521209E1,2.6729403E1,2.3467298E0,1.1465111E1,3.291919E1,2.094499E1,5.298091E0,5.135496E1,-3.1983151E0,-8.265108E0,-4.1816235E0,-7.8150983E0,-1.5737327E0,-4.98245E0,-5.1836176E0,-7.4835005E0,2.2748072E0,-1.5461198E0,4.477525E0,8.0833E0,-3.1672297E0,-6.6142035E0,1.5763446E0,-4.2362814E0,1.9336952E1,1.0759481E1,2.7316061E1,1.8094451E0,3.6059327E0,-5.398274E0,1.5542126E1,5.6203575E0,3.5351677E1,5.797312E0,2.280506E1,4.479533E0,1.7434996E1,7.497853E0,-2.0260677E0,-2.740766E0,-2.6793945E-1,-1.7315649E0,-1.81724E0,-2.78092E0,-7.4452776E-1,3.128937E-1,-1.993275E0,-1.0773631E0,-1.2925469E0,-2.3201277E0,-2.5480227E0,-1.7936729E0,2.6021132E-1,1.9297547E0,-9.226675E-1,4.310107E-1,2.6150608E0,-4.1688862E-1,1.8139949E-2,-1.3395689E0,-2.302034E0,-1.5190028E0,1.4612439E0,-4.5162043E-1,-7.431277E-1,-1.9925121E0,4.329361E0,6.6619763E0,1.6474817E0,4.0578485E0,8.347982E0,2.2594452E0,1.8447015E0,-3.948159E-1,-2.390615E0,4.497408E-1,7.9479203E0,4.0044723E0,3.6027768E0,7.057188E-1,4.3581862E0,1.1057528E1,7.3021197E0,-1.985405E-1,2.0917776E0,-8.239054E-1],"categories":[],"categories_nodes":[],"categories_segments":[],"categories_sizes":[],"default_left":[0,0,0,0,0,0,0,0,0,0,0,0,0,0,0,0,0,0,0,0,0,0,0,0,0,0,0,0,0,0,0,0,0,0,0,0,0,0,0,0,0,0,0,0,0,0,0,0,0,0,0,0,0,0,0,0,0,0,0,0,0,0,0,0,0,0,0,0,0,0,0,0,0,0,0,0,0,0,0,0,0,0,0,0,0,0,0,0,0,0,0,0,0,0,0,0,0,0,0,0,0,0,0,0,0,0,0,0,0],"id":1,"left_children":[1,3,5,7,9,11,13,15,17,19,21,23,25,27,29,31,33,35,37,39,41,43,45,47,49,51,53,55,57,-1,59,-1,61,63,65,67,69,71,73,75,77,-1,79,81,83,85,87,89,91,93,-1,95,97,99,101,103,-1,105,107,-1,-1,-1,-1,-1,-1,-1,-1,-1,-1,-1,-1,-1,-1,-1,-1,-1,-1,-1,-1,-1,-1,-1,-1,-1,-1,-1,-1,-1,-1,-1,-1,-1,-1,-1,-1,-1,-1,-1,-1,-1,-1,-1,-1,-1,-1,-1,-1,-1,-1],"loss_changes":[1.059838E5,1.9219898E4,2.3804734E4,2.806746E3,6.013499E3,1.0519266E4,3.9683984E3,3.6783008E2,1.658044E3,6.3620117E3,2.1410627E3,2.5250586E3,5.0367256E3,1.4640078E3,5.784297E2,7.938867E1,5.8039453E2,1.008198E3,3.221543E2,1.118162E3,8.3853125E2,5.8523193E2,2.0612786E3,1.9591816E3,1.5095117E2,1.3165525E3,2.6053418E3,1.4358203E2,1.0310391E3,0E0,5.0827734E2,0E0,2.4498145E2,3.6091382E2,3.171289E2,4.8492523E2,3.321814E2,2.746538E2,1.558706E2,1.3169071E3,5.336156E2,0E0,4.082295E2,5.993756E2,9.0923096E1,1.976959E3,3.6016028E2,5.241953E2,7.856162E2,4.294922E1,0E0,1.4475433E3,3.4880457E2,1.2320215E3,9.7392566E2,9.208984E1,0E0,1.2050859E3,1.0922196E2,0E0,0E0,0E0,0E0,0E0,0E0,0E0,0E0,0E0,0E0,0E0,0E0,0E0,0E0,0E0,0E0,0E0,0E0,0E0,0E0,0E0,0E0,0E0,0E0,0E0,0E0,0E0,0E0,0E0,0E0,0E0,0E0,0E0,0E0,0E0,0E0,0E0,0E0,0E0,0E0,0E0,0E0,0E0,0E0,0E0,0E0,0E0,0E0,0E0,0E0],"parents":[2147483647,0,0,1,1,2,2,3,3,4,4,5,5,6,6,7,7,8,8,9,9,10,10,11,11,12,12,13,13,14,14,15,15,16,16,17,17,18,18,19,19,20,20,21,21,22,22,23,23,24,24,25,25,26,26,27,27,28,28,30,30,32,32,33,33,34,34,35,35,36,36,37,37,38,38,39,39,40,40,42,42,43,43,44,44,45,45,46,46,47,47,48,48,49,49,51,51,52,52,53,53,54,54,55,55,57,57,58,58],"right_children":[2,4,6,8,10,12,14,16,18,20,22,24,26,28,30,32,34,36,38,40,42,44,46,48,50,52,54,56,58,-1,60,-1,62,64,66,68,70,72,74,76,78,-1,80,82,84,86,88,90,92,94,-1,96,98,100,102,104,-1,106,108,-1,-1,-1,-1,-1,-1,-1,-1,-1,-1,-1,-1,-1,-1,-1,-1,-1,-1,-1,-1,-1,-1,-1,-1,-1,-1,-1,-1,-1,-1,-1,-1,-1,-1,-1,-1,-1,-1,-1,-1,-1,-1,-1,-1,-1,-1,-1,-1,-1,-1],"split_conditions":[3.1333334E1,1.9333334E1,5.4E1,1.5E1,2.3E1,3.3E1,7.8666664E1,1.3333333E1,1.8E1,2.6E1,2.4333334E1,4.2E1,4.0666668E1,5.5E1,1.936486E1,1E1,1.3E1,1.8E1,1.6E1,2.5E1,2.6E1,3E1,3.5E1,3.9E1,2.6412625E2,4.5E1,5E1,2.32836E2,2.8491205E2,5.298091E0,7.2E1,-3.1983151E0,1.1E1,1.3E1,1.3E1,1.7333334E1,1.7E1,2.5E1,1.8E1,2.2333334E1,2.3666666E1,4.477525E0,4.1E1,1.8E1,2.3E1,2.8E1,2.4E1,3.3666668E1,3.5E1,3.2E1,1.8094451E0,4.8E1,3.9E1,3.9E1,1E-1,5.4333332E1,5.797312E0,8.8E1,8.2E1,1.7434996E1,7.497853E0,-2.0260677E0,-2.740766E0,-2.6793945E-1,-1.7315649E0,-1.81724E0,-2.78092E0,-7.4452776E-1,3.128937E-1,-1.993275E0,-1.0773631E0,-1.2925469E0,-2.3201277E0,-2.5480227E0,-1.7936729E0,2.6021132E-1,1.9297547E0,-9.226675E-1,4.310107E-1,2.6150608E0,-4.1688862E-1,1.8139949E-2,-1.3395689E0,-2.302034E0,-1.5190028E0,1.4612439E0,-4.5162043E-1,-7.431277E-1,-1.9925121E0,4.329361E0,6.6619763E0,1.6474817E0,4.0578485E0,8.347982E0,2.2594452E0,1.8447015E0,-3.948159E-1,-2.390615E0,4.497408E-1,7.9479203E0,4.0044723E0,3.6027768E0,7.057188E-1,4.3581862E0,1.1057528E1,7.3021197E0,-1.985405E-1,2.0917776E0,-8.239054E-1],"split_indices":[3,3,3,3,1,1,3,3,1,3,3,3,3,1,7,3,1,0,0,0,0,1,1,0,7,0,1,7,7,0,2,0,0,0,0,3,3,1,3,3,3,0,0,0,3,0,0,3,3,1,0,1,3,0,5,3,0,0,1,0,0,0,0,0,0,0,0,0,0,0,0,0,0,0,0,0,0,0,0,0,0,0,0,0,0,0,0,0,0,0,0,0,0,0,0,0,0,0,0,0,0,0,0,0,0,0,0,0,0],"split_type":[0,0,0,0,0,0,0,0,0,0,0,0,0,0,0,0,0,0,0,0,0,0,0,0,0,0,0,0,0,0,0,0,0,0,0,0,0,0,0,0,0,0,0,0,0,0,0,0,0,0,0,0,0,0,0,0,0,0,0,0,0,0,0,0,0,0,0,0,0,0,0,0,0,0,0,0,0,0,0,0,0,0,0,0,0,0,0,0,0,0,0,0,0,0,0,0,0,0,0,0,0,0,0,0,0,0,0,0,0],"sum_hessian":[2.494E3,2.036E3,4.58E2,1.102E3,9.34E2,3.86E2,7.2E1,4.75E2,6.27E2,4.33E2,5.01E2,1.42E2,2.44E2,6E1,1.2E1,2.61E2,2.14E2,3.55E2,2.72E2,3.4E2,9.3E1,2.2E2,2.81E2,1.17E2,2.5E1,1.32E2,1.12E2,2.4E1,3.6E1,2E0,1E1,2.9E1,2.32E2,6.9E1,1.45E2,2.02E2,1.53E2,1.37E2,1.35E2,2.25E2,1.15E2,2.8E1,6.5E1,1.42E2,7.8E1,1.93E2,8.8E1,5.9E1,5.8E1,2.4E1,1E0,1.14E2,1.8E1,6.5E1,4.7E1,1.9E1,5E0,3.2E1,4E0,7E0,3E0,8.8E1,1.44E2,2.3E1,4.6E1,6.8E1,7.7E1,1.5E2,5.2E1,6.8E1,8.5E1,1.04E2,3.3E1,7.8E1,5.7E1,1.69E2,5.6E1,7.6E1,3.9E1,6.1E1,4E0,4.1E1,1.01E2,4.4E1,3.4E1,9.3E1,1E2,5.2E1,3.6E1,2.4E1,3.5E1,2.1E1,3.7E1,2.3E1,1E0,7.5E1,3.9E1,1.3E1,5E0,9E0,5.6E1,1.5E1,3.2E1,2E0,1.7E1,3E1,2E0,3E0,1E0],"tree_param":{"num_deleted":"0","num_feature":"8","num_nodes":"109","size_leaf_vector":"1"}},{"base_weights":[5.1424235E-2,-2.5087457E0,8.821277E0,-4.3332124E0,-4.6771073E-1,6.389156E0,2.0321064E1,-5.358264E0,-3.1914375E0,2.4611976E0,-1.7604972E0,9.7168E0,2.3057735E0,1.7210213E1,3.3190945E1,-5.0766835E0,-2.4742036E0,-5.464124E-1,-3.89443E0,1.1839974E0,6.753248E0,-1.0321914E0,-4.3466783E0,6.910563E0,1.3524381E1,-4.31157E-1,5.8506203E0,2.2198885E1,1.1801779E1,3.43807E0,3.519102E1,-6.1885405E0,-4.390136E0,4.858439E-1,-5.1356425E0,-3.23267E0,-5.952468E0,4.194358E0,1.6096783E-1,9.927365E0,1.0494131E0,-3.08894E0,5.395572E-1,-4.8284874E0,6.945859E-1,1.1211938E1,3.2068381E0,5.3985915E0,1.1734616E1,9.3986154E-1,-3.9266703E0,8.5280285E0,-9.1084546E-1,2.287013E1,6.073069E0,1.3120104E1,-1.1018255E0,1.417331E1,8.170862E0,-1.1174675E0,-1.9545975E0,-8.250705E-1,-1.6326501E0,6.811032E-1,-5.2005645E-2,-1.6386002E0,1.1081973E-1,-6.523901E-1,-1.4526649E0,-1.4194529E0,-2.0650327E0,6.7281693E-1,1.7988584E0,-4.955697E-1,4.5277882E-1,3.7281744E0,2.2916439E0,-5.129812E-1,6.8586016E-1,-5.6183946E-1,-1.6587311E0,6.565255E-1,-9.922999E-1,-1.3370193E0,-2.61971E0,1.9262189E0,-4.99599E-1,5.437722E0,2.7849822E0,1.8546883E0,2.911277E-1,2.8093894E0,5.062318E0,7.406848E-1,-6.14311E-1,-3.688512E-1,-2.0652416E0,3.039204E0,-1.9281802E0,5.170027E-1,-9.3992555E-1,6.156085E0,9.204247E0,2.3899121E0,3.4296915E-1,3.037264E0,5.430794E0],"categories":[],"categories_nodes":[],"categories_segments":[],"categories_sizes":[],"default_left":[0,0,0,0,0,0,0,0,0,0,0,0,0,0,0,0,0,0,0,0,0,0,0,0,0,0,0,0,0,0,0,0,0,0,0,0,0,0,0,0,0,0,0,0,0,0,0,0,0,0,0,0,0,0,0,0,0,0,0,0,0,0,0,0,0,0,0,0,0,0,0,0,0,0,0,0,0,0,0,0,0,0,0,0,0,0,0,0,0,0,0,0,0,0,0,0,0,0,0,0,0,0,0,0,0,0,0],"id":2,"left_children":[1,3,5,7,9,11,13,15,17,19,21,23,25,27,29,31,-1,33,35,37,39,41,43,45,47,49,51,53,55,-1,57,59,61,63,65,67,69,71,73,75,77,79,81,83,85,87,89,-1,91,93,95,97,99,101,103,105,-1,-1,-1,-1,-1,-1,-1,-1,-1,-1,-1,-1,-1,-1,-1,-1,-1,-1,-1,-1,-1,-1,-1,-1,-1,-1,-1,-1,-1,-1,-1,-1,-1,-1,-1,-1,-1,-1,-1,-1,-1,-1,-1,-1,-1,-1,-1,-1,-1,-1,-1],"loss_changes":[5.6040652E4,7.1923574E3,1.5644609E4,1.1766836E3,3.4613647E3,6.323211E3,3.352332E3,3.941709E2,8.9969727E2,1.52691E3,1.189672E3,2.65258E3,2.049644E3,1.9234688E3,3.790371E2,3.476328E2,0E0,4.9043307E2,5.023755E2,6.676172E2,1.148279E3,1.6050817E3,3.4097437E2,2.353711E3,6.5303516E2,5.787802E2,1.673263E3,3.049082E2,8.8460547E2,0E0,2.4735742E2,1.2467139E2,5.1467725E2,1.0038208E2,3.615329E1,4.8673364E2,7.200537E1,1.7996112E2,4.0091058E2,1.3963599E2,8.581478E1,6.276758E2,1.7961158E3,1.4539648E2,1.8636443E2,7.518076E2,5.39657E2,0E0,8.1647266E2,4.024933E2,2.6274658E2,1.6470078E3,1.6345189E2,8.622266E1,1.8893646E1,3.8395703E2,0E0,0E0,0E0,0E0,0E0,0E0,0E0,0E0,0E0,0E0,0E0,0E0,0E0,0E0,0E0,0E0,0E0,0E0,0E0,0E0,0E0,0E0,0E0,0E0,0E0,0E0,0E0,0E0,0E0,0E0,0E0,0E0,0E0,0E0,0E0,0E0,0E0,0E0,0E0,0E0,0E0,0E0,0E0,0E0,0E0,0E0,0E0,0E0,0E0,0E0,0E0],"parents":[2147483647,0,0,1,1,2,2,3,3,4,4,5,5,6,6,7,7,8,8,9,9,10,10,11,11,12,12,13,13,14,14,15,15,17,17,18,18,19,19,20,20,21,21,22,22,23,23,24,24,25,25,26,26,27,27,28,28,30,30,31,31,32,32,33,33,34,34,35,35,36,36,37,37,38,38,39,39,40,40,41,41,42,42,43,43,44,44,45,45,46,46,48,48,49,49,50,50,51,51,52,52,53,53,54,54,55,55],"right_children":[2,4,6,8,10,12,14,16,18,20,22,24,26,28,30,32,-1,34,36,38,40,42,44,46,48,50,52,54,56,-1,58,60,62,64,66,68,70,72,74,76,78,80,82,84,86,88,90,-1,92,94,96,98,100,102,104,106,-1,-1,-1,-1,-1,-1,-1,-1,-1,-1,-1,-1,-1,-1,-1,-1,-1,-1,-1,-1,-1,-1,-1,-1,-1,-1,-1,-1,-1,-1,-1,-1,-1,-1,-1,-1,-1,-1,-1,-1,-1,-1,-1,-1,-1,-1,-1,-1,-1,-1,-1],"split_conditions":[2.9333334E1,1.8666666E1,4.9333332E1,1.5333333E1,1.9E1,3.8E1,7.4E1,1.9E1,1.3E1,2.4333334E1,3.1E1,3.5E1,4E1,5.7E1,4.2995E0,1.2666667E1,-2.4742036E0,2.2E1,1.9E1,1.9E1,3E1,2.2333334E1,2.9E1,3.2E1,3.7E1,3.8E1,5.1E1,2.5277025E1,2.5975565E1,3.43807E0,4.9E1,3.1411664E0,1.3E1,1.5E1,1.0086999E1,2E1,1.7E1,2E1,2.0333334E1,1.5E1,2.5333334E1,2.2E1,2.9E1,2.9E1,1.8E1,1.9E1,2.6E1,5.3985915E0,4.2333332E1,5E1,2.4999998E0,6.6E1,1.2268691E2,6.1666668E1,6.1E1,6.6666664E1,-1.1018255E0,1.417331E1,8.170862E0,-1.1174675E0,-1.9545975E0,-8.250705E-1,-1.6326501E0,6.811032E-1,-5.2005645E-2,-1.6386002E0,1.1081973E-1,-6.523901E-1,-1.4526649E0,-1.4194529E0,-2.0650327E0,6.7281693E-1,1.7988584E0,-4.955697E-1,4.5277882E-1,3.7281744E0,2.2916439E0,-5.129812E-1,6.8586016E-1,-5.6183946E-1,-1.6587311E0,6.565255E-1,-9.922999E-1,-1.3370193E0,-2.61971E0,1.9262189E0,-4.99599E-1,5.437722E0,2.7849822E0,1.8546883E0,2.911277E-1,2.8093894E0,5.062318E0,7.406848E-1,-6.14311E-1,-3.688512E-1,-2.0652416E0,3.039204E0,-1.9281802E0,5.170027E-1,-9.3992555E-1,6.156085E0,9.204247E0,2.3899121E0,3.4296915E-1,3.037264E0,5.430794E0],"split_indices":[3,3,3,3,1,1,3,1,1,3,1,3,3,1,4,3,0,0,0,0,0,3,3,0,0,0,0,6,6,0,2,4,0,0,4,1,1,3,3,1,3,0,0,0,0,1,1,0,3,1,5,1,7,3,0,3,0,0,0,0,0,0,0,0,0,0,0,0,0,0,0,0,0,0,0,0,0,0,0,0,0,0,0,0,0,0,0,0,0,0,0,0,0,0,0,0,0,0,0,0,0,0,0,0,0,0,0],"split_type":[0,0,0,0,0,0,0,0,0,0,0,0,0,0,0,0,0,0,0,0,0,0,0,0,0,0,0,0,0,0,0,0,0,0,0,0,0,0,0,0,0,0,0,0,0,0,0,0,0,0,0,0,0,0,0,0,0,0,0,0,0,0,0,0,0,0,0,0,0,0,0,0,0,0,0,0,0,0,0,0,0,0,0,0,0,0,0,0,0,0,0,0,0,0,0,0,0,0,0,0,0,0,0,0,0,0,0],"sum_hessian":[2.494E3,1.931E3,5.63E2,1.019E3,9.12E2,4.66E2,9.7E1,5.35E2,4.84E2,2.79E2,6.33E2,2.56E2,2.1E2,8E1,1.7E1,4.9E2,4.5E1,1.02E2,3.82E2,2.16E2,6.3E1,4.95E2,1.38E2,1.49E2,1.07E2,1.19E2,9.1E1,4E1,4E1,2E0,1.5E1,1.84E2,3.06E2,8.4E1,1.8E1,2.91E2,9.1E1,5.4E1,1.62E2,4E1,2.3E1,2.14E2,2.81E2,1.26E2,1.2E1,6.8E1,8.1E1,2.8E1,7.9E1,8.6E1,3.3E1,6.5E1,2.6E1,3.8E1,2E0,3.7E1,3E0,4E0,1.1E1,2.3E1,1.61E2,1.21E2,1.85E2,2.2E1,6.2E1,1.7E1,1E0,1.77E2,1.14E2,4.2E1,4.9E1,2.7E1,2.7E1,6.9E1,9.3E1,1.7E1,2.3E1,7E0,1.6E1,1.44E2,7E1,1.97E2,8.4E1,1.17E2,9E0,3E0,9E0,1.3E1,5.5E1,3.4E1,4.7E1,5.6E1,2.3E1,5.7E1,2.9E1,1.8E1,1.5E1,5.9E1,6E0,1.2E1,1.4E1,3.2E1,6E0,1E0,1E0,2.5E1,1.2E1],"tree_param":{"num_deleted":"0","num_feature":"8","num_nodes":"107","size_leaf_vector":"1"}},{"base_weights":[6.0968548E-2,-1.9104544E0,5.9499464E0,-3.3586347E0,-7.6642084E-1,4.0830684E0,1.3952412E1,-2.5671833E0,-4.079695E0,7.579999E-1,-1.8444505E0,7.431662E0,1.763232E0,1.2098014E1,2.587941E1,-4.072945E0,-1.622518E0,-4.595153E0,-3.013042E0,-3.9419508E-1,2.834494E0,-3.0967202E0,-1.0136443E0,5.222437E0,1.0384896E1,2.8678423E-1,3.9694324E0,1.6710623E1,8.830909E0,3.0345415E1,4.2368493E0,-3.7226403E0,-1.8242732E0,-1.0756392E0,-3.788081E0,-3.8974493E0,-5.6887326E0,-1.4952337E0,-3.8902485E0,7.590696E-1,-2.1308696E0,4.1338515E0,4.6359652E-1,-1.8489355E0,-4.2893434E0,-2.7565578E-2,-2.922975E0,7.0208206E0,1.1096293E0,1.598068E1,9.5451145E0,1.8359685E0,-1.8980776E0,5.5547395E0,-1.2513607E0,1.7677305E1,6.021711E0,5.389688E0,1.3845976E1,1.9881444E0,9.673329E0,-1.6287094E0,-9.078574E-1,2.9803076E-1,-5.8384246E-1,-1.6628554E0,-8.3079547E-1,-1.4478545E0,-7.635776E-1,-1.6366445E0,-2.3100495E0,-8.277907E-2,-1.0194428E0,-1.0643691E0,-1.9731606E0,1.2033072E0,8.869384E-2,6.41497E-1,-8.2877225E-1,7.923172E-1,2.0492177E0,3.66416E-1,-7.250249E-1,-1.833508E-1,-1.177741E0,-1.0994614E0,-1.7142085E0,7.889772E-1,-3.57891E-1,-5.838151E-1,-1.6851466E0,3.4335744E0,1.8148543E0,1.8225634E0,5.1951323E-2,5.161566E0,7.439759E-1,2.4654992E0,3.8454645E0,2.0587163E0,2.2268519E-1,-2.2370037E-1,-1.26575E0,2.0277178E0,-1.5351045E0,2.6662767E-1,-1.307178E0,4.7119346E0,6.9314156E0,2.9166641E0,9.4191365E-2,2.2124114E0,-3.3129892E-1,4.6054053E0,-6.9316775E-1],"categories":[],"categories_nodes":[],"categories_segments":[],"categories_sizes":[],"default_left":[0,0,0,0,0,0,0,0,0,0,0,0,0,0,0,0,0,0,0,0,0,0,0,0,0,0,0,0,0,0,0,0,0,0,0,0,0,0,0,0,0,0,0,0,0,0,0,0,0,0,0,0,0,0,0,0,0,0,0,0,0,0,0,0,0,0,0,0,0,0,0,0,0,0,0,0,0,0,0,0,0,0,0,0,0,0,0,0,0,0,0,0,0,0,0,0,0,0,0,0,0,0,0,0,0,0,0,0,0,0,0,0,0,0,0],"id":3,"left_children":[1,3,5,7,9,11,13,15,17,19,21,23,25,27,29,31,33,35,37,39,41,43,45,47,49,51,53,55,57,59,-1,61,-1,63,65,67,69,71,73,75,77,79,81,83,85,87,89,91,93,95,97,99,101,103,105,107,109,111,113,-1,-1,-1,-1,-1,-1,-1,-1,-1,-1,-1,-1,-1,-1,-1,-1,-1,-1,-1,-1,-1,-1,-1,-1,-1,-1,-1,-1,-1,-1,-1,-1,-1,-1,-1,-1,-1,-1,-1,-1,-1,-1,-1,-1,-1,-1,-1,-1,-1,-1,-1,-1,-1,-1,-1,-1],"loss_changes":[2.8977484E4,3.09558E3,9.295236E3,4.6034082E2,1.7203638E3,3.9409043E3,2.2967637E3,5.566782E2,2.225752E2,1.0394736E3,6.346221E2,1.302831E3,9.825782E2,1.4196992E3,3.5901074E2,8.4279785E1,2.8607898E2,1.9757031E2,1.8457788E2,5.624141E2,4.7558337E2,3.5517456E2,6.965372E2,8.871748E2,2.609961E2,6.1950995E2,1.00841455E3,3.275293E2,1.012625E3,2.3672461E2,0E0,1.404414E2,0E0,3.5675677E2,7.224713E1,2.1250854E2,9.600586E0,1.2435439E2,5.9454224E1,2.535025E2,3.079564E2,3.845475E2,1.2518286E2,3.0865256E2,8.937866E1,7.6191455E2,3.2070215E2,2.9175E2,1.7565022E2,1.226543E2,2.3772852E2,5.83119E2,2.0014221E2,1.2298406E3,1.9663544E2,4.358008E1,1.0255502E2,5.1088257E2,6.435117E2,0E0,0E0,0E0,0E0,0E0,0E0,0E0,0E0,0E0,0E0,0E0,0E0,0E0,0E0,0E0,0E0,0E0,0E0,0E0,0E0,0E0,0E0,0E0,0E0,0E0,0E0,0E0,0E0,0E0,0E0,0E0,0E0,0E0,0E0,0E0,0E0,0E0,0E0,0E0,0E0,0E0,0E0,0E0,0E0,0E0,0E0,0E0,0E0,0E0,0E0,0E0,0E0,0E0,0E0,0E0,0E0],"parents":[2147483647,0,0,1,1,2,2,3,3,4,4,5,5,6,6,7,7,8,8,9,9,10,10,11,11,12,12,13,13,14,14,15,15,16,16,17,17,18,18,19,19,20,20,21,21,22,22,23,23,24,24,25,25,26,26,27,27,28,28,29,29,31,31,33,33,34,34,35,35,36,36,37,37,38,38,39,39,40,40,41,41,42,42,43,43,44,44,45,45,46,46,47,47,48,48,49,49,50,50,51,51,52,52,53,53,54,54,55,55,56,56,57,57,58,58],"right_children":[2,4,6,8,10,12,14,16,18,20,22,24,26,28,30,32,34,36,38,40,42,44,46,48,50,52,54,56,58,60,-1,62,-1,64,66,68,70,72,74,76,78,80,82,84,86,88,90,92,94,96,98,100,102,104,106,108,110,112,114,-1,-1,-1,-1,-1,-1,-1,-1,-1,-1,-1,-1,-1,-1,-1,-1,-1,-1,-1,-1,-1,-1,-1,-1,-1,-1,-1,-1,-1,-1,-1,-1,-1,-1,-1,-1,-1,-1,-1,-1,-1,-1,-1,-1,-1,-1,-1,-1,-1,-1,-1,-1,-1,-1,-1,-1],"split_conditions":[2.8E1,1.7333334E1,4.6666668E1,1.4E1,2E1,3.1E1,7.6666664E1,1.2666667E1,1.6E1,2.1333334E1,2.1666666E1,3.3E1,3.8333332E1,4.9E1,7.2E1,1.5E1,1.9E1,1.4E1,1.5E1,2.1E1,2.7E1,1.8E1,3E1,3.6E1,1.8E1,4.1E1,5E1,2.475663E2,6.1666668E1,2.99325E0,4.2368493E0,1.0333333E1,-1.8242732E0,1.1E1,1.5333333E1,1.4333333E1,1.9E1,2.1E1,2.2E1,1.4E1,1.2E1,2.4E1,3.5E1,2.6E1,2.3E1,2.2E1,2.4E1,2.5E1,1.9E1,5.3E1,4.0666668E1,2.6E1,3.4E1,6.6E1,5.6E1,5.5666668E1,4.6E1,6.5E1,8.8E1,1.9881444E0,9.673329E0,-1.6287094E0,-9.078574E-1,2.9803076E-1,-5.8384246E-1,-1.6628554E0,-8.3079547E-1,-1.4478545E0,-7.635776E-1,-1.6366445E0,-2.3100495E0,-8.277907E-2,-1.0194428E0,-1.0643691E0,-1.9731606E0,1.2033072E0,8.869384E-2,6.41497E-1,-8.2877225E-1,7.923172E-1,2.0492177E0,3.66416E-1,-7.250249E-1,-1.833508E-1,-1.177741E0,-1.0994614E0,-1.7142085E0,7.889772E-1,-3.57891E-1,-5.838151E-1,-1.6851466E0,3.4335744E0,1.8148543E0,1.8225634E0,5.1951323E-2,5.161566E0,7.439759E-1,2.4654992E0,3.8454645E0,2.0587163E0,2.2268519E-1,-2.2370037E-1,-1.26575E0,2.0277178E0,-1.5351045E0,2.6662767E-1,-1.307178E0,4.7119346E0,6.9314156E0,2.9166641E0,9.4191365E-2,2.2124114E0,-3.3129892E-1,4.6054053E0,-6.9316775E-1],"split_indices":[3,3,3,1,1,1,3,3,3,3,3,3,3,1,2,0,0,0,0,0,0,0,1,0,1,1,0,7,3,4,0,3,0,1,3,3,0,1,0,0,1,3,0,1,0,0,0,0,1,0,3,0,0,1,0,3,1,0,1,0,0,0,0,0,0,0,0,0,0,0,0,0,0,0,0,0,0,0,0,0,0,0,0,0,0,0,0,0,0,0,0,0,0,0,0,0,0,0,0,0,0,0,0,0,0,0,0,0,0,0,0,0,0,0,0],"split_type":[0,0,0,0,0,0,0,0,0,0,0,0,0,0,0,0,0,0,0,0,0,0,0,0,0,0,0,0,0,0,0,0,0,0,0,0,0,0,0,0,0,0,0,0,0,0,0,0,0,0,0,0,0,0,0,0,0,0,0,0,0,0,0,0,0,0,0,0,0,0,0,0,0,0,0,0,0,0,0,0,0,0,0,0,0,0,0,0,0,0,0,0,0,0,0,0,0,0,0,0,0,0,0,0,0,0,0,0,0,0,0,0,0,0,0],"sum_hessian":[2.494E3,1.869E3,6.25E2,8.24E2,1.045E3,5.08E2,1.17E2,3.95E2,4.29E2,4.33E2,6.12E2,2.07E2,3.01E2,1.03E2,1.4E1,1.51E2,2.44E2,2.87E2,1.42E2,2.79E2,1.54E2,2.43E2,3.69E2,1.2E2,8.7E1,1.81E2,1.2E2,4.1E1,6.2E1,9E0,5E0,1.31E2,2E1,1.96E2,4.8E1,1.78E2,1.09E2,5.3E1,8.9E1,1.68E2,1.11E2,9.9E1,5.5E1,1.2E2,1.23E2,2.44E2,1.25E2,8.3E1,3.7E1,9E0,7.8E1,1.06E2,7.5E1,9.2E1,2.8E1,3.7E1,4E0,3.8E1,2.4E1,1E0,8E0,3.6E1,9.5E1,5.8E1,1.38E2,1.6E1,3.2E1,1.04E2,7.4E1,1.01E2,8E0,3.3E1,2E1,8.1E1,8E0,2E1,1.48E2,1.4E1,9.7E1,6.5E1,3.4E1,4.4E1,1.1E1,7.6E1,4.4E1,8.8E1,3.5E1,7.4E1,1.7E2,9.3E1,3.2E1,1.3E1,7E1,5E0,3.2E1,8E0,1E0,5.8E1,2E1,1.8E1,8.8E1,5.1E1,2.4E1,8.3E1,9E0,1.7E1,1.1E1,3E1,7E0,2E0,2E0,2.9E1,9E0,2.2E1,2E0],"tree_param":{"num_deleted":"0","num_feature":"8","num_nodes":"115","size_leaf_vector":"1"}},{"base_weights":[5.7133485E-2,-1.066616E0,5.5020533E0,-2.0679495E0,2.6744118E-1,4.525285E0,1.4348021E1,-2.9063163E0,-1.5968884E0,1.4734988E0,-1.4017093E0,6.681321E0,2.3792114E0,2.1701778E1,9.896077E0,-2.5589657E0,-4.035677E0,-6.928898E-1,-2.4549518E0,6.3892365E-1,4.3780704E0,-6.0302055E-1,-2.5850732E0,5.6982217E0,1.332559E1,8.382984E-1,5.6711974E0,2.4702824E1,3.2277377E0,8.418557E-1,1.1827784E1,-2.1529422E0,-3.8715837E0,-2.9109285E0,-4.5877166E0,1.1722404E0,-1.1229104E0,-1.6951388E0,-3.1012254E0,1.0129863E0,-3.1921856E0,7.2489305E0,2.923317E0,-1.5142114E0,5.8396167E-1,-1.7810616E0,-4.2564926E0,7.181609E0,2.4061637E0,1.3806171E0,4.1728363E0,3.0685952E0,-7.055093E-1,1.2469424E1,3.2362437E0,7.813947E0,1.6899228E0,4.0002146E0,-1.0949725E0,7.103355E0,4.162177E0,-1.0563054E0,-5.0639576E-1,-6.6869754E-1,-1.2434225E0,-1.1599442E0,-4.1372815E-1,-1.1665356E0,-1.5380311E0,2.1513425E-1,9.936774E-1,-2.6290107E-1,-1.0513533E0,-8.355921E-1,-2.5836396E-1,-8.3098793E-1,-1.41744E0,1.2164336E0,1.5612519E-1,-1.7766473E-1,-1.2110727E0,1.8457392E0,3.367736E0,1.1313208E0,-3.3608213E-2,-1.5671777E-2,-8.111785E-1,4.9939948E-1,-3.7281877E-1,7.1895957E-1,-7.23336E-1,-1.090266E0,-2.2146182E0,4.038154E0,1.9583033E0,-7.5115114E-1,1.1605909E0,1.3148079E0,-4.542243E-1,-6.704101E-1,5.351058E-1,3.9613292E0,2.166504E-1,1.3521521E0,-2.5386953E-1,1.4648857E0,2.0280018E-1,3.036961E0,1.1718692E0],"categories":[],"categories_nodes":[],"categories_segments":[],"categories_sizes":[],"default_left":[0,0,0,0,0,0,0,0,0,0,0,0,0,0,0,0,0,0,0,0,0,0,0,0,0,0,0,0,0,0,0,0,0,0,0,0,0,0,0,0,0,0,0,0,0,0,0,0,0,0,0,0,0,0,0,0,0,0,0,0,0,0,0,0,0,0,0,0,0,0,0,0,0,0,0,0,0,0,0,0,0,0,0,0,0,0,0,0,0,0,0,0,0,0,0,0,0,0,0,0,0,0,0,0,0,0,0,0,0],"id":4,"left_children":[1,3,5,7,9,11,13,15,17,19,21,23,25,27,29,31,33,35,37,39,41,43,45,47,49,51,53,55,-1,57,59,61,63,65,67,69,71,73,75,77,79,81,83,85,87,89,91,93,95,-1,-1,97,99,101,103,-1,-1,105,-1,107,-1,-1,-1,-1,-1,-1,-1,-1,-1,-1,-1,-1,-1,-1,-1,-1,-1,-1,-1,-1,-1,-1,-1,-1,-1,-1,-1,-1,-1,-1,-1,-1,-1,-1,-1,-1,-1,-1,-1,-1,-1,-1,-1,-1,-1,-1,-1,-1,-1],"loss_changes":[1.527209E4,2.7643982E3,3.6245479E3,4.6215674E2,1.7896908E3,1.7701304E3,1.1602549E3,1.5600146E2,5.8704614E2,1.2480297E3,3.509782E2,1.178208E3,9.844155E2,2.2681006E2,4.7976562E2,1.6594043E2,4.749414E1,2.9887482E2,1.8576025E2,5.7932983E2,4.59094E2,2.4315533E2,1.93995E2,8.0801416E2,5.8228516E1,4.6354688E2,9.859547E2,1.3513574E2,0E0,9.9720024E1,1.2378589E2,1.5435254E2,2.4861694E1,4.5898926E1,4.188965E0,6.580321E1,1.742753E2,1.621518E2,9.931995E1,5.4776324E2,7.667441E1,9.663245E1,2.0113367E2,2.20754E2,1.9553157E2,2.7688745E2,6.652985E1,3.8842627E2,3.974464E2,0E0,0E0,3.378504E2,3.0850238E2,1.2861304E2,2.4767542E2,0E0,0E0,8.43676E0,0E0,4.7349945E1,0E0,0E0,0E0,0E0,0E0,0E0,0E0,0E0,0E0,0E0,0E0,0E0,0E0,0E0,0E0,0E0,0E0,0E0,0E0,0E0,0E0,0E0,0E0,0E0,0E0,0E0,0E0,0E0,0E0,0E0,0E0,0E0,0E0,0E0,0E0,0E0,0E0,0E0,0E0,0E0,0E0,0E0,0E0,0E0,0E0,0E0,0E0,0E0,0E0],"parents":[2147483647,0,0,1,1,2,2,3,3,4,4,5,5,6,6,7,7,8,8,9,9,10,10,11,11,12,12,13,13,14,14,15,15,16,16,17,17,18,18,19,19,20,20,21,21,22,22,23,23,24,24,25,25,26,26,27,27,29,29,30,30,31,31,32,32,33,33,34,34,35,35,36,36,37,37,38,38,39,39,40,40,41,41,42,42,43,43,44,44,45,45,46,46,47,47,48,48,51,51,52,52,53,53,54,54,57,57,59,59],"right_children":[2,4,6,8,10,12,14,16,18,20,22,24,26,28,30,32,34,36,38,40,42,44,46,48,50,52,54,56,-1,58,60,62,64,66,68,70,72,74,76,78,80,82,84,86,88,90,92,94,96,-1,-1,98,100,102,104,-1,-1,106,-1,108,-1,-1,-1,-1,-1,-1,-1,-1,-1,-1,-1,-1,-1,-1,-1,-1,-1,-1,-1,-1,-1,-1,-1,-1,-1,-1,-1,-1,-1,-1,-1,-1,-1,-1,-1,-1,-1,-1,-1,-1,-1,-1,-1,-1,-1,-1,-1,-1,-1],"split_conditions":[3.2333332E1,2E1,6.1666668E1,1.4666667E1,2.6E1,4E1,5.1E1,1.6E1,1.7E1,2.6666666E1,2.8999996E0,4.5666668E1,4.6333332E1,2.3000002E0,6.6666664E1,1.5E1,1.1E1,1.4E1,1.6E1,3.1E1,2.7E1,2.7E1,3.6E1,4.4E1,1.2E1,3.7E1,4.8E1,2.560053E1,3.2277377E0,1.8692286E1,5.859917E0,1.1E1,9E0,1.3666667E1,4.7E0,1.7333334E1,2.4E1,1.65E1,2.3E1,1.5E1,1.6E1,3.0333334E1,3.8E1,2E1,3.6E1,1.8E1,5.1E1,2.7E1,3.6666668E1,1.3806171E0,4.1728363E0,6.2E1,4.2666668E1,7E1,6.5E1,7.813947E0,1.6899228E0,6.6E1,-1.0949725E0,1.07650215E2,4.162177E0,-1.0563054E0,-5.0639576E-1,-6.6869754E-1,-1.2434225E0,-1.1599442E0,-4.1372815E-1,-1.1665356E0,-1.5380311E0,2.1513425E-1,9.936774E-1,-2.6290107E-1,-1.0513533E0,-8.355921E-1,-2.5836396E-1,-8.3098793E-1,-1.41744E0,1.2164336E0,1.5612519E-1,-1.7766473E-1,-1.2110727E0,1.8457392E0,3.367736E0,1.1313208E0,-3.3608213E-2,-1.5671777E-2,-8.111785E-1,4.9939948E-1,-3.7281877E-1,7.1895957E-1,-7.23336E-1,-1.090266E0,-2.2146182E0,4.038154E0,1.9583033E0,-7.5115114E-1,1.1605909E0,1.3148079E0,-4.542243E-1,-6.704101E-1,5.351058E-1,3.9613292E0,2.166504E-1,1.3521521E0,-2.5386953E-1,1.4648857E0,2.0280018E-1,3.036961E0,1.1718692E0],"split_indices":[3,3,3,3,1,1,2,1,1,3,5,3,3,5,3,0,0,0,0,0,0,3,1,0,2,0,0,6,0,6,4,3,1,3,5,3,0,3,1,1,1,3,0,0,1,0,1,0,3,0,0,1,3,1,0,0,0,0,0,7,0,0,0,0,0,0,0,0,0,0,0,0,0,0,0,0,0,0,0,0,0,0,0,0,0,0,0,0,0,0,0,0,0,0,0,0,0,0,0,0,0,0,0,0,0,0,0,0,0],"split_type":[0,0,0,0,0,0,0,0,0,0,0,0,0,0,0,0,0,0,0,0,0,0,0,0,0,0,0,0,0,0,0,0,0,0,0,0,0,0,0,0,0,0,0,0,0,0,0,0,0,0,0,0,0,0,0,0,0,0,0,0,0,0,0,0,0,0,0,0,0,0,0,0,0,0,0,0,0,0,0,0,0,0,0,0,0,0,0,0,0,0,0,0,0,0,0,0,0,0,0,0,0,0,0,0,0,0,0,0,0],"sum_hessian":[2.494E3,2.068E3,4.26E2,1.181E3,8.87E2,3.85E2,4.1E1,4.23E2,7.58E2,5.15E2,3.72E2,1.91E2,1.94E2,1.4E1,2.7E1,3.26E2,9.7E1,3.7E2,3.88E2,4.01E2,1.14E2,2.23E2,1.49E2,1.68E2,2.3E1,1.33E2,6.1E1,1E1,4E0,5E0,2.2E1,2.51E2,7.5E1,3.4E1,6.3E1,6.9E1,3.01E2,1.8E2,2.08E2,3.66E2,3.5E1,3.7E1,7.7E1,1.26E2,9.7E1,1.02E2,4.7E1,1.15E2,5.3E1,2E0,2.1E1,5.4E1,7.9E1,1.5E1,4.6E1,9E0,1E0,3E0,2E0,8E0,1.4E1,6.2E1,1.89E2,1.2E1,6.3E1,2E1,1.4E1,3.1E1,3.2E1,5.8E1,1.1E1,2.74E2,2.7E1,7.7E1,1.03E2,1.75E2,3.3E1,5E1,3.16E2,9E0,2.6E1,3.1E1,6E0,6E1,1.7E1,5.7E1,6.9E1,6.1E1,3.6E1,1.3E1,8.9E1,4.1E1,6E0,9E0,1.06E2,1.2E1,4.1E1,4.2E1,1.2E1,4.9E1,3E1,1.4E1,1E0,3.5E1,1.1E1,2E0,1E0,3E0,5E0],"tree_param":{"num_deleted":"0","num_feature":"8","num_nodes":"109","size_leaf_vector":"1"}},{"base_weights":[5.2306276E-2,-8.60812E-1,3.5052626E0,-1.2556936E0,6.579143E-1,2.4602385E0,8.176474E0,-1.8406273E0,-7.537258E-1,1.8637689E0,-8.4970623E-1,4.9431796E0,1.2101655E0,6.8882623E0,1.4587716E1,-6.03357E-1,-2.1716783E0,4.4834447E-1,-1.2976998E0,2.7991624E0,-5.6229794E-1,9.0823984E-1,-1.8577465E0,3.227513E0,4.425057E0,1.5606822E0,-4.095344E0,9.51582E0,4.2218204E0,1.9859283E1,9.966004E0,-2.0094962E0,1.9812936E-1,-1.4141681E0,-2.5320034E0,8.5617596E-1,-1.7907435E0,6.446289E-2,-1.7539847E0,2.5383077E0,2.5306041E0,2.1770544E0,-1.5207707E0,3.8885996E0,-1.3312132E0,-1.2988771E0,-3.6518393E0,3.0711179E0,6.683419E0,6.9416636E-1,3.967386E0,-1.7199188E0,-2.5319722E0,4.572857E0,7.8390894E0,2.623127E0,2.9006662E0,1.4364344E0,6.5747685E0,3.124578E0,8.884072E-1,-1.0754777E0,-4.1969934E-1,5.7255197E-1,-1.4093073E-1,-6.3401854E-1,-5.0917305E-2,-7.211939E-1,-1.3605378E0,6.3235186E-2,6.819082E-1,-7.398417E-1,-4.3902837E-2,2.4624304E-1,-4.6867517E-1,-4.5343247E-1,-1.1332415E0,2.0660415E0,6.849159E-1,-2.2250672E-1,7.8469986E-1,-3.1171232E-1,-1.968011E0,5.7746124E-1,1.4028102E0,-5.7331204E-2,-1.1641603E0,-9.091254E-1,-2.3784752E-1,-3.5393335E-2,-1.1789488E0,1.569928E0,5.574227E-1,2.6575298E0,1.3749288E0,3.9919257E-1,-6.3855815E-1,1.419401E0,-7.920426E-1,-9.004199E-1,3.2434502E-1,3.2422218E0,1.6884812E0,2.4531989E-1,1.99537E0],"categories":[],"categories_nodes":[],"categories_segments":[],"categories_sizes":[],"default_left":[0,0,0,0,0,0,0,0,0,0,0,0,0,0,0,0,0,0,0,0,0,0,0,0,0,0,0,0,0,0,0,0,0,0,0,0,0,0,0,0,0,0,0,0,0,0,0,0,0,0,0,0,0,0,0,0,0,0,0,0,0,0,0,0,0,0,0,0,0,0,0,0,0,0,0,0,0,0,0,0,0,0,0,0,0,0,0,0,0,0,0,0,0,0,0,0,0,0,0,0,0,0,0,0,0],"id":5,"left_children":[1,3,5,7,9,11,13,15,17,19,21,23,25,27,29,31,33,35,37,39,41,43,45,-1,47,49,51,53,55,57,59,61,63,65,67,69,71,73,75,-1,77,79,81,83,85,87,89,91,93,95,97,-1,99,-1,101,-1,103,-1,-1,-1,-1,-1,-1,-1,-1,-1,-1,-1,-1,-1,-1,-1,-1,-1,-1,-1,-1,-1,-1,-1,-1,-1,-1,-1,-1,-1,-1,-1,-1,-1,-1,-1,-1,-1,-1,-1,-1,-1,-1,-1,-1,-1,-1,-1,-1],"loss_changes":[7.869646E3,1.1846676E3,2.5280415E3,4.587119E2,7.433159E2,1.3224692E3,6.841245E2,2.9482983E2,5.531229E2,5.167111E2,3.2420593E2,3.8325073E2,5.382571E2,5.273303E2,1.6753711E2,1.7395636E2,1.5200073E2,2.4261021E2,3.6184613E2,2.2795703E2,1.7134885E2,4.523597E2,1.11565704E2,0E0,3.8614624E2,5.582312E2,3.1570557E1,2.6461768E2,2.2555261E2,8.103735E1,6.253052E-1,4.8845337E1,1.1399001E2,1.6148898E2,8.7829834E1,2.0435199E2,4.5174545E1,1.8214526E2,2.0827197E2,0E0,1.5466144E2,2.3703323E1,1.0970691E2,3.5842133E1,1.12612076E2,7.64599E1,2.6060516E1,2.131947E2,1.8324438E2,3.6035077E2,3.7088696E2,0E0,2.1902039E1,0E0,1.5573254E2,0E0,2.6017523E2,0E0,0E0,0E0,0E0,0E0,0E0,0E0,0E0,0E0,0E0,0E0,0E0,0E0,0E0,0E0,0E0,0E0,0E0,0E0,0E0,0E0,0E0,0E0,0E0,0E0,0E0,0E0,0E0,0E0,0E0,0E0,0E0,0E0,0E0,0E0,0E0,0E0,0E0,0E0,0E0,0E0,0E0,0E0,0E0,0E0,0E0,0E0,0E0],"parents":[2147483647,0,0,1,1,2,2,3,3,4,4,5,5,6,6,7,7,8,8,9,9,10,10,11,11,12,12,13,13,14,14,15,15,16,16,17,17,18,18,19,19,20,20,21,21,22,22,24,24,25,25,26,26,27,27,28,28,29,29,30,30,31,31,32,32,33,33,34,34,35,35,36,36,37,37,38,38,40,40,41,41,42,42,43,43,44,44,45,45,46,46,47,47,48,48,49,49,50,50,52,52,54,54,56,56],"right_children":[2,4,6,8,10,12,14,16,18,20,22,24,26,28,30,32,34,36,38,40,42,44,46,-1,48,50,52,54,56,58,60,62,64,66,68,70,72,74,76,-1,78,80,82,84,86,88,90,92,94,96,98,-1,100,-1,102,-1,104,-1,-1,-1,-1,-1,-1,-1,-1,-1,-1,-1,-1,-1,-1,-1,-1,-1,-1,-1,-1,-1,-1,-1,-1,-1,-1,-1,-1,-1,-1,-1,-1,-1,-1,-1,-1,-1,-1,-1,-1,-1,-1,-1,-1,-1,-1,-1,-1],"split_conditions":[3E1,2.3666666E1,5E1,1.6666666E1,2.7E1,3.1E1,7.6666664E1,1.1E1,1.7E1,3.1E1,2.2E1,2.5E1,5.7E1,5.7E1,4.9E1,1.1333333E1,1.2E1,2.5E1,1.6E1,1.7E1,1.7E1,3.6E1,3.3E1,3.227513E0,3.6666668E1,4.1666668E1,1.3883847E2,5E1,8.740734E1,2.99325E0,1.32E2,9.333333E0,1.3E1,1.4E1,2E1,1.9666666E1,2.1666666E1,2.6E1,2.6E1,2.5383077E0,1.2E1,1.3E1,4.3E1,2.5E1,4.7E1,2.5E1,8.578333E-1,3.2E1,4.5E1,4.3E1,6.2E1,-1.7199188E0,4.7333332E1,4.572857E0,4.1578336E0,2.623127E0,6.8E1,1.4364344E0,6.5747685E0,3.124578E0,8.884072E-1,-1.0754777E0,-4.1969934E-1,5.7255197E-1,-1.4093073E-1,-6.3401854E-1,-5.0917305E-2,-7.211939E-1,-1.3605378E0,6.3235186E-2,6.819082E-1,-7.398417E-1,-4.3902837E-2,2.4624304E-1,-4.6867517E-1,-4.5343247E-1,-1.1332415E0,2.0660415E0,6.849159E-1,-2.2250672E-1,7.8469986E-1,-3.1171232E-1,-1.968011E0,5.7746124E-1,1.4028102E0,-5.7331204E-2,-1.1641603E0,-9.091254E-1,-2.3784752E-1,-3.5393335E-2,-1.1789488E0,1.569928E0,5.574227E-1,2.6575298E0,1.3749288E0,3.9919257E-1,-6.3855815E-1,1.419401E0,-7.920426E-1,-9.004199E-1,3.2434502E-1,3.2422218E0,1.6884812E0,2.4531989E-1,1.99537E0],"split_indices":[3,3,3,3,1,1,3,1,1,0,0,0,0,1,2,3,0,0,0,0,1,1,0,0,3,3,7,0,7,4,1,3,0,3,0,3,3,1,0,0,1,2,0,3,1,3,4,0,0,0,1,0,3,0,4,0,3,0,0,0,0,0,0,0,0,0,0,0,0,0,0,0,0,0,0,0,0,0,0,0,0,0,0,0,0,0,0,0,0,0,0,0,0,0,0,0,0,0,0,0,0,0,0,0,0],"split_type":[0,0,0,0,0,0,0,0,0,0,0,0,0,0,0,0,0,0,0,0,0,0,0,0,0,0,0,0,0,0,0,0,0,0,0,0,0,0,0,0,0,0,0,0,0,0,0,0,0,0,0,0,0,0,0,0,0,0,0,0,0,0,0,0,0,0,0,0,0,0,0,0,0,0,0,0,0,0,0,0,0,0,0,0,0,0,0,0,0,0,0,0,0,0,0,0,0,0,0,0,0,0,0,0,0],"sum_hessian":[2.494E3,1.973E3,5.21E2,1.566E3,4.07E2,4.27E2,9.4E1,7.22E2,8.44E2,2.26E2,1.81E2,1.42E2,2.85E2,8E1,1.4E1,1.53E2,5.69E2,2.63E2,5.81E2,1.63E2,6.3E1,6.6E1,1.15E2,1E1,1.32E2,2.68E2,1.7E1,3.9E1,4.1E1,5E0,9E0,5.5E1,9.8E1,1.85E2,3.84E2,2.23E2,4E1,1.46E2,4.35E2,6E0,1.57E2,1.6E1,4.7E1,2.8E1,3.8E1,8.9E1,2.6E1,8.4E1,4.8E1,1.98E2,7E1,7E0,1E1,7E0,3.2E1,8E0,3.3E1,1E0,4E0,8E0,1E0,1.4E1,4.1E1,2.7E1,7.1E1,1.18E2,6.7E1,3.63E2,2.1E1,1.54E2,6.9E1,2.8E1,1.2E1,1E2,4.6E1,3.9E2,4.5E1,7E0,1.5E2,2E0,1.4E1,4.4E1,3E0,9E0,1.9E1,2.7E1,1.1E1,1.9E1,7E1,2E0,2.4E1,2.9E1,5.5E1,2.2E1,2.6E1,1.62E2,3.6E1,6.3E1,7E0,9E0,1E0,1.2E1,2E1,2.2E1,1.1E1],"tree_param":{"num_deleted":"0","num_feature":"8","num_nodes":"105","size_leaf_vector":"1"}},{"base_weights":[4.8703525E-2,-4.8461708E-1,3.2969725E0,-1.0140932E0,3.8003057E-1,2.485433E0,7.127669E0,-7.9384905E-1,-1.9530984E0,8.6028254E-1,-1.4471624E0,4.084171E0,2.5558895E-1,1.1987083E1,5.9398017E0,-1.7004846E0,-4.568802E-1,-1.6515212E0,-3.2677367E0,2.6326654E0,4.3421334E-1,-6.083997E-1,-3.448025E0,6.5178576E0,2.9564629E0,8.2362E-1,-3.1036823E0,8.352562E-1,3.7886863E0,5.3321958E0,5.448015E0,-7.7042717E-1,-2.0358775E0,1.1673399E-1,-1.0221192E0,-3.5508766E0,-1.3830217E0,-3.7224255E0,-1.4825972E0,1.8343451E0,5.6018715E0,-3.3216515E-1,1.6401587E0,-1.8636421E0,1.0372629E0,-2.709224E0,-6.132307E0,4.8080497E0,2.7973375E0,1.4687383E0,5.2531457E0,5.0672874E0,1.2276528E-1,-1.7751856E0,-1.4813166E0,-1.6017914E0,5.654483E0,-4.5404378E-1,1.6886584E-1,-3.3239734E-1,-6.958201E-1,-3.1318504E-2,9.3298113E-1,-5.025167E-1,-1.4513205E-1,-6.6354084E-1,-1.215277E0,-3.1824303E-1,-9.616201E-1,-1.1562196E0,-2.969105E-1,2.2466789E-1,-8.5941577E-1,1.511009E0,4.021277E-1,2.6057982E0,1.3938911E0,1.6221458E-1,-2.940829E-1,8.6926275E-1,1.17379874E-1,1.9455643E-1,-6.901273E-1,5.608883E-1,-5.887356E-1,-1.11712E0,-7.130576E-2,-2.6188603E-1,-1.9859056E0,1.7206072E0,4.4757012E-1,1.5671792E0,2.5771216E-1,1.6891133E0,-6.0918885E-1,5.562913E-1,2.5423105E0,-2.4368222E-1,8.417665E-1,-7.118707E-1,2.4267942E-1,2.0367967E-1,-9.244858E-1,1.7570276E0,-5.778732E-1],"categories":[],"categories_nodes":[],"categories_segments":[],"categories_sizes":[],"default_left":[0,0,0,0,0,0,0,0,0,0,0,0,0,0,0,0,0,0,0,0,0,0,0,0,0,0,0,0,0,0,0,0,0,0,0,0,0,0,0,0,0,0,0,0,0,0,0,0,0,0,0,0,0,0,0,0,0,0,0,0,0,0,0,0,0,0,0,0,0,0,0,0,0,0,0,0,0,0,0,0,0,0,0,0,0,0,0,0,0,0,0,0,0,0,0,0,0,0,0,0,0,0,0,0,0],"id":6,"left_children":[1,3,5,7,9,11,13,15,17,19,21,23,25,27,29,31,33,35,37,39,41,43,45,47,49,51,53,-1,-1,55,-1,57,59,61,63,65,67,69,71,73,75,77,79,81,83,85,87,89,-1,91,93,95,97,99,-1,101,103,-1,-1,-1,-1,-1,-1,-1,-1,-1,-1,-1,-1,-1,-1,-1,-1,-1,-1,-1,-1,-1,-1,-1,-1,-1,-1,-1,-1,-1,-1,-1,-1,-1,-1,-1,-1,-1,-1,-1,-1,-1,-1,-1,-1,-1,-1,-1,-1],"loss_changes":[4.323858E3,9.8193054E2,1.0765681E3,2.7350732E2,7.164181E2,1.0399176E3,2.8091187E2,3.288662E2,9.451245E1,4.8668872E2,2.8320453E2,4.4729297E2,2.372612E2,2.9816406E1,2.818468E2,8.951642E1,2.5561186E2,1.0065405E2,3.1818512E1,2.8602142E2,4.8298273E2,2.5188342E2,8.254376E1,2.0950122E2,3.9547058E2,3.1464252E2,3.509192E1,0E0,0E0,1.2079407E2,0E0,7.91189E1,5.3728638E1,2.5978317E2,1.387373E2,7.780121E0,1.04055756E2,9.136108E0,3.6071476E1,1.5141907E2,3.626654E1,1.8156157E2,3.176447E2,7.7203384E1,1.3600244E2,1.0191824E2,1.9854248E1,9.907153E1,0E0,1.6264827E2,1.3782593E2,1.4848935E2,2.330911E2,2.045435E1,0E0,1.2217445E1,8.488452E1,0E0,0E0,0E0,0E0,0E0,0E0,0E0,0E0,0E0,0E0,0E0,0E0,0E0,0E0,0E0,0E0,0E0,0E0,0E0,0E0,0E0,0E0,0E0,0E0,0E0,0E0,0E0,0E0,0E0,0E0,0E0,0E0,0E0,0E0,0E0,0E0,0E0,0E0,0E0,0E0,0E0,0E0,0E0,0E0,0E0,0E0,0E0,0E0],"parents":[2147483647,0,0,1,1,2,2,3,3,4,4,5,5,6,6,7,7,8,8,9,9,10,10,11,11,12,12,13,13,14,14,15,15,16,16,17,17,18,18,19,19,20,20,21,21,22,22,23,23,24,24,25,25,26,26,29,29,31,31,32,32,33,33,34,34,35,35,36,36,37,37,38,38,39,39,40,40,41,41,42,42,43,43,44,44,45,45,46,46,47,47,49,49,50,50,51,51,52,52,53,53,55,55,56,56],"right_children":[2,4,6,8,10,12,14,16,18,20,22,24,26,28,30,32,34,36,38,40,42,44,46,48,50,52,54,-1,-1,56,-1,58,60,62,64,66,68,70,72,74,76,78,80,82,84,86,88,90,-1,92,94,96,98,100,-1,102,104,-1,-1,-1,-1,-1,-1,-1,-1,-1,-1,-1,-1,-1,-1,-1,-1,-1,-1,-1,-1,-1,-1,-1,-1,-1,-1,-1,-1,-1,-1,-1,-1,-1,-1,-1,-1,-1,-1,-1,-1,-1,-1,-1,-1,-1,-1,-1,-1],"split_conditions":[3.5E1,2.1333334E1,5.6333332E1,2.1E1,3.4E1,4.4E1,4.9E1,1.3666667E1,2.8E1,2.1E1,2.9E1,4E1,6.6E1,8E0,1.13666664E2,1E1,1.7E1,1.5666667E1,1.0659917E1,2.5333334E1,2.7333334E1,2.7666666E1,4.4E1,3.8666668E1,4.3E1,3.2E1,6.372416E0,8.352562E-1,3.7886863E0,1.2286667E0,5.448015E0,1.1666667E1,1E1,1.9E1,1.7666666E1,2.1129885E1,2.2E1,5.6E1,1.4693999E1,1.5E1,1.5E1,2.1E1,3.2E1,1.4E1,4.9E1,3.3333332E1,1.3036667E0,3.7E1,2.7973375E0,2.4E1,1.2200001E1,3.9E1,4.7666668E1,2.1992035E2,-1.4813166E0,6E1,2.6642431E1,-4.5404378E-1,1.6886584E-1,-3.3239734E-1,-6.958201E-1,-3.1318504E-2,9.3298113E-1,-5.025167E-1,-1.4513205E-1,-6.6354084E-1,-1.215277E0,-3.1824303E-1,-9.616201E-1,-1.1562196E0,-2.969105E-1,2.2466789E-1,-8.5941577E-1,1.511009E0,4.021277E-1,2.6057982E0,1.3938911E0,1.6221458E-1,-2.940829E-1,8.6926275E-1,1.17379874E-1,1.9455643E-1,-6.901273E-1,5.608883E-1,-5.887356E-1,-1.11712E0,-7.130576E-2,-2.6188603E-1,-1.9859056E0,1.7206072E0,4.4757012E-1,1.5671792E0,2.5771216E-1,1.6891133E0,-6.0918885E-1,5.562913E-1,2.5423105E0,-2.4368222E-1,8.417665E-1,-7.118707E-1,2.4267942E-1,2.0367967E-1,-9.244858E-1,1.7570276E0,-5.778732E-1],"split_indices":[3,3,3,1,1,1,1,3,1,0,0,0,1,2,3,0,0,3,4,3,3,3,1,3,3,0,4,0,0,4,0,3,1,3,3,6,0,2,6,0,1,1,0,0,1,3,4,0,0,1,5,3,3,7,0,0,6,0,0,0,0,0,0,0,0,0,0,0,0,0,0,0,0,0,0,0,0,0,0,0,0,0,0,0,0,0,0,0,0,0,0,0,0,0,0,0,0,0,0,0,0,0,0,0,0],"split_type":[0,0,0,0,0,0,0,0,0,0,0,0,0,0,0,0,0,0,0,0,0,0,0,0,0,0,0,0,0,0,0,0,0,0,0,0,0,0,0,0,0,0,0,0,0,0,0,0,0,0,0,0,0,0,0,0,0,0,0,0,0,0,0,0,0,0,0,0,0,0,0,0,0,0,0,0,0,0,0,0,0,0,0,0,0,0,0,0,0,0,0,0,0,0,0,0,0,0,0,0,0,0,0,0,0],"sum_hessian":[2.494E3,2.143E3,3.51E2,1.329E3,8.14E2,2.91E2,6E1,1.078E3,2.51E2,6.45E2,1.69E2,1.69E2,1.22E2,1E1,5E1,2.91E2,7.87E2,2.06E2,4.5E1,1.24E2,5.21E2,1.2E2,4.9E1,5.2E1,1.17E2,1.05E2,1.7E1,1E0,9E0,4.9E1,1E0,7.8E1,2.13E2,3.91E2,3.96E2,2.4E1,1.82E2,3.5E1,1E1,9.9E1,2.5E1,3.19E2,2.02E2,6.8E1,5.2E1,4E1,9E0,3.4E1,1.8E1,7.2E1,4.5E1,1.4E1,9.1E1,1.1E1,6E0,2E0,4.7E1,5E1,2.8E1,5.1E1,1.62E2,3.65E2,2.6E1,1.78E2,2.18E2,8E0,1.6E1,1.56E2,2.6E1,3.3E1,2E0,4E0,6E0,1.2E1,8.7E1,4E0,2.1E1,1.36E2,1.83E2,1E2,1.02E2,1E1,5.8E1,4.1E1,1.1E1,2.8E1,1.2E1,1E0,8E0,2.6E1,8E0,9E0,6.3E1,4.3E1,2E0,8E0,6E0,6.8E1,2.3E1,9E0,2E0,1E0,1E0,4.6E1,1E0],"tree_param":{"num_deleted":"0","num_feature":"8","num_nodes":"105","size_leaf_vector":"1"}},{"base_weights":[4.076529E-2,-3.2687378E-1,2.4964688E0,-6.311829E-1,5.60324E-1,2.1427464E0,8.41036E0,-2.981851E-1,-1.0333754E0,2.1876242E0,-2.05202E-2,6.266778E0,1.8036014E0,1.2480124E1,5.8850565E0,-6.114504E-1,1.1864015E-1,-8.487054E-1,-2.0924993E0,3.972217E0,1.6104065E0,9.0575826E-1,-8.167754E-1,7.180664E0,3.152087E0,4.8764176E0,1.3835248E0,1.394584E0,4.570118E0,1.089267E0,2.052015E0,-1.4296968E-1,-1.1468183E0,1.7670786E0,-2.2602943E-1,-1.349359E0,-4.9307057E-1,-3.3335083E0,-1.7901095E0,2.4384966E0,5.8546114E0,1.8572286E0,-4.043032E0,1.411952E0,-1.5452834E0,-3.953905E-1,-2.2136388E0,7.7109256E0,6.407402E-1,2.5439835E-1,1.278085E0,5.6083384E0,-4.9039155E-1,2.4309533E0,6.361187E-1,-1.1196034E0,-2.256711E-2,-4.850862E-1,-2.0366377E-1,1.3391424E0,3.9544615E-1,5.319738E-1,-1.5417524E-1,-3.263894E-1,-6.964626E-1,6.9789276E-2,-2.8405818E-1,-3.110241E-1,-1.0593321E0,-4.9934518E-2,-6.5134865E-1,9.741739E-1,1.071315E-1,2.3266914E0,1.2385603E0,4.190208E-1,9.369116E-1,-2.2327024E-1,-1.4045019E0,1.5217364E0,3.3910426E-1,2.0338093E-1,-7.6241285E-1,-2.128804E-2,-8.9612967E-1,-1.066135E0,-2.3650625E-1,2.4283357E0,3.5123292E-1,5.8736806E-3,1.0860558E-1,7.9104054E-1,2.0886803E0,-4.9919742E-1,2.5400162E-1,1.0781028E0,3.2402542E-1,-5.4966457E-2,8.396549E-1],"categories":[],"categories_nodes":[],"categories_segments":[],"categories_sizes":[],"default_left":[0,0,0,0,0,0,0,0,0,0,0,0,0,0,0,0,0,0,0,0,0,0,0,0,0,0,0,0,0,0,0,0,0,0,0,0,0,0,0,0,0,0,0,0,0,0,0,0,0,0,0,0,0,0,0,0,0,0,0,0,0,0,0,0,0,0,0,0,0,0,0,0,0,0,0,0,0,0,0,0,0,0,0,0,0,0,0,0,0,0,0,0,0,0,0,0,0,0,0],"id":7,"left_children":[1,3,5,7,9,11,13,15,17,19,21,23,25,27,29,31,33,35,37,39,41,43,45,47,49,51,53,-1,-1,-1,-1,55,57,59,61,63,65,67,69,71,73,75,77,79,81,83,85,87,-1,89,-1,91,93,95,97,-1,-1,-1,-1,-1,-1,-1,-1,-1,-1,-1,-1,-1,-1,-1,-1,-1,-1,-1,-1,-1,-1,-1,-1,-1,-1,-1,-1,-1,-1,-1,-1,-1,-1,-1,-1,-1,-1,-1,-1,-1,-1,-1,-1],"loss_changes":[2.2533333E3,5.864854E2,6.6183875E2,2.162555E2,5.2463525E2,4.1947974E2,1.1154675E2,1.1576366E2,1.4139478E2,1.439975E2,3.0313693E2,4.2834778E1,3.624273E2,5.8573486E1,3.1498108E0,1.267457E2,2.1687088E2,1.10615845E2,3.4561584E1,8.6770935E1,1.6379294E2,2.3791527E2,1.292091E2,2.900769E1,2.139463E1,1.3630493E2,1.9651578E2,0E0,0E0,0E0,0E0,6.561105E1,5.0821045E1,7.40175E1,1.8279059E2,6.3292084E1,1.2107926E2,5.4158783E0,5.470294E1,3.4190216E1,1.7200378E1,5.859073E1,7.049469E0,1.5713501E2,7.480248E1,1.4356976E2,9.461281E1,2.814801E1,0E0,6.872602E-2,0E0,1.02339294E2,9.254743E0,1.6104053E2,2.6454266E2,0E0,0E0,0E0,0E0,0E0,0E0,0E0,0E0,0E0,0E0,0E0,0E0,0E0,0E0,0E0,0E0,0E0,0E0,0E0,0E0,0E0,0E0,0E0,0E0,0E0,0E0,0E0,0E0,0E0,0E0,0E0,0E0,0E0,0E0,0E0,0E0,0E0,0E0,0E0,0E0,0E0,0E0,0E0,0E0],"parents":[2147483647,0,0,1,1,2,2,3,3,4,4,5,5,6,6,7,7,8,8,9,9,10,10,11,11,12,12,13,13,14,14,15,15,16,16,17,17,18,18,19,19,20,20,21,21,22,22,23,23,24,24,25,25,26,26,31,31,32,32,33,33,34,34,35,35,36,36,37,37,38,38,39,39,40,40,41,41,42,42,43,43,44,44,45,45,46,46,47,47,49,49,51,51,52,52,53,53,54,54],"right_children":[2,4,6,8,10,12,14,16,18,20,22,24,26,28,30,32,34,36,38,40,42,44,46,48,50,52,54,-1,-1,-1,-1,56,58,60,62,64,66,68,70,72,74,76,78,80,82,84,86,88,-1,90,-1,92,94,96,98,-1,-1,-1,-1,-1,-1,-1,-1,-1,-1,-1,-1,-1,-1,-1,-1,-1,-1,-1,-1,-1,-1,-1,-1,-1,-1,-1,-1,-1,-1,-1,-1,-1,-1,-1,-1,-1,-1,-1,-1,-1,-1,-1,-1],"split_conditions":[3.6E1,2.4333334E1,7.4E1,2.7999997E0,2.2E1,2.4E1,4.9E1,1.8333334E1,2.3E1,1.5E1,2.8E1,7.1349177E0,9.19939E0,3.9E1,6.126583E0,1.5E1,1.6E1,1.5333333E1,1.8666666E1,2.8333334E1,4.2E1,4.4E1,3.7E1,1.7532472E2,1.5E1,6.5E1,4.3E1,1.394584E0,4.570118E0,1.089267E0,2.052015E0,5E0,1.6E1,1.2E1,1.4E1,1.7E1,1.8E1,9E0,1.6E1,3E1,2.6E1,3E1,4.3E1,1.7E1,3.4E1,4.2E1,3.3666668E1,2.4342628E1,6.407402E-1,4.5E1,1.278085E0,4.2333332E1,3.2E1,4.6E1,5.4E1,-1.1196034E0,-2.256711E-2,-4.850862E-1,-2.0366377E-1,1.3391424E0,3.9544615E-1,5.319738E-1,-1.5417524E-1,-3.263894E-1,-6.964626E-1,6.9789276E-2,-2.8405818E-1,-3.110241E-1,-1.0593321E0,-4.9934518E-2,-6.5134865E-1,9.741739E-1,1.071315E-1,2.3266914E0,1.2385603E0,4.190208E-1,9.369116E-1,-2.2327024E-1,-1.4045019E0,1.5217364E0,3.3910426E-1,2.0338093E-1,-7.6241285E-1,-2.128804E-2,-8.9612967E-1,-1.066135E0,-2.3650625E-1,2.4283357E0,3.5123292E-1,5.8736806E-3,1.0860558E-1,7.9104054E-1,2.0886803E0,-4.9919742E-1,2.5400162E-1,1.0781028E0,3.2402542E-1,-5.4966457E-2,8.396549E-1],"split_indices":[3,3,3,5,1,1,2,3,0,1,0,4,6,2,4,1,0,3,3,3,0,1,1,7,2,0,1,0,0,0,0,2,3,0,1,1,1,1,1,0,0,3,0,0,2,0,3,6,0,0,0,3,2,0,3,0,0,0,0,0,0,0,0,0,0,0,0,0,0,0,0,0,0,0,0,0,0,0,0,0,0,0,0,0,0,0,0,0,0,0,0,0,0,0,0,0,0,0,0],"split_type":[0,0,0,0,0,0,0,0,0,0,0,0,0,0,0,0,0,0,0,0,0,0,0,0,0,0,0,0,0,0,0,0,0,0,0,0,0,0,0,0,0,0,0,0,0,0,0,0,0,0,0,0,0,0,0,0,0,0,0,0,0,0,0,0,0,0,0,0,0,0,0,0,0,0,0,0,0,0,0,0,0,0,0,0,0,0,0,0,0,0,0,0,0,0,0,0,0,0,0],"sum_hessian":[2.494E3,2.17E3,3.24E2,1.616E3,5.54E2,3.07E2,1.7E1,8.85E2,7.31E2,1.45E2,4.09E2,2.2E1,2.85E2,5E0,1.2E1,5.05E2,3.8E2,6.24E2,1.07E2,3.4E1,1.11E2,1.89E2,2.2E2,1.6E1,6E0,3.3E1,2.52E2,2E0,3E0,5E0,7E0,2.7E2,2.35E2,6.5E1,3.15E2,2.58E2,3.66E2,1.9E1,8.8E1,2E1,1.4E1,1.07E2,4E0,1.57E2,3.2E1,1.7E2,5E1,1.4E1,2E0,2E0,4E0,2.9E1,4E0,1.04E2,1.48E2,4E0,2.66E2,1.16E2,1.19E2,8E0,5.7E1,3.9E1,2.76E2,2.05E2,5.3E1,1.41E2,2.25E2,2E0,1.7E1,1.7E1,7.1E1,1.4E1,6E0,5E0,9E0,8E1,2.7E1,1E0,3E0,1E1,1.47E2,1E1,2.2E1,1.52E2,1.8E1,2.5E1,2.5E1,1.3E1,1E0,1E0,1E0,1E1,1.9E1,2E0,2E0,5.5E1,4.9E1,1.08E2,4E1],"tree_param":{"num_deleted":"0","num_feature":"8","num_nodes":"99","size_leaf_vector":"1"}},{"base_weights":[3.621872E-2,-3.5663104E-1,1.3194661E0,-9.537875E-2,-6.931725E-1,9.091932E-1,3.3741462E0,-3.6599E-1,3.304642E-1,-6.1604565E-1,-2.6736217E0,1.2305628E0,-1.5976572E0,4.9183893E0,1.8848602E0,-8.19552E-3,-7.837823E-1,7.391126E-1,-7.693329E-1,1.052707E-1,-7.641379E-1,-2.1170213E0,-4.279534E0,1.4067172E0,-1.9783996E0,1.5290571E0,-2.6763015E0,4.0335765E0,9.398237E0,4.0199013E0,-1.6183938E-1,-7.8688306E-1,2.9063493E-1,-6.622432E-1,-2.390131E0,1.0205954E0,-7.580645E-1,-2.8068056E-2,-1.4360033E0,-2.331689E-1,1.3314255E0,-2.739168E-2,-8.9379853E-1,-1.1367209E0,-1.5095558E0,-3.3896342E-1,-1.3848492E0,1.1773137E0,4.1881824E0,-3.0881913E0,9.107547E-2,-8.685949E-1,4.393316E0,-1.6043503E0,-4.0164394E0,7.0077085E0,2.8481243E0,3.3432908E0,1.0066147E0,1.5896515E0,5.815837E0,2.1258159E0,-1.0688095E0,1.257984E-1,-3.4723142E-1,3.0389044E-1,-1.19100055E-2,-3.6568773E-1,-1.1543703E-1,-8.399282E-1,1.52205E-2,9.808408E-1,2.4225987E-1,-7.4114674E-1,-1.0910312E-1,-4.5445153E-1,1.2662202E-1,-1.8339592E-1,-6.022791E-1,-6.181234E-3,-4.691604E-1,1.1021136E0,2.8053245E-1,-1.8389712E-1,2.878802E-1,-5.6545407E-1,-2.358041E-1,-1.02519184E-1,-5.086623E-1,1.1152353E0,2.82714E-1,1.8646902E0,7.135797E-1,-1.0433872E0,3.5527897E-1,4.2045322E-1,-2.3931819E-1,2.2953759E-1,-9.30608E-1,1.6508604E0,-3.3959913E-1,-6.6910577E-1,9.7197376E-2,-1.4025861E0,-4.1051343E-1,2.2887044E0,1.1919766E-1,1.5811063E0,6.167925E-1,1.3525772E0,1.6650134E-1,6.692329E-1,1.9772348E0,1.092014E0,3.043194E-1,-4.8149276E-1,7.5133747E-1],"categories":[],"categories_nodes":[],"categories_segments":[],"categories_sizes":[],"default_left":[0,0,0,0,0,0,0,0,0,0,0,0,0,0,0,0,0,0,0,0,0,0,0,0,0,0,0,0,0,0,0,0,0,0,0,0,0,0,0,0,0,0,0,0,0,0,0,0,0,0,0,0,0,0,0,0,0,0,0,0,0,0,0,0,0,0,0,0,0,0,0,0,0,0,0,0,0,0,0,0,0,0,0,0,0,0,0,0,0,0,0,0,0,0,0,0,0,0,0,0,0,0,0,0,0,0,0,0,0,0,0,0,0,0,0,0,0],"id":8,"left_children":[1,3,5,7,9,11,13,15,17,19,21,23,25,27,29,31,33,35,37,39,41,43,45,47,49,51,53,55,57,59,61,63,65,67,69,71,73,75,77,79,81,83,85,-1,87,-1,-1,89,91,93,95,97,99,101,103,105,107,-1,-1,109,111,113,115,-1,-1,-1,-1,-1,-1,-1,-1,-1,-1,-1,-1,-1,-1,-1,-1,-1,-1,-1,-1,-1,-1,-1,-1,-1,-1,-1,-1,-1,-1,-1,-1,-1,-1,-1,-1,-1,-1,-1,-1,-1,-1,-1,-1,-1,-1,-1,-1,-1,-1,-1,-1,-1,-1],"loss_changes":[1.2582585E3,1.6795325E2,4.9007507E2,1.2423217E2,1.2589566E2,3.9591693E2,2.1381213E2,9.850339E1,1.8887991E2,8.6071594E1,1.8649536E1,2.4811139E2,1.9295854E2,1.4839136E2,2.2350974E2,8.306831E1,5.7768326E1,1.2973112E2,5.6296143E1,5.75776E1,6.3787537E1,1.9672981E1,2.2061615E0,2.579572E2,5.310505E1,1.0682846E2,5.3891876E1,1.24594604E2,3.646515E1,9.98692E1,5.8292633E1,4.4735134E1,6.160208E1,4.339833E1,2.1138924E1,1.2098068E2,3.219412E1,3.7448498E1,2.7055748E1,3.0799492E1,2.441335E1,5.896435E1,5.919229E1,0E0,3.7645378E0,0E0,0E0,2.2446051E2,9.8949646E1,2.9097641E1,1.160049E1,3.5212658E1,4.914357E1,3.090126E1,2.500647E1,4.2146545E1,4.8646072E1,0E0,0E0,3.373858E1,2.4192657E1,9.771088E0,4.2336906E1,0E0,0E0,0E0,0E0,0E0,0E0,0E0,0E0,0E0,0E0,0E0,0E0,0E0,0E0,0E0,0E0,0E0,0E0,0E0,0E0,0E0,0E0,0E0,0E0,0E0,0E0,0E0,0E0,0E0,0E0,0E0,0E0,0E0,0E0,0E0,0E0,0E0,0E0,0E0,0E0,0E0,0E0,0E0,0E0,0E0,0E0,0E0,0E0,0E0,0E0,0E0,0E0,0E0,0E0],"parents":[2147483647,0,0,1,1,2,2,3,3,4,4,5,5,6,6,7,7,8,8,9,9,10,10,11,11,12,12,13,13,14,14,15,15,16,16,17,17,18,18,19,19,20,20,21,21,22,22,23,23,24,24,25,25,26,26,27,27,28,28,29,29,30,30,31,31,32,32,33,33,34,34,35,35,36,36,37,37,38,38,39,39,40,40,41,41,42,42,44,44,47,47,48,48,49,49,50,50,51,51,52,52,53,53,54,54,55,55,56,56,59,59,60,60,61,61,62,62],"right_children":[2,4,6,8,10,12,14,16,18,20,22,24,26,28,30,32,34,36,38,40,42,44,46,48,50,52,54,56,58,60,62,64,66,68,70,72,74,76,78,80,82,84,86,-1,88,-1,-1,90,92,94,96,98,100,102,104,106,108,-1,-1,110,112,114,116,-1,-1,-1,-1,-1,-1,-1,-1,-1,-1,-1,-1,-1,-1,-1,-1,-1,-1,-1,-1,-1,-1,-1,-1,-1,-1,-1,-1,-1,-1,-1,-1,-1,-1,-1,-1,-1,-1,-1,-1,-1,-1,-1,-1,-1,-1,-1,-1,-1,-1,-1,-1,-1,-1],"split_conditions":[2.9E1,2.7999997E0,4.9666668E1,2.0666666E1,3.3E1,5.3E1,1.4693999E1,1.6E1,2.7E1,1.1809559E2,3.8E1,5.5E1,2.8E1,8.4E1,1.1214489E2,1.3E1,2.8E1,3.2E1,2.3E1,2.4E1,1.2E1,2.4666666E1,1.3E1,4.4666668E1,4.5666668E1,3.7E1,1.6674527E2,5.1E1,5.4E1,1.9083395E1,1E-1,9E0,1.2E1,1.6E1,1.4000001E0,1.5E1,2.2666666E1,2.3E1,1E-1,2.5E1,1.3E1,1.4333333E1,1.3E1,-1.1367209E0,1.8E1,-3.3896342E-1,-1.3848492E0,2E1,4.7E1,1.3755749E1,5.8E1,5.6E1,6.6E1,2.1000001E0,2.9372714E2,7E1,3.7E1,3.3432908E0,1.0066147E0,2E1,5.4333332E1,5.8E1,7E1,1.257984E-1,-3.4723142E-1,3.0389044E-1,-1.19100055E-2,-3.6568773E-1,-1.1543703E-1,-8.399282E-1,1.52205E-2,9.808408E-1,2.4225987E-1,-7.4114674E-1,-1.0910312E-1,-4.5445153E-1,1.2662202E-1,-1.8339592E-1,-6.022791E-1,-6.181234E-3,-4.691604E-1,1.1021136E0,2.8053245E-1,-1.8389712E-1,2.878802E-1,-5.6545407E-1,-2.358041E-1,-1.02519184E-1,-5.086623E-1,1.1152353E0,2.82714E-1,1.8646902E0,7.135797E-1,-1.0433872E0,3.5527897E-1,4.2045322E-1,-2.3931819E-1,2.2953759E-1,-9.30608E-1,1.6508604E0,-3.3959913E-1,-6.6910577E-1,9.7197376E-2,-1.4025861E0,-4.1051343E-1,2.2887044E0,1.1919766E-1,1.5811063E0,6.167925E-1,1.3525772E0,1.6650134E-1,6.692329E-1,1.9772348E0,1.092014E0,3.043194E-1,-4.8149276E-1,7.5133747E-1],"split_indices":[3,5,3,3,0,1,6,1,0,7,0,0,0,0,7,3,1,1,1,3,1,3,1,3,3,3,7,0,2,6,5,0,1,3,5,0,3,3,5,1,1,3,3,0,1,0,0,1,0,4,0,2,1,5,7,1,1,0,0,2,3,0,3,0,0,0,0,0,0,0,0,0,0,0,0,0,0,0,0,0,0,0,0,0,0,0,0,0,0,0,0,0,0,0,0,0,0,0,0,0,0,0,0,0,0,0,0,0,0,0,0,0,0,0,0,0,0],"split_type":[0,0,0,0,0,0,0,0,0,0,0,0,0,0,0,0,0,0,0,0,0,0,0,0,0,0,0,0,0,0,0,0,0,0,0,0,0,0,0,0,0,0,0,0,0,0,0,0,0,0,0,0,0,0,0,0,0,0,0,0,0,0,0,0,0,0,0,0,0,0,0,0,0,0,0,0,0,0,0,0,0,0,0,0,0,0,0,0,0,0,0,0,0,0,0,0,0,0,0,0,0,0,0,0,0,0,0,0,0,0,0,0,0,0,0,0,0],"sum_hessian":[2.494E3,1.91E3,5.84E2,1.076E3,8.34E2,4.88E2,9.6E1,6.58E2,4.18E2,8.04E2,3E1,4.33E2,5.5E1,4.6E1,5E1,3.55E2,3.03E2,3.05E2,1.13E2,1.37E2,6.67E2,2.4E1,6E0,4.11E2,2.2E1,1.4E1,4.1E1,4E1,6E0,2.4E1,2.6E1,9.8E1,2.57E2,2.83E2,2E1,2.57E2,4.8E1,5.4E1,5.9E1,1.08E2,2.9E1,1E2,5.67E2,5E0,1.9E1,1E0,5E0,3.81E2,3E1,1.4E1,8E0,8E0,6E0,2.4E1,1.7E1,1E1,3E1,4E0,2E0,1.1E1,1.3E1,7E0,1.9E1,2.3E1,7.5E1,8E1,1.77E2,9.3E1,1.9E2,1.7E1,3E0,2.1E1,2.36E2,8E0,4E1,1.2E1,4.2E1,2.5E1,3.4E1,9.4E1,1.4E1,3E0,2.6E1,6.3E1,3.7E1,5.4E1,5.13E2,3E0,1.6E1,3.1E1,3.5E2,1.3E1,1.7E1,1.3E1,1E0,3E0,5E0,5E0,3E0,5E0,1E0,1.8E1,6E0,1.3E1,4E0,9E0,1E0,6E0,2.4E1,2E0,9E0,3E0,1E1,2E0,5E0,1.7E1,2E0],"tree_param":{"num_deleted":"0","num_feature":"8","num_nodes":"117","size_leaf_vector":"1"}},{"base_weights":[2.9859677E-2,-1.5916644E-1,1.6346713E0,-3.3020762E-1,3.4043303E-1,1.407231E0,5.3012033E0,-2.3845284E-1,-1.5526038E0,7.5470454E-1,-1.1556944E0,3.035127E0,7.6634234E-1,4.0399547E0,3.443802E0,-4.366727E-1,1.7705828E-1,-1.1454608E0,-2.390951E0,1.097026E0,-5.0833553E-1,-6.379793E-1,-2.2269464E0,4.254024E0,2.0146034E0,1.8912499E0,9.849018E-2,1.6098512E0,2.7069273E0,1.7440325E-1,-6.43445E-1,6.053347E-1,-6.384331E-1,-1.8841543E0,-3.2057402E-1,-1.4451656E0,-2.843036E0,3.0386925E0,7.878554E-1,-1.3046093E0,8.550266E-1,-1.8060539E0,-8.3259173E-4,-3.9422936E0,-1.3510014E0,8.9771146E-1,4.4545383E0,2.6745173E-1,4.1351523E0,2.5835443E0,-9.141173E-1,-2.8203979E0,7.119562E-1,8.54667E-1,2.3568422E-1,-1.9987234E-1,1.913096E-1,-1.5441899E-2,-2.7135438E-1,4.101576E-1,7.562014E-2,1.1133033E-1,-2.8948003E-1,-3.3580428E-1,-7.7869767E-1,-1.4179044E-2,-5.4477143E-1,-8.727093E-2,-4.5347336E-1,-3.8470116E-1,-9.014788E-1,6.86277E-1,1.4654771E0,1.6053092E-1,7.649075E-1,-7.5724065E-1,-2.7652046E-1,6.259269E-1,-3.0240697E-1,-4.7181448E-4,-7.386472E-1,2.5505248E-1,-2.8390968E-1,-1.348625E0,-6.474644E-1,-3.7585568E-2,-6.787375E-1,-6.565991E-2,4.6963006E-1,1.4759749E0,7.8538E-1,-2.2546455E-1,3.792493E-1,1.4008404E0,-2.7874375E-2,1.9189658E0,6.19176E-1,3.5392888E-2,-6.9297147E-1,-3.8949418E-1,-1.1843133E0,4.3331715E-3,6.254196E-1],"categories":[],"categories_nodes":[],"categories_segments":[],"categories_sizes":[],"default_left":[0,0,0,0,0,0,0,0,0,0,0,0,0,0,0,0,0,0,0,0,0,0,0,0,0,0,0,0,0,0,0,0,0,0,0,0,0,0,0,0,0,0,0,0,0,0,0,0,0,0,0,0,0,0,0,0,0,0,0,0,0,0,0,0,0,0,0,0,0,0,0,0,0,0,0,0,0,0,0,0,0,0,0,0,0,0,0,0,0,0,0,0,0,0,0,0,0,0,0,0,0,0,0],"id":9,"left_children":[1,3,5,7,9,11,13,15,17,19,21,23,25,27,-1,29,31,33,35,37,39,41,43,45,47,49,51,-1,53,55,57,59,61,63,65,67,69,71,73,75,77,79,81,83,85,87,89,91,93,95,97,99,101,-1,-1,-1,-1,-1,-1,-1,-1,-1,-1,-1,-1,-1,-1,-1,-1,-1,-1,-1,-1,-1,-1,-1,-1,-1,-1,-1,-1,-1,-1,-1,-1,-1,-1,-1,-1,-1,-1,-1,-1,-1,-1,-1,-1,-1,-1,-1,-1,-1,-1],"loss_changes":[7.5712177E2,1.9092691E2,2.1186017E2,1.8626523E2,3.541599E2,2.5745572E2,7.050647E1,1.276569E2,3.6855225E1,1.9382512E2,6.735005E1,7.8503845E1,1.350427E2,1.0224503E1,0E0,1.3265715E2,1.753636E2,4.8143066E1,1.1711639E1,2.0891373E2,1.0533399E2,6.3258453E1,5.477597E1,1.686377E1,1.4709088E2,1.32485E2,2.061408E2,0E0,2.1665192E-1,1.04022995E2,1.2111737E2,8.820223E1,5.7381172E1,1.9949417E1,1.5853067E1,6.3347435E-1,2.210678E0,5.53873E1,1.3445464E2,2.6155884E1,8.469266E1,3.551391E1,4.5865288E1,3.1264954E0,3.0997795E1,2.5793116E0,1.1906677E1,2.4310036E1,4.1098053E1,9.378995E1,2.044068E1,2.9191925E1,9.093506E1,0E0,0E0,0E0,0E0,0E0,0E0,0E0,0E0,0E0,0E0,0E0,0E0,0E0,0E0,0E0,0E0,0E0,0E0,0E0,0E0,0E0,0E0,0E0,0E0,0E0,0E0,0E0,0E0,0E0,0E0,0E0,0E0,0E0,0E0,0E0,0E0,0E0,0E0,0E0,0E0,0E0,0E0,0E0,0E0,0E0,0E0,0E0,0E0,0E0,0E0],"parents":[2147483647,0,0,1,1,2,2,3,3,4,4,5,5,6,6,7,7,8,8,9,9,10,10,11,11,12,12,13,13,15,15,16,16,17,17,18,18,19,19,20,20,21,21,22,22,23,23,24,24,25,25,26,26,28,28,29,29,30,30,31,31,32,32,33,33,34,34,35,35,36,36,37,37,38,38,39,39,40,40,41,41,42,42,43,43,44,44,45,45,46,46,47,47,48,48,49,49,50,50,51,51,52,52],"right_children":[2,4,6,8,10,12,14,16,18,20,22,24,26,28,-1,30,32,34,36,38,40,42,44,46,48,50,52,-1,54,56,58,60,62,64,66,68,70,72,74,76,78,80,82,84,86,88,90,92,94,96,98,100,102,-1,-1,-1,-1,-1,-1,-1,-1,-1,-1,-1,-1,-1,-1,-1,-1,-1,-1,-1,-1,-1,-1,-1,-1,-1,-1,-1,-1,-1,-1,-1,-1,-1,-1,-1,-1,-1,-1,-1,-1,-1,-1,-1,-1,-1,-1,-1,-1,-1,-1],"split_conditions":[3.8666668E1,2.5E1,7.6666664E1,2.6E1,3.7E1,3.8E1,1.13666664E2,1.9E1,2.3E1,3.9E1,3.4E1,4.7E1,4.6E1,7.7E1,3.443802E0,1.2E1,2.5E1,2.2E1,1.7555307E1,2.2E1,3.2333332E1,3.1E1,3.4333332E1,-2.6421669E0,4.6E1,6.3E1,4.5E1,1.6098512E0,1.32E2,1.2E1,1.3E1,1.9E1,1.6E1,2.8E1,3.3E1,1E1,1.6E1,2.8333334E1,3.3333332E1,2.7E1,5.3E1,1.4596184E2,4.2E1,1.2753666E1,4.1E1,2.2E1,2.8E0,2.2E1,7E1,3E1,7E1,4.4E1,5.9666668E1,8.54667E-1,2.3568422E-1,-1.9987234E-1,1.913096E-1,-1.5441899E-2,-2.7135438E-1,4.101576E-1,7.562014E-2,1.1133033E-1,-2.8948003E-1,-3.3580428E-1,-7.7869767E-1,-1.4179044E-2,-5.4477143E-1,-8.727093E-2,-4.5347336E-1,-3.8470116E-1,-9.014788E-1,6.86277E-1,1.4654771E0,1.6053092E-1,7.649075E-1,-7.5724065E-1,-2.7652046E-1,6.259269E-1,-3.0240697E-1,-4.7181448E-4,-7.386472E-1,2.5505248E-1,-2.8390968E-1,-1.348625E0,-6.474644E-1,-3.7585568E-2,-6.787375E-1,-6.565991E-2,4.6963006E-1,1.4759749E0,7.8538E-1,-2.2546455E-1,3.792493E-1,1.4008404E0,-2.7874375E-2,1.9189658E0,6.19176E-1,3.5392888E-2,-6.9297147E-1,-3.8949418E-1,-1.1843133E0,4.3331715E-3,6.254196E-1],"split_indices":[3,3,3,0,0,1,3,3,1,1,1,0,0,1,0,0,1,3,6,0,3,3,3,4,3,1,3,0,1,3,1,0,0,0,0,2,2,3,3,3,1,7,0,4,0,2,5,2,0,0,1,1,3,0,0,0,0,0,0,0,0,0,0,0,0,0,0,0,0,0,0,0,0,0,0,0,0,0,0,0,0,0,0,0,0,0,0,0,0,0,0,0,0,0,0,0,0,0,0,0,0,0,0],"split_type":[0,0,0,0,0,0,0,0,0,0,0,0,0,0,0,0,0,0,0,0,0,0,0,0,0,0,0,0,0,0,0,0,0,0,0,0,0,0,0,0,0,0,0,0,0,0,0,0,0,0,0,0,0,0,0,0,0,0,0,0,0,0,0,0,0,0,0,0,0,0,0,0,0,0,0,0,0,0,0,0,0,0,0,0,0,0,0,0,0,0,0,0,0,0,0,0,0,0,0,0,0,0,0],"sum_hessian":[2.494E3,2.232E3,2.62E2,1.663E3,5.69E2,2.48E2,1.4E1,1.548E3,1.15E2,4.46E2,1.23E2,6.9E1,1.79E2,1.3E1,1E0,1.048E3,5E2,7.9E1,3.6E1,3.51E2,9.5E1,8.4E1,3.9E1,3E1,3.9E1,6.6E1,1.13E2,5E0,8E0,2.65E2,7.83E2,3.28E2,1.72E2,4.1E1,3.8E1,1.3E1,2.3E1,4.7E1,3.04E2,6E1,3.5E1,2.9E1,5.5E1,1.2E1,2.7E1,2E0,2.8E1,2.2E1,1.7E1,5.3E1,1.3E1,1.9E1,9.4E1,7E0,1E0,9.4E1,1.71E2,2.4E2,5.43E2,1.03E2,2.25E2,4.2E1,1.3E2,2.1E1,2E1,3.3E1,5E0,1E0,1.2E1,3E0,2E1,3.5E1,1.2E1,2.67E2,3.7E1,1.3E1,4.7E1,2.1E1,1.4E1,8E0,2.1E1,2.9E1,2.6E1,8E0,4E0,1.2E1,1.5E1,1E0,1E0,2.1E1,7E0,1.1E1,1.1E1,1.5E1,2E0,5E0,4.8E1,8E0,5E0,9E0,1E1,6.3E1,3.1E1],"tree_param":{"num_deleted":"0","num_feature":"8","num_nodes":"103","size_leaf_vector":"1"}},{"base_weights":[2.3575654E-2,-8.617117E-2,1.5156096E0,-2.6897198E-1,2.5093126E-1,1.4097315E0,2.9272318E0,-1.5102196E-1,-9.104989E-1,9.1953135E-1,-1.4216323E-1,3.2074645E0,1.0172371E0,-1.10951755E-2,-7.275432E-1,-1.9307323E0,-7.090808E-1,7.104751E-1,2.7982605E0,-3.6025938E-2,-2.3164768E0,3.6521502E0,2.5360566E-1,2.5950435E-1,1.8268691E0,-3.938692E-1,5.128193E-1,-1.7088367E0,-3.4188712E-1,-1.3775237E0,-2.7806952E0,3.754285E-1,-9.7915226E-1,1.4225919E0,8.6163925E-3,4.616127E0,1.9273944E0,-2.423538E-1,8.781076E-1,-1.5171169E0,-4.041048E0,2.215183E0,4.918719E0,-2.4336053E-1,3.7016335E-1,1.7094159E0,-5.6147724E-1,4.305341E0,1.1627697E0,3.8497806E-1,-1.4279874E-1,4.263735E-1,8.527176E-2,1.841406E-1,-5.2541816E-1,8.727615E-2,-2.1860678E-1,-6.0704696E-1,-1.1142944E-1,-1.366024E-1,-8.773628E-1,2.8515905E-1,-5.1332754E-1,-4.9650913E-1,-2.0075338E-1,1.0717044E0,3.8347378E-1,1.0416364E-1,-3.6995655E-1,1.1844922E-1,1.7297422E0,6.634635E-1,-1.8282203E-1,1.8801634E-1,-1.7246029E-1,4.7506478E-1,-3.142801E-1,7.669237E-2,-8.005428E-1,-2.928031E-1,-1.3167658E0,7.464653E-1,1.1539497E-1,1.6302935E0,7.200174E-1,6.960634E-1,-2.4452077E-1,3.01725E-2,-4.7318146E-1,1.0743428E-1,1.3744279E0,1.5809102E0,2.2119902E-1],"categories":[],"categories_nodes":[],"categories_segments":[],"categories_sizes":[],"default_left":[0,0,0,0,0,0,0,0,0,0,0,0,0,0,0,0,0,0,0,0,0,0,0,0,0,0,0,0,0,0,0,0,0,0,0,0,0,0,0,0,0,0,0,0,0,0,0,0,0,0,0,0,0,0,0,0,0,0,0,0,0,0,0,0,0,0,0,0,0,0,0,0,0,0,0,0,0,0,0,0,0,0,0,0,0,0,0,0,0,0,0,0,0],"id":10,"left_children":[1,3,5,7,9,11,-1,13,15,17,19,21,23,25,27,29,31,33,35,37,39,41,43,45,47,49,51,53,55,57,59,61,63,65,67,69,71,73,75,77,79,81,83,-1,-1,85,87,89,91,-1,-1,-1,-1,-1,-1,-1,-1,-1,-1,-1,-1,-1,-1,-1,-1,-1,-1,-1,-1,-1,-1,-1,-1,-1,-1,-1,-1,-1,-1,-1,-1,-1,-1,-1,-1,-1,-1,-1,-1,-1,-1,-1,-1],"loss_changes":[4.0867685E2,1.4334003E2,1.3546417E2,1.1397E2,2.1511993E2,1.166893E2,0E0,1.0284715E2,4.671643E1,1.1701822E2,1.18996826E2,3.847998E1,8.602725E1,2.0615741E2,9.36478E1,1.4037384E1,5.8067917E1,1.3693443E2,3.8596466E1,9.319814E1,2.6954544E1,3.642459E1,6.219929E0,8.904575E1,1.0691861E2,8.24265E1,8.971526E1,7.9941406E0,4.4270836E1,1.5495949E1,3.3512726E0,4.9624897E1,3.1994278E1,3.763562E1,5.8873486E1,4.1401733E1,1.7206062E1,1.1681897E2,1.2528011E2,3.7421627E1,3.18618E0,6.0400925E0,3.8391724E0,0E0,0E0,4.3523605E1,3.2439053E1,1.361615E1,9.2213326E1,0E0,0E0,0E0,0E0,0E0,0E0,0E0,0E0,0E0,0E0,0E0,0E0,0E0,0E0,0E0,0E0,0E0,0E0,0E0,0E0,0E0,0E0,0E0,0E0,0E0,0E0,0E0,0E0,0E0,0E0,0E0,0E0,0E0,0E0,0E0,0E0,0E0,0E0,0E0,0E0,0E0,0E0,0E0,0E0],"parents":[2147483647,0,0,1,1,2,2,3,3,4,4,5,5,7,7,8,8,9,9,10,10,11,11,12,12,13,13,14,14,15,15,16,16,17,17,18,18,19,19,20,20,21,21,22,22,23,23,24,24,25,25,26,26,27,27,28,28,29,29,30,30,31,31,32,32,33,33,34,34,35,35,36,36,37,37,38,38,39,39,40,40,41,41,42,42,45,45,46,46,47,47,48,48],"right_children":[2,4,6,8,10,12,-1,14,16,18,20,22,24,26,28,30,32,34,36,38,40,42,44,46,48,50,52,54,56,58,60,62,64,66,68,70,72,74,76,78,80,82,84,-1,-1,86,88,90,92,-1,-1,-1,-1,-1,-1,-1,-1,-1,-1,-1,-1,-1,-1,-1,-1,-1,-1,-1,-1,-1,-1,-1,-1,-1,-1,-1,-1,-1,-1,-1,-1,-1,-1,-1,-1,-1,-1,-1,-1,-1,-1,-1,-1],"split_conditions":[4.3E1,2.3E1,1.13666664E2,2.3E1,2.7E1,4.6E1,2.9272318E0,2.1E1,1.7666666E1,3.2E1,5.4E1,6.2E1,5.4333332E1,1.6E1,1.8333334E1,1.3E1,1.4E1,2.8E1,1.0979667E2,3.7666668E1,4E1,4.5333332E1,4.3E1,4.1E1,4.9E1,8E0,1.4E1,7E0,1.6E1,1.65E1,1.7177765E1,3.3E1,2.0333334E1,1.3E1,4.3E1,7.596375E1,6.7E1,2.2E1,4.8E1,4.3E1,5.5E1,4.4E1,4.3E1,-2.4336053E-1,3.7016335E-1,6.4E1,5.7E1,-3.56925E0,5.5E1,3.8497806E-1,-1.4279874E-1,4.263735E-1,8.527176E-2,1.841406E-1,-5.2541816E-1,8.727615E-2,-2.1860678E-1,-6.0704696E-1,-1.1142944E-1,-1.366024E-1,-8.773628E-1,2.8515905E-1,-5.1332754E-1,-4.9650913E-1,-2.0075338E-1,1.0717044E0,3.8347378E-1,1.0416364E-1,-3.6995655E-1,1.1844922E-1,1.7297422E0,6.634635E-1,-1.8282203E-1,1.8801634E-1,-1.7246029E-1,4.7506478E-1,-3.142801E-1,7.669237E-2,-8.005428E-1,-2.928031E-1,-1.3167658E0,7.464653E-1,1.1539497E-1,1.6302935E0,7.200174E-1,6.960634E-1,-2.4452077E-1,3.01725E-2,-4.7318146E-1,1.0743428E-1,1.3744279E0,1.5809102E0,2.2119902E-1],"split_indices":[3,3,3,1,0,0,0,0,3,3,1,1,3,3,3,0,0,1,7,3,0,3,0,1,1,1,1,1,1,3,7,1,3,1,1,7,1,1,0,2,1,0,2,0,0,0,0,4,0,0,0,0,0,0,0,0,0,0,0,0,0,0,0,0,0,0,0,0,0,0,0,0,0,0,0,0,0,0,0,0,0,0,0,0,0,0,0,0,0,0,0,0,0],"split_type":[0,0,0,0,0,0,0,0,0,0,0,0,0,0,0,0,0,0,0,0,0,0,0,0,0,0,0,0,0,0,0,0,0,0,0,0,0,0,0,0,0,0,0,0,0,0,0,0,0,0,0,0,0,0,0,0,0,0,0,0,0,0,0,0,0,0,0,0,0,0,0,0,0,0,0,0,0,0,0,0,0,0,0,0,0,0,0,0,0,0,0,0,0],"sum_hessian":[2.494E3,2.324E3,1.7E2,1.507E3,8.17E2,1.69E2,1E0,1.274E3,2.33E2,3.02E2,5.15E2,2.9E1,1.4E2,1.026E3,2.48E2,3.7E1,1.96E2,2.73E2,2.9E1,4.92E2,2.3E1,2.5E1,4E0,7.3E1,6.7E1,5.93E2,4.33E2,6.9E1,1.79E2,2.4E1,1.3E1,3.9E1,1.57E2,1.35E2,1.38E2,8E0,2.1E1,4.02E2,9E1,1.7E1,6E0,1.3E1,1.2E1,2E0,2E0,2.6E1,4.7E1,1.3E1,5.4E1,2.7E1,5.66E2,8.6E1,3.47E2,1E0,6.8E1,6.8E1,1.11E2,1.4E1,1E1,1E0,1.2E1,3.1E1,8E0,4.8E1,1.09E2,7E0,1.28E2,1.09E2,2.9E1,2E0,6E0,1.9E1,2E0,1.11E2,2.91E2,6.6E1,2.4E1,7E0,1E1,1E0,5E0,1.1E1,2E0,9E0,3E0,2.1E1,5E0,2.9E1,1.8E1,1E0,1.2E1,4E0,5E1],"tree_param":{"num_deleted":"0","num_feature":"8","num_nodes":"93","size_leaf_vector":"1"}},{"base_weights":[1.9927101E-2,-5.8255732E-2,1.2339591E0,-1.597332E-1,3.1842825E-1,1.1316011E0,2.488147E0,-9.036074E-2,-8.395417E-1,8.0395865E-1,-3.911059E-1,2.1721416E0,4.5199794E-1,-5.83637E-2,-1.5481602E0,-1.7346623E0,-5.9642494E-1,3.1865234E0,6.832524E-1,-5.610768E-2,-1.7983776E0,1.884226E0,1.4714355E0,-2.3599915E-1,2.0329912E0,-2.907408E-1,2.0612046E-1,-1.7972348E0,-2.5953212E-1,-1.1626567E0,-2.6572368E0,2.0626912E-1,-1.036602E0,2.2857614E0,1.305223E0,3.9794603E-1,1.4413714E0,-4.6544573E-1,8.1769055E-1,-8.71815E-1,-2.830933E0,2.8154697E0,1.1269112E0,1.5928535E-1,-3.0723119E0,3.8649437E-1,2.92624E0,-1.0368222E-3,-2.0764287E-1,6.344611E-1,3.8538054E-2,-3.322733E-1,-7.5189054E-1,9.169589E-2,-5.475964E-1,-1.0706057E-1,-5.8161175E-1,-8.396164E-1,-1.4391346E-1,2.9971173E-1,-4.034313E-1,-2.1629794E-1,-4.356433E-1,7.609997E-1,2.5642893E-1,1.503179E-1,-5.77868E-1,5.4021347E-1,-9.128442E-2,-5.4851256E-2,-7.352489E-1,4.0651402E-1,-4.100976E-2,-8.312592E-1,-1.6301012E-1,-3.6740687E-2,-8.9491516E-1,1.4443306E0,6.524865E-1,4.5472863E-1,-2.4322091E-1,-3.252371E-2,7.492203E-1,-1.0516683E0,-5.9354785E-3,4.9685672E-1,-2.842848E-1,9.71638E-1,8.516236E-2],"categories":[],"categories_nodes":[],"categories_segments":[],"categories_sizes":[],"default_left":[0,0,0,0,0,0,0,0,0,0,0,0,0,0,0,0,0,0,0,0,0,0,0,0,0,0,0,0,0,0,0,0,0,0,0,0,0,0,0,0,0,0,0,0,0,0,0,0,0,0,0,0,0,0,0,0,0,0,0,0,0,0,0,0,0,0,0,0,0,0,0,0,0,0,0,0,0,0,0,0,0,0,0,0,0,0,0,0,0],"id":11,"left_children":[1,3,5,7,9,11,-1,13,15,17,19,21,23,25,27,29,31,33,35,37,39,41,-1,43,45,47,49,51,53,55,57,59,61,63,-1,65,67,69,71,73,75,77,79,81,83,85,87,-1,-1,-1,-1,-1,-1,-1,-1,-1,-1,-1,-1,-1,-1,-1,-1,-1,-1,-1,-1,-1,-1,-1,-1,-1,-1,-1,-1,-1,-1,-1,-1,-1,-1,-1,-1,-1,-1,-1,-1,-1,-1],"loss_changes":[2.3688846E2,8.968834E1,9.97323E1,8.707579E1,1.7187561E2,1.05091415E2,0E0,7.818042E1,3.6178223E1,8.294957E1,9.560008E1,3.7177734E1,1.0054992E2,1.010388E2,1.108828E1,1.5908386E1,4.826636E1,4.7368317E0,6.063823E1,5.9397606E1,3.4844315E1,3.5615677E1,0E0,7.336415E1,4.004949E1,1.008997E2,1.1372031E2,1.1894463E1,6.7526383E0,1.431609E1,2.6625443E0,6.1594757E1,1.049411E1,1.422184E0,0E0,5.0573498E1,4.8848724E1,6.29546E1,2.7366127E1,1.221666E1,7.0507355E0,2.0257614E1,2.5339474E1,3.6573425E1,1.0510681E1,2.020247E1,1.3946442E1,0E0,0E0,0E0,0E0,0E0,0E0,0E0,0E0,0E0,0E0,0E0,0E0,0E0,0E0,0E0,0E0,0E0,0E0,0E0,0E0,0E0,0E0,0E0,0E0,0E0,0E0,0E0,0E0,0E0,0E0,0E0,0E0,0E0,0E0,0E0,0E0,0E0,0E0,0E0,0E0,0E0,0E0],"parents":[2147483647,0,0,1,1,2,2,3,3,4,4,5,5,7,7,8,8,9,9,10,10,11,11,12,12,13,13,14,14,15,15,16,16,17,17,18,18,19,19,20,20,21,21,23,23,24,24,25,25,26,26,27,27,28,28,29,29,30,30,31,31,32,32,33,33,35,35,36,36,37,37,38,38,39,39,40,40,41,41,42,42,43,43,44,44,45,45,46,46],"right_children":[2,4,6,8,10,12,-1,14,16,18,20,22,24,26,28,30,32,34,36,38,40,42,-1,44,46,48,50,52,54,56,58,60,62,64,-1,66,68,70,72,74,76,78,80,82,84,86,88,-1,-1,-1,-1,-1,-1,-1,-1,-1,-1,-1,-1,-1,-1,-1,-1,-1,-1,-1,-1,-1,-1,-1,-1,-1,-1,-1,-1,-1,-1,-1,-1,-1,-1,-1,-1,-1,-1,-1,-1,-1,-1],"split_conditions":[4.4666668E1,2.7666666E1,1.13666664E2,2.9E1,3.7E1,5.5E1,2.488147E0,3.3E1,2.1666666E1,1.5E1,4.4E1,5.8E1,6.8E1,1.7666666E1,2.7702502E2,3.3E1,1.9E1,3.1666666E1,3.4333332E1,3.9E1,4.1E1,4.4E1,1.4714355E0,7.2E1,5.559917E0,1.5E1,1.3E1,2.2147847E2,2.7E1,1.5E1,2.8173712E2,3.9E1,2.4E1,3E1,1.305223E0,5.3E1,5.8E1,4.8E1,3.7E1,3.3E1,9.585739E0,4.3E1,2.0073025E1,6.4E1,1.0300002E1,1.07650215E2,9.5E1,-1.0368222E-3,-2.0764287E-1,6.344611E-1,3.8538054E-2,-3.322733E-1,-7.5189054E-1,9.169589E-2,-5.475964E-1,-1.0706057E-1,-5.8161175E-1,-8.396164E-1,-1.4391346E-1,2.9971173E-1,-4.034313E-1,-2.1629794E-1,-4.356433E-1,7.609997E-1,2.5642893E-1,1.503179E-1,-5.77868E-1,5.4021347E-1,-9.128442E-2,-5.4851256E-2,-7.352489E-1,4.0651402E-1,-4.100976E-2,-8.312592E-1,-1.6301012E-1,-3.6740687E-2,-8.9491516E-1,1.4443306E0,6.524865E-1,4.5472863E-1,-2.4322091E-1,-3.252371E-2,7.492203E-1,-1.0516683E0,-5.9354785E-3,4.9685672E-1,-2.842848E-1,9.71638E-1,8.516236E-2],"split_indices":[3,3,3,1,0,0,0,0,3,1,1,3,3,3,7,1,0,3,3,3,0,1,0,2,4,0,0,7,1,0,7,1,0,3,0,1,1,0,1,3,6,0,6,3,5,7,2,0,0,0,0,0,0,0,0,0,0,0,0,0,0,0,0,0,0,0,0,0,0,0,0,0,0,0,0,0,0,0,0,0,0,0,0,0,0,0,0,0,0],"split_type":[0,0,0,0,0,0,0,0,0,0,0,0,0,0,0,0,0,0,0,0,0,0,0,0,0,0,0,0,0,0,0,0,0,0,0,0,0,0,0,0,0,0,0,0,0,0,0,0,0,0,0,0,0,0,0,0,0,0,0,0,0,0,0,0,0,0,0,0,0,0,0,0,0,0,0,0,0,0,0,0,0,0,0,0,0,0,0,0,0],"sum_hessian":[2.494E3,2.344E3,1.5E2,1.847E3,4.97E2,1.49E2,1E0,1.677E3,1.7E2,2.95E2,2.02E2,5.8E1,9.1E1,1.642E3,3.5E1,3.5E1,1.35E2,1.3E1,2.82E2,1.64E2,3.8E1,5.4E1,4E0,6.4E1,2.7E1,8.74E2,7.68E2,2.9E1,6E0,2.3E1,1.2E1,4.8E1,8.7E1,9E0,4E0,2.06E2,7.6E1,1.12E2,5.2E1,2.1E1,1.7E1,2.3E1,3.1E1,5.7E1,7E0,1E1,1.7E1,5.1E2,3.64E2,2.9E1,7.39E2,1.6E1,1.3E1,5E0,1E0,1.2E1,1.1E1,1.1E1,1E0,3.2E1,1.6E1,5.1E1,3.6E1,7E0,2E0,1.98E2,8E0,6.3E1,1.3E1,9.9E1,1.3E1,3.3E1,1.9E1,2E0,1.9E1,1E0,1.6E1,4E0,1.9E1,2.6E1,5E0,5.2E1,5E0,6E0,1E0,5E0,5E0,1.5E1,2E0],"tree_param":{"num_deleted":"0","num_feature":"8","num_nodes":"89","size_leaf_vector":"1"}},{"base_weights":[1.542643E-2,-3.2135732E-2,1.1915729E0,-5.941756E-1,2.4031464E-2,1.0571153E0,2.1149254E0,2.5311074E-1,-8.4785074E-1,8.836222E-1,-4.626413E-2,2.2982562E0,5.1225936E-1,-1.3866415E0,6.868708E-1,1.0136231E0,-9.230512E-1,-3.3541658E0,9.8280454E-1,1.1223993E0,-8.821394E-2,3.0578916E0,1.3854038E0,2.0264506E0,1.5160322E-1,-2.0627761E-1,-1.8034933E0,2.0185535E0,-7.839256E-2,-8.412202E-1,1.9238045E0,-1.5572361E0,-7.228745E-1,-1.1376803E0,-3.0597913E-1,2.0431628E0,6.851846E-1,1.766075E0,1.5147607E-1,-2.4144812E-1,1.8676801E-1,-1.7214833E-1,3.3582878E0,9.324319E-2,6.709451E-1,-5.7032394E-1,2.550439E0,-1.0111952E0,1.2690774E0,3.8755704E-2,-1.0834818E-1,-6.471834E-1,-2.731167E-1,7.673699E-1,3.1102315E-1,9.240549E-2,-2.0053391E-1,-3.4398124E-1,-3.456788E-2,1.4309664E-1,6.498784E-1,-3.0640882E-1,-7.208766E-1,3.536138E-2,-3.1534228E-1,1.7185685E-1,7.825114E-1,7.646689E-2,3.6003345E-1,3.074432E-1,8.7197375E-1,-2.2625884E-1,4.492084E-1,-3.5547934E-2,-2.1100935E-1,3.1740057E-1,6.594827E-3,1.106239E0,2.766472E-1,2.1949846E-1,-9.2536926E-2,-1.4575768E-2,-2.4207002E-1,9.2163694E-1,2.6083833E-1,-1.5655923E-1,-6.5078706E-1,1.10274985E-1,6.6261244E-1],"categories":[],"categories_nodes":[],"categories_segments":[],"categories_sizes":[],"default_left":[0,0,0,0,0,0,0,0,0,0,0,0,0,0,0,0,0,0,0,0,0,0,0,0,0,0,0,0,0,0,0,0,0,0,0,0,0,0,0,0,0,0,0,0,0,0,0,0,0,0,0,0,0,0,0,0,0,0,0,0,0,0,0,0,0,0,0,0,0,0,0,0,0,0,0,0,0,0,0,0,0,0,0,0,0,0,0,0,0],"id":12,"left_children":[1,3,5,7,9,11,-1,13,15,17,19,21,23,25,27,29,31,33,35,37,39,41,43,45,47,49,51,53,55,57,59,61,63,-1,-1,65,67,69,71,73,75,-1,77,79,-1,81,83,85,87,-1,-1,-1,-1,-1,-1,-1,-1,-1,-1,-1,-1,-1,-1,-1,-1,-1,-1,-1,-1,-1,-1,-1,-1,-1,-1,-1,-1,-1,-1,-1,-1,-1,-1,-1,-1,-1,-1,-1,-1],"loss_changes":[1.3960876E2,7.57464E1,6.8952225E1,4.707054E1,1.3188919E2,6.374202E1,0E0,3.7226654E1,2.4452866E1,7.264821E1,9.903189E1,1.5873199E1,3.6827744E1,5.040386E0,4.194084E1,1.34360485E1,1.9440048E1,2.2268295E-1,4.9724625E1,4.3479652E1,8.2169395E1,1.8291397E1,1.6287443E1,1.9143417E1,7.404953E1,2.54487E-1,5.637703E-1,5.2911415E0,6.36198E0,5.330014E-1,7.206688E-1,1.4766617E1,3.462246E1,0E0,0E0,2.7591827E1,2.8055126E1,3.2528748E1,3.64783E1,7.10239E1,1.0018615E2,0E0,7.8263702E0,2.020852E0,0E0,3.3108824E-1,6.975235E0,1.4735304E1,2.375319E1,0E0,0E0,0E0,0E0,0E0,0E0,0E0,0E0,0E0,0E0,0E0,0E0,0E0,0E0,0E0,0E0,0E0,0E0,0E0,0E0,0E0,0E0,0E0,0E0,0E0,0E0,0E0,0E0,0E0,0E0,0E0,0E0,0E0,0E0,0E0,0E0,0E0,0E0,0E0,0E0],"parents":[2147483647,0,0,1,1,2,2,3,3,4,4,5,5,7,7,8,8,9,9,10,10,11,11,12,12,13,13,14,14,15,15,16,16,17,17,18,18,19,19,20,20,21,21,22,22,23,23,24,24,25,25,26,26,27,27,28,28,29,29,30,30,31,31,32,32,35,35,36,36,37,37,38,38,39,39,40,40,42,42,43,43,45,45,46,46,47,47,48,48],"right_children":[2,4,6,8,10,12,-1,14,16,18,20,22,24,26,28,30,32,34,36,38,40,42,44,46,48,50,52,54,56,58,60,62,64,-1,-1,66,68,70,72,74,76,-1,78,80,-1,82,84,86,88,-1,-1,-1,-1,-1,-1,-1,-1,-1,-1,-1,-1,-1,-1,-1,-1,-1,-1,-1,-1,-1,-1,-1,-1,-1,-1,-1,-1,-1,-1,-1,-1,-1,-1,-1,-1,-1,-1,-1,-1],"split_conditions":[4.9666668E1,1.3E1,1.13666664E2,9E0,1.2E1,4.9E1,2.1149254E0,9.666667E0,6E0,4E0,1.1E1,4.1578336E0,5.5E1,1.8214718E1,1.2E1,1.4145756E1,1.1E1,1.8E1,9E0,2.1E1,2.5333334E1,5E1,5.4333332E1,2.7E1,6.6666664E1,5E0,8.645333E0,1.3E1,1.6E1,1.2E1,9.666667E0,1E1,1.1E1,-1.1376803E0,-3.0597913E-1,1.4333333E1,1.6E1,1.5E1,1.7333334E1,2.3E1,2.4E1,-1.7214833E-1,4.3E1,2.3E1,6.709451E-1,4.6E1,6.4E1,2.1288757E1,6.126583E0,3.8755704E-2,-1.0834818E-1,-6.471834E-1,-2.731167E-1,7.673699E-1,3.1102315E-1,9.240549E-2,-2.0053391E-1,-3.4398124E-1,-3.456788E-2,1.4309664E-1,6.498784E-1,-3.0640882E-1,-7.208766E-1,3.536138E-2,-3.1534228E-1,1.7185685E-1,7.825114E-1,7.646689E-2,3.6003345E-1,3.074432E-1,8.7197375E-1,-2.2625884E-1,4.492084E-1,-3.5547934E-2,-2.1100935E-1,3.1740057E-1,6.594827E-3,1.106239E0,2.766472E-1,2.1949846E-1,-9.2536926E-2,-1.4575768E-2,-2.4207002E-1,9.2163694E-1,2.6083833E-1,-1.5655923E-1,-6.5078706E-1,1.10274985E-1,6.6261244E-1],"split_indices":[3,3,3,0,1,1,0,3,1,2,0,4,0,6,1,6,3,0,1,1,3,3,3,2,3,0,4,2,1,0,3,1,1,0,0,3,3,3,3,0,0,0,2,2,0,0,1,6,4,0,0,0,0,0,0,0,0,0,0,0,0,0,0,0,0,0,0,0,0,0,0,0,0,0,0,0,0,0,0,0,0,0,0,0,0,0,0,0,0],"split_type":[0,0,0,0,0,0,0,0,0,0,0,0,0,0,0,0,0,0,0,0,0,0,0,0,0,0,0,0,0,0,0,0,0,0,0,0,0,0,0,0,0,0,0,0,0,0,0,0,0,0,0,0,0,0,0,0,0,0,0,0,0,0,0,0,0,0,0,0,0,0,0,0,0,0,0,0,0,0,0,0,0,0,0,0,0,0,0,0,0],"sum_hessian":[2.494E3,2.398E3,9.6E1,2.17E2,2.181E3,9.5E1,1E0,5E1,1.67E2,1.64E2,2.017E3,2.8E1,6.7E1,1E1,4E1,6E0,1.61E2,3E0,1.61E2,6.9E1,1.948E3,1.4E1,1.4E1,1.2E1,5.5E1,3E0,7E0,1.4E1,2.6E1,2E0,4E0,3.7E1,1.24E2,2E0,1E0,3.4E1,1.27E2,4.1E1,2.8E1,1.251E3,6.97E2,1E0,1.3E1,6E0,8E0,2E0,1E1,2.7E1,2.8E1,1E0,2E0,4E0,3E0,8E0,6E0,1.6E1,1E1,1E0,1E0,1E0,3E0,2.4E1,1.3E1,3.5E1,8.9E1,1E1,2.4E1,7E1,5.7E1,2.6E1,1.5E1,1.7E1,1.1E1,9.89E2,2.62E2,1.1E2,5.87E2,1.1E1,2E0,2E0,4E0,1E0,1E0,7E0,3E0,2E1,7E0,1.5E1,1.3E1],"tree_param":{"num_deleted":"0","num_feature":"8","num_nodes":"89","size_leaf_vector":"1"}},{"base_weights":[1.301447E-2,-1.8238871E-3,2.466411E0,7.473652E-1,-3.888659E-2,1.7865423E0,1.7976861E0,3.0913322E0,6.3703597E-1,1.6822417E-1,-1.4013654E-1,9.248772E-2,1.8765391E0,1.033229E0,2.5204125E-1,7.427535E-1,-1.0699376E0,9.786473E-1,7.509799E-2,-9.033456E-2,-6.430969E-1,1.9563417E0,1.3783608E-1,3.2233602E-1,1.3857249E0,-1.269694E0,1.9290162E-2,3.538672E-1,1.7718254E0,-7.5116855E-1,1.4415736E-1,-1.5266191E0,-7.42236E-2,-5.137798E-1,-2.148195E0,3.614149E-1,6.963345E-1,3.2198656E-1,-3.9700236E-2,5.771007E-1,2.7063423E-1,-8.544617E-2,-4.2291138E-1,-3.1753522E-1,1.7765285E-1,4.4493863E-1,8.7600154E-1,1.7324668E-1,-2.695594E-1,4.858188E-2,-8.237792E-1,3.2942392E-2,-4.9291041E-1,1.2210476E-1,-4.6213042E-2,-1.0598753E-1,-3.9223698E-1,-7.609476E-1,-2.503656E-1],"categories":[],"categories_nodes":[],"categories_segments":[],"categories_sizes":[],"default_left":[0,0,0,0,0,0,0,0,0,0,0,0,0,0,0,0,0,0,0,0,0,0,0,0,0,0,0,0,0,0,0,0,0,0,0,0,0,0,0,0,0,0,0,0,0,0,0,0,0,0,0,0,0,0,0,0,0,0,0],"id":13,"left_children":[1,3,5,7,9,11,-1,13,15,17,19,-1,21,-1,-1,23,25,27,29,31,33,35,-1,37,39,41,-1,43,45,47,49,51,53,55,57,-1,-1,-1,-1,-1,-1,-1,-1,-1,-1,-1,-1,-1,-1,-1,-1,-1,-1,-1,-1,-1,-1,-1,-1],"loss_changes":[9.083342E1,6.891891E1,2.525151E1,2.8287857E1,4.9617516E1,1.2840042E0,0E0,1.0771942E0,2.1186348E1,5.8567947E1,3.974386E1,0E0,5.7128906E-1,0E0,0E0,2.8477192E1,1.6676416E0,3.901796E1,3.9937176E1,3.3370144E1,2.67291E1,4.9378586E-1,0E0,2.2676785E1,9.191162E0,4.2584324E-1,0E0,1.6108917E1,7.2709045E0,1.1091803E1,3.359266E1,3.2285156E0,5.506935E1,1.6479046E1,3.4940834E0,0E0,0E0,0E0,0E0,0E0,0E0,0E0,0E0,0E0,0E0,0E0,0E0,0E0,0E0,0E0,0E0,0E0,0E0,0E0,0E0,0E0,0E0,0E0,0E0],"parents":[2147483647,0,0,1,1,2,2,3,3,4,4,5,5,7,7,8,8,9,9,10,10,12,12,15,15,16,16,17,17,18,18,19,19,20,20,21,21,23,23,24,24,25,25,27,27,28,28,29,29,30,30,31,31,32,32,33,33,34,34],"right_children":[2,4,6,8,10,12,-1,14,16,18,20,-1,22,-1,-1,24,26,28,30,32,34,36,-1,38,40,42,-1,44,46,48,50,52,54,56,58,-1,-1,-1,-1,-1,-1,-1,-1,-1,-1,-1,-1,-1,-1,-1,-1,-1,-1,-1,-1,-1,-1,-1,-1],"split_conditions":[7.6666664E1,9E0,1.13666664E2,-3.56925E0,1.5756653E2,3.6213982E0,1.7976861E0,3E1,6.1E1,1.3E1,1.2200001E1,9.248772E-2,1.32E2,1.033229E0,2.5204125E-1,3E1,7.2E1,1.6333334E1,1.936486E1,9.333333E0,3.7E1,5.5119996E0,1.3783608E-1,1.5E1,3.8E1,3.4E1,1.9290162E-2,1.2E1,2.7333334E1,2.0333333E-2,7.7E1,7.3333335E0,1.2E1,1.05390835E1,1.8600004E1,3.614149E-1,6.963345E-1,3.2198656E-1,-3.9700236E-2,5.771007E-1,2.7063423E-1,-8.544617E-2,-4.2291138E-1,-3.1753522E-1,1.7765285E-1,4.4493863E-1,8.7600154E-1,1.7324668E-1,-2.695594E-1,4.858188E-2,-8.237792E-1,3.2942392E-2,-4.9291041E-1,1.2210476E-1,-4.6213042E-2,-1.0598753E-1,-3.9223698E-1,-7.609476E-1,-2.503656E-1],"split_indices":[3,6,3,4,7,7,0,0,0,1,5,0,1,0,0,3,0,3,7,3,0,4,0,1,0,1,0,3,3,4,0,3,0,4,5,0,0,0,0,0,0,0,0,0,0,0,0,0,0,0,0,0,0,0,0,0,0,0,0],"split_type":[0,0,0,0,0,0,0,0,0,0,0,0,0,0,0,0,0,0,0,0,0,0,0,0,0,0,0,0,0,0,0,0,0,0,0,0,0,0,0,0,0,0,0,0,0,0,0,0,0,0,0,0,0,0,0,0,0,0,0],"sum_hessian":[2.494E3,2.48E3,1.4E1,1.16E2,2.364E3,1.3E1,1E0,4E0,1.12E2,7.76E2,1.588E3,1E0,1.2E1,3E0,1E0,1.06E2,6E0,7.9E1,6.97E2,1.446E3,1.42E2,1.1E1,1E0,6.5E1,4.1E1,5E0,1E0,4.5E1,3.4E1,5.3E1,6.44E2,1.5E1,1.431E3,1.32E2,1E1,5E0,6E0,2.4E1,4.1E1,1.8E1,2.3E1,1E0,4E0,6E0,3.9E1,2.9E1,5E0,5E0,4.8E1,6.41E2,3E0,1E0,1.4E1,2.03E2,1.228E3,1.11E2,2.1E1,7E0,3E0],"tree_param":{"num_deleted":"0","num_feature":"8","num_nodes":"59","size_leaf_vector":"1"}},{"base_weights":[1.0484079E-2,-6.460121E-2,4.015739E-1,-2.2956298E-3,-7.435774E-1,1.662186E0,2.654051E-1,-1.3030519E-1,2.5797388E-1,-5.2007735E-1,-2.1374078E0,1.9946858E0,-4.990104E-1,1.4782534E0,1.4002068E-1,-2.1467045E-2,-6.074638E-1,9.888876E-1,5.9714686E-2,-9.151109E-1,-5.0952535E-2,-2.467812E0,1.31567E-1,1.499256E0,2.8942885E0,1.2288476E-1,-3.1671825E-1,1.7635978E0,-5.2946436E-1,5.4775275E-2,1.9322054E0,-2.1869539E-1,2.1278633E-1,-5.2735597E-1,-2.07889E0,2.2685661E0,8.1002307E-1,1.1593573E-1,-1.8962241E0,-1.0790906E0,7.570846E-1,1.6812247E0,-4.317551E-1,-2.6077662E0,-2.2764988E-1,-6.8441965E-2,9.8254785E-2,-7.651291E-2,1.6703305E0,2.5557977E-1,3.2534862E0,4.4795063E-1,2.073845E0,7.293263E-2,-2.3501545E-1,2.0043126E-1,-6.9136447E-1,1.3425852E0,1.5280335E0,-2.540741E-2,-2.8259036E-1,1.428143E-1,-9.3536265E-2,-2.515402E-1,-5.929416E-2,-4.3416548E-1,-8.021362E-1,7.2305876E-1,2.5543177E-1,4.4177404E-1,1.805501E-1,7.793402E-3,2.5053495E-1,-9.401236E-2,-8.222297E-1,4.5924023E-2,-3.804308E-1,-2.6422036E-1,5.747769E-1,8.348078E-1,-2.028103E-2,-7.320202E-2,-1.1565168E0,-8.123219E-1,-1.2123642E-1,5.539557E-1,-1.8310547E-2,1.0506437E0,1.8963204E-1,3.2801583E-1,-2.3312761E-1,1.7184506E-1,6.783002E-1,-3.3129986E-2,2.4287137E-1,-5.030205E-1,-4.9454764E-2,5.213883E-1,2.789476E-1],"categories":[],"categories_nodes":[],"categories_segments":[],"categories_sizes":[],"default_left":[0,0,0,0,0,0,0,0,0,0,0,0,0,0,0,0,0,0,0,0,0,0,0,0,0,0,0,0,0,0,0,0,0,0,0,0,0,0,0,0,0,0,0,0,0,0,0,0,0,0,0,0,0,0,0,0,0,0,0,0,0,0,0,0,0,0,0,0,0,0,0,0,0,0,0,0,0,0,0,0,0,0,0,0,0,0,0,0,0,0,0,0,0,0,0,0,0,0,0],"id":14,"left_children":[1,3,5,7,9,11,13,15,17,19,21,23,25,27,29,31,33,35,37,39,41,43,45,47,49,-1,-1,51,53,55,57,59,61,63,65,67,69,71,73,75,77,79,81,83,-1,-1,-1,-1,85,-1,87,89,91,-1,-1,93,95,97,-1,-1,-1,-1,-1,-1,-1,-1,-1,-1,-1,-1,-1,-1,-1,-1,-1,-1,-1,-1,-1,-1,-1,-1,-1,-1,-1,-1,-1,-1,-1,-1,-1,-1,-1,-1,-1,-1,-1,-1,-1],"loss_changes":[7.329185E1,8.8582886E1,6.8564575E1,6.3968903E1,5.371611E1,2.9020668E1,5.5147316E1,6.68248E1,9.1669205E1,2.8307339E1,1.8316978E1,1.0814178E1,3.4675293E0,2.0412071E1,5.0462856E1,4.8511818E1,2.7075272E1,2.9062439E1,5.509234E1,2.3576065E1,4.7558723E1,3.0438843E0,3.5665613E-1,7.628792E0,5.2979584E0,0E0,0E0,1.1316292E1,1.1713082E0,3.4590042E1,2.1120579E1,5.516544E1,6.643642E1,2.3221634E1,6.3980484E-1,1.159172E0,1.5666237E1,3.1420494E1,1.785606E1,1.7894135E1,1.687116E1,2.5229736E1,3.6979767E1,3.0915527E0,0E0,0E0,0E0,0E0,6.8237267E0,0E0,3.6527328E0,6.3844633E0,5.4470825E0,0E0,0E0,5.0459164E1,2.6701849E1,6.687336E-1,0E0,0E0,0E0,0E0,0E0,0E0,0E0,0E0,0E0,0E0,0E0,0E0,0E0,0E0,0E0,0E0,0E0,0E0,0E0,0E0,0E0,0E0,0E0,0E0,0E0,0E0,0E0,0E0,0E0,0E0,0E0,0E0,0E0,0E0,0E0,0E0,0E0,0E0,0E0,0E0,0E0],"parents":[2147483647,0,0,1,1,2,2,3,3,4,4,5,5,6,6,7,7,8,8,9,9,10,10,11,11,12,12,13,13,14,14,15,15,16,16,17,17,18,18,19,19,20,20,21,21,22,22,23,23,24,24,27,27,28,28,29,29,30,30,31,31,32,32,33,33,34,34,35,35,36,36,37,37,38,38,39,39,40,40,41,41,42,42,43,43,48,48,50,50,51,51,52,52,55,55,56,56,57,57],"right_children":[2,4,6,8,10,12,14,16,18,20,22,24,26,28,30,32,34,36,38,40,42,44,46,48,50,-1,-1,52,54,56,58,60,62,64,66,68,70,72,74,76,78,80,82,84,-1,-1,-1,-1,86,-1,88,90,92,-1,-1,94,96,98,-1,-1,-1,-1,-1,-1,-1,-1,-1,-1,-1,-1,-1,-1,-1,-1,-1,-1,-1,-1,-1,-1,-1,-1,-1,-1,-1,-1,-1,-1,-1,-1,-1,-1,-1,-1,-1,-1,-1,-1,-1],"split_conditions":[3.3333332E1,3.3E1,2.4E1,2.1E1,3.3E1,5.8999996E0,3E1,2E1,2.1E1,2.7E1,2.6474077E1,1.9000001E0,3.4932501E0,6.6E1,7.6666664E1,1.5666667E1,2.8E1,1.6E1,4.2E1,5.9E1,1.9E1,1.25E1,3.5E1,5.4562737E1,1.2496719E1,1.2288476E-1,-3.1671825E-1,3.4333332E1,6.7E1,6.1E1,1.13666664E2,1.8E1,2.1E1,1.9E1,2.9E1,2.3E1,1.6E1,3E1,1.5778518E1,2.3E1,1.1468481E2,5.1E1,5.3E1,4.7E1,-2.2764988E-1,-6.8441965E-2,9.8254785E-2,-7.651291E-2,8E-1,2.5557977E-1,2.1370783E1,4.3E1,3.1E1,7.293263E-2,-2.3501545E-1,4.4666668E1,5.1333332E1,7.7E1,1.5280335E0,-2.540741E-2,-2.8259036E-1,1.428143E-1,-9.3536265E-2,-2.515402E-1,-5.929416E-2,-4.3416548E-1,-8.021362E-1,7.2305876E-1,2.5543177E-1,4.4177404E-1,1.805501E-1,7.793402E-3,2.5053495E-1,-9.401236E-2,-8.222297E-1,4.5924023E-2,-3.804308E-1,-2.6422036E-1,5.747769E-1,8.348078E-1,-2.028103E-2,-7.320202E-2,-1.1565168E0,-8.123219E-1,-1.2123642E-1,5.539557E-1,-1.8310547E-2,1.0506437E0,1.8963204E-1,3.2801583E-1,-2.3312761E-1,1.7184506E-1,6.783002E-1,-3.3129986E-2,2.4287137E-1,-5.030205E-1,-4.9454764E-2,5.213883E-1,2.789476E-1],"split_indices":[3,1,1,3,0,5,0,0,0,3,6,5,4,1,3,3,0,1,0,2,0,5,0,7,6,0,0,3,1,1,3,1,1,3,0,2,0,3,6,2,7,1,1,2,0,0,0,0,5,0,6,1,1,0,0,3,3,1,0,0,0,0,0,0,0,0,0,0,0,0,0,0,0,0,0,0,0,0,0,0,0,0,0,0,0,0,0,0,0,0,0,0,0,0,0,0,0,0,0],"split_type":[0,0,0,0,0,0,0,0,0,0,0,0,0,0,0,0,0,0,0,0,0,0,0,0,0,0,0,0,0,0,0,0,0,0,0,0,0,0,0,0,0,0,0,0,0,0,0,0,0,0,0,0,0,0,0,0,0,0,0,0,0,0,0,0,0,0,0,0,0,0,0,0,0,0,0,0,0,0,0,0,0,0,0,0,0,0,0,0,0,0,0,0,0,0,0,0,0,0,0],"sum_hessian":[2.494E3,2.093E3,4.01E2,1.918E3,1.75E2,3.8E1,3.63E2,1.286E3,6.32E2,1.52E2,2.3E1,3.3E1,5E0,3.3E1,3.3E2,1.048E3,2.38E2,1.34E2,4.98E2,8.2E1,7E1,2E1,3E0,2.3E1,1E1,2E0,3E0,2.9E1,4E0,3.16E2,1.4E1,5.69E2,4.79E2,2.27E2,1.1E1,1.5E1,1.19E2,4.85E2,1.3E1,7.5E1,7E0,1.2E1,5.8E1,1.8E1,2E0,1E0,2E0,2E0,2.1E1,2E0,8E0,6E0,2.3E1,1E0,3E0,2.65E2,5.1E1,1.3E1,1E0,4.81E2,8.8E1,3.19E2,1.6E2,1.16E2,1.11E2,7E0,4E0,1.3E1,2E0,2.7E1,9.2E1,4.32E2,5.3E1,5E0,8E0,1E1,6.5E1,3E0,4E0,7E0,5E0,5.6E1,2E0,1.7E1,1E0,1.9E1,2E0,7E0,1E0,4E0,2E0,3E0,2E1,1.76E2,8.9E1,1.7E1,3.4E1,5E0,8E0],"tree_param":{"num_deleted":"0","num_feature":"8","num_nodes":"99","size_leaf_vector":"1"}},{"base_weights":[8.179146E-3,-3.5367552E-2,4.0111592E-1,-1.25241475E-2,-1.0388564E0,8.9218974E-1,5.4301474E-2,5.154711E-1,-4.4610437E-2,1.0043635E0,-1.190644E0,1.7801098E0,4.2886528E-1,-6.078878E-1,5.17971E-1,-7.7916324E-1,7.6709235E-1,-5.7926345E-1,-2.3045775E-3,-1.0501585E-1,4.7175598E-1,-3.1484368E-1,-1.552655E0,-7.786306E-2,1.8950737E0,1.9860221E-1,1.7675571E0,1.1960433E0,-8.2642657E-1,4.2330948E-1,1.298829E0,-1.24115E0,-1.468627E-1,-9.4629633E-1,8.7283415E-1,-3.6510944E-1,-1.3117652E0,9.1979676E-1,-3.9726272E-2,-1.0032023E0,8.8489467E-1,-2.1652894E0,-7.664005E-1,-2.2466241E-1,1.8962403E-1,2.186142E0,1.1141968E0,1.2428108E0,-3.509573E-2,8.732832E-1,8.616851E-1,5.857601E-1,5.0294036E-1,-4.200758E-1,-1.5742451E0,1.0518233E0,-9.61769E-2,-9.572171E-2,-4.9869147E-1,7.163635E-2,-1.7408124E-1,1.2743323E-1,4.4957134E-1,-2.3807923E-1,4.6567083E-3,-3.11737E-1,-6.644814E-1,4.131189E-1,-3.278147E-2,-7.5039424E-2,1.826485E-2,4.0746462E-1,-4.2494848E-1,-6.7818835E-2,3.4568962E-1,-8.026096E-1,-3.5798216E-1,-1.1855937E-2,-5.0859475E-1,6.99114E-1,1.3432847E-1,-5.815811E-2,6.709663E-1,5.215251E-1,-1.9748326E-1,8.0603E-2,-2.5062478E-1,-3.5300065E-2,3.8308778E-1,2.071807E-1,-3.7156105E-2,-2.6250795E-1,1.4614283E-1,-7.0119596E-1,-2.4203938E-1,1.9908233E-1,6.816423E-1,1.5361634E-1,-3.154441E-1],"categories":[],"categories_nodes":[],"categories_segments":[],"categories_sizes":[],"default_left":[0,0,0,0,0,0,0,0,0,0,0,0,0,0,0,0,0,0,0,0,0,0,0,0,0,0,0,0,0,0,0,0,0,0,0,0,0,0,0,0,0,0,0,0,0,0,0,0,0,0,0,0,0,0,0,0,0,0,0,0,0,0,0,0,0,0,0,0,0,0,0,0,0,0,0,0,0,0,0,0,0,0,0,0,0,0,0,0,0,0,0,0,0,0,0,0,0,0,0],"id":15,"left_children":[1,3,5,7,9,11,13,15,17,19,21,23,25,27,29,31,33,35,37,-1,-1,39,41,43,45,47,49,51,53,55,-1,57,59,-1,61,63,65,67,69,71,73,75,77,-1,-1,79,81,83,85,-1,87,-1,89,91,93,95,97,-1,-1,-1,-1,-1,-1,-1,-1,-1,-1,-1,-1,-1,-1,-1,-1,-1,-1,-1,-1,-1,-1,-1,-1,-1,-1,-1,-1,-1,-1,-1,-1,-1,-1,-1,-1,-1,-1,-1,-1,-1,-1],"loss_changes":[4.270638E1,5.1495197E1,4.2359116E1,3.7260212E1,1.6702633E1,4.1610268E1,4.5449303E1,4.164313E1,4.688776E1,3.6285462E0,1.4412468E1,7.6235504E0,2.0918297E1,2.50364E1,2.955677E1,5.9521265E0,4.670688E1,2.3365025E1,6.6358215E1,0E0,0E0,1.3275483E1,1.4236183E1,1.902489E0,5.06472E0,1.4685384E1,7.849308E0,2.6882725E0,1.605191E1,2.8180534E1,0E0,4.129654E0,1.8100021E0,0E0,2.8521461E1,1.9420757E1,6.070656E0,3.5442333E1,3.9134933E1,1.1683468E1,2.0429387E0,5.731987E0,1.0736371E1,0E0,0E0,4.723587E0,1.6582767E1,1.1508459E1,1.2380215E1,0E0,2.9971519E0,0E0,6.7366064E-1,1.5697628E1,9.241032E0,1.6968296E1,2.8428596E1,0E0,0E0,0E0,0E0,0E0,0E0,0E0,0E0,0E0,0E0,0E0,0E0,0E0,0E0,0E0,0E0,0E0,0E0,0E0,0E0,0E0,0E0,0E0,0E0,0E0,0E0,0E0,0E0,0E0,0E0,0E0,0E0,0E0,0E0,0E0,0E0,0E0,0E0,0E0,0E0,0E0,0E0],"parents":[2147483647,0,0,1,1,2,2,3,3,4,4,5,5,6,6,7,7,8,8,9,9,10,10,11,11,12,12,13,13,14,14,15,15,16,16,17,17,18,18,21,21,22,22,23,23,24,24,25,25,26,26,27,27,28,28,29,29,31,31,32,32,34,34,35,35,36,36,37,37,38,38,39,39,40,40,41,41,42,42,45,45,46,46,47,47,48,48,50,50,52,52,53,53,54,54,55,55,56,56],"right_children":[2,4,6,8,10,12,14,16,18,20,22,24,26,28,30,32,34,36,38,-1,-1,40,42,44,46,48,50,52,54,56,-1,58,60,-1,62,64,66,68,70,72,74,76,78,-1,-1,80,82,84,86,-1,88,-1,90,92,94,96,98,-1,-1,-1,-1,-1,-1,-1,-1,-1,-1,-1,-1,-1,-1,-1,-1,-1,-1,-1,-1,-1,-1,-1,-1,-1,-1,-1,-1,-1,-1,-1,-1,-1,-1,-1,-1,-1,-1,-1,-1,-1,-1],"split_conditions":[3.9E1,4.3E1,4.9E1,1E1,1.5E1,4.1E1,5E1,1E1,1.3E1,1.3E1,1.0979667E2,-2.6421669E0,4.9E1,2.3E1,1.13666664E2,8.666667E0,1E0,1.3E1,1.1E1,-1.0501585E-1,4.7175598E-1,2.0140705E1,3.1E1,2.2E1,3.7E1,3.3E1,3.1099164E0,2E1,5.6E1,1.1214489E2,1.298829E0,9E0,1.8792551E1,-9.4629633E-1,1.4333333E1,1.1666667E1,2.5277025E1,2.6E1,1.8E1,3.4666668E1,3.2333332E1,7.7999988E0,4.2E1,-2.2466241E-1,1.8962403E-1,4.7E1,4.3333332E1,6.7E1,5.6E1,8.732832E-1,5.2333332E1,5.857601E-1,5.8E1,4.6E1,1.3883847E2,1.07650215E2,1.6923828E1,-9.572171E-2,-4.9869147E-1,7.163635E-2,-1.7408124E-1,1.2743323E-1,4.4957134E-1,-2.3807923E-1,4.6567083E-3,-3.11737E-1,-6.644814E-1,4.131189E-1,-3.278147E-2,-7.5039424E-2,1.826485E-2,4.0746462E-1,-4.2494848E-1,-6.7818835E-2,3.4568962E-1,-8.026096E-1,-3.5798216E-1,-1.1855937E-2,-5.0859475E-1,6.99114E-1,1.3432847E-1,-5.815811E-2,6.709663E-1,5.215251E-1,-1.9748326E-1,8.0603E-2,-2.5062478E-1,-3.5300065E-2,3.8308778E-1,2.071807E-1,-3.7156105E-2,-2.6250795E-1,1.4614283E-1,-7.0119596E-1,-2.4203938E-1,1.9908233E-1,6.816423E-1,1.5361634E-1,-3.154441E-1],"split_indices":[3,0,0,1,1,1,3,3,3,2,7,4,3,1,3,3,1,0,0,0,0,6,2,2,1,0,4,1,0,7,0,0,6,0,3,3,6,2,3,3,3,5,1,0,0,0,3,1,1,0,3,0,0,3,7,7,6,0,0,0,0,0,0,0,0,0,0,0,0,0,0,0,0,0,0,0,0,0,0,0,0,0,0,0,0,0,0,0,0,0,0,0,0,0,0,0,0,0,0],"split_type":[0,0,0,0,0,0,0,0,0,0,0,0,0,0,0,0,0,0,0,0,0,0,0,0,0,0,0,0,0,0,0,0,0,0,0,0,0,0,0,0,0,0,0,0,0,0,0,0,0,0,0,0,0,0,0,0,0,0,0,0,0,0,0,0,0,0,0,0,0,0,0,0,0,0,0,0,0,0,0,0,0,0,0,0,0,0,0,0,0,0,0,0,0,0,0,0,0,0,0],"sum_hessian":[2.494E3,2.246E3,2.48E2,2.197E3,4.9E1,1.02E2,1.46E2,1.25E2,2.072E3,3E0,4.6E1,3.4E1,6.8E1,6E1,8.6E1,2E1,1.05E2,1.51E2,1.921E3,1E0,2E0,1.4E1,3.2E1,2E0,3.2E1,5.9E1,9E0,6E0,5.4E1,8.5E1,1E0,1.1E1,9E0,2E0,1.03E2,1.18E2,3.3E1,7.4E1,1.847E3,9E0,5E0,1.7E1,1.5E1,1E0,1E0,2.2E1,1E1,1E1,4.9E1,3E0,6E0,2E0,4E0,3.6E1,1.8E1,3.8E1,4.7E1,4E0,7E0,5E0,4E0,6.1E1,4.2E1,5.5E1,6.3E1,2.7E1,6E0,5.1E1,2.3E1,5.97E2,1.25E3,1E0,8E0,1E0,4E0,1E1,7E0,9E0,6E0,2E1,2E0,5E0,5E0,8E0,2E0,3.6E1,1.3E1,2E0,4E0,3E0,1E0,2.4E1,1.2E1,8E0,1E1,3E1,8E0,2.9E1,1.8E1],"tree_param":{"num_deleted":"0","num_feature":"8","num_nodes":"99","size_leaf_vector":"1"}},{"base_weights":[6.3242773E-3,2.1127157E-1,-6.258002E-2,-8.299234E-2,4.5134503E-1,-4.4669148E-1,6.5704538E-3,1.0576691E-1,-1.0093297E0,-7.57037E-1,4.75976E-1,-2.4558926E-1,-1.2467917E0,1.0005878E0,-1.3915783E-2,-5.2772075E-1,2.2620292E-1,-1.3642718E0,-6.5652204E-1,7.151915E-1,1.2229638E-1,-1.6907786E0,-1.7187843E-1,-5.003722E-1,-1.3949583E0,1.453848E0,1.24000154E-1,-9.903172E-2,2.3250732E-1,-1.9538334E-1,-1.0834862E0,7.878699E-1,-1.0425108E-2,-1.0302666E0,-1.769361E0,-1.4149067E0,-3.5826126E-1,1.1284411E0,5.1961404E-1,-2.332633E-1,8.78106E-1,-1.0297719E-1,-5.856265E-1,-7.242068E-2,-1.2784666E0,-1.3651998E-1,-9.0969086E-1,-1.2265803E0,-6.5456766E-1,1.1296815E0,2.2652447E0,-4.3227997E-1,4.561752E-1,3.651851E-2,-4.5438126E-1,6.2654185E-1,2.8639114E-2,-8.9563005E-2,3.420685E-1,-2.3610992E-2,-4.432587E-1,4.5768157E-1,6.016399E-2,-1.3806008E-1,7.486825E-2,-1.6814588E-1,-3.8435325E-1,-7.090359E-2,-5.794335E-1,-4.630851E-1,-9.639688E-2,1.0026456E-3,-1.9632673E-1,3.7507245E-1,1.9172724E-1,1.2520787E-1,4.7522095E-1,-2.6716692E-2,-4.0184984E-1,1.5748042E-1,4.2867646E-1,2.0135212E-1,-6.1805863E-2,-1.3315038E-1,-4.9763894E-1,2.9111696E-2,-1.0078469E-1,-3.3268848E-1,-1.6891195E-2,-3.7464637E-1,-5.0541975E-2,-9.800148E-3,3.61311E-1,2.0078832E-1,7.490726E-1,1.2038184E-1,-2.2229591E-1,-5.799883E-2,3.4620368E-1,-2.9463224E-2,8.8106155E-2,-8.723557E-2,-3.267572E-1,2.809128E-1,4.5964733E-2,-4.234983E-2,2.1219587E-1],"categories":[],"categories_nodes":[],"categories_segments":[],"categories_sizes":[],"default_left":[0,0,0,0,0,0,0,0,0,0,0,0,0,0,0,0,0,0,0,0,0,0,0,0,0,0,0,0,0,0,0,0,0,0,0,0,0,0,0,0,0,0,0,0,0,0,0,0,0,0,0,0,0,0,0,0,0,0,0,0,0,0,0,0,0,0,0,0,0,0,0,0,0,0,0,0,0,0,0,0,0,0,0,0,0,0,0,0,0,0,0,0,0,0,0,0,0,0,0,0,0,0,0,0,0,0,0],"id":16,"left_children":[1,3,5,7,9,11,13,15,17,-1,19,21,23,25,27,29,31,33,35,37,39,41,43,45,47,49,51,53,55,57,59,61,63,65,67,69,71,73,75,77,79,-1,-1,81,83,85,87,89,-1,91,93,95,97,99,101,103,105,-1,-1,-1,-1,-1,-1,-1,-1,-1,-1,-1,-1,-1,-1,-1,-1,-1,-1,-1,-1,-1,-1,-1,-1,-1,-1,-1,-1,-1,-1,-1,-1,-1,-1,-1,-1,-1,-1,-1,-1,-1,-1,-1,-1,-1,-1,-1,-1,-1,-1],"loss_changes":[3.5246983E1,4.440249E1,4.9619793E1,4.9590645E1,2.6553322E1,4.5550858E1,3.226998E1,1.8124928E1,5.1151886E0,0E0,2.9016869E1,2.4103874E1,5.6058807E0,1.2534039E1,3.2596474E1,6.8069687E0,2.6456532E1,1.2890282E0,5.374202E0,1.59822235E1,3.7827793E1,3.203251E0,2.4010284E1,1.5140557E0,3.5513458E0,2.9645767E0,2.414584E0,5.5650307E1,3.2034172E1,3.7849498E0,5.426697E0,2.5258106E1,1.6602713E1,1.0500126E0,1.7798061E0,4.8928833E-1,2.1440446E0,3.0751724E0,1.46860695E1,1.5195372E1,8.00386E0,0E0,0E0,2.0205633E1,4.9776096E0,3.586491E-1,7.8783655E-1,7.54467E-1,0E0,1.5151825E0,1.77454E-1,1.5839528E0,3.8490918E0,2.9029339E1,3.2812157E1,1.9801281E1,3.0524124E1,0E0,0E0,0E0,0E0,0E0,0E0,0E0,0E0,0E0,0E0,0E0,0E0,0E0,0E0,0E0,0E0,0E0,0E0,0E0,0E0,0E0,0E0,0E0,0E0,0E0,0E0,0E0,0E0,0E0,0E0,0E0,0E0,0E0,0E0,0E0,0E0,0E0,0E0,0E0,0E0,0E0,0E0,0E0,0E0,0E0,0E0,0E0,0E0,0E0,0E0],"parents":[2147483647,0,0,1,1,2,2,3,3,4,4,5,5,6,6,7,7,8,8,10,10,11,11,12,12,13,13,14,14,15,15,16,16,17,17,18,18,19,19,20,20,21,21,22,22,23,23,24,24,25,25,26,26,27,27,28,28,29,29,30,30,31,31,32,32,33,33,34,34,35,35,36,36,37,37,38,38,39,39,40,40,43,43,44,44,45,45,46,46,47,47,49,49,50,50,51,51,52,52,53,53,54,54,55,55,56,56],"right_children":[2,4,6,8,10,12,14,16,18,-1,20,22,24,26,28,30,32,34,36,38,40,42,44,46,48,50,52,54,56,58,60,62,64,66,68,70,72,74,76,78,80,-1,-1,82,84,86,88,90,-1,92,94,96,98,100,102,104,106,-1,-1,-1,-1,-1,-1,-1,-1,-1,-1,-1,-1,-1,-1,-1,-1,-1,-1,-1,-1,-1,-1,-1,-1,-1,-1,-1,-1,-1,-1,-1,-1,-1,-1,-1,-1,-1,-1,-1,-1,-1,-1,-1,-1,-1,-1,-1,-1,-1,-1],"split_conditions":[1.5E1,1.4333333E1,1.65E1,1.6E1,1E0,1.6E1,1.2E1,1.0333333E1,1.3333333E1,-7.57037E-1,2E1,1.1666667E1,1.6E1,2.5E1,3.3333332E1,1E1,1.1E1,1.7E1,1.8000002E0,1.2E1,2.2E1,4.057833E0,2.3E1,5.559917E0,2.7943514E1,1.8666666E1,1.805915E2,2.8E1,4E1,3.1154043E1,8E0,1.2E1,1.2333333E1,6.5349164E0,1E1,1.4E1,1.7E1,5.3E0,2E1,2.8E1,2.7666666E1,-1.0297719E-1,-5.856265E-1,1E1,9E0,1.6E1,1.5666667E1,1.3755749E1,-6.5456766E-1,1.936486E1,1.8E1,8E0,1.9E1,2.3333334E1,3E1,4.6E1,5.8333332E1,-8.9563005E-2,3.420685E-1,-2.3610992E-2,-4.432587E-1,4.5768157E-1,6.016399E-2,-1.3806008E-1,7.486825E-2,-1.6814588E-1,-3.8435325E-1,-7.090359E-2,-5.794335E-1,-4.630851E-1,-9.639688E-2,1.0026456E-3,-1.9632673E-1,3.7507245E-1,1.9172724E-1,1.2520787E-1,4.7522095E-1,-2.6716692E-2,-4.0184984E-1,1.5748042E-1,4.2867646E-1,2.0135212E-1,-6.1805863E-2,-1.3315038E-1,-4.9763894E-1,2.9111696E-2,-1.0078469E-1,-3.3268848E-1,-1.6891195E-2,-3.7464637E-1,-5.0541975E-2,-9.800148E-3,3.61311E-1,2.0078832E-1,7.490726E-1,1.2038184E-1,-2.2229591E-1,-5.799883E-2,3.4620368E-1,-2.9463224E-2,8.8106155E-2,-8.723557E-2,-3.267572E-1,2.809128E-1,4.5964733E-2,-4.234983E-2,2.1219587E-1],"split_indices":[1,3,3,0,1,0,0,3,3,0,0,3,1,1,3,0,0,0,5,1,3,4,1,4,6,3,7,1,0,6,1,1,3,4,2,3,0,5,3,0,3,0,0,0,0,3,3,4,0,7,1,0,3,3,0,1,3,0,0,0,0,0,0,0,0,0,0,0,0,0,0,0,0,0,0,0,0,0,0,0,0,0,0,0,0,0,0,0,0,0,0,0,0,0,0,0,0,0,0,0,0,0,0,0,0,0,0],"split_type":[0,0,0,0,0,0,0,0,0,0,0,0,0,0,0,0,0,0,0,0,0,0,0,0,0,0,0,0,0,0,0,0,0,0,0,0,0,0,0,0,0,0,0,0,0,0,0,0,0,0,0,0,0,0,0,0,0,0,0,0,0,0,0,0,0,0,0,0,0,0,0,0,0,0,0,0,0,0,0,0,0,0,0,0,0,0,0,0,0,0,0,0,0,0,0,0,0,0,0,0,0,0,0,0,0,0,0],"sum_hessian":[2.494E3,6.27E2,1.867E3,2.82E2,3.45E2,2.84E2,1.583E3,2.35E2,4.7E1,2E0,3.43E2,2.28E2,5.6E1,3.1E1,1.552E3,3.7E1,1.98E2,2.2E1,2.5E1,2.04E2,1.39E2,1E1,2.18E2,1E1,4.6E1,2E1,1.1E1,1.154E3,3.98E2,2.4E1,1.3E1,5.8E1,1.4E2,1.4E1,8E0,6E0,1.9E1,6.4E1,1.4E2,9.5E1,4.4E1,2E0,8E0,2.01E2,1.7E1,6E0,4E0,4E1,6E0,1.6E1,4E0,4E0,7E0,8.36E2,3.18E2,1.35E2,2.63E2,2.3E1,1E0,4E0,9E0,2.5E1,3.3E1,5.1E1,8.9E1,6E0,8E0,1E0,7E0,5E0,1E0,9E0,1E1,5E1,1.4E1,1.29E2,1.1E1,8.5E1,1E1,2.8E1,1.6E1,3E1,1.71E2,6E0,1.1E1,3E0,3E0,3E0,1E0,3.9E1,1E0,1E0,1.5E1,1E0,3E0,1E0,3E0,4E0,3E0,5.49E2,2.87E2,2.54E2,6.4E1,8.1E1,5.4E1,2.11E2,5.2E1],"tree_param":{"num_deleted":"0","num_feature":"8","num_nodes":"107","size_leaf_vector":"1"}},{"base_weights":[3.5446256E-3,6.8003463E-4,1.0721753E0,7.151427E-2,-1.2291048E-1,5.0737165E-2,1.4812481E0,-6.8514E-1,-3.0725958E-2,-9.510583E-2,1.9229159E-1,6.9145745E-1,1.7193238E0,-1.1109952E0,-4.6424577E-1,5.8948195E-1,-9.541518E-2,1.2815255E-1,-3.4250417E-1,5.3614116E-1,4.50232E-2,3.2924882E-1,1.1255455E-1,1.9359366E0,5.313482E-1,-3.977868E-1,-1.4788643E0,-2.8552327E-1,-1.3629955E0,1.3594439E0,2.7913603E-1,-2.34844E-1,1.3767433E-1,-5.7800647E-2,9.447112E-2,-8.36233E-2,-3.1419697E-1,1.4238492E-1,5.2879256E-1,-4.384765E-2,7.1641035E-2,6.1841965E-2,-2.5230218E-2,7.0817286E-1,2.928963E-1,4.7005463E-2,1.8120232E-1,-2.5718206E-1,9.463484E-2,-2.2977093E-1,-5.497212E-1,-6.1430796E-3,-3.1132054E-1,-4.6621028E-1,-4.3352604E-2,3.0423158E-1,9.2803234E-1,1.7596969E-1,-3.3966324E-1,-3.9533854E-2,-2.379202E-1,2.0255813E-1,-2.9144071E-2],"categories":[],"categories_nodes":[],"categories_segments":[],"categories_sizes":[],"default_left":[0,0,0,0,0,0,0,0,0,0,0,0,0,0,0,0,0,0,0,0,0,0,0,0,0,0,0,0,0,0,0,0,0,0,0,0,0,0,0,0,0,0,0,0,0,0,0,0,0,0,0,0,0,0,0,0,0,0,0,0,0,0,0],"id":17,"left_children":[1,3,-1,5,7,9,11,13,15,17,19,21,23,25,27,29,31,33,35,37,39,-1,41,43,45,47,49,51,53,55,57,59,61,-1,-1,-1,-1,-1,-1,-1,-1,-1,-1,-1,-1,-1,-1,-1,-1,-1,-1,-1,-1,-1,-1,-1,-1,-1,-1,-1,-1,-1,-1],"loss_changes":[2.5515577E1,2.1842361E1,0E0,4.637908E1,4.7091385E1,3.230663E1,3.1358528E0,1.1525051E1,3.1430687E1,4.2629112E1,4.018257E1,1.5218701E0,3.3459587E0,1.0693527E1,1.3424736E1,1.7303164E1,2.3074404E1,2.438566E1,1.61558E1,1.712294E1,2.067025E1,0E0,9.095271E-2,3.4001923E0,1.4252543E-2,5.513987E0,5.654236E0,1.4532831E1,3.0343246E0,9.438072E0,2.4094162E1,2.5440144E1,3.3640366E1,0E0,0E0,0E0,0E0,0E0,0E0,0E0,0E0,0E0,0E0,0E0,0E0,0E0,0E0,0E0,0E0,0E0,0E0,0E0,0E0,0E0,0E0,0E0,0E0,0E0,0E0,0E0,0E0,0E0,0E0],"parents":[2147483647,0,0,1,1,3,3,4,4,5,5,6,6,7,7,8,8,9,9,10,10,11,11,12,12,13,13,14,14,15,15,16,16,17,17,18,18,19,19,20,20,22,22,23,23,24,24,25,25,26,26,27,27,28,28,29,29,30,30,31,31,32,32],"right_children":[2,4,-1,6,8,10,12,14,16,18,20,22,24,26,28,30,32,34,36,38,40,-1,42,44,46,48,50,52,54,56,58,60,62,-1,-1,-1,-1,-1,-1,-1,-1,-1,-1,-1,-1,-1,-1,-1,-1,-1,-1,-1,-1,-1,-1,-1,-1,-1,-1,-1,-1,-1,-1],"split_conditions":[1.13666664E2,2.4E1,1.0721753E0,3.5666668E1,2.1666666E1,1.7E1,9.138567E1,1.8666666E1,1.9E1,1.4E1,1.9E1,3.678667E0,4.1E0,1.2E1,3.2E1,4E-1,3.7666668E1,1.2333333E1,2E1,2.3E1,2.2E1,3.2924882E-1,5.1E1,1.2268691E2,3.4E1,1.65E1,3.678667E0,2.1E1,2.8173712E2,6.4E1,4.7E1,4.1E1,4.3E1,-5.7800647E-2,9.447112E-2,-8.36233E-2,-3.1419697E-1,1.4238492E-1,5.2879256E-1,-4.384765E-2,7.1641035E-2,6.1841965E-2,-2.5230218E-2,7.0817286E-1,2.928963E-1,4.7005463E-2,1.8120232E-1,-2.5718206E-1,9.463484E-2,-2.2977093E-1,-5.497212E-1,-6.1430796E-3,-3.1132054E-1,-4.6621028E-1,-4.3352604E-2,3.0423158E-1,9.2803234E-1,1.7596969E-1,-3.3966324E-1,-3.9533854E-2,-2.379202E-1,2.0255813E-1,-2.9144071E-2],"split_indices":[3,1,0,3,3,3,7,3,0,0,0,4,5,0,1,5,3,3,1,3,3,0,0,7,0,3,4,0,7,2,1,1,0,0,0,0,0,0,0,0,0,0,0,0,0,0,0,0,0,0,0,0,0,0,0,0,0,0,0,0,0,0,0],"split_type":[0,0,0,0,0,0,0,0,0,0,0,0,0,0,0,0,0,0,0,0,0,0,0,0,0,0,0,0,0,0,0,0,0,0,0,0,0,0,0,0,0,0,0,0,0,0,0,0,0,0,0,0,0,0,0,0,0,0,0,0,0,0,0],"sum_hessian":[2.494E3,2.493E3,1E0,1.585E3,9.08E2,1.563E3,2.2E1,1.27E2,7.81E2,7.7E2,7.93E2,6E0,1.6E1,4.2E1,8.5E1,7.3E1,7.08E2,4.05E2,3.65E2,2.37E2,5.56E2,3E0,3E0,1.3E1,3E0,1.5E1,2.7E1,7.2E1,1.3E1,2E1,5.3E1,4.43E2,2.65E2,1.49E2,2.56E2,3.36E2,2.9E1,2.27E2,1E1,2.8E2,2.76E2,2E0,1E0,8E0,5E0,1E0,2E0,9E0,6E0,1E1,1.7E1,5.4E1,1.8E1,1.1E1,2E0,1.8E1,2E0,4.4E1,9E0,3.75E2,6.8E1,8E1,1.85E2],"tree_param":{"num_deleted":"0","num_feature":"8","num_nodes":"63","size_leaf_vector":"1"}},{"base_weights":[3.3633069E-3,1.4245516E-1,-5.525363E-2,2.2799391E-2,4.8870715E-1,-1.3785599E-1,1.4516076E-1,7.6881975E-2,-7.305879E-1,7.9211164E-1,2.0772201E-1,-8.798515E-2,-7.541285E-1,7.387557E-1,2.0513443E-2,3.2545805E-1,-3.5053566E-2,-1.3674957E0,-5.077342E-1,6.361582E-1,1.1575274E0,6.253273E-3,5.2267945E-1,-8.5373676E-1,-6.1097987E-2,3.0117524E-1,-9.449567E-1,1.0945556E0,2.5306703E-3,-1.3672279E-1,3.126874E-1,-3.5053456E-1,4.592367E-1,-1.1073323E0,3.5469376E-2,-7.8262883E-1,-5.708766E-1,-3.583725E-1,-1.3516517E0,4.7329876E-1,5.6628245E-1,1.3473777E0,3.0013052E-1,-1.0295359E-1,1.0426763E0,4.11212E-1,4.1856495E-1,-6.2793523E-1,-1.4457675E0,1.9970231E-1,-1.4314112E-1,-2.506322E-1,5.6439114E-1,-2.1448479E0,-8.169541E-1,1.830807E0,8.30679E-1,1.7303072E-1,-7.4129564E-1,4.157824E-2,-7.1889806E-1,8.2883227E-1,-4.4588134E-2,-2.1894091E-1,-1.3252438E-2,2.602956E-1,5.1813234E-2,8.938282E-2,-4.3085045E-1,1.3786852E-1,-1.1118066E-2,-5.042596E-2,-2.61576E-1,-4.7874022E-2,-1.9814473E-1,-4.985282E-1,-6.3198715E-2,2.782042E-1,1.3325869E-1,4.2172343E-1,2.700577E-2,2.4538393E-1,-1.4710025E-1,-6.7381844E-2,2.010732E-1,4.0097103E-1,-6.401882E-2,1.4988156E-1,-4.0238228E-1,-5.4233477E-2,-2.5274247E-1,-5.3954747E-2,-4.699326E-1,3.9955348E-2,2.8032452E-1,-8.9561924E-2,2.6634471E-2,-1.266712E-1,2.455536E-1,-7.0621294E-1,-1.3345157E-1,-3.2316086E-1,-1.00101314E-1,6.585323E-1,8.4061004E-2,1.8806244E-1,3.755221E-1,2.4929473E-1,-4.9378995E-2,-1.1670199E-2,3.564921E-1,-6.401612E-2,-4.4068724E-1,2.0573701E-1,6.881243E-1,-7.7227E-2,3.0676812E-1],"categories":[],"categories_nodes":[],"categories_segments":[],"categories_sizes":[],"default_left":[0,0,0,0,0,0,0,0,0,0,0,0,0,0,0,0,0,0,0,0,0,0,0,0,0,0,0,0,0,0,0,0,0,0,0,0,0,0,0,0,0,0,0,0,0,0,0,0,0,0,0,0,0,0,0,0,0,0,0,0,0,